{"layers": [784, 40, 20, 10], "penalty": 1.0, "mini-batch size": 50, "bias": [[-1.4678214875810922, -11.931478538349474, -9.04257934496104, 4.547607720552105, -5.730416466785524, -5.722722639870799, -5.055770741548617, 0.19631175685003566, -5.516302922395482, -3.7664541110678647, -2.226956738159875, -0.668785406732168, -1.9126836682833372, -2.1285773918115907, -4.901520844407814, -0.47485005190646157, -0.1405677761364262, -5.279086578093281, -1.8108229978418386, -4.695717565112718, -0.8424926906714512, -1.0172109334391763, -3.508005811594649, 5.953904305864382, 2.458299607687534, -4.055754479998905, -2.080914319256572, -2.0186726621621065, -3.4601946984659904, -2.2659129445848283, -6.804544863480547, 4.000682409423251, -4.2821324396187075, -4.499247790749478, -0.1084752257285855, -3.1764029537391214, 2.311482011536072, -6.563680435019339, 2.110216146521885, -7.6633225815127535], [2.3363769585097898, 4.21365364983433, -0.4537851561027971, 1.2675190071216955, -9.472678039681654, -2.2178813739838965, 5.178247675454519, -4.500230801701694, 2.7530490141168467, -8.922378988285029, 2.777844370834104, -0.5785227471800031, 5.35689980744125, -6.400520214497117, 2.1763086748548455, 3.8712138857052674, -3.814322658178291, -0.7262211336844597, -5.117076365918886, -2.2757671850590406], [-8.829407421244749, -2.1477028701641454, -4.6321670388856795, -6.329684635448659, -7.5974842183184625, -2.1900521087086506, -9.661718449477824, -2.74298236736967, -3.91647829743351, -3.6609556653279323]], "weights": [[[-4.028734241285139e-05, 6.309981272573743e-05, 0.00019485315575098165, 0.00018819707245463444, 6.853832500853354e-05, -0.00011361865968144763, 1.276644703295859e-05, -3.636056582178321e-05, 0.00010871335437469292, 3.6430428288187727e-05, 4.706910829849771e-05, 5.08121520382917e-06, -3.71177804860662e-06, -1.1601390480550983e-05, -2.3595069241682057e-05, 0.0001178395861546242, -0.00016450616366227053, 5.79287139356314e-06, -2.899459020382628e-05, 4.094332127360113e-05, 1.6050698564624722e-06, -3.893358203691064e-05, 2.1741794559619235e-05, 5.721660554476474e-05, -4.802757359152935e-05, 3.9379146430541456e-05, 1.1272987798905594e-05, 5.765905255122615e-06, -5.198596979382303e-05, 6.682551083383874e-05, 2.7452913345022952e-05, 7.057572519236434e-05, 3.610100965851306e-05, 0.00014121336034831738, 3.789595751003916e-05, 0.0003016921791721371, -6.44120644026136e-05, 0.00011119747694945148, 5.461748411075844e-05, -0.00016061806757953505], [-7.256335257499252e-05, -8.701511555904713e-05, 0.00010958215607443511, -6.316663143488643e-05, -0.00013487798285239354, 6.59927729146503e-06, -3.190410969143737e-05, 1.65064658083532e-05, -7.28905388228321e-05, 9.012580456876481e-06, 8.391517485697048e-05, -9.831873030914433e-05, -6.60320324249223e-05, 1.528063594639254e-05, 5.995381090955157e-05, 6.895045600645405e-06, 0.00020249073957349895, -4.702505282738838e-05, 1.2182510549613453e-05, -8.901324261618967e-05, 1.9911306544218096e-05, -7.986572125552438e-05, 2.0402641510400884e-05, -8.100141946669806e-05, 9.110100926128e-05, -6.261013243940944e-05, -1.2062154995116477e-05, -4.492493338124092e-05, -7.563550152708155e-05, 0.00022079776006031027, 7.501627887778701e-05, 0.00014090811942673312, 1.7809760747004086e-05, 0.00018618239682322973, 7.160933968262244e-05, 0.0001927371690138541, -4.6523287984949425e-06, -2.9998040491741944e-05, -4.534893176974757e-06, -3.679946957725072e-05], [4.001576308069368e-05, -8.200021163116256e-05, -5.385911414431464e-05, -0.00014003112488938802, -6.972760468103272e-05, -0.00010739626484495205, -0.00013128269410652013, 1.1275257122956152e-05, -5.409063858901562e-05, 9.981738700673072e-05, -0.00012202158246826637, -0.000103573631659501, 1.6453223344715924e-05, -7.194957955232255e-05, -6.915712530987557e-05, 6.804673110843683e-05, 3.374305316586752e-06, -3.9053444413745306e-05, -5.417900686400351e-05, -3.266652434274739e-05, 7.04967540027949e-05, -3.187370210795719e-05, 3.249957818632978e-05, 2.019949091042711e-05, 9.598427491405212e-05, -0.00011259505046787768, -0.0001647583108867818, 0.00013916311001431223, -6.17853173376111e-05, -3.6794301865112585e-05, -2.476242242860971e-05, 7.839479040504622e-06, -4.4103310246953454e-05, 0.0002328908914986266, -6.658633708889331e-05, -0.00021640555389019326, -0.00014889869401555738, -0.00010142947828528785, 6.346804616974685e-05, 4.546296063178021e-05], [-1.1448804295671794e-05, 5.4931722014412355e-05, -7.491946386159684e-05, 0.0001211666696217528, 9.80981590112459e-05, -2.438209867271842e-05, 6.67144671969693e-05, 0.00013774156176577838, 0.00010520768423152572, -0.00010296163647710495, 5.514669040824666e-05, -0.0001428555246245046, 8.36817261864854e-06, 1.1549301341644994e-05, -1.2645036150396895e-05, -6.624708497003713e-05, -0.0001370358017898914, -9.58469700412143e-05, -2.7763655434072998e-05, -7.389837055037713e-05, -3.376849611552708e-05, 1.5015036798900686e-05, -3.835865051756136e-06, 9.99727432021534e-05, 5.6559680144471524e-05, -4.675880433714767e-05, 8.57155876140393e-05, 0.00011888276741896833, 3.0312851536467536e-05, 0.00014706879743281106, 5.045074265769615e-05, 1.463226860104243e-05, -5.37974893430345e-05, 0.00014032284464559575, -0.00019993897489437558, -2.7415820414835766e-05, 8.622562559136895e-06, -0.00016482574595415785, -4.804873411259913e-05, -9.95065208694999e-05], [-9.333158563788543e-05, -3.959806750733179e-05, -0.00011591266985746005, 0.0001768425523297887, 7.107409924777102e-05, 0.00017156588165340725, 0.0001703263025226762, 8.111705439450339e-05, 1.1905392719869892e-06, 2.6389173449851735e-05, -4.524458843312204e-06, -1.5517594222795807e-05, -9.771435552829609e-05, -2.7790435880383233e-05, -7.159316541930013e-05, -5.000120666506537e-05, 0.0001720622148096949, -5.322134670037098e-05, -0.00013959864844330152, 0.00011842167209214631, 1.4723280776604936e-05, -3.5795792128769965e-05, -3.036152772316837e-05, -9.873135491742573e-05, -2.936925079912534e-05, -4.1992039456545385e-05, -0.00014952198723504605, 1.5455492830024207e-05, 5.852465283315464e-05, 0.00013884210282039708, -6.438252774701912e-05, -4.080336166475376e-05, -0.0001638447291059529, -6.635878526414648e-05, -4.956697684129543e-05, -0.00010300421186124405, -4.311797431332519e-05, -0.00024039890823132143, -4.627138865315111e-05, 4.0748283850731673e-05], [0.0001912191267932273, 3.8947809372402485e-05, -0.00011376352213691414, 1.87040932217146e-06, 4.563606475040829e-05, 0.0001078282898440673, -1.4496863993627715e-05, 3.159920709012641e-05, 4.134103890605872e-05, -0.00014713277452632747, -5.818795805800768e-05, -0.0001355106777156431, 7.103798369922478e-05, 1.263271853925166e-05, 4.3258132577323365e-05, -9.67467474164489e-05, -0.00011696307739677884, 3.532806332913586e-05, 5.1292862709106724e-05, -3.8626722246947546e-06, -2.1405230568220037e-05, 7.841054913807612e-05, -6.251360129407364e-05, 2.5807285852354508e-05, 7.059817850223475e-05, -9.75183938706194e-06, -7.490541174325255e-05, 4.123584059983942e-05, -0.0001381876525919835, 7.05238670981923e-05, -0.00012360063756378263, -9.539703850298661e-05, 2.248258045019435e-05, 3.0112851682414632e-05, -2.5733469401938027e-05, -0.00011676058796446875, -8.166565916054804e-05, -3.574436724041764e-05, -5.067648110100251e-05, -0.0001683633331933333], [7.12131848765396e-06, -5.814692073797599e-05, 5.852792646271392e-05, 0.0001093655399481839, 8.050964489322403e-05, -5.5599339829543645e-06, -4.900202041291328e-05, -0.00013661161166797462, -2.6215696282446493e-05, 3.620988561827825e-05, 6.785347236440627e-05, -8.13967355120039e-06, 7.11880769438029e-05, -8.375394434373705e-05, -0.00010340131198541622, -6.256483579547794e-05, 6.75878661754778e-05, -2.129872806296359e-05, 6.407475653572244e-05, 8.523350030498871e-05, -8.00533174238742e-05, 7.844595780463954e-05, 7.983836798330303e-05, -4.641703241419917e-05, 0.0002341771583204524, 6.069464694794227e-05, -5.328956128143252e-05, 7.71161395099402e-05, -0.00010987868896758328, -6.742112417719563e-05, -0.00018524208968087914, -4.9266511085268445e-05, -3.4769849329347004e-05, -3.273194429815468e-05, 0.00019318363313037558, -0.00010868127776121384, -7.447984318642024e-05, 2.7383151511442154e-05, 7.535153941948514e-05, -6.997707310279285e-05], [0.00011663635786295895, 0.00021051065389076338, -4.21703700510213e-05, -0.00011080454201735612, 9.724004983555652e-05, -0.00013348621500450247, 0.00011113400472957014, -0.00013391362588688474, -2.212953925639574e-05, 7.880508199288827e-05, -7.80298298643754e-05, 4.542359541300515e-05, -0.000137982436075312, -9.181745048898998e-05, -0.00011839601787385781, 0.00024373521831899106, -0.00015063638913874092, -2.1240429038392026e-05, 1.5085395191218212e-05, 4.671497658300899e-05, -5.999796751184342e-05, -8.413114144068658e-06, -4.3639215893631043e-05, -0.0001368731925760809, -2.2666443444842776e-05, 8.125791884488143e-05, 8.543756276086786e-05, 8.248807350997759e-05, 0.00010718031155186776, 6.373344551209241e-05, -0.00014503104361026243, -4.7736334236350116e-05, 8.906392786158719e-05, 4.260344740829442e-05, 0.00010329289117194697, 3.3122072011960006e-05, -4.3612003164127524e-05, -1.8821493386030333e-05, -3.060782759456975e-05, -8.405799737460921e-05], [-0.0001304384747971939, 0.0001240616306021139, 2.2276536459621566e-05, 6.613503920170874e-05, 2.343327064687824e-05, 2.1980204235809183e-05, 5.0520517933009175e-05, 7.092992514599442e-05, -8.982043083382495e-05, 5.96054796864066e-05, 8.731551252894721e-06, 7.134828169211468e-06, 0.0001696539075456171, -5.534973861739217e-05, 6.242357295097792e-05, 0.00010088951970161737, 0.0001221582477889821, 0.0001050477106264615, -7.362899745194598e-05, -0.00011360909427296075, 4.949402244648574e-05, -3.350586596969474e-05, -4.743061915949828e-07, 7.715924187445887e-05, -0.00015663256523819704, -9.149985888933723e-06, 4.5907186212791795e-05, -9.082719734466351e-05, 2.5083369160584036e-05, 4.874530862452103e-05, -0.000128433318432123, 4.31570031267099e-05, 2.037116538675768e-05, -4.9966728515684196e-05, -2.2538266762419673e-05, 1.6251762641016254e-05, 5.3287161355598506e-05, -8.979936336619641e-05, 2.139937101496384e-05, -3.347227561709946e-05], [-0.00013947405594652633, 8.881388568507008e-06, -0.00014823196466192792, -5.932895449860832e-06, 0.00010204653675775451, 8.764115951182952e-05, -2.0456699515018394e-05, -7.147700521205668e-05, -0.00013450982181333185, -0.00010339404764101408, 0.00014170591322682218, -2.5721609117852467e-05, 4.2485488288851814e-05, 3.356770558433643e-05, -5.39587891681576e-05, 2.5410802802843187e-05, -5.0556819735457826e-05, 2.154169469361166e-05, 0.00012735987188781847, -2.1929365297651675e-05, -1.981014544963055e-05, 2.2604300730953844e-05, -2.2177754686701385e-05, -6.239289141953345e-06, -4.295843544060508e-05, 0.00011395223347700797, 0.00010017389741820361, -5.369609244564962e-05, 0.00010324925163263963, 0.00013778745800939235, -1.1048883851425162e-05, -9.556707733704436e-05, 4.1545787648637023e-05, 0.0001752943762999625, -6.296961218661008e-05, -0.00010405816652538553, 0.0001288138333231816, 1.1922588227950638e-05, 0.000158511798975249, -8.384390098712622e-05], [-0.00010096333543080885, -6.006586253374001e-05, 1.3296871874178023e-05, -3.8979405256765675e-06, -0.00018811692433297913, -2.460974083477268e-05, 0.00011671999501094136, 8.393115142377465e-05, -2.7971719727231688e-05, -0.00011542427645085121, -7.185307903270335e-05, 0.0001507337389054595, -0.0001065440296174548, 8.112975175481327e-06, 6.985278005449122e-05, 0.00013091416501542527, -0.000166532369423156, 3.7179453758228946e-05, 0.00016219599950056176, 5.292136948870168e-05, 0.00015224801231956763, 1.1099545370293188e-05, 1.4491342150141619e-05, -2.8196328580045777e-05, -9.57533344813231e-05, -7.648725342892222e-05, 0.00011876052602085962, -9.187105538943485e-05, 0.00010911193589847733, 7.399532685023264e-06, -1.3301007032610536e-05, 8.786530848912887e-05, 5.312113258600973e-06, -4.960896895677103e-05, 3.173179621129389e-05, 0.0001251417621011364, 1.3237331272894879e-05, 3.224449515770922e-05, 0.00011152878723409416, -0.00012507946546793782], [-6.528619166386022e-05, -8.439193704022625e-05, -7.436570649068424e-05, -0.00010254600998124712, 1.6384894022168384e-05, 0.00011338149703604915, -5.2071713095168164e-05, -6.812829816905167e-05, 5.734638267802614e-06, -3.958575442514821e-05, -4.140278906833287e-05, -7.540928373252288e-05, 3.209211478644031e-05, -3.863103085378388e-05, -6.456294830102025e-05, -5.051631283392079e-05, 4.439679798102609e-05, -6.933738122347994e-05, -0.00011154706019390874, 0.00013294066087355077, -2.142311325400699e-05, -8.055099455627839e-06, 1.5228490719530364e-05, -3.8040928978750494e-05, -7.126262719417611e-07, -1.775167969194196e-05, -7.545573681534246e-05, -1.6598648743338295e-05, -7.747011523804392e-05, -6.335140834736375e-05, 7.258061589465042e-05, -2.5401287434337984e-06, -4.62506183425415e-05, -9.957266507593188e-05, 4.449004634530304e-05, -2.6945407725074844e-06, 0.00010313317928841486, 0.0001018832057396831, -4.0961203832115055e-05, -0.0001152092615104578], [9.569605709278117e-06, 2.5674840303085915e-05, -0.00021339433858463678, 0.00016450130236092642, -0.0001889047438005955, -9.015453053018427e-05, -1.1480384941386394e-05, -0.0033466090336057427, 7.153308716676378e-05, -0.006124599387870625, -0.00015321159669857067, -3.7714659005630365e-05, -0.008060761168276896, 7.516154690007615e-05, -0.000993872065410491, -0.00010611241510962733, 0.00013836769387893296, -0.00040800667326357476, 0.0078025097246126685, -0.00016980057133218857, -0.003261992859583793, 1.5387145970663068e-05, 0.00024160017860804344, 8.528012944069327e-07, -9.509274324643821e-05, 3.7174105115115083e-06, 4.0555759078902186e-05, 0.009147018975438508, 0.0063193270812288635, -0.0008781964829515929, 2.4500646095306493e-05, 6.0201071819607195e-05, -2.3422845567830263e-05, -4.1913633548330744e-05, 0.0001588634234831157, 1.8080147491826213e-05, 0.00012375751500681283, -0.006641702795098914, 1.2259610271097812e-05, -0.0010464167891513396], [-8.497175944750474e-05, -4.229273826644472e-05, -0.00041119924717769227, -7.401807476626815e-05, -4.007453212058805e-05, 6.281316325938566e-06, 0.00018884819369787315, -0.007187544123020059, 8.830125914289292e-06, -0.01372558141047615, -0.00021471416810219773, 2.2025295637607063e-05, -0.01749107858088867, -9.904428488932316e-05, -0.002240432118879463, -0.00012128290986262705, -1.5141369680028385e-05, -0.0011272551787722856, 0.01733505536436208, 2.6122118790900458e-05, -0.007274751327616878, 1.2902812332417276e-05, 8.281143646046342e-05, -8.707388007099694e-05, -4.333006935100632e-05, -0.0002845198423250096, -8.581501699293441e-05, 0.020032436875663962, 0.013881048963537831, -0.0019330519642782728, 7.392868995456202e-06, -4.389819932098841e-05, 5.2664831662634934e-05, 3.5217995051354876e-05, -2.5656720529536724e-05, 8.179403027638536e-05, 9.996151919305298e-05, -0.01476567726685291, -6.13666338046929e-05, -0.0023325663252428343], [-0.0001281230181266802, 6.572854307106478e-05, -8.329565107558942e-05, -8.50950248222469e-06, 5.5374859121033675e-05, -2.3423333631348953e-05, -6.148385844461778e-05, -3.694469278943823e-05, 5.331936215271886e-05, 3.730888144470811e-05, -6.693170347251654e-05, -8.292786026495893e-05, 5.5953249116022296e-05, 3.3954395781923165e-05, 0.00020396575129164198, 7.05273018969005e-06, 2.1214792749729635e-05, -0.0001912090754479033, -0.0001978661559469116, -0.00011311105601094828, 6.147178338155608e-05, 5.1673603877811056e-05, -4.5389637781963013e-05, 1.0192721874799684e-05, -1.8050574209277845e-05, -0.00013922219263598932, -5.6232159351329136e-05, -8.146523335771757e-05, -1.2268379448987571e-05, -4.18191346109075e-07, 4.100428886554389e-05, 6.871989532244098e-06, -6.9819291551344e-05, -7.999680813053773e-05, 0.00011623716505768163, 4.083700031764188e-05, -1.2678900787410616e-05, -2.506546257211081e-05, 2.123166549013855e-05, 6.604625220477715e-05], [0.0002178831379899009, 0.00013116811514610023, -0.00013370018934081752, 0.00010207631670934075, 7.365034477888425e-05, 4.537728674240523e-05, 4.831470153070732e-05, 7.068785571597299e-06, 8.234437821971059e-05, 6.103049631180174e-05, 9.975536708447584e-05, 1.6735245681452028e-05, 7.021145829528919e-05, -5.546878293285024e-05, 1.7150282235089497e-05, -6.39404905678109e-05, -4.392102533046125e-05, 2.0595149766130943e-05, 9.860091613492077e-05, 4.5609175218540343e-05, -4.267608737842133e-05, -0.00016670957632093346, -9.266118356644121e-05, -4.170523904325396e-05, 7.298801580897418e-05, 1.4226427819162375e-05, -2.2632972989113364e-05, -4.2399761077016335e-05, 0.00018950447374010404, -4.486263374712145e-05, -0.00010452003992627254, 2.4082993898334386e-05, 5.3315238239892434e-05, -1.3042853408085498e-05, 7.779019733291661e-05, -1.848030164739859e-05, -3.311623239874039e-05, -8.21056009964664e-05, 5.9789014915929094e-05, -3.905024148593614e-06], [-3.43599541365357e-05, 5.5880775331713796e-05, 1.6780623593704467e-05, 3.78054792808904e-05, 9.309270079051737e-05, 9.487818331661743e-05, -0.00025849995112333475, 5.700031447321733e-05, -4.0050803421059185e-05, 5.6627406697344494e-05, -6.0296563223809605e-05, 2.3597787025317243e-05, 1.3904212506542556e-05, -2.3131051677126267e-06, 0.00011044825222219903, 2.4710017075497343e-05, -4.4904474845184476e-05, 2.610912984670387e-05, -6.081863044949709e-05, -4.37337237938052e-05, 2.9590532038182783e-05, -5.070333386433937e-05, 0.00018797856033930425, -5.305100134931798e-05, 1.2328056392270242e-05, 1.853288304237439e-05, -2.477387029546731e-05, 7.786243830374202e-05, 1.1021477236000852e-05, 6.697229222540817e-05, -3.884663117244663e-05, -0.0001614895980565451, 3.517013615282802e-07, 0.0002373681348628239, 8.357993658419685e-06, -6.58294044473739e-05, -6.168814038459565e-05, 0.00011313358932256337, 4.6355649541978213e-05, -0.00012055649232613556], [0.00010073049549509887, -5.0443126367243334e-05, -0.0001055154575193926, -1.9230201153542198e-05, -5.373146073970226e-05, -0.00013836677025450922, 0.00012228209712978897, -4.226228663227785e-05, 5.876138387699089e-05, 2.2568627245518426e-05, -5.920134642711129e-05, -5.1263937161436535e-05, 0.00015625286213786748, 0.00010895657242164367, -6.25788589837616e-05, 9.31335185380818e-06, -5.4958803983803264e-05, 0.00011595651039136788, 6.3231261779554905e-06, -0.00019742129890981756, 9.652440232216306e-05, -6.482762257628913e-05, 5.270329299883281e-05, -8.071937612158894e-05, 7.276690403347609e-05, 0.0001386880206513379, 5.946712038347557e-05, -0.00013047152548947618, 4.236347996177762e-06, 5.263515791259914e-05, 0.00020486109778742665, 4.5996998111982555e-05, 6.416054379030599e-05, 4.255412665145053e-05, -2.1598329258279897e-05, 3.292133737616e-05, -1.3120705132348867e-05, -5.9270263259718705e-05, -6.730919011668836e-05, 0.00015227904781061247], [-6.37423153679318e-05, 4.783570601832889e-06, -1.8015701670554412e-05, 0.0001340392828559602, 0.00011579877739877871, -0.00011676565039511023, 3.661721359609049e-05, -6.202173741110862e-05, 3.960001531367497e-05, -5.777979303433901e-05, 0.0001882794200426082, 0.0001337627124042372, 0.00015136998108198458, 3.3720730976644004e-05, 2.287982806248728e-05, -0.0002332197063504244, 7.881680897347032e-05, 4.209031354294128e-05, 0.0002194168614732662, 0.00012068229475720192, 6.050786545461659e-05, -0.0001299692862052925, -2.0209812174475946e-05, -3.231973007500266e-05, -8.660653610291182e-05, 8.925929498741653e-05, 2.5624166349969116e-05, -4.801434150637059e-05, 1.883558187570971e-05, -9.88482185423853e-05, 2.623464761571395e-05, -9.983301138228207e-05, 0.00012350432792933823, -0.00012870388527449786, -3.2562472570582165e-05, -0.00015285590795211386, 8.349026581174656e-05, -5.859243368092514e-05, 1.3654345673865513e-05, 2.5832387374108515e-05], [-0.00017715211086493418, -6.015011229086411e-05, -9.26529470549931e-06, -4.388039559578427e-05, 5.875039119361974e-05, 5.271360405472722e-05, 0.00010857744156199393, 6.676031593074906e-06, -6.008160078176237e-05, -5.989606383952087e-05, 0.00016979883992593095, 2.9225991617209696e-05, 4.7818120450836244e-05, -5.519694450289013e-05, 0.00018295755358964586, 0.00011843127413722829, 0.0001820850085542829, 3.089981955240742e-05, -8.36415154340504e-05, -0.0001707413777913158, -0.0001236206173446096, -4.775909585347683e-05, -8.643197658873845e-05, -9.843800819433694e-05, -2.2530811035586976e-05, 7.888000951553134e-05, -7.57499949259592e-06, -2.840801778288456e-05, 2.090733942078128e-05, 7.76757055126291e-05, -5.916759725763128e-05, 5.0103395071240965e-05, 2.4112430449868246e-05, 2.7033018248470636e-05, -8.971787012545823e-05, -1.7600398953563833e-05, 4.35742068788591e-05, 2.538399779985866e-05, 4.289284132294293e-05, 2.155963230111837e-05], [5.0134496906789904e-05, 8.835223468238808e-06, 0.00015775111280945828, -7.96117917074956e-05, -2.335551747256206e-05, 9.35216848590553e-05, 9.393155195476551e-05, 1.6562228164449616e-05, 4.605080955808391e-05, 2.347689947432844e-05, -4.76156323065363e-05, 5.874119172858533e-05, 3.965202260284334e-05, 1.462559424020066e-05, -4.5090292912383297e-05, 0.00015092356492058703, 0.00018274853933154263, -1.547041355164417e-05, 3.6418680039815196e-06, 7.48438957051313e-05, 2.5765654881941666e-05, -0.0001778055762993756, 8.325474741150417e-05, 3.894736991927037e-05, 7.35119393293838e-05, -5.675558119280019e-05, 0.0001198883081033562, 2.310246456719322e-05, 3.441818534451945e-05, -0.0001754476591686326, 8.856879667272953e-05, -0.00012119508470242209, -6.999830739609652e-05, 0.00013654046576090762, 0.00014826382288652993, 8.710897912932962e-05, 6.301410014154172e-05, -1.714546557299003e-05, -4.076608634406299e-05, -0.00012670962813206264], [-4.388922945344605e-05, -2.4728487416792712e-05, 9.571366347476598e-05, 1.3225746245731224e-05, -2.2122649719730717e-05, -0.00017024140735571273, 7.933035256987197e-07, -7.684875922965161e-06, -8.501000293473575e-05, -4.1201024609900497e-05, -6.787033119450144e-05, 0.00019325784508956239, -7.466122945332953e-05, 2.6170620625013524e-05, 1.7533602043161495e-05, -0.00010178563108586112, -4.8803532825580254e-05, -3.638746657855724e-05, 9.564687037581356e-05, 0.0001676971580965065, -4.9296794472645525e-05, -1.361899895009186e-05, 5.6325569728837695e-05, -4.870605531010019e-05, 2.7286460668977007e-05, 0.00011705460799681149, 0.00014226051181493403, -5.3568815454001923e-05, -0.00011015040586674946, -2.431874268296348e-05, -0.00011680658870852267, 1.4559948952659378e-05, 9.194744003911136e-05, -0.00017544612909810954, -0.00014560341152947614, -0.00013722997780190758, 4.2326871644929514e-05, 2.5212784871299682e-05, 0.0001586331299383584, -1.6623660921591825e-05], [9.071546106880203e-06, -3.576426842356171e-05, 4.933962380048345e-05, 6.837876388095133e-05, 3.9327378002143765e-05, -1.3128642354691755e-05, -0.00010098621909073421, 4.6836888066149105e-05, -8.989151569573603e-06, -0.0001870233359188593, 6.791703030002102e-06, 1.0489752126241671e-05, 2.5046997397055572e-05, -9.912220233330966e-05, -4.2058612058541303e-05, -3.7216072965537255e-05, 4.967236379415165e-07, -0.0001347132517487816, -0.00012164144987610219, 5.1251237145204543e-05, -3.9727075093057926e-05, -7.961228390661654e-05, 0.00021519283285692864, 5.873750351149387e-06, 9.269052152944034e-05, -9.09262611512589e-06, -6.047339503367229e-05, -1.2421268466127416e-06, -3.095492608288379e-05, -2.2040301356196703e-05, -6.946171117658124e-05, -0.00016926923973746753, -3.498058672504525e-05, 7.967254163464716e-05, -4.5203201215422356e-05, -0.00010331397073531374, -1.7902409476156825e-05, 0.00011289024706556402, 8.103633773768453e-06, 0.00016493643462816958], [6.0495115187606926e-05, -4.8889173692569766e-05, 9.507955599861061e-05, 0.00016578178085771637, -7.197871362322037e-05, 0.00019795086350582507, -0.00012979914303346536, 0.00020158641047917356, -3.302954955418994e-05, -6.763819647946627e-05, 2.186331739398686e-05, 7.019482338178545e-05, -4.1105696732436434e-05, -0.00015045225157471663, -3.059957071518799e-05, 1.614105341595928e-05, 7.782067028023881e-05, -8.220924220930769e-05, -2.729996935779158e-05, 5.705941818554615e-06, -3.443600066499869e-05, 0.00017441596698161924, -4.890895021107245e-06, -0.0001725815928403584, -2.0787045217435827e-05, 9.921394866372279e-05, -8.220170388438128e-05, 9.942391013409e-07, -8.102812890449261e-05, -6.644551531144098e-05, 6.95919788094315e-05, -0.00010535657609053222, 3.9229494446309776e-05, -0.00014603444060554501, -5.773762313987372e-05, 1.39171437015509e-05, 1.284237811099156e-05, 1.2684396933108682e-05, -0.0002956538807674478, 1.544038564664673e-05], [5.558444187798253e-05, -0.0001122434771108591, -1.820105765470905e-05, -0.00011160129693239163, -1.9632973571731128e-05, 0.00020667855994452143, 7.03393280779701e-05, 3.4614262682837224e-05, 0.00018624945483022197, -4.8369742666564365e-05, 7.409138228543617e-05, 0.000165264813329836, 0.00010050152183953968, 0.00014771296222279288, 4.641179376293248e-06, 8.450609808311953e-05, -5.795557648927437e-05, 9.590715473514717e-05, -2.1866607169560374e-05, -5.9695415804634603e-05, -0.00018707240785379532, 7.897598768894715e-06, 4.043150063443019e-05, -0.00011893086482154889, -1.2375352515566316e-05, 8.71789079935171e-07, 0.00012237717848998848, -4.981187426953101e-05, 4.6082697920561015e-05, -8.996064645865927e-06, -0.00011273504983360302, -3.557657540658453e-05, -0.00014940129375894684, 0.0001069690179404668, -1.4008633585954432e-05, 0.00025808993310813766, -3.8819349400339847e-05, -5.85002842070473e-05, 0.00018383606011817034, 0.00010057899279285639], [-2.765393345767962e-05, 1.8062322689059675e-05, 5.893964328109104e-05, 9.22000555054738e-06, -7.126932314659536e-05, 2.5550215580514985e-05, -8.59465678510903e-05, 1.2856467300531331e-05, 2.6838544787304877e-05, 0.0001502859007693715, -2.770864918345925e-05, 6.181935189002886e-05, -7.478670930613809e-05, -6.264264011338392e-05, -6.344186485677232e-05, 7.305263509961948e-05, 2.5382599410842747e-05, -2.2260400953028043e-05, -3.2935743049894755e-05, 8.391890460138584e-05, 2.4605026952211844e-05, -0.00010141409640884093, -0.00011569352120269497, -2.2595346280316968e-05, -7.200168309584745e-06, 8.28305012617618e-05, 1.537409898940445e-05, 0.00010494690624373309, -3.817312720230084e-05, 1.979989412383761e-05, -2.264225423013933e-05, -6.133856016659867e-05, 6.840101892723035e-05, -7.967606944922067e-05, -0.0001310311458120062, 1.1614302043750302e-05, 3.344783896417381e-05, 4.684263665849434e-05, 3.3448244162074696e-05, 0.00012032395267073908], [0.00017696816561290488, -9.29711539814114e-05, -3.3142619079111504e-05, 0.00011678671297199752, -1.9627432652359957e-05, -0.00011177430345768996, 2.4804704791475376e-05, 9.272528272433658e-05, -2.2758023140997447e-05, -3.4651553592353244e-05, 1.7881203372397418e-05, -2.3658141163540726e-05, 3.604059437015163e-05, -0.00015343278706773358, -9.069021934933338e-05, -7.39752057196957e-05, 9.986905503767644e-05, -0.00013815820190153815, 0.00012562393268405352, 4.8319207488928216e-05, 1.6330575130584204e-05, -2.624170272724654e-05, 0.00015266448846734375, 4.33923808973791e-06, -2.7882669504684217e-05, 0.00013794316275588526, -0.000119266988905642, -3.248466166892237e-05, 4.172731694727099e-05, 0.00016649013059354337, -1.9165916910457324e-05, 0.0001227705289621524, -3.868207260775477e-05, -0.00013450656301310353, 1.2395536043249996e-05, 0.00012476390753215846, -8.824107089448635e-05, 0.00010660637653226696, -6.72268791209112e-05, 4.118894398184233e-05], [8.672581348739101e-05, -0.00018076112857736852, 5.0183414370263996e-05, -2.4424727575235893e-06, -0.00013552525935505615, 0.00011069473353326868, 4.672417478180477e-07, 1.1834608225775396e-05, -9.842290803090997e-05, -0.00012949309925774894, -4.957501221135806e-05, 7.96535689032725e-05, 0.00010592689430229596, 9.640711395398224e-05, -6.502283779301639e-05, 1.9483404533142705e-05, 8.284357785059625e-06, -0.0001542304405521241, -4.773094024925765e-05, 3.4636547878120424e-06, -8.726068424221371e-05, -2.2816805265275552e-05, 3.4002520749146214e-06, -8.788439566010337e-05, 0.00011200242664922679, 9.691327160108734e-05, 2.9106153145058337e-05, 4.8157880684180686e-05, 4.260776800556927e-05, -1.2134645103821637e-05, 6.070550947613931e-05, -0.00017263272079377694, -5.050710671053929e-05, -6.727117456231377e-05, -4.31987352766028e-06, -2.6243617644262076e-05, 4.571101584115704e-06, 4.091526715622935e-05, 0.00016474087100558162, -0.0001541408857093323], [0.00013589633031642343, 5.9385663389508746e-05, -1.2861207302138687e-06, -2.231575573982606e-05, 4.158768454014691e-05, 9.456643731660686e-06, 0.00010842463451107788, -7.064867728593891e-05, 0.00011944630251858311, 0.00014968898015278587, -4.079835583210401e-05, -8.731658500281425e-06, -7.992110369657541e-06, -3.376894189225069e-05, 2.8922862247219315e-05, -2.929712563464126e-05, 0.00019772857927039236, 2.909268554024798e-05, 0.00018098797235710122, 1.7563972716392806e-05, 5.635657082255759e-05, -0.0001578097059504906, 0.00013023710329535334, 1.8716224362824067e-05, 5.7085913753900134e-05, 7.298300878975426e-05, 1.4650419511827114e-05, 6.67327288594447e-05, 7.58335640538097e-05, -0.00012551867903328042, 5.564057265089945e-05, -8.037002050652923e-05, 0.00012940884298625135, -3.76939824198762e-05, -7.071205199103605e-05, -2.475230330966018e-05, -1.4985860265021504e-05, 1.1428564692528033e-05, 6.574809557173764e-05, -2.8933738264941983e-05], [2.223937507267809e-05, -0.0001416556748388357, -5.48781213948393e-06, 3.932509918159649e-05, -5.796037304440037e-05, -3.113125855497721e-05, 2.3133230969074663e-05, 5.1867829389832004e-05, -3.636928382544486e-05, 0.00012432333516041323, 1.0549549075610034e-05, -3.475448806610011e-05, 3.776645704210591e-05, 4.3272813998435424e-05, 1.8615450928383596e-05, -2.5458122042055734e-05, -2.509923605230914e-05, 5.326661236355027e-05, -9.497254588457658e-05, -0.00022061951637562685, 0.00018003748224096686, -1.1949979778932337e-05, -0.00020521985765918063, -8.186192322277393e-05, 5.76256204782442e-06, -3.1959081239782984e-05, -4.7817257860471446e-05, 9.176057613432336e-05, 3.129864478712472e-05, 5.295516264922342e-05, -9.869849872556782e-05, 0.00016400463062460954, 1.589445195691546e-05, -0.0002128011285878298, -0.0001945199183441903, -6.484217112460984e-05, 4.5635916933955006e-05, 0.00013521075586118693, -0.00016680718727635007, 0.00011004436525984863], [-0.00012148074669929832, -6.543934415780243e-05, -4.3115335532950263e-05, 0.00011256173372030261, -1.991015874092059e-05, 0.00011460357282321978, 3.337340617270125e-05, -1.9401506467300548e-07, 2.8321149666258427e-05, -0.00012280657580738413, -1.9870367450089075e-05, 9.405305979344835e-05, -4.252275077838405e-06, 9.294524573957325e-05, 4.016625554488388e-06, 3.2286369355131145e-05, 0.00016931524825145847, -0.00013159568524069785, -9.874844323703301e-05, -0.00017052015416004968, 6.490552986420822e-05, 0.00013941937889683353, 0.0001220882460731817, 4.997941334279883e-06, 2.979012597013413e-05, 0.0001221095980846764, -0.00010860198659168541, -7.383477895882173e-05, 6.429867334536942e-05, 0.00014477722898626998, 3.478266079569253e-06, 7.213536213805846e-05, -2.295796622549712e-05, -3.808993761972243e-05, 0.00012185414775482712, -8.860923063268941e-05, 0.0001161787100489278, 8.08860429485644e-05, -9.777026244235262e-05, 4.956641406228593e-05], [2.641923162778615e-05, 0.00017086452921684535, -1.750223016415491e-05, 0.00013590983705660367, 0.0001487602855599229, 1.2220620268399131e-05, -5.66724665214246e-05, -6.267336424633937e-06, -2.584711566527712e-05, -4.4413003622446686e-05, 3.4056314340273985e-05, -3.4430621262579346e-05, 6.090530426779806e-05, 0.0001795624984195439, 3.4538991642138196e-05, 5.837279339097099e-05, -4.142839328681629e-05, 4.939510667837742e-05, -8.259691741950151e-05, 5.557915507277091e-05, 0.000166981525205421, -1.0935640067367214e-06, -0.00016521168257339715, 2.131223799925139e-05, -5.1988602123445875e-05, 0.0001127926220082826, -4.702183957201068e-05, -5.269442448317456e-06, -5.335182336439846e-07, -1.7758260654616518e-05, -0.00011327836851845204, -7.310193963093945e-05, -6.380852988319468e-05, -1.576511306535302e-05, -0.00017153219256138848, 0.00012076466000219406, -8.521736984191121e-05, -1.6337000359811135e-05, -1.2381153322948846e-07, -2.946248423805669e-05], [8.01151473562115e-05, -9.047587964643611e-05, 4.77366023417585e-05, 0.0001473023993138376, -4.537194844304127e-05, -4.244568829322851e-05, -0.00013504174256604335, -4.833202528317703e-05, 2.9978045944502153e-05, -7.667752243221326e-05, 3.8636913375209946e-05, -2.1465134668585255e-05, -5.006303752072756e-05, -6.752493583354905e-05, 1.7360677739056723e-05, 4.934010541342345e-05, -0.00010860805521748273, 9.934985427583143e-05, -2.897558235505123e-05, 7.507288986612128e-06, -0.00010812279511980639, -2.5095816261430202e-05, -0.00010157491940526628, 6.705638586900164e-05, 4.892181986856968e-05, -1.8606463845256144e-05, -2.3172821669129045e-05, -1.196316212283526e-05, -7.844621902290542e-05, 1.988654638592658e-05, 5.3042921755481084e-05, 2.1567486296985508e-05, -1.8795424660630417e-05, 0.0001409897928812736, -3.047654952764506e-05, -9.606982121052649e-05, -6.819524085694274e-05, 0.00012612968331982723, -0.00010869845914504853, -2.9796226395969548e-05], [-5.559640248167073e-05, -0.00021199246454902326, -4.3976079536692066e-05, -0.0001330326932899044, 6.341153552454229e-05, 7.43868266815419e-05, 2.3440222922245678e-05, -0.0004512657027970903, -1.8744676780748114e-05, 9.209603031592695e-05, -0.000553531390204925, 0.00012176292546283533, -6.325391905449555e-05, 2.949799334629027e-05, 7.583917539444965e-05, 2.3629284133969025e-05, 6.38785492571841e-05, 1.7710966865844935e-06, -3.413223922448659e-05, 5.995992402863881e-05, 6.544091289974303e-05, -0.0001153304214304959, -7.419679780169249e-05, 5.926774823408765e-05, 2.1705659659977135e-05, -7.317853189430595e-05, -8.456695960348541e-05, -8.99885696354634e-05, 5.661167372766553e-05, 2.5887064576985653e-05, -8.995519544985059e-05, -0.00014505231347986306, -6.489825858529185e-05, 8.211670889647891e-05, 7.545670946435094e-06, 1.021133858680785e-05, -0.00018106602547819344, -8.277065738650592e-06, 7.458827530182284e-05, 1.645400827017655e-05], [6.554612727826258e-05, 0.00016070918775991114, 0.0003471969865967391, 7.162338738721026e-05, 1.837159677248553e-05, -4.5298579026107754e-05, 3.4632664715739025e-05, -0.017235507014070547, 2.8880986905651614e-05, 0.0002847531842759527, -0.03253777097740331, -0.0002150411721470643, -0.0023265826429349204, 1.6025247492040926e-05, -6.083763176819771e-05, -0.0008711046013386654, -4.43914240653211e-06, 5.074100335026204e-05, 0.003839590027877735, 0.00024821791411995374, 8.751326683717245e-05, 8.87076745354958e-05, -2.6233458322446917e-05, -3.3960445226863576e-05, -2.313251559467602e-05, -0.00025077422699459624, 0.00010870481213536461, 0.0029414614291999107, 0.049307433934240495, 0.0012535527125607684, -0.008874496043511627, -4.814550206627175e-05, 0.03801701040843257, -8.389475747033063e-05, -6.767266991284115e-05, 2.4081672963474267e-06, -0.00013739160126465102, 4.614861989002859e-05, -0.00011919030088032053, -0.002019031850415979], [-1.245561742044393e-05, -0.00023574851473866804, 0.0007213780549110543, -0.00046754380871262985, -0.00023396255635468343, 2.269065118892494e-05, -4.556656704574782e-05, -0.033661609158868164, -6.257509975124393e-05, -0.0013145607858088917, -0.04946267407014047, -8.309521897076705e-05, -0.0036639608497437775, 8.141127993424896e-06, -0.00012931378953293527, -0.0019994044440731057, -3.5576161122197134e-05, -0.00057518200210713, 0.010233692155482138, 0.0009946876517815712, -0.00042835450964416187, -0.00046172515924022616, 4.0746843151629786e-06, 0.000926342667981736, -4.278453032723488e-06, -0.0006391203615390303, -0.0001697041396276763, 0.00470883556084647, 0.08171413015612641, 0.0018701149893302488, -0.019784287368350854, 0.0008545706333415971, 0.061517700081748526, -5.638015273194643e-05, 9.497822522451192e-05, -0.00010380010466482065, -0.00013451383325656914, 5.199691229319249e-05, 0.00010759965716427142, -0.003486827336870717], [-1.2401784506983088e-05, -0.0012481531318277606, 0.022081611740014582, -0.0014035324220597323, -0.001467261684522343, -4.8858353818163053e-05, 5.907519180148771e-05, -0.026474049913294103, -4.5160766414383205e-05, 0.005185523725444237, -0.03473161258773119, -0.00011251073280536484, -0.0011899944153260377, 1.8663961612147753e-05, 0.005985721359002343, -0.0038671077309929284, -5.318556665557406e-05, -0.0026741785611130776, 0.03591648913257724, 0.000884788814359446, -0.020668531185648813, 0.0010826267670859008, 4.039803565400465e-05, 0.006902636083430732, 1.7485541862151943e-05, 6.917567845497665e-05, -0.008050296538461886, 0.0007663517196496804, 0.022497085748602114, -0.0013045394943876367, -0.0037840918071521887, 0.005290531003012474, 0.008611179897539083, 0.0004727475048547053, -0.00011822260583849079, -0.0005268943324385429, -0.045212228157817703, -0.00019002009715381952, -6.455975303352635e-05, -0.001629424117364448], [-7.151428286047382e-05, -0.0009898721612575246, 0.005216475377913901, 2.683186100748264e-05, -0.0012042177933327416, -0.000271717669346388, -5.260526625919906e-05, -0.006076239359752358, -0.000702284592747253, 0.010242895157344714, -0.00764998157026678, 7.792107313277843e-06, -3.524329587572205e-05, -6.590056179329605e-05, 0.004721067586296337, -0.0008413053442718741, -7.368762818638502e-05, -0.0026020032669893146, 0.005251348420521636, 0.00024737943425619176, -0.016055075593704737, 0.001054089897999597, -7.262094389982036e-07, 0.001975880401482504, -7.22489341702164e-05, 0.00012481102679065442, -0.006746981892788762, -0.001074679051427466, 0.0031508543168411096, 0.0003928369609711849, -0.00036620362697744956, 0.001845742430760412, 0.00014317541906927762, 0.00011771752255180608, 3.986455388228985e-05, -4.6526526389936164e-05, -0.010027810235784607, -4.1061709260319616e-05, -0.0001755405963716611, -0.0003430604517409952], [-7.30392752484926e-05, -0.0004046396793721234, 0.0010993332908647519, 0.00012217302280101278, -0.0012971274267754866, -0.0003612959394402608, -7.085403758808345e-05, -0.00406091844893996, -0.00138427805634041, 0.005263323256125441, -0.003019523479945527, 0.00018910118702486416, -0.001954834524225765, -0.0002079974238918636, 0.002307655074329155, -0.00029028969679159453, -0.00010214970501082439, -0.005161652229266442, 0.0014855350434707154, 0.0030486550028481743, -0.00796958253912663, 0.0006091090269366498, -6.447585757539363e-05, 0.00012643060739684787, -9.59546277363409e-05, 3.471464044947155e-05, -0.0039957523033736595, -0.0017690767561610104, 0.004052049802532585, 0.0007429449193492613, -0.00033810360382567823, 0.0010751882393355196, 0.00032880836809020116, 3.264554315258774e-06, -0.00016556337197511494, 6.984304961691133e-05, -0.0007837445983074458, 0.00011149094543351355, -0.00010281106506038061, -0.00043539519452916756], [0.00010492423934336148, -1.2838741688009264e-05, 0.00018446975908117903, 0.00021262365175081253, -0.01039139963594065, -0.00047743928122467676, -0.00010604171750300946, -0.004232362419253866, -0.0004972265391869671, -0.00044002780760438377, -0.004262074447600198, 0.0004192001117342957, -0.004357189274697091, -9.566792761272905e-05, -0.000631155623774088, -0.005254451420608127, -4.76700568143625e-05, -0.009631931687839433, 0.004543369179178281, 0.0054410780050435, -0.0010867550530132435, -0.00013076468655250255, -1.222085884248066e-06, -0.005251061569769209, 0.0001295918272943402, -0.00018906485394789885, -0.0014185956029139652, -0.00204166118648617, 0.008884838140231567, -0.003908866168986874, -0.0003929004703321848, 0.002790363346127377, 0.000545845365052053, -0.0004036756973078758, 1.0765842214231062e-05, 2.7595093852455212e-05, -0.0006105654163205673, 9.833563123075803e-05, -0.011777000883261264, -0.0006551162980325922], [7.977986296810318e-06, -0.0002858286724824592, 0.03917504786167328, -3.2090943906181074e-05, -0.017926755315728, -0.0006895117478790261, -0.00019718888598137022, -0.02656202937079486, 0.000641145467182002, -0.03816518327269064, -0.024589765153787187, 0.0005059645437785357, -0.02013239504093702, 0.00930573148293996, -0.02623415513316312, -0.03713964602307279, -0.00017945658499979474, -0.05127436836324434, 0.027865424528739403, 0.1594014222482568, -0.00606548862953347, -0.001041038140795335, -5.7460682511769766e-05, 0.027667511164340228, -8.9648199200155e-05, -0.00030033543336161194, -0.0015616881815981, 0.010875514556825342, 0.06710779537053604, -0.017628585022835014, -0.0007082123538674843, 0.06545866057483427, 0.07314965949504473, -0.00038376926896538545, 6.635232457778189e-05, -0.00012908105958398596, -0.0009211787177687427, -0.020611802981784843, -0.023438818640710395, -0.0019245686696654747], [1.5370156165924915e-05, 0.000768735455845629, 0.03162709113947631, -4.450895965674288e-05, -0.00773848543602559, -0.00028699483456884025, 0.00010572922438331303, -0.033992583240260776, -0.0010412929993646191, -0.06294272914605578, -0.025602535408577612, 0.00032522863537231444, -0.024453022671913533, 0.006009605281160875, -0.043354260434517976, -0.041566812275864326, 2.6479222397993384e-05, -0.053814902577876855, 0.03701778266158411, 0.16619394441984076, -0.0056443787150971415, -0.004152959616658186, -0.0001500150821450746, 0.025043250229710583, 0.00010611933996745267, -0.00017892889369762178, -0.0008411255623783179, 0.010550233281096983, 0.10051698283403693, -0.024842102397362183, -0.002293938873212559, 0.05472607166049227, 0.06221776157219851, -0.00023662095761187884, 5.2954887316000855e-05, -2.6680032180583795e-05, -0.00025171450471025476, -0.01858676085064578, -0.009712042169058773, -0.0006897936060291435], [-2.4936381067229488e-05, 0.005542354722172728, 0.00551804531599201, 0.00589749492867954, 0.035021908153412835, -0.0034669390619933597, 0.07727777985097262, -0.007732870013998222, 0.0011960137565860509, -0.046205736062285105, -0.011773486547543894, -0.06456000234990777, 0.05218050442227673, 0.04700113512988136, 0.030740946838716907, -0.010190092130061931, -0.00010684977539251336, -0.015527497688254965, 0.01446806367374948, 0.11155644282873857, -0.0008590364605600928, -0.004473093757014311, 0.12295609517180969, 0.009809902694673293, 7.506673188918038e-05, 2.459497034560976e-05, 0.0342210711122182, 0.014291419426671116, 0.03208970563628697, -0.009975234916813304, 0.003194240505209277, 0.004768183788449944, 0.012960675245213375, -0.012475367228158675, -0.0043403801987044995, -0.0001740045317360298, 0.00023677356492399844, -0.0005324444757888072, 0.00010144925097001144, -0.009975448422089616], [-2.3959426286228182e-05, 0.0061764877778548105, 0.02060976794413487, 0.009204080382397454, 0.0841180224427663, -0.007149141816196816, 0.17065523998951204, -0.013317306555804102, 0.10258724163729188, -0.06967900637605931, -0.013100607442253831, -0.11248333876369904, 0.10887282208713919, 0.08231760794455475, 0.10313885202436701, -0.009034020228107486, 0.0008861705040436166, -0.013296087137499366, 0.006216644971475949, 0.09096314346713365, -0.016117691975662814, -0.03952573346550425, 0.14256944711633399, 0.01185511750075597, -8.193168981404997e-05, -0.01307530880426322, 0.11733038658472912, -0.0030493342482264332, 0.017013741495038724, -0.00016265936022482594, 0.007447079344119318, 0.015832264296197864, 0.026696528089180382, -0.022545258109830393, -0.004726408858338847, -0.0001711168063220449, -0.06402032224336315, -0.06554904425968036, 5.1708577904256154e-05, -0.007344327369673185], [0.00015453798494767136, -0.005974252925089248, 0.04727487452927332, 0.007359153527834403, -0.0011552899928297955, 0.0038574098256775797, 0.020640669075879883, -0.02110376288545057, 0.2108232726836062, -0.005424866267527182, -0.003885708048900819, -0.014529148980460652, 0.05867438471750166, 0.01082450025913563, 0.1501128086177544, -0.02093651729938776, 0.0036834808219961385, -0.009565269767348892, 0.0051895927306001444, 0.013969933283974873, -0.04330409932497111, -0.09128513259410506, 0.02115617769617883, 0.011207509185066359, -0.0007004757934260726, -0.03554165646830247, 0.09904049189593249, -0.000887467159827365, 0.007101179359900372, -0.0018569070951698938, 0.0028270950263845213, 0.04367066764405592, 0.03959411475604591, -0.01054056146469959, -0.0005886716225637714, 2.8584686502048492e-05, -0.1918246211781406, -0.1831889971895016, -0.0002713915761102118, -0.02097332162645583], [8.349546470010878e-05, -0.0039401036640814855, 0.027356468007815063, 0.001061824052638532, -0.004941368462694927, 0.0004571923093892677, -6.725915933866073e-05, -0.012674653727759966, 0.10310620893235513, 0.0003267039088962327, -0.0009722991746570135, 2.067024549363499e-05, -0.01051463756058127, -0.0002554456706315825, 0.0016586603885945235, -0.0135220233521537, 0.0025631000301144483, -0.006729906437512112, 0.010436235411282713, 0.003550297321271087, -0.02062785290240902, -0.04316891412745307, -0.0001398334731326572, 0.01692072561667748, -0.00015072166151747392, -0.016857598394307293, 0.0427750604684772, 0.0014394468544277738, 0.005360070299294949, -0.003274404272803212, -0.0036231232784718244, 0.020533465353136878, 0.024979670271905157, 0.0029918470636376014, -0.0001137289264087943, -2.214792756879017e-05, -0.09485534330772838, -0.0843450765568143, -0.00014244541067050305, 5.0531349831885656e-05], [-1.4292181305281967e-05, -0.0014033660625396471, 0.005858373020159983, 0.00020063225652120484, -0.00037593500975392964, -0.00013171180235500943, 8.30312858089943e-05, -0.006660032858580615, -2.452191029596338e-05, -0.0006513116055161061, 1.673859113784589e-05, -3.379415146869254e-05, -0.008052461800983587, 9.914009608701408e-05, -0.0007113637601404768, -0.0033308419203435563, 0.00037255786079704755, -0.0035384868564343644, 0.007041127786189264, 0.0033674912597163762, -0.00024179897247982897, -0.0008655340933163242, 0.00012731531442361773, 0.010460256315405276, -5.4071539090270374e-05, -4.810079348785987e-05, 8.584154782166548e-05, 0.0023834610185103117, 0.0008528927071219997, -0.00521131321008867, -0.0030850360478154384, 0.006753582981223223, 0.00904966773117288, 0.003212084534327092, -4.877770534495499e-05, 0.0001599851328656279, -0.0055466175580130665, 7.32123452133773e-05, -0.0001692539150772795, -0.0005013140718526429], [0.00012732025104838043, -0.001567242475316882, 0.0013839281996675945, -0.00010272027775948427, 0.0001243019465926269, -1.5540761189133826e-05, -0.01953384571033013, -0.01007202476133952, 0.033746046094450276, -0.0018614940129791722, 0.00018475717850426364, 7.392915081230826e-05, -0.0015837186457378339, -0.0001015431431651102, -0.0009691502337673181, -0.0036505967651311215, -0.0001368176999370311, -0.03489959249009099, 0.0014564815536347634, 0.05865315437602418, -0.0002510361316750645, -0.0020855026336637113, -0.0033390600045223153, 0.01787246886723618, 2.6371786925885584e-07, -0.0003984021636419648, 0.00011216222820853128, 0.0323636683822959, 0.12436837352237966, -0.0019632026891963535, -0.0003646423400863055, 0.0017586816474707944, 0.025624360655432058, 0.0021977693907879845, 6.889107004843618e-05, 2.7497758802347932e-05, -0.00028409901092036303, -0.00032992094028882275, -1.43190798630812e-05, -0.038876454548034955], [-0.00015958245328140174, -0.0016013701467778917, 0.0016894102078339826, -4.9325972352623995e-05, -5.1999158719036484e-05, -1.0727375082374427e-05, -0.012931202842417933, -0.005923030059596711, 0.030039444022144566, -0.12159415156538589, 0.0012460010230001901, 8.286687468542925e-05, -0.0012846550974265996, -8.065694831090301e-05, -0.0011587284397287382, -0.022736040358562366, -3.0566261058906275e-05, -0.030093625480329955, 0.005152049543880909, 0.04496244761590718, -0.0023471274286644777, -0.001364668594947246, -0.006598185981849401, 0.014920003030140398, -4.231014246247033e-05, -0.000814893473243309, -1.875805664328744e-05, 0.021502215619083442, 0.08263553841768616, 4.1740948850299814e-05, -0.0019384221710489287, 0.0011782824521631985, 0.016490697224652386, 0.002244012739955285, -1.4615136574935312e-05, -1.923548557569589e-05, -0.003038769383179901, -0.0006174854826178165, 4.716902015161353e-05, 0.0001451513360508724], [2.041605450030207e-05, -0.002424359793126896, 0.002421734461017268, 0.00012001938580666674, -5.3346041039673207e-05, -2.7928453796955882e-05, -0.0002522040820806922, 1.3899068189633617e-05, 0.030197486241699198, -0.524586082870092, 0.00434394871842932, -1.940067761085325e-05, -0.012998206776893244, -4.361805517086097e-05, -0.00036906697653956187, -0.08228415830840131, -7.718599305876596e-05, -0.02192880260563034, 0.002853187210238791, 0.002270453031794099, -0.018448953191520137, -0.0002875479615210312, -0.0011496721565683596, 0.00169946366022904, 1.2137466466006528e-05, -0.001462665763077436, -5.3396659853819366e-05, 0.007893877944680532, 0.008046700550872967, -9.989442498192853e-05, -0.004601255679366802, 0.000167085604629059, 0.00017512524322617866, 0.02460883972369843, 1.5809949735902712e-05, 0.00011098116157701015, -0.022266572698343323, -0.0001692450203521174, -5.230441890707953e-06, 0.0942752189847849], [7.080995585077278e-05, -0.000287416394942545, 0.005026590890348247, -1.7301176755291612e-05, 0.00022031824154769065, 8.721667653219474e-06, -0.00010298220895043853, -0.03371775290027352, 0.0024350894389252534, -0.032882821534266596, -0.0004982579922038158, -1.843004270424783e-05, -0.01626565878190784, 6.696862405756745e-06, -0.00012321250266141551, -0.028289918563798668, 0.00012126759553816172, -0.015327666483506456, 0.0007659694000160552, 0.03187191026878252, -0.03369871938119028, 1.2535199578057153e-05, 0.00012144363381648878, 0.011011163902412245, -0.0001908585588262224, 3.5856318748969456e-05, -8.070467423596172e-05, 0.008806825835784727, 0.0014995369252879989, -0.0005838604877183904, -0.0005916573188015133, 0.008978752091312712, 0.012842108524762022, 0.030643377953788516, 0.00013554401082300992, 5.3046468134435615e-05, -0.027877599910259204, 0.00013761601297902765, 1.604848010322e-05, 0.010733025321486053], [3.210233482153091e-05, 8.026885401192399e-05, 0.003834559746232942, 5.2104405952450774e-05, 8.991331524112328e-05, 1.847060838828587e-05, -4.7170619222162306e-05, -0.04694509749398626, 8.872567152714346e-05, 0.0001671508535628675, -0.0013475061574043576, -8.422848488751649e-05, -0.0014169699451650748, -8.209492508194126e-05, -0.00017998632018904575, -0.001844859012010691, -2.4963425354079935e-05, -0.018633196111072947, 6.59822720194295e-05, 0.04484295318973132, -0.01742714990062847, -0.00010156380191883081, 2.215519905187017e-05, 0.01542733692765689, 1.785304257213684e-05, -4.155406643591461e-05, 5.4875244573331374e-05, 0.000742774812381697, 0.0009990728912375303, -0.000660697706140529, -0.0001600678489277361, 0.012245960775121845, 0.01788094617311414, 0.0023992010547545617, -2.9649092680276445e-05, 8.601767055892164e-05, -0.0023658818777761823, 2.1953577634222546e-05, -4.2336625254757965e-05, 0.0018759456605778406], [4.56622528820711e-05, 1.560462360243829e-05, 1.9691256972574447e-05, -0.00011019650135333332, 6.379624483495332e-05, -0.00014388519459826405, 3.836021382767896e-05, 6.307605547964799e-05, -0.0001709996990954605, 0.0001351686078032123, 7.152975320333542e-05, 2.5583153209789723e-05, -2.630610383621012e-05, -1.8953660524048983e-05, -3.439975970447557e-05, 4.638009575482659e-05, -0.00018105125199612294, 4.7467776141794204e-05, -0.00017049473076177754, -8.207989873837893e-06, 0.00019193192746713987, 1.4035582614553802e-05, -3.38579483721873e-05, 7.315998079037893e-05, 4.33444815139447e-05, -0.00014523731129510278, -8.972891739302547e-05, 0.00011721036513598499, 2.1769631369920183e-05, 1.148881796016954e-05, 0.00023825215146396585, 3.720136350827074e-05, 9.175020792508775e-05, 4.7828180294060785e-05, -2.0856010059866766e-05, 0.00011938327432913098, -5.745088605072253e-05, -6.0611164985120393e-05, -9.938947525217017e-05, 5.191982064140506e-05], [0.00020577421824928137, -3.091057229011857e-05, 0.00014280230399962382, 7.497407963507318e-05, -9.677204710670818e-05, 5.906494636440355e-05, 9.226692999139485e-05, 0.00015676793693979665, -5.5131451313819525e-05, -0.0001786351903143813, -0.0001797628650334043, -0.0001672657773615547, -0.000262724311644614, 0.00019246055046670557, 2.580318593384321e-05, -8.304448183508913e-05, -0.0001291352091534144, 5.51714321766602e-07, -7.99810440350827e-05, -2.2660005773252387e-05, 6.642959768688857e-05, 0.00012995428154135465, 4.4199663433232614e-05, -3.092825995138998e-06, 0.0001507890005770187, -2.2254019413468172e-05, -0.00011362623377506526, 0.00014235200081380564, 3.791750093544696e-05, -3.417262141120932e-05, 6.0378650441544196e-05, 6.201114301760348e-05, 0.00010436451499669156, -1.705709096574418e-05, 4.634397878483728e-05, 4.399637905437476e-05, -4.33086967192386e-05, 3.4283163562823635e-05, -7.43813523617324e-05, -5.535479274811505e-07], [-2.9858021231313787e-05, 6.0823836810525126e-05, -8.282796972825552e-06, 6.70629731556859e-05, -7.99285612979232e-05, 1.5578499300095727e-05, -3.564334195510695e-05, -6.346719774658336e-05, -6.011357067896779e-05, 4.9348465140182456e-05, -8.691204646558925e-05, 3.2777176474001666e-05, 5.135358644530653e-05, 1.138535172947638e-05, -6.425150780135812e-05, -2.8726111872312137e-05, 9.564190297385388e-05, 4.8443762164168966e-05, 1.8441078038910327e-05, -9.036986154330049e-06, -2.5207409951542633e-06, 8.458123683049034e-05, 6.411921797826109e-05, 7.468047936134155e-05, 8.676611533308164e-05, -6.120524613872569e-05, -5.7214400083103384e-05, 1.768791560372051e-05, -5.102024220879392e-05, -2.4588408425908757e-05, 1.4829234568554167e-05, -0.00011722188030153925, -2.0245171189003223e-05, 8.884565225167355e-05, 4.327248224650827e-05, 0.00011871479508201385, 4.867252161756309e-05, -8.489456962276205e-06, -6.653926732290719e-05, 4.970401726799498e-05], [-5.292645134679157e-05, 0.00015715642395833422, 0.00011364735459800594, -3.389218099891968e-05, 2.9456294517537397e-05, -0.0001007911216319752, -9.045132060788001e-05, 1.5888352601847918e-05, -1.9928439562307105e-05, -1.0185580217960134e-05, 3.5135979846946685e-05, -1.226377530787713e-05, -0.00010125281479273218, -0.0001482032423140063, 0.0001897525148341146, -4.103968409755301e-05, 0.0001207200914122607, -0.00016845605804404165, -1.0146095019315088e-05, -4.67705644809198e-06, 2.8826622981257312e-06, -9.124490916089519e-05, 3.8806465256778756e-05, -6.954166403428199e-05, -0.00022056623413267213, -3.1140095398439325e-06, -0.00015896156675103483, -1.1343990346879216e-05, 5.006550282851809e-05, -0.0001091136903094881, 2.7349222805479556e-05, 9.110467335337909e-05, 6.392792218228628e-05, 0.0001156702782484435, -2.7731455756567347e-06, 0.00018191892354193375, 0.0001857217621444244, 8.205621511008341e-05, 6.458798208193368e-05, 4.504078202667183e-05], [7.883413145382921e-05, -0.00012119113009382815, -0.00015622875668284505, 0.0001559469966551272, -2.2243967067049335e-05, -0.00010376332141477807, 0.0001109557575025774, 1.6648858177118927e-05, -2.1021771241600305e-05, 9.301913223479921e-05, -6.603782914245008e-05, 7.490044570100474e-05, -0.00015051381379997702, 4.2686269899475535e-05, 0.00015127333776571665, -6.461834310805641e-05, -5.0199685948725655e-05, 5.510602026597772e-06, -5.264606016972363e-05, -2.2665062691583736e-05, 6.923751170592899e-05, 9.638801766614382e-05, -2.591159228570658e-05, -4.875728732403538e-05, 2.647716710197012e-05, 0.00011066798161106952, -1.553908837456572e-05, 0.00012991563128980765, 3.3913979699277994e-05, 0.00020111066452592748, -1.5123656247317337e-05, 0.00014001345693420654, -1.1844717480466485e-05, -0.00012053909749543625, -4.449377294049276e-05, -9.276821881666047e-05, -9.32488948024662e-05, 0.0002187859504779105, -4.728786433843206e-05, 0.0001436039490200406], [0.00021385694054097462, 8.771986839820117e-05, -2.9264632070455535e-05, -5.628702134103067e-05, 0.000124564027860158, -7.506300318712584e-05, 5.480589657369412e-05, 8.12242953835137e-06, -7.480026240481896e-05, -3.0410094089108468e-05, 7.335380640631983e-05, 9.780848705536062e-05, -0.00014195418595634498, 1.7629508091488644e-06, 2.9187274407893405e-05, -9.280558803820556e-05, -7.233254210054235e-05, 9.528998852069793e-05, -3.569337298508518e-05, -5.932001375749364e-05, -1.0630290003506496e-06, 5.780411118808463e-05, 6.769232723892164e-05, -4.6530554656311965e-05, -1.885969804960291e-05, -0.00012986443555531904, -0.0001556330816019655, 2.4556710250880753e-05, -5.8752053673372586e-05, -6.742116714463645e-05, 4.660197747459743e-06, 6.636490163745047e-06, 9.345012933928339e-05, -5.6863477094773973e-05, -1.5634433337211546e-05, -9.22361882047337e-05, 7.670546883088112e-05, 5.649349756534244e-05, 3.984711157805481e-05, -6.975726479158592e-05], [4.6621006137875296e-05, -1.1118545562221329e-05, -2.759837495546634e-05, 2.1225014801687878e-05, -1.023081077796171e-05, -7.989543392787496e-05, -8.280271456655404e-05, -0.00013055710759478454, 8.720656923928617e-05, 1.4488862585468416e-05, 6.51048987403758e-05, -1.0632671550239294e-05, -0.00013215510196554352, -4.8188059476543624e-05, 0.00017641589976622875, 3.379492861367317e-05, 2.264606382129135e-05, 8.068051921933462e-05, -0.00013139435756541666, -6.930207318332666e-06, -1.4787314966551566e-05, -6.95569695868092e-05, -3.9156674945486005e-05, 1.4025940281177198e-05, -0.00010695374112382297, -7.144666357853268e-05, -1.257322596342035e-06, 5.6187387275460435e-05, -7.226561151442995e-05, -0.00020859317102223728, -6.32043027356131e-05, 8.848973860958997e-05, -6.664503790207594e-05, -1.6648954852435483e-05, -6.57493702053092e-05, -0.00019876257927643526, 7.8298143223632e-05, -6.165794104883269e-05, -0.00011190182858913094, -3.462320577525123e-05], [8.655048426606601e-05, 8.90398837221609e-06, 1.56528650032021e-05, -2.821666229413641e-05, 0.00020203313590139312, -5.186531015568834e-05, -8.242844269704088e-05, -1.8673579020691955e-06, 0.0015576976370791742, 2.743820486396561e-05, 2.4477102372059665e-05, -0.00016571963570565583, -2.549420595703107e-05, -0.00020211750513382675, 2.462754515688012e-05, 9.561039059818262e-05, -8.41419845411745e-06, -0.0009827563742050714, 0.0009113923347475366, -6.122063931295595e-05, -0.009183936893404921, 5.3230027642788466e-05, -0.00010936068207464456, -6.254259688098615e-05, -9.111275073074613e-05, 0.003267242484436584, -1.3724497517631293e-05, 2.326372883340649e-05, 0.00014208300125859388, 0.00017770947596959492, -0.00010720376250938544, 0.0017386476969630637, -6.205043146846052e-05, 7.031211808160344e-05, 3.6750774005012253e-06, 1.613056890856147e-05, -4.4663270597136274e-05, -4.962225339506475e-05, -0.00014211115850194597, -3.959274245400262e-05], [8.052071089065112e-05, -0.007630905675578249, 0.016125871039975426, -6.089308051183878e-05, -1.7233588722233777e-05, 3.1994473943282195e-05, 0.00010814115511613578, -0.023080228492094672, 0.002946467425579456, -8.231919795805535e-05, 2.2672145626042735e-05, -6.112036082987193e-05, 0.00010052899113672404, -1.953721247758481e-05, -0.00018427241128077585, -0.006453051623538524, -6.73824235713058e-05, -0.00033835939377879006, 0.0003945711716600086, 0.032773948279739964, -0.0033005148308413138, -0.0017783650617905315, 4.1109522025657824e-05, 0.0038478233255078015, -3.750169149155756e-05, 0.0011139340662846406, -1.6098859782927414e-05, 0.0005811772319619925, 0.00147252568268475, 0.00025013759772671274, -0.00016876554398708628, 0.0006721371782284259, 0.0001243816732798512, 4.511072152525095e-05, -7.440800242318096e-05, 7.783373681194333e-07, -2.5229676898702e-05, -8.350429136612194e-05, 1.8630107953474535e-05, -0.0007794999813163157], [4.7386506752832564e-05, -0.00014000909758216782, 1.2953006610351306e-05, -8.37129603297234e-05, -8.501382326361483e-05, -0.00015416156552706787, 0.00010697571981841485, -0.00188307118768225, 1.6540884805686598e-05, 0.00011405815014514962, -0.0019596441943819346, -0.00014372861341570886, -0.0002502596203133086, 4.28607917925493e-05, -0.00024724865367895454, 9.377911758118372e-05, 2.4243383822327743e-06, -0.0002481561065619808, 9.993372431927542e-05, -8.616845444606692e-05, 7.0526673551923016e-06, -0.0003080851998656262, -0.00010499358502386446, 0.00019152950179054446, 5.520890365592502e-06, 1.0632696802240413e-05, 6.930282185580477e-05, 5.000454060582477e-06, 0.001697106659472477, 8.934008051281454e-05, -0.00046426944110180467, 6.758664784917264e-05, 0.00024325393467136951, 5.3699432613726115e-05, 8.998175463868606e-07, 5.341452049888258e-05, -1.852255513610778e-05, 0.00011805134148248434, 0.00011929979241165726, -0.00013196447630135972], [1.4742106329597917e-05, -0.0002683607640651056, 0.016839191422433366, -0.001265021859327877, 0.0011488947946733065, 0.0022059343049598903, 7.53319522143893e-05, -0.034509842029865644, -0.0048812868177126, -0.006654522800304426, -0.0672651257420748, 0.0002427579731035056, -0.003937240232707366, -0.0001672991457912461, 8.692261019960648e-05, -0.0012847837697581464, -0.00026425130263662915, -0.0054283808862925186, 0.015138826440417611, 6.7713786215016e-05, -8.00985451794028e-05, 0.012306106599044209, -0.0002619421294021604, -6.385301219696256e-05, 0.00013185831173710032, -0.02023597856725416, 3.7793070849585546e-05, 0.015543212633545897, 0.14573392825726722, 0.003090022613175172, -0.008259501323581251, 0.02815304876069939, 0.05421837303429126, 0.004786901200613733, -4.904578949206166e-05, -3.221533985151115e-05, -4.953180078988343e-05, 6.329121588096653e-06, 0.0008163501570125777, -0.001168762978435502], [-0.0008727368924514679, -0.00045615780133411463, 0.021065833147234418, -0.00308835841599204, -0.001040390872258351, 0.006779851651288033, -3.043472690232586e-05, -0.06696593912806098, -0.02138610880895783, -0.013873878477588683, -0.10004185323770601, 0.0024651308028245137, -0.005939584350490719, -7.442400259632236e-05, 0.002317342361459629, -0.005214389533281878, 7.55665775604068e-05, -0.010471171803401716, 0.05624995311568858, 0.0015537263865120258, -0.008527075125950578, 0.01719804257370247, 0.0001504726243092581, 0.0006723853723613314, -7.722911833057868e-05, -0.023067460490080786, -0.003134249893230593, 0.021178105098501075, 0.2092258919672542, 0.0023326489213464485, -0.023104472282216806, 0.04194250100427827, 0.09394960076533199, 0.018047180447129225, -0.0005569552193561008, -9.410149410709817e-06, -0.0002654632292237534, -0.0014222617647842203, 0.0020146852763616337, -0.006290108065554584], [-0.0024013447398971363, -0.018215373329082414, 0.07006386142132955, -0.0019311584910983504, -0.02345349565504032, 0.00441394348805637, -2.0801812718138837e-05, -0.06698524726094408, -0.0565778477453812, 0.007108594670813983, -0.09588490432475576, -0.0008613083162445357, -0.004658221677926358, -0.004822719571607175, 0.0844437686797286, -0.01147096126380499, -0.000995242274539991, -0.013747537586193624, 0.08603209023093275, -0.03065061348675352, -0.03106035683269068, 0.01852511936720021, 0.029154563843669063, 0.0001909228356652542, -0.005040664680705127, -0.00789155829021873, -0.03155255949484373, 0.015047672208131387, 0.12024985434663737, 0.026885967383810962, -0.013314634654837385, 0.0447363531479714, 0.07538306436210644, 0.028982972481928732, -0.0005724786865997801, -0.000733172115810898, -0.0455605560728136, 0.018108563782977385, 0.06799932668603759, -0.00935208254861252], [-0.005736534538408155, -0.035007276102399724, 0.09902715144526025, 0.00799552690435594, -0.08859325133331857, 0.014101372538661285, -0.0012500958779880608, -0.18058169148707423, -0.08393749794240117, -0.038469762431447, -0.08754808697712103, -0.006736654038446972, -0.007041961776228751, -0.02771991955973288, 0.18876225613201555, -0.0031632343048325004, -0.0014277372010927027, -0.060845802613957535, 0.08230804148609171, -0.11061735208589869, -0.042742171031234545, 0.043812800961818624, 0.11030698669863125, -0.016633043873525082, -0.011939010456188648, -0.02978806417803029, -0.061579508483209124, 0.06656360617604674, -0.022987421287351175, 0.041009866276220344, -0.002546303783004178, 0.06884864640934725, 0.06154452565994299, 0.05060199402120947, -0.03965655268954639, -0.0392646973676996, -0.026586076505618086, 0.01614303388419956, 0.12232554057386712, -0.01950282479965949], [-0.03801873105975025, -0.010215475882465195, 0.06901304690756713, 0.013022087736408927, -0.18479543218590222, 0.02497019314985676, 0.022346446348170745, -0.24092391107688374, -0.034708392641684856, -0.07342560671814924, -0.10303014788301415, 0.016526449752240612, -0.06571765266812998, -0.06326815227322032, 0.0965439567641947, -0.004950327639317845, 0.00026428335735068347, -0.2654712028664173, 0.053218296072829345, -0.10794845320188616, -0.11642396815001226, 0.04158134283894681, 0.05021632269100324, 0.011886877966107247, -0.017790382534915335, -0.06568989895361298, -0.0670881952846716, 0.12538155898756448, -0.019825692650594195, -0.011699747932299219, -0.002347891476810302, 0.09228830503757006, 0.2030261776247961, 0.03845066826037467, -0.020253376474759124, 0.011363697302972472, -0.007298321404639911, -0.025740127234403394, 0.03237189654756156, -0.04494914318707192], [-0.0541353909596402, -0.0031452518611118268, 0.1212733248046721, 0.019643740452684678, -0.24470736298320805, 0.024200116519753987, 0.030451538762506725, -0.1190115512119228, -0.047384398456329024, 0.001774242124962957, -0.08975594135891182, 0.03267288174688814, -0.13457932645543885, -0.05951000541817578, -0.04376146170005131, 0.004980647998814414, -0.008805326423031272, -0.34260797870912996, 0.13840496481973005, 0.06283463610029577, -0.18611270198518365, 0.016028893864275806, 0.0013508945491707393, 0.04161729939057098, -0.06136215905458338, -0.07755880736642176, -0.10500591616783497, 0.2017753750763097, 0.06711899819275134, 0.008267433460162926, -0.005179735118703699, 0.11764096755600904, 0.3395400838629625, 0.0061124374081133696, -0.010884613685537453, -0.005298751276416829, -0.0256899853494672, -0.09139981472889763, 0.0031282994212438304, -0.0676252761854334], [-0.005631905866319975, 0.04427220029669215, 0.06709765777404507, 0.026222420926128562, -0.15884114902179317, 0.011792702909893153, -0.05502401012322452, -0.2340209941557401, -0.1527153811703757, -0.0696559747836712, -0.11820037112489994, 0.027857209122039955, -0.10774046901707914, -0.06197978470508306, -0.010648446069804123, -0.07891093446639406, -0.06140829449622423, -0.35117679531298096, 0.17380931735577446, 0.032627299555341036, -0.05539043195443597, 0.03373947537154645, 0.039787889666534966, 0.041913082960619116, -0.021659704754845712, 0.019261876651035122, -0.14556476954574504, 0.1321615075758307, 0.1890858845114205, -0.005573231487668302, 0.000728061855593476, 0.12874744923294268, 0.31435380462108065, -0.04039950343983396, -0.0325177134669871, -0.12155515984378236, -0.04081941087666066, -0.06610425010799788, 0.0055119969531600135, -0.07605387552704362], [0.018921623657103207, 0.29929883587069916, 0.016132408226847438, 0.036630898484250524, 0.28070758619525993, -0.023872264206036945, -0.066471356603166, -0.18325071241659568, -0.1628363469102248, -0.04021264946608474, -0.13474545584016678, 0.010804835481801167, -0.14396272539487395, -0.07547780958310757, 0.18436591688393913, -0.06263293668990311, -0.11338295705419123, -0.2949493938507182, 0.1471654604591367, -0.5879051539625366, 0.011820739411991403, -0.03422953217549078, -0.004129102633019686, -0.07768867539080214, -0.027636978831970655, 0.016313182916646195, -0.01796003699782353, 0.10078572069535403, 0.18629142097771936, -0.022951070309795846, -0.0361887565093604, -0.1676076445621711, 0.1527262976383752, -0.11082672087695092, -0.055804508947314244, -0.01893299567036613, -0.19570894757814114, 0.08164309200103652, 0.08465417138199112, -0.01113328195373369], [0.026520910506396954, 0.09481564886401472, 0.0851120967423294, -0.04474018617434042, 0.1365870209015045, 0.057984876049682735, 0.004170858048784743, -0.2040506654823067, -0.12189693225929277, -0.015365298436665235, -0.1187962840565774, -0.015757467854351784, -0.11247060782869006, -0.037223347533860446, 0.1492875104841798, -0.011523005801379849, -0.022269244426470026, -0.0973900809456422, 0.13012583030882577, -0.11332431606072553, -0.1246745698491524, -0.06034236521124014, 0.13353145630515773, -0.04368705364853212, 0.06031545437244701, -0.013400034160440225, 0.08207116484934508, 0.030529968566518302, 0.25634402679745105, -0.04461196748331225, -0.047240262786729686, -0.006671605181543837, 0.120973643130525, -0.03177156962980403, -0.07325581015359085, 0.09040404259984956, -0.2475676540948399, -0.04717153364673793, 0.22486969710879223, -0.18036764490324986], [0.0025128177818034532, 0.1045061041807695, 0.07194226868440086, -0.024408878353621804, 0.3028302237945417, 0.052668943184648515, 0.11405263642112368, -0.20378913423354514, 0.23185827012876925, -0.15471560919122257, -0.09001955931779959, -0.11822345814916783, -0.02951719058383899, 0.037093204161056194, -0.056730067157246024, -0.08567244161943104, 0.06131304861546578, -0.13934453670897148, 0.10207174882001274, 0.6800930958680633, -0.08497567503327597, -0.1539108410365258, 0.46388204875435074, 0.07456095599849684, 0.048250247779522734, -0.042052384477524865, 0.24451122202271736, -0.059279939001906236, 0.3870366462651468, -0.06540183967199642, 0.009328865580704213, -0.04609544919358166, 0.2404898755652647, -0.3279502167894418, -0.07864397174544412, 0.17042487494689326, -0.037171443821124514, -0.12224309505396512, 0.07076828631170792, -0.23936432876966676], [0.04322723498419248, -0.005259801058721229, -0.1120284059643436, 0.09129431440976603, 0.0054920208235440734, 0.01904006758661822, 0.03909837910721625, -0.4239763975283851, 0.4339869280861943, 0.018809996057065428, -0.0853768171930195, 0.025043385848247432, -0.15260194109831612, -0.031572342101695496, 0.017152754902840038, -0.22221488617935453, 0.02310986042295726, -0.1628872936952015, -0.041911338647250905, 1.192479200969857, -0.06386252053647283, -0.16896870135642933, 0.32432945973211136, 0.23431310003918704, -0.07821817877897931, -0.021896323208318882, 0.109134818318445, -0.0033681121425698395, 0.9563260150593824, -0.08801989125605726, -0.019295127185214478, 0.019374264352713725, 0.31552948288442656, -0.27014148226741425, 0.011646867235525526, 0.20702173082644335, -0.15386373784257856, -0.3061591724067375, -0.1982068671178758, -0.1772343947689411], [0.12001595760400506, -0.03991555661628103, -0.31115529039444045, 0.015189508853203672, -0.07955063709404238, 0.11849090060018219, 0.005054560361978763, -0.5786691323105317, 0.11350591913072297, 0.10600724023071166, -0.10791259819778408, 0.10766115490689968, -0.184014098845744, -0.06585764030904792, -0.11305160680718282, -0.11090464511975102, -0.017669418641814878, -0.1256157162385865, -0.2042414718190035, 0.11645675396895225, -0.0520621521606547, -0.08843993495694152, 0.18981284468511858, 0.36035058937383724, -0.009431705372002268, 0.027824069677679905, -0.03049561483331104, 0.008927701776410151, 1.4434659850201192, -0.03695323905878073, -0.001362430472982234, -2.3551058598894594e-06, 0.2688972740741473, 0.07553516731854729, 0.05225536695292437, 0.2985142966834738, -0.1227251949391142, -0.4031029271343783, -0.041700486411025084, -0.02349227320777126], [0.059995787479719336, -0.026027415281434853, -0.5385004682503105, -0.00838417123452232, -0.048234749045215214, -0.06108265501344778, -0.004133226718869272, -0.5184177984064496, 0.045863403118232934, -0.06695609908402565, -0.09264747901518262, 0.03285068711401581, 0.055336159543428146, -0.047460965933624026, -0.11080644232444486, -0.06187938723784161, -0.028340873357038214, -0.07896022339335071, -0.06978111049414129, 0.162710467850171, 0.06088106200379982, -0.29954936132579174, 0.023733317837039393, 0.2657153689680255, 0.1230262949582565, 0.03791731421546003, -0.1258953106289063, 0.05401111552326289, 0.3154888150684819, -0.024684570398643642, -0.002050432804032463, -0.08914440855582194, 0.05431858316061057, 0.06425296525562445, 0.14660715799285712, 0.06827948561757796, 0.029519547882681088, -0.2860141256049514, 0.16119502188448373, -0.006321848384518993], [0.011457085176851546, 0.01058228347889367, -0.17274724152000684, -0.004517624439347954, -0.03612636972519148, -0.2067647346012807, -0.03424664584246382, -0.11308510204873923, -0.01431114913259834, -0.06744090025951853, -0.01916147020328294, -0.003282489686012838, -0.0037636427030028822, -0.00862392907645693, -0.050530763902188816, -0.04735116329659617, -0.006558120381235684, -0.03403283090904033, -0.012141482973473073, 0.1586764163993191, -0.01609718410471023, -0.34301757625806, -0.05348948072741918, 0.08492099745604434, 0.009292814486060405, 0.02616360199512327, -0.002925399947088799, 0.0812187471218129, 0.27999141610827627, -0.010289246357175383, 0.001204084146456095, -0.2275124834042653, 0.007222422921092056, 0.021473438270732375, -0.05069160046131643, 0.0006614024153825691, -0.004653499463646582, -0.027508437594446468, 0.18488437642736633, -0.07961970620709291], [-0.0031713286732741805, 0.018541962053551707, 0.029259970263010707, -0.0026579292143254405, -0.03572528054175259, -0.04697317311339236, -0.0042194035048613125, -0.029916559315273965, -0.02551393844345378, -0.13284719817283708, 0.002502201393577924, -0.003323116159010953, 0.0031206207106584893, 0.011748138162132368, -0.01361654054207426, -0.04843707149038289, -0.010246553009941803, -0.013711633640420487, -0.02490471375227642, 0.11477308210186644, -0.006369426612514698, -0.07559872222488495, -0.03333639679851185, 0.02486959801587483, 0.0015933851876789537, 0.01598735034808969, -0.0010097014416020253, 0.04321060217444396, 0.10504819519562468, 0.007858851264141636, 0.0004545879686083163, -0.04117379471842637, -0.015692397874996458, 0.013403831043111748, -0.020513083697506006, 0.000587719426223466, -0.0019975723543814426, 0.009057785152009149, 0.07066545413545934, -0.010295304888530213], [-0.002776951795123728, -0.019608706317536147, 0.06055273918734714, 0.0003538816306215903, -0.02626410135885059, -0.012917453195637266, -0.0010664491673149292, -0.05198413126797672, 0.011783165707802423, -0.560999538485432, 0.002155436638650626, -0.00881936765725817, -0.02147493293328278, -0.0059923815440645805, -0.028273125732862506, -0.0905480000331217, -0.006830632105618435, -0.02265467616840085, -0.02206744084730163, 0.17430564893184147, -0.007647330314001539, 0.01123488524693401, -0.01356309856294937, 0.008072745742699406, 0.0008101461890106151, 0.007798744397831032, -0.004094656497006062, 0.02522204413364335, 0.0513667440726535, 0.004057337825557607, -0.002504286669119958, 0.008360299918023414, -0.021889854578847866, 0.025744459098134647, 0.010045402554900012, 0.00025011599555480247, -0.007855186654645262, -0.006359339100411366, 0.007419348166923627, 0.08037256823081562], [-0.00223212572180656, -0.016134965175176402, 0.06096513883462569, 0.0013538565633040955, -0.010831825766191289, -0.008092622549091412, -0.0002689497390510637, -0.07673899302659613, 0.004706664893272184, -0.2562415082698729, 0.00029530897679154856, -0.005237472419026039, -0.06855071880109602, -0.008477163835922383, -0.023541770120884174, -0.10026411205980838, -0.0024334016584732065, -0.02582115438034879, -0.011403352238078682, 0.17136904127334143, -0.03974430850687713, 0.009399639557197985, -0.007478900943244356, 0.016405810987369436, 0.00045638493923314287, 0.007832176290726882, -0.0032859735074208868, 0.05505563592270859, 0.027102625227963986, -0.0002159887380964701, -0.0018001816471421715, 0.012213348246116069, -0.0020787379534421033, 0.05413880529738045, 0.0070850069290768454, 9.74731638972426e-05, -0.034827997354281805, 0.00408816644390584, 0.0025570962030167467, 0.05462139553916217], [-0.0003179620237735706, -0.002615082606103731, 0.009421878245287356, 0.0010964892828492986, -0.0014440666861147435, -0.00012113064228283708, -0.0011203324253928587, -0.06206425165286758, -0.004885998146008905, -0.002980952573481301, -0.001065519365676258, -0.007541178267418164, -0.02183526513347166, 0.0016133946142994208, -0.0016400694231276341, -0.04156346820899029, 0.004074614901227986, -0.015323288845390642, -0.0075133474491775026, 0.03474546388995864, -0.022779514063953944, 0.0010317394830996278, 0.0037272090755236464, 0.012796154093724916, 0.0002887114818045868, 0.008596200225293425, -0.004342575768715751, 0.014519125822175951, 0.004121273854853732, -0.0005801565057833282, 0.00014515757827126305, 0.009448188174737903, 0.006099989278193765, 0.029076223519245138, 0.004810933407546055, 0.00033821626097979476, -0.013236834128322853, 0.009974855491945895, 0.00013408082004855545, -0.0006744380918901077], [-8.89276326988066e-06, 0.026695695790258035, 0.01388404812039337, 0.0002969908580168608, -0.0008549874831632618, -7.265817853740792e-05, -0.003506745518569737, -0.04342609456731092, -0.0073247600949304685, 0.00028066308735579784, -0.00019688735390860408, -0.04025086725990157, -0.04175888390049827, -0.00034319654344531293, 0.031511889189065626, -0.015975671966467923, 0.03967818687816559, -0.000354528389996448, 0.0001714377981042211, -0.20525765707512775, -0.00016871542012166654, -1.8867547683163684e-05, 0.0441107323406803, -0.0035701315561390873, 8.951547097920029e-05, 0.051968510843762465, -0.001874105632894785, 0.03554121442021894, -0.0009256033339190432, -5.650263912240004e-06, 0.0010706633425362345, -0.00010878269772483497, 0.0010030334911505447, 0.011724834889000956, 4.723897705388063e-05, 3.499423682041879e-05, 5.7718897873824524e-05, 0.07046094239999863, 5.8043996004000046e-05, -0.05725366738588008], [3.570997405809275e-05, 0.01912901024252694, 0.009564347286112523, 8.733351834119216e-05, 8.196616633707525e-05, -1.580450239155199e-05, -0.002369091164666334, -0.02340628458052914, -0.005141730310102423, 0.0008412990627894517, 6.2713492473063956e-06, -0.026069280784372872, -0.030664691554239544, -0.00029607742102631717, 0.020677849345399752, -0.0029165642718499757, 0.02563842294031566, -0.00015201710067040466, 1.7009893567861403e-05, -0.12643488422514051, 8.120944921608093e-05, 1.9552524291268032e-05, 0.028398205390361347, -0.002110688068798406, 1.4198515210166473e-05, 0.0343908835165101, -0.00012962260713012254, 0.0264790294359693, -0.0009682306162520055, 7.917310261561345e-06, 0.0008132661895106462, -8.922537812860442e-05, -6.203907136992476e-05, 0.004820967511929617, 8.010501646171107e-05, -2.9547098377523626e-05, -0.00010768888369101438, 0.045201347478164094, 7.990233714131623e-05, -0.03862268077718004], [-3.9132124860112434e-05, 4.5321474143019736e-05, 0.0001318847506484827, -5.3267853383074964e-05, 1.2016990345056945e-05, 4.4800917149620584e-05, -4.783195097206179e-05, 9.538488974194685e-05, 2.2145135727374566e-05, -0.00010390482101748636, -8.071183375119796e-05, 2.6352379247243006e-05, -1.4385630106458854e-06, 0.00022680620411603126, -4.551390436347706e-05, -6.708025194662162e-05, 5.4377562813271815e-05, 9.750331061075073e-05, 8.546238025744572e-05, 5.552816450669134e-05, -9.658498407065354e-06, 4.069357524197533e-05, -9.60724587792757e-05, -1.0718321048653194e-05, -3.064539615005248e-05, -9.884501650897613e-05, -6.806928495647462e-05, -0.0001137733307390075, 0.00013587819332133063, 0.00012107210222385631, -0.0001547052197647404, 3.143684477794121e-05, -6.780070430465927e-05, -3.027229413891661e-05, -7.945525161569662e-06, 0.0001800487501423136, 4.13407592799837e-05, 0.00014633548575330253, 1.228574004982554e-05, -3.825990518551037e-05], [0.00011971887681476547, 3.3070532308869435e-05, -8.409147984398115e-05, -7.265452988656637e-05, 1.0966638999032552e-05, -4.217137810951568e-05, -2.982651545463352e-05, 7.614343347246093e-05, -1.0352981330893846e-05, 9.604827412598812e-05, -0.00010715809397651107, -4.674880990285161e-05, 8.366430242379693e-05, 4.0857650558476615e-05, -1.8444809068599025e-05, -4.71808355425593e-05, 0.00014189737797768085, 5.614606840430044e-05, -8.448488598833531e-05, 1.092581868250098e-05, -2.7865586308059555e-05, -3.333621995697923e-05, -0.00011696829312173737, -3.8893068778054095e-05, 2.9644944787432892e-05, -0.00010263167143106541, -1.6382161679550827e-05, -2.7419744011763995e-05, 8.117482311922621e-05, 6.092816859914034e-05, -5.0405546284681935e-05, 6.527719375658154e-05, 4.104130994680432e-05, -4.668294572825009e-05, -0.00018500616294998834, -0.00017266358650972158, -0.00014172887527863251, 2.4114848943009535e-05, -1.1189303550930876e-05, -3.0104376533519003e-05], [0.00013365254164840278, -0.00020550120339135814, 0.00026134018539391776, 8.560631165862967e-05, -5.0976952213096256e-05, 0.00014887595076771158, -0.00015867972409481083, 1.7804036190506342e-05, 6.926376587946478e-05, -5.490913570228263e-05, 2.6898948795954925e-05, 7.207413451275864e-05, 2.8397078431264764e-05, 4.6484625142709114e-05, -4.3234144938662505e-05, -8.427217620608437e-05, -3.383887591228894e-05, -9.605283922503679e-05, 9.421422261503135e-05, -9.106295472285645e-05, 0.00013115139579120697, -2.9790239157454753e-05, 5.70765937735995e-05, 2.282073012515935e-05, 3.8506695915164904e-05, 5.449160052788919e-05, 0.00012364425990936024, -2.822813962933823e-05, 9.209440600097264e-05, -1.8357351693340006e-05, -3.820361598560714e-05, 6.039490316497639e-05, 7.204470962740396e-05, 7.11321212169798e-05, 1.1154312288877412e-05, -3.043669158156366e-05, -2.220997444818274e-05, 5.5892689261081884e-05, -0.00010912277267760133, 2.8311339317123675e-05], [-2.4602041796904258e-05, -5.119163198572204e-05, 0.0001231533823537316, 4.3283395425631785e-05, -0.00012159332773351993, -7.977133191249526e-05, 0.0001387492303463246, 4.229580168455526e-05, -0.00013199791975197436, 9.867892873256724e-06, 7.479673886776793e-05, -7.229618858222614e-05, -1.011086783491706e-05, -1.1474253372385393e-05, 5.5017026013646016e-05, -0.00019322357590385102, 7.212960302292797e-05, -3.3227564326212325e-05, 0.00015349151943065017, 0.00011516277021755198, 0.00010436314773962924, 6.643574764262157e-05, 5.660909737109876e-05, -0.0001332144422719342, -2.415625097587205e-05, 1.162434133282098e-05, 8.664980122380798e-05, -2.0744930552670946e-06, -0.0001127416918940986, -0.00011136356409222178, -4.704134747528525e-06, -9.157780256455836e-05, -0.00017077984914110874, -0.00019454928449683134, -8.722794658475861e-05, -7.937009497868081e-05, -0.00010765074133753083, -1.845122350783587e-05, -0.00014455012597060156, -8.349704297503181e-05], [0.0001565554490727356, -1.235503359085624e-05, 5.7922099583801206e-06, 4.9056990595624747e-05, -6.657222275613815e-05, -0.00011234517470703251, -0.00012395720155792566, -0.00011596551967949729, -0.00013448909662054268, 0.0001962541345729263, 0.00010179704180836683, 1.750697967493048e-05, -2.1060583410048412e-05, 4.660229316340592e-05, 5.8893950973935646e-05, 7.732956017870586e-06, -0.00017208386238663973, -0.00010081954296472716, 3.3181972243793496e-05, -0.00011232945258928033, 7.912659173048354e-06, 0.0001801395674000707, -0.00017209001992083127, -0.00010435579890339842, 4.5492722210779215e-05, 9.349559370412797e-05, -7.090036693412622e-05, 9.022646442176464e-05, -4.616129404102608e-05, -3.880771427236512e-05, 9.299125140437744e-05, 2.30915523875838e-05, 8.533168790562827e-06, -4.485776626143969e-05, 2.2240130918632655e-05, 2.006680001001059e-05, -7.533477913067969e-05, -2.6593840347578008e-06, 0.0001277343001647458, 6.904076935182154e-05], [0.00014835077788122065, 2.6691055199224432e-06, 0.0005156891045779854, -4.3216618778219596e-05, 2.9139570636978344e-05, -1.9570963865746007e-05, -1.1644486168431904e-05, -0.002326228755531557, 0.004624365038594012, 5.529967542563951e-05, 3.594290132989466e-05, -2.0260422467909325e-05, -5.4870281063761954e-05, -2.804710408498953e-06, -8.576838617928709e-05, -0.0021108041913160238, 0.0001362573107827389, -0.002212422131394927, 0.006964781820534879, 0.00013540528893530657, -0.02663016167339717, 1.3367521202813041e-05, -8.596018691166198e-05, -0.00010549126240856743, -6.36276345564657e-05, 0.00958671686488305, 0.00014537940489632933, 4.094224285287853e-05, 0.002450417004072698, -0.0005671761192306714, 0.0001308156858477979, 0.00512219598136696, 4.151980523295008e-05, 9.511734237548901e-05, 9.950500439719176e-05, -6.886250773064508e-05, -0.00020294568119408335, -4.383927531051722e-05, -2.7391315283375632e-05, -0.0003041828873141371], [-0.00015341774227002172, 0.00014719050222994763, 5.699379858766661e-05, 2.7706020745714234e-05, -0.0028044061912380794, 0.00012640599877321656, -0.00012648737166785572, -0.039263800726273675, 0.0014800914565060521, 0.00023171521416616637, 6.970779964757201e-05, 6.736290868532829e-05, 5.0021226628591464e-05, 0.00024824352526413236, 0.00011182354331727319, -0.0005771453763455714, -0.0001570501463274959, -0.0010658779828790154, 0.04688600691027139, 0.00011147303643798733, -0.00878638994639706, 0.0028439295847922613, -0.00012807450830740132, -0.00017467303540427017, -0.0002448158389473126, 0.0032812016856644546, -3.729231426637854e-05, 0.014890789836796179, 0.0008647509111049503, -0.013604311926372063, 1.5707594879597412e-05, 0.00828541438739678, 0.009056378149967266, 0.002844190297421578, 0.00015960452045168312, 0.00014473137365772392, 3.0156248157439673e-05, 3.832706219948121e-05, 0.00400682646623616, -6.894300972726956e-05], [-0.06379928815937687, -0.013904079982712992, 0.053588117229181435, -8.498021743599007e-05, 0.0002084938006444656, -0.09507990391500162, -0.0005137453031981795, -0.06195110053175774, -0.0005911757313114652, -0.0010483902296921817, -0.014569366565607622, 0.005707028099557605, -0.010077886788902686, 0.0025761806687567717, -2.63826134162369e-05, -0.01357189963076449, 0.001368957125220563, -0.00042692638514357025, 0.07095360503601397, -0.016897950711895326, -0.00014819980874839487, 0.0034565919068542082, -0.07215822070929669, 0.10046611285850612, -0.06264188182001658, -0.008165036412772081, -5.241189402663054e-05, 0.11678745903235786, -0.000779134077829089, 0.0497703659004426, -0.0006851172072462008, 0.017386505498141375, 0.017748251857000907, 0.010694198987317166, 0.0020750057032345548, 0.002902494287492704, 0.00568953452573849, 0.0012052352185324793, 0.08862278160868284, 0.0020536819635315617], [-0.06580119703095812, -0.051272656501732086, 0.1351688536729177, -0.0027348548660555676, -0.015511074458831781, -0.08716596000486378, -0.0024398363528993694, -0.09969847276207715, -0.0044661889775870255, -0.018599981484235126, -0.11690828198391447, 0.006200274106181423, -0.021189459574439337, -0.0014190120587313777, 0.005297252661836773, -0.053948587645136166, 0.013089991930535923, 0.013725765543453158, 0.10907867377842717, -0.011933337117619267, -0.0010517745830644775, 0.01433357371609498, -0.06865287796646584, 0.14599499073208214, -0.07297589119725546, -0.06396219458839508, -9.792729362453912e-05, 0.24821937906733993, 0.17971644308273993, 0.0670422957059013, -0.009394824635280274, 0.03307809294701023, 0.12001905410077508, 0.011572145444747734, -0.008681978207608783, -0.010816194699507902, -0.08671213089105333, -0.05322438663310318, 0.0984714956355248, -0.0029240664362863273], [-0.10659391380461383, -0.014929327506968954, 0.10986327510863661, 0.0027976968487917575, -0.11301122740134455, -0.046959563235207634, -0.005055589574484601, -0.24468298036559033, -0.023657627310631223, 0.04655907114519089, -0.2117042520601159, -0.01390146989622118, -0.04346654782610176, -0.009492975960545363, 0.05233659154506809, 0.029136610318385485, 0.06399923667781346, 0.14888206369251125, 0.19135496940841418, -0.08695511299748204, -0.01972116952740096, 0.05228110784482081, -0.056380092641399066, 0.1045666625911396, -0.07455344482918781, -0.06215307626022125, -0.005300357917216982, 0.2088550298335656, 0.20584736273420245, 0.09222825674072295, -0.02278659420229915, -0.03834694168227909, 0.1537200250709407, -0.021843722172326753, 0.0017563146379637664, -0.021918150655809845, -0.06167817925914427, -0.03811792225456417, 0.1852550679717088, -0.023668500598929502], [-0.26431406046950245, 0.02123960864145567, 0.12165962093338765, 0.030675761291151, -0.019183853544250385, -0.10503873927606569, -0.11167914984923186, -0.2614217667143421, -0.08789909613520407, 0.1572125703233189, -0.7466206501903537, -0.23008115330540393, -0.17976806471346599, -0.11304302102075699, 0.3714959813734346, 0.004427831018030021, -0.0030974200675245667, -0.15185878682733966, 0.10294108902588894, -0.3372462621956237, -0.14653425136145265, 0.0444463657085132, 0.0912675436260152, -0.10485316191281147, -0.09274104595636938, -0.00027730581732444515, -0.08305647863980702, 0.18867784893902945, 0.09502986720340803, 0.07321983022892466, -0.008893839653695983, -0.00020642739091085628, 0.08115680864441364, -0.011923373011732474, 0.03268895375640106, -0.06288909574728647, -0.14806741745291524, 0.03719430191214739, 0.2377806398626554, -0.017449676453809192], [-0.13256106254836916, -0.038782455643759504, 0.2355137537669725, 0.07439276431825953, -0.1882486837849215, -0.1660180919362687, -0.07833329606480337, -0.5491903350069705, -0.125791622120227, 0.03834426442730801, -1.7319118342880866, -0.16512129536780132, -0.1801813253709168, -0.17565492397014623, 0.9500316947669455, -0.13762726592449057, 0.0938357949705247, -0.9377223351830974, 0.20211587252575214, -0.5538029826099269, -0.12726271337940567, 0.11107764241714406, 0.18284249419106485, -0.05012534674433635, -0.13865984706188259, -0.16413543066929612, -0.269706454784561, 0.30284941847003755, 0.08358440144263639, 0.023792221069381614, 0.025295217226598766, 0.2564484390498094, 0.15471549600264783, 0.2042462038836954, -0.09560960119302517, -0.13856970023414217, -0.222963720937324, 0.009432775277819983, 0.06045188782686031, -0.07972512370899132], [-0.2453861351789353, -0.14296829479417728, 0.12535165172566481, 0.1304836284731923, 0.15345031870697878, 0.011820627154925593, -0.15658968298122078, -0.6510015548076908, -0.18609559262909925, -0.0847349418714865, -0.5325993493196925, -0.12509995818013692, -0.21947132976588946, -0.07800410891889298, 0.8377187399215565, -0.031618515065000866, 0.29095483279978795, -0.797219651311196, 0.15604108398290906, -0.4794713284766879, 0.28352153432009936, -0.06522147038997632, 0.23728986726437756, 0.10958769783637178, -0.29921333574038117, -0.22314618012995832, -0.37737606850750466, 0.44499319285351385, 0.14275992521598155, -0.05511912460269103, 0.03183665241491574, 0.16913920611634967, 0.3208476855049672, 0.24600915327604744, -0.12525544375903455, -0.0990919477558729, -0.11993998845299221, -0.06394713810240588, 0.035016230588536264, -0.2874709486187222], [-0.36308359082487246, -0.35152972669921806, 0.14465959426223776, 0.19042458953427244, 0.3828106316340275, -0.0693251770022264, -0.34265752954313283, -0.9176610664175013, -0.45003015358006143, -0.07742156309144443, -0.39639249294671663, 0.04471179432770402, -0.6053063024593482, 0.06621065404393883, 1.1115007400554113, -0.040081869785846984, 0.1853117170424136, -0.3375755680014033, 0.5359771143028291, -0.27250059152008355, 0.24169569215613787, 0.2016416228470287, 0.0777884657600339, 0.7709569406875579, -0.964954181999555, -0.252131024003656, -0.42036609598980296, 0.2756423590219954, -0.003578634470230659, -0.14799499076855435, -0.04134338287034871, 0.905754072815475, 0.6531625130634977, 0.4488564481096807, -0.0891699735326747, -0.2121125724363464, -0.07029756333477145, -0.10712263221090074, -0.1489195835746819, -0.23561803687333152], [-0.1928559698560386, -0.05524259074163641, 0.09888689547920364, 0.15173974668956683, 0.7239716316286677, -0.2539531153672476, -0.2923862974526567, -2.0786552021813884, -0.3293922179083066, 0.004954477794132733, -0.8739503526500577, -0.2279214535668548, -0.594319978902781, 0.04152768897088974, 5.926078938200893, -0.0736676056781321, -0.08019463678604807, -0.4169980565168227, 0.4873715040560527, -1.5652537839047411, 0.001283636662046459, 0.20936454187517278, -0.022096712286491793, 1.3351798453951709, -0.42081603759144676, -0.026349253567090766, -0.18854371060774403, -0.1055040539890071, -0.19936433963319558, -0.2739225127871866, -0.15662832175840177, 2.8394739330144563, 0.54175783843909, 0.1821228847357232, -0.16919578219929665, -0.209290130331243, -0.2663685178192041, 0.24696606513327776, -0.057571947385449046, -0.24465433724772123], [-0.22240795419867326, -0.05671064267751028, 0.061628502683392074, 0.19440804841236448, 0.7727486322680444, -0.30141523640484497, -0.24565814458860874, -3.670538354399192, -0.5073847283111962, 0.12063573870771943, -0.8451114240283567, -0.3843484316324982, -0.7909439106048742, -0.05388300618838755, 1.6984818688725274, -0.2225799177224863, -0.21663995838087688, -0.7312835665570347, 0.306445482410954, -0.4729103210992822, -0.6034118594056812, -0.00417448682849857, 0.07315896401473639, 0.15475583656725697, -0.03123453022084778, 0.013423959062213062, 0.07668649872964212, -0.36879327969428743, 0.31226243404561393, -0.12172303143487001, -0.15037868205955898, 0.6249506037537116, 0.265741366687656, -0.10374181662565705, 0.20059725041828663, 0.2930762662877611, -2.55962308762739, 0.5176723141699803, 0.31701515801035046, -0.2438307497005994], [-0.2723536211631032, -0.13404464027424326, -0.009546054869231633, 1.2625868869429662, 1.0537015324147894, 0.0803598780784138, -0.7378434307288291, -2.3870518535328964, -0.6020982389345211, -0.00599405044752475, -0.3800800228499508, 0.7255447036901872, -0.33916040068017367, -0.2500558123646719, 1.2668159781459587, -0.2958891830360665, -0.23782075955540774, -0.2597292034389632, 0.16548416286724568, 0.10139138856929457, -0.6872437130037851, 0.12174927639002672, 0.2902134744328508, 0.08670345498949596, -0.13121786313869183, -0.13036947928581333, 0.0005947209130480339, -1.1600004569062117, 0.577296473330401, -0.21291397379086532, -0.043566248727569444, 0.23003412766621692, 0.1444604014033873, -0.1771300812949197, 0.8748736363266025, 0.7089948817012984, -0.6188801840822628, 0.4686927105316105, 0.25396744917979946, -0.43029014075026434], [-0.01779368247583231, 0.21245832447240667, -0.14853759354345702, 0.30249307152859956, 0.6755039431415164, 0.15716142930859975, 0.11967457604474763, 0.42172639778564286, -0.9628834273423664, -0.040744265162173054, -0.2546667307069308, 0.8986877419131568, -0.47977364126703625, 0.17284234599775294, -0.018224779329822707, -3.429741348816605, -0.15259051041103952, -0.2921398463746188, 0.12162438445566802, -0.4974763281516088, -0.6393223456000365, 0.008387646206628149, 0.45683989046535306, -0.2634067330065902, -0.12526279143235286, -0.2851745358449039, 0.14441192741372622, -1.0063361907139108, -0.6209130653257583, -0.05302302520441094, -0.11048716684293355, -0.484522780271281, 0.12773373609889022, -0.31957226270549954, 0.230903221414287, 0.6458743032512657, -0.060480917597319134, 0.572859025502997, -0.1584846755661569, 0.033106244784355525], [0.12506709964082838, -0.01835078193925184, -0.5823328968745421, 0.20637251056094189, -0.22118311364522877, 0.10527758298684176, 0.19084148381600025, 0.0020796558653833667, -0.19432107112124092, 0.5007094365752165, -0.24492435598269108, 0.3719398895402741, -0.43110827030351084, -0.1236804101165266, 2.2989017310378106, -0.22621028408886676, -0.1799775870859873, -0.3025537387823355, -0.10318771677709837, -1.003827078238664, -0.33927673946344894, 0.5281586111444547, -0.1867104586745189, 0.12465661434740781, -0.21840455303184053, -0.5087220971187189, -0.3372261467634765, 0.22238766544039368, -0.4200116104124362, 0.1925882686969027, -0.2488298094457615, -0.05261710793908558, 0.23259102998921702, -0.06818885779819168, 0.25129434342568985, 0.0119596159564055, -0.09524181003784053, 0.9137417952576304, -0.7992835932884775, -0.1031500895131724], [-0.06147031894551667, -0.6685006449815484, -0.9310852793237719, 0.12849921999981143, -0.35482900316499844, -0.00296963432405354, 0.2636701574448996, -0.6800073227530627, 0.0887383425638744, 0.21001357448113117, -0.07123259101418856, 0.22763451215584576, -0.3042676121995153, -0.29615629245987957, 1.5232721735807395, 0.10443799884689428, -0.20870792103092123, -0.1348966407546688, -0.19430168486001634, 0.1470482857904065, -0.11053921131823664, 0.34334853624995465, -0.7891078232870294, 0.4184910991687627, -0.06840328279013116, -0.26092098172816225, 0.16520597149466515, 0.7181044568102252, 1.8526858415947653, 0.029275763219202718, -0.2047958841985975, 0.013694493864710921, 0.09166864091400492, 0.34511784903300013, 0.09667775043014386, 0.2987239210472972, -0.03648088851640764, 2.1877293452678526, -0.29527540339358743, 0.09706942102085622], [-0.06045977402824379, -0.15086863407190254, -0.526888123595548, 0.20091817722809419, -0.1308861952283361, -0.18906495046851307, 0.5039709174203554, -0.8164272988484503, 0.14613234917338286, -0.1123874940978367, 0.05393821554300084, 0.19361004091456202, -0.021363806818412965, -0.10542972028803602, -0.0708311990914129, 0.2158849046153509, -0.22913744656080054, -0.10336707487992555, -0.19253379400855322, 0.0623382202429482, -0.009147294863344773, 0.0522272983500273, -1.1710365687330524, 0.27534372863359785, 0.45635889454409273, -0.2041132532276203, 0.5039382090314255, 0.3256435342241365, 2.32081457349486, 0.08605226572700088, -0.2149855313654391, -0.24809196122604776, -0.004297674685092059, 0.13110003537524084, -0.09648816983918461, 0.08737515384174838, 0.02599111710412333, 0.9846944710909311, 0.6338006500859141, -0.07566767966627931], [0.25037083550609374, 0.2387843139978246, -0.2722580230320843, 0.0021921565055024665, -0.2522938224856952, -0.2436529673175485, 0.28086083488643443, -0.03728262481730889, -0.38943786164904864, 0.10493959714249364, 0.31846314762355366, 0.2350682205428961, -0.0036278296997248167, -0.2581488014291514, -0.21329374783193228, 0.12799251831610786, -0.09016895155069198, -0.19275549279266005, -0.1434320681473783, 0.5074526713731693, -0.060412049556631056, -0.10645897270079616, 0.0616433755440901, 0.359026451787935, 0.20657637473678245, -0.0276016593903493, -0.08807906301756459, 0.7182096133149438, 0.7532633723053075, 0.15917212190357752, -0.13868443628736726, -0.23573665038066263, 0.2330233112908125, 0.19423456552127966, -0.6047510867534827, -0.2077231491122615, 0.04772683426066582, 0.6335725786460003, 1.2044361265560448, -0.6215025057911326], [0.187274117545059, -0.029079057874181108, 0.19468627806122843, 0.07962133864856281, -0.055486122031646844, 0.004073340031866252, 0.09626461994610483, 0.14339985179284492, 0.012364488208342727, -0.2512764722627245, 0.3501693379732185, 0.15420314906685972, -0.17415451653887862, -0.20263407076343914, -0.19892581874752183, 0.053253667582492586, 0.00048021688965507595, -0.09885296309173798, -0.12187050966045389, 0.9211971846145128, 0.026459676027278105, -0.034137642362864096, -0.15943094908403097, 0.2846023054524931, 0.105628222458415, 0.19001631576610206, -0.35324536583637667, 0.3712597861883773, -0.035673807984310316, 0.3580697397548863, -0.01812371641662297, 0.015274328288913057, -0.09668889803008482, 0.015475768121393707, -0.14771919422772634, -0.07228004016094243, 0.06999446315540607, 0.16176304834082736, 0.3718014222890675, 0.06531281692143896], [0.08963835086343927, -0.04498118788725863, 0.10866589306783812, 0.5649062206210052, -0.4076244679172898, 0.03156251730720017, -0.06996073064835374, -0.038406515487920956, -0.05918379108715432, -0.9053327632841048, 0.017093163666282902, 0.07696010537512107, -0.1883883401244505, -0.1049762569191183, -0.1257332992902395, -0.07358686757515935, -0.12151363506017855, 0.13645804824802377, -0.08506190442842103, 1.0560136145812333, 0.11210665719931784, -0.08912427373255455, -0.1843124701420528, 0.19035355631370213, -0.32432456133174375, 0.057433967462662, -0.24627129353894353, 0.14482386725429025, 0.03863234579512844, 0.13966736872169322, -0.036072705855821355, 0.026840845719794275, -0.3349916348949482, 0.03400134089699861, 0.04745640492685641, -0.13787948859732554, -0.007905849701417998, -0.26860395158769595, 0.13817181290544697, 0.12006972301742795], [-0.021267012434387944, -0.012307818223005215, 0.07475389763899007, -0.01513650437550623, -0.4292870342543778, -0.007201364340013551, -0.056087580890021006, -0.11583978198016984, -0.06847017907869604, -0.25155890749993715, 0.03556985971996339, 0.15932545951748955, -0.20225457624554619, -0.013382765063965633, -0.151798900156791, -0.12950667002466848, 0.006019690095875774, 0.08199712175804252, -0.01629083470373224, 0.8573183739585842, 0.052139527703129594, -0.06511161532548163, -0.04644069994461399, 0.10764023702350531, -0.30528577077095786, -0.042586343340289816, -0.05613065038950823, 0.2992841898341696, 0.14893457825816214, 0.1175205622491488, -0.06306721391168586, 0.07274585835402679, -0.24237056179931318, 0.09735241452618952, 0.13720327317428674, 