{"layers": [784, 40, 20, 10], "penalty": 3.0, "mini-batch size": 50, "bias": [[-0.62060312720562, -1.069314563234512, -2.5092633982166954, -1.0686885647563258, 1.521753727355801, -1.7801829589315616, -0.3461163417734715, 0.16352426710801837, 0.6072410819868043, -1.9787695277377682, -0.6831701020706458, -0.6574033329105585, -1.0357732604653347, 1.220798525178046, -0.49533184607347486, 0.5052486651369537, -0.4427546740475135, -0.20926271321204612, -0.6762958578281966, -1.334621637984513, -1.6112089049648393, 0.3311191089102226, 1.2976486883853344, -0.3871628993267641, -0.2681783719760337, -0.4500584466593748, 0.5775951213592632, -1.110270935396305, -0.6200766531543759, 0.0908279121335632, -1.224996943499767, -1.4786515752480518, -1.0904414162785279, 0.6546633519368653, -0.035887067920846116, 0.24978100950168802, 0.26712829229283475, 0.15187607178308432, 0.3007079242348251, 0.05018311225966025], [0.24684152425631936, -1.5008010367148066, 0.006126077049088803, -0.24483088148457785, -2.200116094100305, 0.36477948488021633, 1.3960206450615305, -0.6587598109315135, 0.8172957863486998, -0.5676612222899976, -0.18667423660620386, 0.12689296619830714, 0.108909399159436, -0.9611938774962993, 0.4380795095970083, 0.7103947391771491, 0.5432994773506021, -0.5851009147514452, -1.1732884654674287, -1.3684106988042484], [-1.8428590785478025, -1.3685077824703762, -1.0091729541017191, -3.1400019141595767, -1.2252652371420776, -2.2734005600440543, -2.441082000381778, -1.603843658104042, -0.1095835693065088, -1.4595800555487766]], "weights": [[[0.00016430208865329758, -0.0014261478648209152, 0.004232771833100504, -0.001296393466488301, -0.0007520132067918725, -0.0024797322823499573, -0.00034326427153991325, -0.004767421427291734, -0.0008005441192076294, 0.00011344927363701271, -0.00042318561632356285, 0.0029343566000230455, 0.0001961227491233012, -0.001355851037180502, 0.001271539921844501, 2.211157403464777e-05, -0.002582332434423531, 0.003540855809768517, -0.0033607881914364773, -0.0035478816704847945, -0.001729149765322145, 0.003831348538765665, 0.0023181334441822357, -0.00011105148310719374, -0.0012737955278264814, 0.00013488418187574368, -0.0008595885935342063, 0.0006925530440528764, 0.0017906372981201712, 0.0011549764947086261, 0.0006653679081581788, 2.736285992448193e-05, 0.0018022108735823628, -0.002751971301053158, 0.0006276856741081306, -0.0016677768062172641, 0.0009679381234416236, -0.0008864608218198494, 0.0014279147786029874, -0.0006070088261001568], [-0.0008745132647831664, -0.00029217651794139914, -0.0011572217431866625, 0.0019248265358232132, 0.0030749430753479073, 0.0016984036040883486, -0.0003246850312789493, -0.0005559538049605679, -0.0017930789566080727, 0.0024649499145171293, 0.0008857677823206622, -3.7388943693790334e-06, -0.000872421997905813, -0.0021943841161455773, 0.0017996206757500547, -0.0021617897851467795, -0.0015935154536426688, -0.001278984665773989, 6.776055356754525e-05, -1.2556412930862458e-05, -0.002074042878759115, 0.0008650011339811982, -0.001767991620086505, -0.0015612945078806065, -0.0007231172389820012, 0.002129204550913648, 0.0004022890088586501, -0.0010172934002555094, 0.00106241628331274, -0.002037134785454595, 0.003656124491372468, -0.00013584455795620008, -0.0022890553896296258, 0.003085933440208489, -0.003166877781884762, 0.00035562502441637613, 0.002749331257696685, 0.004336634506192482, -0.002426599548133637, -0.0007566839639385572], [0.003580969409726524, 0.00043787118763607253, -6.294839513667741e-05, -0.0006383710913676165, 0.000993535811717137, 0.0011023779902535175, -0.0015159003684332224, -0.0017011683896720172, 0.00013048368459085363, 0.0009277928807468527, -0.0005112475403279127, 0.0018948918552441946, -0.003851730159900942, -0.000331873095188665, 0.0014073560687789303, -0.00024377863825768582, -0.0010168991769413979, 0.003927815641464989, 0.0022072073696407105, 0.0007190863842524565, 3.437870264927918e-05, -0.0001568104932484647, -0.0008604206028800972, -0.0002882077850006702, -0.00035879833133825524, 0.0018331079516135692, -0.000623468473827966, 0.0013741287782720398, -0.0009497506122611091, 0.0026854174084723925, 0.0007211554555678614, -0.0016154319422842795, 0.0014758076919141213, -0.0020099063128973366, -0.0006522659613339042, -0.0005634315230397677, 0.0022069614350634314, 0.0010810530898084333, -0.0011824343601246473, 0.0030876997491502537], [0.0014457316188310932, 0.0020558930795932825, -0.0005646762766577505, -0.0015602079209632374, -0.003208263591092716, 0.0008634006582844205, 0.0031810646074683, -0.0017499312293100902, -0.001045538644200089, 0.0012981907057883987, -0.0010898479210742897, -0.0018301042478712677, 0.00262332300400221, -0.0013314558036467872, -0.0016443821420143957, 0.0016877737094870343, 0.0016852462024193984, 0.0001359138186086892, -0.0006902840803189329, -0.001689943920333384, 0.0014310313857659556, -0.0009079062445155076, 0.0008749593623528747, 0.0006817112054696061, -0.0012506713492378993, 0.0017612935944011352, -0.002505811505775609, -0.000873395377100767, 0.0012474509823543166, 0.002088737280589722, -0.00112790313562511, 0.0015934539762923626, -0.00010594216747415116, 0.00033337035229317867, 0.0019067920947694553, 0.0009058073883000035, 0.001054032554649804, 0.003294678802554638, -0.0014747519272766446, -0.0018920338664412874], [0.0012800886271100015, -0.0027460124407817253, -0.002392142385889341, 0.003088693118430052, -0.001983624826634448, -0.0007535758381831198, 3.0507062425020917e-05, 0.0002188361175232237, -0.0007358661095779875, -0.0016560897430757022, 0.0012221348728299734, 0.0005451013266348115, 0.0005626105047825324, -0.0002540464315571276, -0.002120926181944378, -0.0002693540517999342, -0.0018697492549225162, 0.000895170738063537, 0.0007592758683758501, 0.002043880745638992, -0.00018103825328186413, 0.0005721353120839988, 0.0008581880941314022, -0.0019808593289760206, -0.0018522991753026836, -0.000840296127151519, -0.0019272479779374595, -0.001171454132062006, -0.00285072126657448, 0.001218133192337042, 0.0011824810381759804, 0.0003738883333116798, -0.0014252451285838832, 0.00040135961447234167, 0.00040461162815305337, 0.0025670455292265888, 0.0011503684171670129, 0.0007194591393241985, -0.0032709189132893455, -0.00220024578186473], [0.00046712667745551557, 0.0029412677758680096, 0.0024033128098806316, -0.003804629579440926, 0.0033943802319496585, 0.0006711114719507277, -0.0016567705005321055, -4.528885917023955e-05, 0.0014572023876048468, -0.0033196829620251826, -0.002718458927768023, -0.0006343847666798447, 0.0004791522012115294, -0.000346224990080566, -0.0019169356108485127, 0.0004963884073828804, 0.0004031116466032265, 3.9790157899383446e-05, -0.0012830536626371833, 0.0005771581426608341, 0.0027648510406799586, -0.003039026843646015, 0.0035310153557307554, 0.00030521737621925084, 0.0002685071700276464, -0.0009277418835217107, 0.00022269807313218947, 0.0007998261275127612, -0.0003521600082492765, -0.0014959101624699048, 0.0010540102944286952, 0.0006039446750435831, 0.0024214546836892133, -0.004368916889782, -0.0009369785415366053, -0.0015660031167769196, -0.0009499594197864635, -0.00016810188558962695, -0.0008310224019901518, -0.0010054486631371903], [-0.0010455898897458607, -0.0024155629449030256, 0.0028492298515005376, 0.0029991401650649664, 0.0002738473640529182, 0.0030086961623238487, -0.0006594664517433659, 0.0011328798095598463, 0.0001416944555676056, 0.0020901960997970186, -0.0003718669939030129, -0.0019590944362355457, 0.0020360542847756525, -0.004099820659766334, 0.0010506865230521442, -0.000548400271339382, 0.0005273416483869666, 0.0020351731842100304, 0.000934314174309827, 0.0006485955742505939, -0.0031474611479239737, 0.0002784189454241967, -0.0014102150681568264, 0.0023791339089582466, 0.002551443200238023, 0.001553545516352449, 0.0013584543330508172, -0.0015779931111614528, -0.002876187181887804, 0.0002454471902724285, 0.0011945296312225275, 0.0004275102220932141, -0.003530829135728468, 0.0002716425626124157, 0.001488613921018665, 0.0002494294804964618, 0.00029936892239489603, 0.0032005995809615898, 0.0027851652525625998, -0.0031471403798641094], [-0.0007067829457069095, -0.0028186269608013433, 0.00046085198162978193, 0.0009406088814698193, -0.0007483489889580948, 0.001855891097516211, -0.001482685837402602, -0.0001208627685385863, 0.0035167308621948056, -0.0020040441388531178, -0.0012492070119614186, 0.0002173810324554362, -0.0014023271073743992, 0.002217867061698754, 0.00016435227686098438, 2.9615036105976794e-05, -0.004192879232066056, -0.0024940964011498025, -0.0015945270241090148, -0.001113971420875635, -0.00019180384658723032, 0.001042641946634617, 2.5690305581630292e-05, 0.0003073872922011338, 0.001161494881538161, 0.0032642434130008393, 0.0009840376465213973, -0.00046007940795090993, 0.0008826152457031668, -0.0014665111908902949, 0.004631243240887559, 0.00043336648107628517, 0.000688611640417479, -0.0007218620528426184, -0.005576085173581785, 0.0003671697098994376, -0.0005953090459800976, 0.0019028304690031433, -0.003248915966283404, -0.002103817415268686], [0.0015193030527750847, -0.002314833350874706, 0.002430510869535902, -3.475933492948706e-05, 0.0013451816286346148, -0.00011566141033220271, 0.0011554616543111994, -0.0016883451207804524, -0.002181129039214766, 0.0017018072811900333, -0.001968631158803505, -0.003113761726534233, 0.0007782836964146231, -0.0019098844704842134, -0.0019967505209387264, -0.0006722583716348114, 0.0005025629907709041, 0.0012953040601288727, 0.00014865172703942185, 0.0021705137170180784, -0.0005244384369885702, 0.0003147537497685648, -8.797687357200952e-05, -0.002730136889421127, -0.00018618622242419684, -0.0016028355287035275, -0.0007209781633602494, 0.002331895983236012, -0.0016376776976800966, -0.0014920122671162842, 0.001356225233881923, 0.0008388853353753905, 0.002078623404499217, 0.0008825836418020907, -0.0027336893344413384, -0.0018585053210332307, 0.0012620271939547721, -0.0001377465228542685, -0.0004407505807961503, 0.00040614086260948453], [-0.001340712243518866, -0.0015381837615135346, -0.002289172440306342, -8.455764714324985e-05, 0.0018140551626696024, 0.0003474426529044967, -0.0011193989435270045, -0.002587664590836975, 0.004661383457641948, 7.109594168251531e-05, 0.0015556005522499561, 0.002149755222907128, 0.0004909689384395311, 0.0008147629486992607, 0.0007280640094754698, 0.0011766825999211573, 0.0003800422797226445, -0.001029879729686662, 0.0013136981350671808, 0.0031303571895940204, -0.00015480483885159797, 0.0007628946295248548, -0.00028581800687107166, -0.0019025800944396979, 0.000936082353824529, 6.512409401114191e-06, -0.0018140106478606078, 0.002586215675662965, 0.0013572886718699391, -0.000782608837868938, 0.002075246811082705, 0.0018248168857132486, -0.0014959821303324949, -0.001959577517304655, 0.001339799956685438, -0.0005740162410844243, -0.0014966828539449118, 0.003109518955425227, -0.0008734208769185318, -0.0009964160185415708], [-0.0008446452161985113, 0.003985098072586722, 3.728817026904363e-05, -0.0002937162297784729, -0.00030308177993960625, -0.0009100749088697178, -0.0008660112840874131, -0.0018816585326915233, 0.00047550897137653935, 0.0008171294620884033, 0.0017703339809164399, -0.006699759508788446, -0.0009524690770719559, -0.0018312700026355219, -0.0034220304195700024, -0.002389280536307084, 0.0010899925836219877, 0.0032180219606238788, -0.002362101275912337, 0.00014297692672994968, 0.0004861341597398637, 0.0015834373462475678, 0.00018698291817884362, -0.0017078950793069502, 0.00234805164374606, -0.0008467685231071817, 0.0009015887789394977, 0.002095951481194596, 0.0019057713398370655, 0.004738735400168594, -0.00031502880609475515, 0.002307157239234916, 0.000319213507739683, 0.0020523489286535857, 0.0032876798466693244, -0.0015704142429459017, -0.0005250902124442043, -0.00025456820743507725, -0.0020814417314169655, 0.0004166727114063535], [-8.551019078692177e-05, -0.0003119429276092217, -0.0021626041195869587, 0.0002987876332875879, -0.0024751814886782458, -0.0017767568200851146, -0.0012453527972633067, -0.002343811631466333, 0.0012175634799035356, 0.0012938717316733999, 0.0005131850192511229, 0.0002894995169381764, -0.0004634819754134809, 0.0002485249507080692, -0.0006272863279106437, -0.000571607236631982, -0.0007786488875440008, 0.0004036092393522057, -0.0026520086761512777, -0.0021161816918290987, -0.00032760910159984055, -0.0027806419487594104, 0.001869731141638149, -0.000805230187300063, 0.002377027095300667, 0.0002290794303727992, -0.0020128675734640447, -0.0010899978488266757, 0.0006401210400356667, -0.000745217736595484, 0.0009914482065035985, 0.0009734258968462103, -0.00025365214909557995, 0.0018098397921039045, -0.0022538882988205507, -0.0018218799530515448, -0.0018713586888270128, -0.0012059398396778223, -0.001734973919251149, 0.0021167775895750644], [-0.00023629201104992547, 0.0012056347340674665, -0.0014317840897491727, -0.0018723829371470613, 0.0008226766045687459, -0.0034817132065692205, 0.0019438328913040277, 0.0009430981406803506, 0.0011446730577117318, -0.00072536052120212, 0.0003869718930863849, 1.3303377543286098e-05, 0.0015631521195911223, -0.0015944781900541062, 0.0011787392951739392, 0.0007770815719637319, -0.0021388079464295206, 0.0025686466741380288, -0.0003477775062450062, 0.00017846623256653337, 0.0021541941767574796, -0.0012129858208310075, -0.0004045265416323552, -0.003601616539718892, 0.0009864185966038741, 0.0017501017647712602, 2.9337406830971188e-05, -0.0005801498438009173, -0.0007477393926005646, 0.003318622441499856, -0.0015899718286673842, -0.0038536811938239693, 0.00025583371917429056, -7.730629522316136e-05, 0.0017865608904063415, 0.0020809178801284092, -0.0006023989684108657, 0.0034463940951082717, -0.003859943487447873, 0.0010185129254348954], [0.0022155757484358467, 0.001576171604547806, 0.00017186134633624325, -0.0006862417675038646, 0.0001421334379570297, 0.0019171329327543672, 0.0018479542995792023, -0.0009429241129327797, 0.0010291967481299699, 0.001086205216105184, -0.003256783939350466, 0.000855024458511504, 0.0011440822103583235, 0.00044879644366524035, 0.0014238975214830019, -0.0004005951817318225, -0.00039508254520690046, 0.000573442158818996, -0.0019397520042735243, -0.0010595360560193487, -0.0007595890384471508, 0.001244171641650183, 1.0456990895978378e-05, -0.003847450742302297, 0.00013650561208261794, 0.00267141630350252, -0.0007873397830435981, 0.001275757610665567, -0.0011874157528641253, -0.00012921263460144295, -0.0015412609368148148, -0.0006469915173689741, 0.0009735601821001511, 0.003102349786170695, -0.0013547088999062284, -0.002246752888315539, 0.0006525691369925875, 0.0008629438354122566, 0.002724012450033702, -0.0035573605525807146], [0.0011449981501673874, 0.00016302112915485118, -0.0006920862943444732, -0.0008605512873092902, 0.0003734304166142451, -0.0018560392668365586, -0.0009944052144362225, 0.0017397638224931804, 0.002505197967569865, 0.0003893478619346619, -0.002500289312239311, 0.0021263385167730295, -0.0038861786654591697, 0.00034867723138035626, 0.0015685460444920338, 0.0013783685508034914, -0.0014217268517218277, -0.0005271864239075072, -0.002563179707636187, 0.003124794942061338, -0.002590669341678107, -0.0010829594101192611, -0.0013372594231973946, -0.0033178499934144175, -0.0009990351578542775, 0.001406885020596236, 0.00491221608100568, -0.00017489508816091086, 0.0015159406732601244, -0.00041952557195981335, 0.00032645501686213226, 0.0010239468084108003, -0.00024870065403301777, -0.0013002270526089302, 0.00018918736724822942, 0.0003478931742381662, -0.0003122432515595761, -0.000992726961961684, 0.000480315127733161, -0.001314257542859764], [-0.003088431462395983, -0.0009293101599427557, -0.0007606455959855499, -0.0031424358930075354, -0.0006302327201748408, -9.655702400332932e-05, 0.00185340438857819, 0.00047706499961603933, 0.0012467016117506146, -0.0024580122222231074, 0.0006792194622876852, -0.000468503859902855, 0.003288120616848803, 0.0010505797651749265, 0.000928459450322225, -0.0004075473478150222, 0.0017025307690525196, -0.0009301984862623007, -0.0010606587527011635, 0.0008655178228127643, 0.0028093274779314756, 0.0007158420176837761, -0.0026843681589955467, -0.003003252481779602, 0.0010373461645243585, 0.0016863759153733472, 0.00015665453731727238, -0.0012528581409118173, 0.0022412401866645213, -0.002239895961983542, -0.0016670956758084846, 8.287179625062762e-05, 0.002869469984153238, 0.001163305284891982, -0.0015290514029837638, 0.0005250868496804646, -0.0002631681492518542, 0.0014696343339157753, 0.002158080672953288, -0.0017566513999857521], [-0.0007001019424121234, -0.0019952706834993803, -0.000870439254021251, 0.001879775029459006, -0.000743084506588563, 0.0030576593949120075, 0.000678308020411259, 0.0005493328711901579, -0.0010896567833767242, -0.0024415635534150324, -0.0008374612200932745, 0.0009741825331604877, -0.0017273431535419013, -0.00153361138848213, -0.0015823676495653354, -0.0011442621168935223, -0.0007794783833080683, 0.00010836511536780457, 0.002619268425994994, 8.162558431473789e-05, 0.0029366925088498315, 0.0007457046974534383, 0.000786688159700211, -0.0005907302739904521, 0.0015529934123581356, -0.00224056081579405, 0.0003752335104390724, 0.001135811489030834, 0.0014520058472396419, 0.0004760114427412093, -0.0021162192388730267, 0.001179039584383481, -0.00025128214023472577, -0.0004789755838160303, 0.0017635082369481122, 0.0014565143576997185, -0.00028251150781137405, 0.0016590230720060772, -0.0005341865920947082, -0.0019608599161376173], [0.0015517250277638547, -0.003450656281576575, 0.0016195362325623103, -0.001386969708167617, 0.001072088640812682, -0.0005769991604428472, 0.0006602497959491662, -0.0009450064822042817, 6.348173977061633e-05, -0.001111267766346034, -0.0030945726641867285, 0.00014396911363364007, 0.00034850886267188497, -0.0009390670876312907, -0.0016826104523255433, 0.002473464961239826, -0.0003970898153485516, 0.0012638875291670166, 0.001460045489835846, -0.0014652452859851147, 0.0014047875571480723, 0.0005412326670892239, 0.0017099676271045948, -0.000726149496277615, -0.00197214041820756, -0.0008398613672497533, 0.0002443015478159189, 0.002726208699909604, 0.002521613283953246, 0.0027333737068115298, 0.001389361074398026, 0.0032616289827786774, 8.927531942610787e-05, -0.000565005862278939, -0.0022829980510469462, 0.003177868476443191, 0.0017227715541876145, -0.0016671265894702462, 0.002376666161968, -0.0018865440837156598], [0.0015443326144327623, 0.0013526597753793408, 0.0008380387049717613, 0.0011609930536899686, 0.001853916168458781, 2.4011045904863272e-05, -0.001524445537326247, 0.0023407293509408074, -0.00012678781525898026, 0.0005136568513858343, -0.0003155609810304366, -0.0017635766188739052, -0.001350576954262726, -0.0023745484720539755, 0.001281284384515735, -0.0004412636508033407, 0.0009282227829409755, 0.0016693574139237544, -0.0005225990252961522, 0.00028399306112915454, -0.0019036282393887641, -0.00013957574497003116, 0.0015707196243734218, -0.0026895178368098217, -0.0032102107337091913, -0.003925976282175723, -0.00014915968037143066, 0.0009389253238794925, -0.0016150210946475395, 0.001252706218938219, 0.0007341615170394543, 0.0005083536849052288, 0.0012312853463688222, 0.0014234600783600904, -0.002609647320128254, -0.00175772360430849, -0.0025010499571872483, -0.0015653659395679252, -0.00278360516132427, 0.001953902095163524], [-0.001668857724465576, 6.565950858156983e-05, 0.001993241238674223, 0.0006250826202524698, -0.0004724289982300721, -0.003166825567140994, -0.0010209909994351109, 0.000808257026129383, 0.00026593787181316604, -0.0015449645617101855, -0.0016558874037293102, 0.0007785720223358426, 0.0015837939144474921, -0.00022726519231458032, 0.0007296415777194693, -0.0017581078156520959, 0.0004025482868766793, 0.0006555222217193259, -0.0011236727183718145, -0.0026421653630190785, -0.0002602745480687777, 0.0004241033370673449, -0.0006702014817332809, 0.003875210472934911, -0.0017579757342834571, -0.000345111811000852, -0.0005749914367693431, 0.0017988538147881233, 0.0035648762803607804, 0.002359436689538986, -0.0005509018472370426, -6.906770390206205e-05, 0.0003733731674517721, -0.0003175562989722232, -0.0006961177514147666, 0.0002474798141054925, -0.0014594103412242552, 0.00057311767911249, -0.0010507082735387756, -0.0008255171928663055], [-0.00105538163323213, 0.00042428300331766793, -0.0025742349510348077, -0.0008662542363954788, -0.002525647622620579, -0.0011438873006739856, 0.0019062920199774565, -0.00033643681458982145, 0.0005488979968548087, -0.0008992117625421484, -0.0013724776598834263, -0.002318178081849468, -0.0005443444812728848, -0.0008848711364354212, -0.002527128489912719, 0.0006132894392443191, -0.0010590384511508042, 0.001296346372163543, -0.0019228228882116577, -0.0010369283094940143, 0.0028214634598991355, -0.0008724831502046105, 0.0029922467485593352, -0.0005509636567550891, -0.0009625588955260606, -0.002075099000712274, 0.0004038544361110838, 0.0017464752566489486, 0.0013768291457497746, -0.0019547989648929665, 0.0014994429095466888, -0.00171444953329321, -0.0015971689524016057, -0.0018659748559211155, -0.0008782953357283758, -0.0021886104569726035, -0.002499662166539428, 0.003132597699205709, 0.0004068506222810582, -0.0022446785169553335], [0.0005176416900123925, -0.0026715090178795154, 0.003070962577652808, 0.003629271011739162, 0.0009931736366232116, -0.002213609810039201, 0.001556795284620852, -0.0017976965601255216, -0.0015995668766098786, -0.00024197076303624347, 0.0012282878350975736, -0.0012366059023563576, -0.00022370486852813456, 0.0021054596935449615, -0.00046235114208156055, -0.0015231132238138407, -0.0007930169631262879, 0.0004598589348080789, -0.0024101381095463998, 0.00035804981341250585, 0.00033560546722899475, -0.00038960838502628283, 0.00342803588880944, 0.0009923340184229824, 0.0004381670392210117, -0.0014516253460894208, 0.001924152140891037, 2.5418463824480264e-05, -0.0006832779345344557, -0.00021699673229973003, -0.0015130905106562323, -0.0006991840834146438, 1.2925777189789285e-05, -0.002027337862759669, 0.0024902598960602805, 0.0033514640738254247, -0.0017610629071973035, -0.0015596038853699112, 0.001715991119800894, -0.0017319016871887817], [0.0018259903877283175, -0.00046093358808588106, 0.00026662159029914684, -0.0002258378109228703, 0.0003996229768737709, -0.002738264587874992, -0.001972272614979448, 0.0012134467955174798, -0.0011127702055123922, 0.0014341568301622098, 0.004164835327874896, -0.0003764354849180403, -0.0036382200069595525, 0.001248693335959404, -0.0014529295021451518, -0.0007322583686226028, -0.0025640736092397785, -0.0010017788928532783, 0.0024802703330600415, -0.002005765632410723, -0.0013048475930895508, 0.0022490601777433268, 0.0004528468480620157, -0.003685610579104308, 5.419579321979518e-05, -0.0011929426621970262, -0.0008953330483345862, -0.0028614493974262393, -0.0011899095578139177, 0.001206313801216382, -0.002265587150795619, -0.0010728497528487261, -0.0021826612439105634, -0.0005523570370182286, -0.001547876859948424, -0.0010747255487902918, -0.00021100557515889867, -0.0024749182279877437, 0.0011581049270162661, 0.00014356409427512267], [0.003697844727857884, 0.0025574626259590055, -0.0041417557231800475, -0.0007672756349100884, 0.0018236100840329239, 0.000614568503053809, 0.0029447872683119377, -0.0020891697979627736, 0.001719967312887657, 0.0013695785531584051, -0.001302822815968771, -0.0018409701232620812, 0.0010009891890880344, 0.0003744423948881365, -0.0024328235502538388, -0.0008025146323277398, 0.0019885294171049796, 0.004259376635492476, 0.002278644666979359, 0.0030559049446155393, -0.0034204142729633616, -0.0007888094739250503, 0.0017932490488526767, 0.002286041645686528, 0.001424270794362562, -0.00026871498400337176, 0.00042965431619528205, -0.0027020523968002354, -0.00270003915208034, -0.0006102922078787947, -0.0021437257440805792, -0.001188616771441461, 0.0025617817185934057, 3.807431282852493e-05, 0.0012816492088865874, 0.00042332313355167756, -0.00013561418063727786, -0.0020134298269489414, 0.002307738882318383, -0.0017444774216099112], [-0.0005503854583429189, -0.0013314583299478806, 0.0004946847055548673, -0.0007990357481983864, 0.0007258408075590855, 0.0013639836618883842, 0.0008876705956823005, 0.0004107376832679283, -0.0008485395614729741, -0.001230634154804617, 0.0021748726778622195, 0.0017153163998104405, -0.002373980280958144, -0.0021224336381431615, -0.0011351378680230322, 0.0008272018452568342, 0.0010559602224922647, 0.0005048351124342732, -0.002962683190218171, -0.00029392440737471256, 0.0008219547637658686, 0.0004092605852825138, -0.0044482171700812876, -0.0013764390813330069, -0.002907230782572518, 0.004061615196394527, -0.003464113392717765, -0.0009683204632268928, -0.0003112045122260624, -0.002902213292446771, -0.002779035750234002, -0.003075559963576525, -0.0011775248542617099, 0.00032219380216670277, -0.0006086290876122847, -0.001278123682466639, -0.002867623700128291, -0.0021867244404942467, -0.0013787648264417473, -0.0002478600618410713], [0.0016378777025462565, 0.0005119266800843733, -0.0011443634692770667, 0.0004690930031716928, -0.0005274611821647144, -0.0023569040415225818, -0.0012443977736276155, 0.0004813210918519227, 0.0029608841341797914, -0.0017515634868270735, 6.9327446988706566e-06, -0.001106944612259728, 0.0021826741995505036, 0.00035610830474512903, 0.0020935570154447538, -0.0023215530115379855, -0.00011308264636503146, 0.0004280477776299057, 0.0006220399571619077, -0.00025647123054130976, -0.0023700814158277503, 0.0003556661099009352, 0.002760772313583402, -0.001984515911947385, 0.0006458558054289542, 0.0005867532541622294, -0.0040606110416341636, -0.0017384335307004807, 0.0008907736238878438, -0.0008967749475785313, -0.0002338418530398722, 0.0015109099308437026, 0.0016586355039824576, 0.000673670207997616, -0.0002768837530144222, -0.002019587908397747, 0.002017082075394835, -0.0023779637627265784, -0.0015155950673795585, -0.0030297958056695485], [0.0008245175796896572, 3.865835130815158e-05, -0.0005368168448661928, 0.0026813913896345924, 0.0018621610245711827, -0.0009752424860470354, 0.0010706209401419504, -0.0023640350162519148, 0.0008832363661533985, 0.0004374550852832091, 0.001302762059432926, 0.0006102712624191265, 0.0012974730344020508, 0.0015520058804020863, -0.005787791650859621, 0.0032619863971706546, 0.00016094006331738642, -0.0010221319352028766, 0.00011530700180611553, -0.0012216028054300393, -0.00011628302351071007, 0.0022386532773707207, -0.002051339710152292, 0.0005058070192632606, -0.001643921648858268, 0.0012878277191921666, -0.00041219190881738713, 0.003191215237632865, -0.0012836143455356188, -0.0020745488713520065, -0.0020849092732109797, 0.002143707160312733, 0.00046611865379731957, 0.003988297575002934, 0.0005676519130850888, -7.430270648385416e-05, 0.00011076121658710039, 0.0014404622777006697, 0.000961574120487485, 0.0010391123514341025], [0.002188826998599197, -0.004890933555785608, -0.001306082146636042, 0.0010479380196462965, 0.000411415320196737, 0.0003073804058175808, 0.0006747034661201944, -0.0014453812608043006, -0.0022535970733928825, -0.002300539913946944, -0.0001146465009107217, 0.0016307228239658747, -0.0011341589672775525, 0.00025220929166879094, -0.0010298900180020349, -0.0007503301683943107, -0.00027098678144254655, 0.0002839922745871747, -0.003318234795983294, 0.002536886067662529, 0.002944335639380802, -0.0030244320111624027, -0.0002785681705120177, 0.0006704813626967971, -0.0009238445298566241, -0.0002876479277351072, -0.002329722986134131, -3.332269524005892e-05, 0.0011363169930977994, -0.00026739785968198646, 0.0014759276358601969, 0.0014445019055057849, 0.004414756866311612, -0.0007204115871879449, 0.002494047727858191, -0.0006070802140679109, -0.0016977013413992477, -0.001835960791609758, -0.0010693056238586232, -0.0020813111940556983], [0.0033509639891574146, 0.0004241850059419775, 0.0004101017146578025, -0.00019311200388113581, 0.0002671230985386111, 0.000778752210467539, 0.00025206381972493226, -0.0010529786142090608, -0.0011730364835633566, -0.0009573708849561172, -0.0008519274208801711, 0.0012619439187184361, 0.0010777886066614048, -0.002053364149054478, 0.0010128345118407714, 0.0027707411995694007, 0.002552795481191522, -0.0008936620089646202, 0.001564606836776064, -0.0004760324313503245, 0.000361853784345147, 0.0007234973214544087, -0.0038408970231877506, 0.0006733808855480421, 0.00037689753594930084, -5.381542409160163e-05, 0.00048125776738128473, 0.00038448692939504423, 0.0009128750373280641, 0.0016690005702543111, 0.0007209690119915516, 0.000327047403419582, -0.0001549617796500359, -0.0019991999912675894, -0.0010805959094963135, 0.0008727747634559381, -0.0011307448009284162, -5.097875779375147e-05, 0.0015071536334362902, -0.0007144360715250629], [0.0001389395716896668, 0.0017667598024617935, -0.0006483335791740452, -0.0011802359397289502, 0.00016726299995822877, 0.0005833050737502819, 0.0012707640685219418, 0.0022577759845332193, -0.0030786181671438066, 0.001276129550121039, -0.0027806613337393728, 0.0010646182992464798, 0.0021648775138314756, 0.0011721468853716755, -0.0007540492065517165, -0.0017654090381612106, 0.0007937597875667884, -0.0007741425828676402, 0.0008350389988978766, 0.0009547253519016356, -0.0006639138334445766, 0.001816166913498296, 8.190660275643076e-05, 0.0015324796078539924, -0.0005975893077569119, -0.00020504043796492754, 0.0007561109072122414, -0.0032415299466095, -0.0019221156060822084, -0.00039931008340395556, 0.0015510327669927696, 0.002519025109565503, 0.0018981666302134834, -0.004577342201772508, -0.0013649286996413408, -0.0006110965740810039, -0.0009631883083316077, 0.002945216654139916, 0.0030695464521019373, 0.003168832883982912], [-0.0009379899887403225, 0.0006136021031670985, -0.0008496749988752138, 2.0850843181277e-07, 0.0006375973788607876, 0.00023642179897599716, -0.0009794481045624364, -0.0023674405260136026, -0.0009495394633165198, 0.0003571683290390997, -0.0006469352037026737, -0.003867986308746898, -0.0008745727398709119, -0.0024483964113169087, -8.199772585195212e-05, -0.0005958902296073119, -0.005355091011343872, 0.0013355513914426163, -9.554866027924663e-05, -0.0005358678354305923, 0.0010325841393109794, -0.0006260965571759873, -0.00011854928968363754, 0.0007624348498133709, -0.0007451760255877151, -0.0006481453104963185, -0.0026367865927998343, -0.00042626962707005924, 0.0009701242674229814, 0.000618508729047161, -0.0014643083308697714, -0.0006188132989820385, -0.002187316648977461, 1.0776090943528797e-05, -0.00028448588107801264, 0.0009257324436162048, -0.0034271738017409474, 0.0033588275496512204, -0.002455380893807535, 0.0024882376107703994], [-0.0021987127508324394, 0.0001099961679551489, 0.0008320866022758468, -0.0018730770712791724, -0.000858535737852731, -0.0001611770765449001, 0.004702173167177798, 0.0015271931693978684, -0.0006633943331478543, -0.0051061292901452195, -0.0028360909246817213, 0.0022507571925681463, 0.000864618027644419, -0.0024277475983813497, 0.002388713702972889, -0.0020154641524471988, -0.0005401530825112048, -0.001682526030731003, -0.0030321264998915158, 0.00034722743565920167, -0.0017266422118668045, -0.0020725980127289274, -0.0029218304887778886, 0.002596105054211849, 0.0018836886747127057, -0.00223786670637247, -0.0030386616067837875, 0.0012746463708062884, 0.0014370316383825348, -0.0005713272570653039, 0.0014352114240297263, -0.0010874700082884835, 0.0005388409937976509, -0.0011389036892477968, 0.001634706858937912, 0.0011136458007776216, -0.002553719778265211, -0.0013912540145021661, 0.0003083451761950109, 2.1632911645642733e-05], [0.0006866286395966514, 0.0009862966073556267, -0.0003393518206669925, 0.0035476145982265635, 0.0010163136610973108, 0.001734149856752604, -0.003454793655074231, -0.0005377153764256014, -0.0017206932161647798, -0.000653215829717955, 0.0007517386490029568, 0.0025822526466672937, 0.0005416886994432852, -0.0029717140571541172, 0.0010711462345706377, -3.727212413827096e-05, 0.003114528437762618, 0.0010077500802558668, -0.0007523278687638833, -4.771645876456357e-05, 0.0008304076609638708, -0.00017717596293122663, -0.00024894569523006935, 0.002364976994275677, -0.00022710205548809865, -0.0006446216885625795, 0.0032623228206350315, -0.0007293042410642433, 0.0009296837313033951, 3.448400757343472e-05, -0.0032827480812292276, -0.0032812009992697526, 0.00011040335380969005, 0.00019159877853439254, 0.003731058389557296, -0.0013769681815664601, 0.0011706731666210565, -0.0012149967707642375, -0.0002599814860615955, 0.003643114192368365], [0.0019341518660605933, 0.0012413072198454015, -0.0011434643869457067, -0.001210119898399646, -0.00040017059714504824, -0.001436296325597273, -0.0006554954987885095, 0.0014581118910547176, -0.0033953834664040487, -0.0010927891629462984, 0.0020524589043462095, 0.0017127096988348717, 0.0006871026222486625, 0.0006066343808925676, 0.0011823109340131368, 0.0028769639330951066, -0.0009824011970482908, 0.0007928126835326233, -0.0001536857044551555, 0.0019345382171028238, -0.00118222559529575, -0.0029204717265715868, -0.0010230653460574376, 0.0009512411891766922, -0.002210831506359784, 0.0009361541085670104, 0.0003574024680869499, 0.0013846560655196081, -0.00026804021100217866, -0.00011925102006009031, -0.0018665420206167968, -0.0007401916175598552, 0.0035405210220553654, -0.001965246514677125, -0.0021291202752350305, -0.000330546475734256, 0.0029555656734908493, -0.00034945323097278365, -0.00035312351787178956, 0.0002114119832848457], [-0.0014755848467292213, 0.0005217159361090376, 0.00047637806589436544, 0.0015548574569602285, 0.0013065794047586363, 0.00020780362821260233, 0.003703427334269589, -0.0009344204336087913, -0.0011405728928712841, 0.0005858624943554057, 0.003366283988607555, 0.0035961531538764332, -0.0005295772116319344, -0.0020881689628695485, -0.00020249718493991925, -0.0034237483503846674, -0.003292464181592698, -0.00038836710940372873, 0.002327625882083835, 0.0005056462231782768, -0.0004615516467348903, -0.0016591855487443376, -0.0017400571099384604, 0.0010777883391403006, -0.00122982633954354, 0.00047478718055167686, 0.00012088736059854143, 0.002867021396530801, -0.0008764745156804113, 0.00042420517435362386, -0.0037515563219942803, 0.001269769930007444, -0.0005398626682840829, 0.0006864508326895699, 0.0008550007754833066, 0.0007573940450694604, 0.0013072050296883946, -0.002345319749722045, -0.0005603222537854485, 0.0016024253743964815], [-0.0008475572498128817, -4.6241736598363366e-05, -0.0010090853476793892, -0.0013081130133848556, 0.004381993115409029, -0.001937199891426743, -0.001334578372705212, 0.0023341756423747775, -0.0006121376080582281, 0.0011164110787329335, 0.0016062015318047901, 0.0005508738694165337, -0.0019573719006752478, -0.001975830456560021, -0.002854920664429027, -0.0020059088729397407, -0.001636733422965676, 0.001626035647329881, 6.485617615375298e-05, 0.002152411541147897, -0.0015213530334378719, -0.0011680098996792849, 0.00031649698097924926, -0.001268554438291946, -0.0019029140457991133, 0.0006274745730351549, -0.0005506955212370955, -0.0005286873192535163, 0.0018235537448223508, -0.0021116711628540587, 0.0018445526532656264, 0.0030875885970414172, 0.0012452804934908446, -0.00024389961523358712, 0.0015717973171224069, -0.0007910596985878139, -0.002818110662589229, 0.0025561162450562186, 0.0005453623256853558, -6.781975392938722e-05], [0.0013333757388129454, 0.000510714519997384, -0.002634432719238755, -0.0008806185477966278, -0.0007560267218236068, 0.003883613910027358, 0.0019039031711476767, -0.0005728163046002446, -0.0007101875396712793, 0.00011913512453436869, -0.003028324140302874, 0.0010095897104243458, -0.001219549276929935, -0.0011426046376690553, 0.0019000272454626624, -0.000516921918548348, 0.0013240514953034026, 0.0012787901681097563, 0.001243225496714554, 0.0004113587341750992, 5.601866562931268e-05, 0.00017052359327601169, -0.0001262553529153147, -0.0016424832493854846, -0.0001717784797927177, -0.0012005265153615535, 0.0008463546595825441, -6.739247597422682e-05, 0.0027483603617610656, 0.00011009982194280388, -0.0005741343003461292, -0.0005610554507083957, 0.00015854512309933244, -0.0016298956967137665, 0.0018710752676162558, -0.0008810271918644927, -0.0014662828815513583, 0.0017588746410679193, 0.0023521651587637494, -0.0008880814897359521], [0.0017543540625900036, -0.0008902698601228484, -0.0020667819830710245, -0.0024610793519952417, -0.002651102455414588, -0.001492135716152267, 0.0010976663604617398, -0.0008376603048952474, -0.0007070946196214206, -0.0016382419628948855, -0.0015179435790408304, 0.002559405172454562, 0.0015610234820391902, 0.0025579070859041283, -0.0008659261954134342, 0.0006767954227861784, 0.0012886852832327688, -7.296333269177636e-05, 0.00017295159901150066, -0.00026981830068931455, 0.0013290386071778625, 0.001399578208032271, -0.00019131272987627166, -0.0036932672489437984, 0.0009697565483736622, 0.00024741293684606066, 0.0012433966693421647, -0.0006900820418110031, 0.00027674912985545594, -0.00044936393435328874, -8.360826395739493e-05, 0.002913476895497263, 0.00041498483063245005, -0.0012079434828983111, -0.0011930171683423732, 0.0010244385129472254, 0.0029508302990204007, -0.0036936131613207472, -0.0012615723813206865, -0.002166173982464708], [0.00246313048851728, -0.0012015779844927116, -0.0003324717992033595, 0.00011708257196694123, 0.002258581501646978, -0.0017045912005673783, -0.0021217652450573003, 0.002146902867850122, -0.0010202005482773545, 0.000647298899165418, 0.004328769675623954, 0.0010360970952268042, 0.003873272367306178, -0.0006434830305794694, 0.0012190144723656835, 0.0016568091021381284, 0.0023346536716655018, 0.00034382875367230237, -0.0012130972943545499, -0.0024438772387923085, 0.0017796627108491157, 0.0012057909902138868, -0.00015128528974504152, -0.0024135965176006148, -0.002272350097933291, 0.002356209618958904, -0.002165569844582917, 0.0023673448878571766, 0.002059564796204367, -0.0012296914630884428, -1.852995253844772e-05, -0.0007833787300509487, 0.0014120684161357288, -0.002995196721283149, -0.0018916750537081091, -8.622776499493286e-05, 0.0003613597997579033, -0.00035350117670670086, 0.0009074141458522119, 0.0008902487945480211], [0.00372762450019319, 0.0002878069549010521, 0.0002603182330697117, -0.0029815640995141525, 0.004784453881089383, -0.0030177510556162563, -0.0014255566086107767, 0.0013187802683162218, -0.0007209362332042844, -0.0013161103813623817, -0.00039812633257136016, -0.0022842656005259386, 0.0008254843791125474, 0.001926926299385258, -0.0002521921321422812, 6.203115370743435e-06, -0.001231758411287776, -7.983106567882916e-05, 0.0011135948295751623, 5.039568324676562e-05, 0.005248460057712668, -3.9984965515849104e-05, -0.011208660264601596, -0.0032009645835190267, -0.00246553542368834, -3.633331710649323e-05, -0.00017951073639507626, 0.010016704291004892, 0.0016638456760469007, -0.011010282399425354, 0.002314305826137327, -0.001756195867630222, -0.0017645421248780819, -0.011654698684809011, 0.0014268663950377394, 0.00037234002688420664, 0.006162177051672541, 0.0007216138132284814, -0.004493365099421112, 0.0027271095915071117], [0.008335040445963445, 0.003086477517797259, 0.0006285365787355598, -0.001921027754218358, -0.001089268681994901, -0.000733139863243575, 0.0009357272076238374, -0.0014217429954985657, -0.0026680998081327024, 0.0012354631552971489, 0.0023890665349773767, -0.00038682064006860815, 0.0014627485635893098, -0.0019396649469708978, 0.0007726299909819977, -0.0005385589551144775, -0.00011313597722942345, 0.001896935248490957, 0.002387191723810319, 5.8143193268584075e-05, 0.002153261021779264, -0.0006946875000872958, -0.007088451655054631, -0.0016318432331398627, -4.624876401504743e-05, 0.0024420369235929602, -0.0005252661099063832, 0.007907775914654865, -0.0019112755960132891, -0.007553310923023951, -0.002236536615105778, -0.0012368119775195377, -0.000549792149358301, -0.0087678452830339, -0.0009666301946590106, 0.004459623018905663, 0.004862134878946955, 0.0046484426738382725, -0.002420322047152295, 6.395746980251533e-05], [-0.001030902014099214, -0.0004274350332299917, -0.0016275644338499178, 0.00018872828807975936, 0.001829669687297386, 0.0016966495692858916, 0.0001899090516938039, -0.002164709171575613, -0.004060384876166753, 0.0016741806195222227, 0.00040843057062758467, 0.0018712413571890351, -0.0004608961344859001, 0.0021311148850916045, -0.001202391164614258, 0.0006244366567294059, 0.0009853397903485108, 0.0006057703077994854, 0.003057610942561056, -0.0011996455261464988, 0.0013975480701359014, -0.0022525888005185423, -0.005792862003252011, 0.0015489412840010643, -0.002336077689298387, -0.0008843038117337105, 0.002077646800437982, 0.008087083402635906, -0.00043020029651790875, -0.015258417688068756, 0.000644474907862778, -0.004477638978875403, -0.0009706394882890064, -0.00971294449529529, -0.0011094183087788211, 0.0005288262322787404, 0.0027400970153041633, 0.003993986406863489, -0.002982032679260224, 0.0018957987703072199], [0.002641815285881184, -0.00014298201775968141, -0.0008745803997991469, -0.004468789000094527, 0.002822627175861078, -0.001835611306741649, -0.0029383390982801036, 0.0012446935250179233, -0.0025608090849564406, 0.0020254768592982302, -0.0007617910093970545, 0.001644121429165511, 0.0020274747584656085, 0.0010447026410910106, -0.0007097697642982227, 0.0029471522582265497, 0.0023976630514148684, 0.002314145353309241, 0.00217792137057481, -0.00015332362275771548, 0.003284156521676716, -0.004103906184162036, -0.011174937635245904, -0.00018946350260808938, 0.00022836606264072575, 0.0010865185646137172, 0.0035413147104990674, 0.00617702847380653, 0.0003356284198173495, -0.010556182248310238, -0.0012147301281968943, -0.0021786155828279474, 0.0023666094675666577, -0.009784859360256061, -0.002590125624862954, 0.00028762484708880323, 0.007541932042647323, 0.0033441661829903906, -0.007563957140193657, 0.0005684394045772234], [0.048246678974892515, 0.004634714450754298, -0.009410626875043428, -0.03780908434802162, -0.04418946091821851, -0.002133404296796093, 0.06384025995739416, 0.00026107513029276853, -0.007719427432489414, -0.015655383544905886, -0.08399911144924546, 0.010692848389366627, 0.0013173557831933664, -0.0007342004742045434, 0.008906394115888578, -0.005620031070855665, -0.01744184435295103, 0.005456798808212506, 0.004684199043078002, 0.002178866283549399, 0.03664979481647125, 0.012107807771003561, -0.11469756181271094, -0.03148928914483155, -0.027524384706769545, 0.0013534243198176665, -0.04233838505381884, 0.060580474196118575, -0.0601261668611293, 0.013885950390370086, -0.005912569182739418, 0.003067408105015415, -0.017781831790827516, -0.016351237812260642, -0.017204491689690803, -0.023799660740208978, 0.008362781940559824, 0.011274198604017377, 0.004135078061673937, 0.0017770247729031988], [0.10991059133045651, 0.008239945706036964, -0.004530140884318005, -0.0931182015162478, -0.13142118314371584, 0.005222198496887798, 0.1783280527791569, 0.0011896780584182431, 0.002785329396795356, -0.04414067087179418, -0.2325796452947225, 0.015192991914820715, 0.0015881149515897862, -0.0008535228151863211, 0.021437371076194294, -0.025693043093361706, -0.068877088244042, -0.0007837951393677195, 0.002419317113509537, 0.001317798778579281, 0.09827849133133816, 0.04199624807846629, -0.2727464594100366, -0.0791504180714718, -0.07076661718129584, 0.013126264203029862, -0.11925409100289613, 0.13019575217665313, -0.16972286996040695, 0.0798594199283221, -0.0191261764243652, 0.019958138144031443, -0.07999545790029791, -0.006964620961485747, -0.04014660092784092, -0.08556670892314068, -0.010332448434332824, 0.00014058618510378817, 0.03622366729159738, -0.00791777584179775], [0.049016970392620596, 0.003521555766480892, -0.005088411496855831, -0.04232116048911807, -0.05549625771742964, -0.0014022076446369974, 0.08905121898069791, 0.00017844579375550856, 0.0004289175770112805, -0.02402779110981139, -0.10939618627042824, 0.010428354116473599, 0.0014654514440335012, 0.00012123993022626462, 0.01278111926360942, -0.008187299061481648, -0.028170808215828815, -0.0023939121717409975, 0.00293933622623315, -0.0007701006571852599, 0.04409711620537325, 0.015603280528901947, -0.1286881709958094, -0.0384974271263738, -0.03364979323419767, 0.006547200173201985, -0.05335985106728514, 0.07098054563498189, -0.07772104204742497, 0.032266775402223974, -0.006923014991428191, 0.002842072102649601, -0.03374127876532627, -0.006863126004724442, -0.018636638703512936, -0.03601145617481769, 0.0017223445507031797, 0.00032770613279154174, 0.009151149086308664, -0.0035484269474056127], [0.0002826857872407948, -0.0002146829368596923, -0.001712440725951034, 0.0008235185969578453, 0.005328499306586674, 0.0010651639173302415, 0.006511467714490416, -0.001470158768555783, -0.006295170561748118, 0.00012835489385422836, -0.0034614784784818857, 0.002113679653998147, -0.0017627443943011314, -0.00028133845227971044, -0.002217694754299653, 0.00025478831812677887, 0.008138331454870383, 0.001563975244611771, 0.003114411775295987, -0.0008870513902111256, 0.0001420812855972381, 0.00037971934633009984, 0.003262252464664094, -0.0016525128479827362, -0.000678929980452277, -0.0005707838216009563, 0.0018654779081894977, 0.010757996537010723, -0.0002938198173292067, -0.011561613531417613, 0.001520516058178111, -0.002752673997770394, 0.003424495261294804, -0.005408762991258513, -0.001801173052534002, 0.0008832177906898481, 0.008549573685306379, 0.0034489680180435855, -0.004234402862944983, 0.0006821594601436637], [0.0013425314777407613, 0.0009550825510683043, 0.0006038534319794, 0.0009296020061497966, 0.0030612812749593447, 0.0007650775655935799, 0.0011194764563501713, 0.0017127902809657655, -0.00479987679358278, 0.0008076072997286263, -0.0005938737318585944, -0.0013613049014147087, 0.0006237770906852407, -0.0004697204013495445, -0.005596446684597993, 0.004353839857184925, 0.008321753631029292, -0.0015410064674240078, 0.0001811357089152452, -0.002482098327417058, 0.0021220023530781522, -0.001972923738689291, -0.0015322976732665401, 0.0001809628247979132, 0.0004935812120369261, -0.0014169977894229024, 0.0021314608596191423, 0.004887798682213115, 0.0019758118479321725, -0.004522139823030836, 0.00042484764435721267, -0.0022634500168680887, 0.0029004746532494134, -0.0037037906765777285, -0.0019895128313685865, 0.004820839814445755, 0.00690263655277417, 0.00654204480100475, -0.0015145916958814014, 0.0005045659746349716], [-0.0004204946637312079, -0.004912664667962277, -0.0007796465798928227, 0.00312137494392534, 0.004666935137853049, -0.004182593548282381, -0.0025885810957902355, -0.0022307707516112246, -0.009259604660479074, 0.0013367101352958063, 0.00028785499757419256, -0.0002659704191079962, 0.00046581452023285825, 4.2142061446667806e-05, 0.002779689361710349, 0.002538487059011225, 0.011140462829090819, -0.0032634814115266747, -0.0019703570220896143, 0.002114849753901838, -0.001220196063015064, -0.0015050549565945295, -0.004688732568568239, 0.0008036669845447335, -0.0018786909354576548, -0.00021657843400157886, 0.0005146206100254757, -0.00036392009987268846, 0.003325275879438349, -0.006920620475553814, -0.00045419118907356063, -0.005336757896229937, 0.0021868486107877528, -0.0028857760473340044, -0.0004942263718469614, 0.004456358734694152, 0.008056220717434604, 0.004669905100164329, -0.0077814051169949145, 0.0006164891957322024], [0.0017595500967157113, -0.0026114064785264374, 0.0011501892302521975, 0.0021276904382854503, 0.0012932711996099084, -0.0007369084355800712, -0.0006924599416128406, 0.0009328608584872583, -0.002903999600923044, 0.0011536425711115956, 0.0008130333800495612, -0.0017660622339061036, -0.0019344434308155385, -0.000736878862068994, -0.0034652926444304157, 0.0008291078952921981, 0.0011763522738756946, -1.2350917124660382e-05, -0.0023448657664701554, 0.0023798256549743186, 0.0003720917886449183, -0.0024937551346583737, -0.0029822395440654245, -0.001131284501840217, -0.0005960299992200866, 0.0005041449038708787, 0.002996757317002976, -0.0009502903499667106, -0.00431974210679767, -0.0005352452894850965, 0.004387879905931324, -0.002339233663554694, -7.282712205920706e-05, 0.0006845177699830615, -0.0006594706934874113, -0.0007934190737221336, 0.005718098127869862, 0.0056246834314999175, -0.0034769163265652003, -0.0011936574890601993], [0.007065538733085749, -0.0019398143611606107, 0.00015402790563846927, -0.00403543755865171, 0.0008834811339828887, -0.0024620295635545786, -0.0025895497398674997, 0.0009645179610251897, -0.0017426997519056297, -0.0006187237536639744, 0.0021153763863612195, 0.005123758500104676, 0.0011433759968503853, 0.0006522251943300071, -0.00021262522422156648, -0.0022963398462764223, -0.0015879605324611778, -0.0014236353481615702, -0.00019481096344118378, -0.0034989931271579232, 0.0011447931753587467, 4.467577870124605e-05, -0.00784852513060311, -0.0019253966830381874, 0.0022345625407328928, -0.0023323184237663773, -0.00013180928687601547, 0.002176006216271245, 0.0039114207943785765, -0.0031543241165501172, -0.00085401566315297, -0.004206279523674043, 0.00021224199733337718, -0.002035255124269745, 0.0003114287843000542, 0.000659045671909856, 0.0012914706614036411, 0.005258542637781341, -0.0035978235529284634, -0.003314523930182318], [0.007885508495860016, 0.0018540442790739493, -0.0004780259152366037, -0.000963266112202268, -0.0013950172139815778, -0.0028150780766516875, -0.000388038709139985, 0.002150752106361696, -0.00032675175352996983, 0.0012219500016416726, -0.0011937568871880984, 0.0027853842017092774, -0.0005388886840266727, 0.0011106142212254175, 0.0019373802181089034, -0.0017275712822279478, 0.0019121255852015395, 0.0019222259866166424, -3.0202437104331975e-06, 0.0002708256252645486, 0.0021402495594061836, -0.001391527761636297, -0.01373273243473588, -0.0023015904696728827, -9.493527992471294e-05, 0.0001600179100159225, -0.0033058025749782634, 0.0019489192442178373, 0.0003580600785052037, -0.006031015409620329, 0.00036752674922480233, -0.0010318223930365575, 0.0013527353286530291, 0.00010208257453417532, -0.0043824637063724315, 0.004578181065154286, -0.0009437405397439867, 0.008260708170944419, -0.00516980771779562, -0.001149656450172686], [-0.00013675196544229401, -0.0001710806509936238, -0.0008341396276293136, 0.0005456429459027366, 0.0001639572196944323, 0.003035407628900839, 0.0002914226163159925, 0.001148951869104137, -0.00010419816533639447, -0.0011511817518922982, -0.0017687882800640033, -0.0001318046742738838, -0.003960594438251065, 0.002320997752614433, -9.144760953462088e-05, -0.0020807091316820975, -0.003397352490364674, 0.0003785072078243164, 2.880663971213227e-05, 0.0015245500098096773, -0.002477647800808619, -0.00038388929935924973, -0.0013891369328779722, 0.0013644506446367508, -0.0011862778926698707, -0.0022627656196496115, 0.003694525723476707, -0.0019652702722434178, -0.0027369376180695977, -0.002105843665447016, 0.0007695058645384154, 0.0006231581763055932, 0.0010647905665580426, 0.0017503923650021781, -0.003101268094511621, -0.0016440936587816455, 0.0006175252151790831, -0.0007697898310056957, 0.0023717887856955773, 0.000246772779952398], [0.002587394457021275, -0.002179322346136001, 0.0013101315389447863, 4.666335193275805e-05, 0.0009673665276204487, -0.005526304902860157, -0.0011311697825629593, -0.001233438425268595, 0.0035306452214975844, -0.001731418186589001, -0.0035010227515335987, -0.0012762702248964761, 0.0015626405198743193, -0.004159079801600024, -0.002741957261646512, 0.0004800130436296769, -0.002856067864074383, 0.0015099051875874262, 0.0008025493185240564, 0.002088899738043164, 0.00021465229458816302, -0.0019378836258163374, -0.0018778596889731918, -0.000608169946702989, -0.0009542701863559195, 0.00015452648142295894, -0.0027809495515859076, -0.0021120133172431534, -0.0005738713720512326, 0.0024327657050465267, 0.004663477710668706, 2.2274619040378312e-05, 0.0006603452163272839, -0.0006816118846906854, 0.0007265678693269079, -0.000817439281323131, 0.0016357987660079267, -0.0007867169946740363, 0.0019176241437860214, 0.0005229680794350267], [-0.0032524544457991087, 0.001151212133720409, 9.985932783123269e-06, -0.0010385054898160936, 0.0010461929638059782, 0.001101964523009418, 0.0009408920705530313, -0.0011104763371450085, 0.0018176989984612561, 0.0017111438986965116, 0.0003296598789636568, 0.0009091780662236749, -0.0014852456118169544, 0.002618933933057901, 0.0008951559009783089, 0.00286517989584268, -0.0008743407631949608, -0.0005902684150742074, 0.00029062640309480893, -0.0022580617584833083, 0.0006224367582555657, -0.0007190332261249222, 0.00480048693405983, 0.0035914694629678072, -0.0013699885242994061, 0.0020289469892644366, 0.001278014120224034, -0.0016326413224108647, -4.761811005120515e-05, 0.00011358919031536407, 0.00201350598682637, -0.003423999743128593, 0.0005849552642096311, 7.479234512726154e-05, 0.001144582175480833, -0.0008437299208912836, -5.853269704094571e-05, -0.0016027243023397537, 0.0049675201377667325, -0.0018723587882482808], [-0.0005978038756136815, -0.00043250981013742256, -0.0011983099542658964, -0.00013674887372864785, -0.002355416866389265, -0.0010765940781421333, 0.00023221036391187153, 0.0007050211283004167, 0.0012473038671280774, -0.003333019777241079, -0.0019901344912105303, 0.001730339116501211, -0.001080052280335612, -0.0012232981182803966, 0.0008976608398702586, -0.0004064064557429423, -0.0008221496817166109, 0.0008236201702632044, 0.00033945927722040095, -0.0021812433558304287, 0.001017367964766787, -0.004322221031743784, -0.0010050788383364655, 0.001777383929797385, 0.0018072380634681542, 0.0004464656572499965, 1.650370555211281e-05, -0.0011652909798773267, -0.0012507588257683585, 0.00109403703772664, 0.0025134677106933745, -0.001714771363876678, -0.0009368544959672887, -0.0006073383181847414, -0.0017334663180587444, -0.001076813083636299, 0.0009041126625015022, 0.001234119051394429, 4.933040328636935e-05, 0.0013308106038022384], [-0.0017618380228177032, 0.0039263416177569045, -0.0002009583310396008, 0.0017730532790598784, 0.0005906475423549377, -0.0003773026150732141, -0.00021757240217633634, -0.0016394724726921605, -0.0015355555091880499, -0.0003639102783483, 0.0006904672796939965, 0.0015300595285960411, 0.0017868314803486348, -0.0007324098404064653, -0.002849952072185696, 0.0013532880146713455, 0.0010164144611828833, -0.0006921784220406083, 0.0021205172928564194, -0.0019166920684417358, 0.0022698161940484744, -0.003038414734941739, 0.0022244221250036582, 0.0002642789814104107, 0.0006719141849827355, 0.0015152279476652332, 0.002977496350889527, -0.0034119477637176783, -0.001045769154178162, -0.0007605576435413877, 0.0008907498320688553, -0.0005354653177515176, -0.000377954787519494, 0.0006645295667270788, -0.0020300165445889607, 0.0006512116512339825, -0.0006048568726021075, -0.00037683892909223305, 0.0042992819139170526, 0.001909932014521326], [-0.0004109326016516718, 0.0011643410657407169, -0.0009221580061159571, -0.00014212107514371082, 0.0008119290035249332, 0.0014153663572262231, -0.00029718689129143856, -5.983300839052558e-05, 3.711595312578854e-05, 8.532274972995238e-05, -0.0012905363276177722, -0.0021358551989736825, 0.0004382884400929895, -0.0006577432491142544, 0.0030037171415961453, 0.0015710108139518717, -0.0006325074055107923, 0.0011179860081055159, 0.0028839845996922434, 3.54387242063984e-05, -0.0012094777215163905, -0.00167672473217695, 0.0015521524054886696, -0.0031162899460784985, 0.002299507300737639, 0.0019389682123332368, -0.0023505287627302225, 0.0007998898711554244, -0.00021804751680897893, 0.0024129367526727692, -0.0005767835547093369, 0.0010251725665519258, -0.0014994537423584824, -0.001060958098507213, 0.0005997370721158071, -0.002351822616555934, -0.00029988730407036615, -0.0013832381976789686, -0.0028937070286621062, 0.0005528085276616174], [0.0011734990898942942, 0.0020689045919566247, -0.0021317388978615067, 0.0016218065131640073, -0.000886471872106633, 0.0014212311836368638, 0.0011444465979451076, -0.00038873497054020946, 0.00015284624114814601, 0.0011016762740703005, 0.0012499565308128789, -0.001644957359248892, -0.0008199444738629482, 0.0008307603181514321, -0.0014027090121965695, 0.00022833966634163425, 0.00217983058535182, 0.0013574100421489966, -0.0027040486698739455, 0.000997580262001869, -0.00011050784941114952, -0.002141112967625739, 0.000906124671491934, -0.0025524492201109738, -0.0002963186628027655, 0.00037254526679491716, -5.3873122294866465e-05, -0.0013090071264361565, -0.0006072571700178711, -0.0012972553054336469, 0.00100262189798153, 0.0032257457844593195, 0.00042820151129588304, 0.001784263897620374, 0.0009503418859123605, 0.0009004976529634813, 0.0005622202042221324, -0.0016304898960425721, 0.0006820514580220114, -0.004413754622700718], [-0.00036756970276379344, -0.001751389452949647, 0.0013516619136152632, -0.000823352370938372, 0.0006391932140938116, 0.00047276098373927853, 0.002171741677166231, -0.000741004258109606, 0.00025279425886691036, 0.00395137035576305, -0.0027989398868825998, 0.0008984998190277276, -0.0008745960756554063, 0.0016567232912675575, -0.0013741890583383251, 0.0009145717949586444, 0.0009142405543136526, 0.002584722462812197, -0.00018258553613706763, -0.0009196563466097242, 0.002388021522089704, -0.0002855531892241826, -0.0016634885183516312, 4.42193997715718e-05, 4.6789149042325914e-05, 0.0011089798412260731, -0.0007835852378922613, 0.0031699577448860705, 0.00015402724038213582, 0.0033957046805330104, 3.2120303419400234e-06, 0.0014085462240501982, 0.0008760054093387043, 0.000283696389154235, -0.0031676370929204973, -0.0011756854108780045, -0.00034696668667963344, -0.0027609660075036714, -0.00041415335483077355, 0.000107984143148423], [0.0002990630253739542, -0.0005754904467790595, -0.003034034623132307, 0.0009707426786398425, -0.00047695928496230966, 0.0006160590579377253, 0.004588053400312069, 0.0008372602195737961, 0.002206702190978141, -0.0003577656607002319, -0.0005503066730621325, -0.0006189082127696282, -0.0006993247849237248, -0.0020036776748005324, -0.002292871636347005, 0.00016334600946133298, -0.0008507979555826454, 0.00027070358688784324, -8.965109742654224e-05, -0.0022999323873671125, -0.0010899717925941777, -1.5501147615850966e-05, -0.00047216910362749665, -0.0020379430187773217, -0.000804203028378214, -0.00048601858261168357, -0.004373390519922644, 0.004197254050005407, -0.0019557097918381236, -0.0007827471338181202, -0.0004521877337839932, 0.0005437533721180763, 0.0010697832820278203, -0.0013611257389043105, -0.0010010287195940115, 0.00038094519555000847, 0.00044767700238595266, 0.001540562713101125, -0.0008268913320504946, 0.0010067319551391083], [0.0007253456954999405, 0.00023943303298382468, -0.001073279914650698, 0.0002444737608949036, -0.0007852250587450031, 0.0006179707618262921, 0.002223813833065997, 0.0006634764363275546, 0.0008013336950220453, 0.0010053817939454, 0.0022657584526794825, 0.004235197852432135, -0.0024896485505022186, -0.0007110325612477283, 0.0016550610425516354, -0.0008946919862634337, -0.00040599182244827807, 0.0010920284184481619, -0.00020442544854364157, 0.004447977142108612, 0.0014346303813429363, 0.00043870351973767307, -0.00012330206742916627, 0.0021649863078517634, 0.00048190446300333355, 0.0007477321446981152, -0.0005864806368346589, -0.0003605771861832972, 0.00034872772973098783, 0.0024904116895770136, 0.0009574675565033307, 0.004352150264154438, 0.0007640946623028141, -0.0002737729012101306, 0.00390758258684071, 0.0004612814774468702, 0.001656387177406573, -0.0009377485191289488, 0.00037645606687372813, 0.000519867293888233], [-0.001610665470075121, 0.0012754207337402318, -0.0007334124113285086, 0.0016886938168660251, 0.0018824374531596088, 0.0016478847934664922, 0.002043859731044469, -4.343232994957619e-05, 0.0019171515338011025, 0.0019323722592301763, 0.00020356240705787776, 0.0006928963524425487, -0.0005754182414100349, -0.002515453086253933, -0.004843022040795436, -0.0007318880112900217, 0.0008468320451238413, 0.003216257694886965, -0.0008426739795335603, -0.0016656472552691386, 0.002288649994887157, -1.924477461024555e-05, 0.0014176409648377207, 0.0020385445219720764, 0.0005391647807688946, -0.00035151127419286935, 0.00024472923676338045, 0.0009121049233712221, -0.0001499980328454949, 0.0018117075666659083, 0.0015685034559406637, 0.0017073981430749834, -0.0007177707388393005, 0.000860400090936325, 0.002161681754692405, -0.0012400218962221113, 6.0562803283177775e-05, -0.0006845317351124679, 0.0002302155136337413, -0.0024261363179253477], [0.0020506874998742, -0.0020502604477789397, 0.0005006599262990537, 0.000999358126582787, -0.0011403405876363915, 0.0012689505951574448, -0.0005922847396248739, 0.00040636348340927065, 0.00010447485360895461, -0.0005106615791255551, 0.0016111199320167195, 0.00030089983550069134, 0.000628141082639133, -0.0012849576065041995, 0.00039957403378680943, 0.0011667432709234573, -0.001082570500602157, -0.0027299798737957684, -6.48158546771502e-05, -0.0006771372492636104, -0.0002508603023919477, 0.0017959063685724815, -0.0005644715275527934, -0.0007780875599350222, -0.00037708311705661235, -0.0006793691321358451, -2.095203282698299e-05, 0.0010872374762660542, -0.004347017639544037, 0.0032768410766050725, -0.0006509570056174199, -0.00032519359318629293, 0.0018311697323629042, 0.00046545177249438907, 0.0016466105109548702, 0.0002886030682163475, -0.0036188594491389442, -0.0004598087079825329, -0.0016043522740668097, 0.0011621548004805422], [0.007810653627664082, -0.017905428440102924, -0.0014554196296365132, -0.008605346963452002, 0.003489225862687152, -0.0020888182216954156, -0.01068616216673422, -0.0034236677283552503, 0.0022675738757165524, 0.011416255619209531, 0.00955856469471507, 0.005981464158287064, 0.002546808307260411, -0.0033293434658178624, -0.008892496176564228, 0.013544136068054519, -0.0023308109695883905, -0.0006068958899695711, 0.002721765540942721, -8.767961369441112e-06, 0.00021696062763281907, -0.005151883683543585, -0.014310497584359531, -0.00294361085622853, 0.0004819916658882955, 0.0005079034983671915, 0.005376667474099378, 0.007351509925176963, 0.002566355597380352, -0.00509540657610219, 0.004929297100336788, 0.0027294281983986954, 0.0012794405836612584, -0.004595718383512499, -0.0007661927391150155, 0.026041970211441966, 0.008773729212192254, 0.019681809277065702, -0.01754980419767179, 0.0042805083414077984], [0.009609984597474908, -0.03744407465463632, -0.003007277403655191, -0.013885403343907898, 0.015000186019098888, -0.014850331724133256, -0.03120597655448109, 0.0008236316963688031, 0.005834384452827393, 0.025624820585744938, 0.028808349808053614, 0.02502317995604625, 0.006153807381372955, 0.009460464171177458, -0.0170884270993303, 0.030486673933053154, -0.009714055724280763, 0.005001311075698702, -0.004311247706001644, 0.009450420585877072, 0.010171674282850486, -0.013124528172349229, -0.0513359151335392, -0.01102028754357889, 0.004508833922794195, 0.009747106451880212, 0.009531581446054377, 0.014368763590131105, 0.011367008866757379, 0.004136448440297774, 0.013370817132036538, 0.011469204327742889, 0.002507093593255797, -0.02648608268588589, -0.007478528815195093, 0.08817427527084945, 0.010833187616131845, 0.06163086316924526, -0.0873829860454979, 0.010139555890279747], [0.030469879599979946, -0.007440034314599847, 0.004889759578258797, -0.029728862076502518, -0.013979084410113451, -0.01851804040817198, -0.01591706000438387, 0.0023887564253301822, 0.008637576394676832, 0.0074763167227136305, 0.007563177821820006, 0.02727828958168657, 0.010825323034492402, 0.011355721565704198, 0.015991387505335176, -0.012749434921948393, -0.034957511798677274, 0.016507162099559283, 0.0042470415863115575, 0.02079369958531504, 0.03326061775637282, -0.0019218318251627271, -0.0792526609973143, -0.005730895050960686, 0.004244736603786097, 0.006185388088819696, -0.007115590728052451, 0.018401284424010983, -0.0021708737823563137, 0.02547202131027624, -0.006636949183079727, 0.04061785597220104, 0.0029781679407250303, -0.05523901886491707, -0.014640337686517148, 0.07745044049864819, -0.015567398699755881, 0.08280159091441552, -0.0875609320773451, -0.012043885272333636], [0.028477735830798708, -0.00041525933647441557, 0.00815521790281623, -0.014042927255525767, -0.008567452819654448, -0.010372247014024321, -0.010389843324397912, 0.0029905108854082364, 0.002049054151900321, -0.0025865446786023003, -0.00022071720287545596, 0.01361114452150267, 0.0035312003947108235, 0.016373235722227725, 0.006519104288463665, -0.010028347650040948, -0.030645887548943054, -0.0006518584647140983, 0.014599069608365399, 0.00332607162980259, 0.015097073368575062, -0.017189082852785004, -0.051760403843542496, 0.0012155728211511512, 0.0033746699259529556, 0.011489374241149864, -0.010571923488497554, 0.022973688569102917, 0.006042381685011169, 0.008523084330455715, -0.01304638112282599, 0.022462361464607665, 0.004382843048302971, -0.029522325835657667, -0.03271093136252958, 0.02039404551163544, -0.005777461190504938, 0.04109859801117791, -0.018985648602330662, 0.011094789991779331], [0.02523235955540628, 0.013846045060024032, 0.027912938762187065, -0.03531806977497526, -0.008898007330605693, -0.0185099718044163, -0.004952909969582611, 0.009451883848486626, 0.010708643874098348, -0.01662506962706859, 0.011210888480785443, 0.02863630991771995, 0.012489898527883061, 0.02301819723020402, 0.016104762966564948, -0.04992675211560676, -0.05322444855764434, -0.020546378264800713, 0.018034571782016444, 0.030822340408860307, 0.02311717876908017, -0.007292236243679723, -0.05763300383836355, -0.0033740723583648683, -0.002120590231424974, 0.026370690772921538, -0.030264638398899164, 0.00810071788686529, 0.005466857214934505, 0.024206099787314576, -0.025155666750364306, 0.07270596870679719, -0.014535684499854472, -0.030443223064577078, -0.06153631444588111, 0.01589782305358194, -0.040747430216553276, 0.06557399954100597, -0.04449595506914951, -0.009244802549066575], [0.0023288642740047086, 0.018147948472718497, 0.007036396234513602, -0.018399052682128814, 0.013870317081377878, -0.038446313768624195, 0.0073354349440301145, 0.01322965339215053, 0.01811780351274554, -0.039801063380127455, 0.01780618510156194, 0.0462238308108704, 0.02095575157616771, 0.022052910795414927, 0.017582796099674718, -0.06425404707443358, -0.04836902498156068, -0.04552881826988655, 0.013319463737755352, 0.022782369991354336, 0.015300284438312847, 0.0008860771184477712, -0.03597956954963626, -0.004764477985138677, -0.016693987913458865, 0.036003999650786246, -0.04155214004070159, 0.016491370250288892, 0.01679465399578829, -0.005030881821959008, -0.01722774674072258, 0.062406707552480505, 0.01227295775856612, -0.058428982154561174, -0.08279616037498587, 0.02296344651794103, -0.05008923125572239, 0.06567877583710136, -0.05783731739952405, -0.01169914002600491], [0.015616123794213127, 0.017453124028075133, 0.018768402186368282, -0.06804502905465165, -0.002384874017742712, -0.01854005792143867, -0.03249165846798734, 0.01750095264131233, 0.022480151910223997, -0.08016828380658116, 0.04203474811689116, 0.05044191788595439, 0.026088769875041686, 0.007385406615328274, 0.054288551045670236, -0.10040313611209324, -0.10759778731980546, -0.007166448215993536, 0.011865620168106519, 0.02880273865239483, 0.021915817626593056, 0.036008330508233474, -0.087163171744021, -0.01399281745544077, 0.028269370930421367, 0.04692933973728674, -0.02707615368826061, 0.006739909867965075, 0.023973284309099008, -0.02070758065710455, -0.0337657702187802, 0.07983289640588462, 0.00484009153951578, -0.06087229403708485, -0.07795727246171658, 0.04684905829935223, -0.07114991960774987, 0.06721433481286541, -0.041034136962778134, -0.03682354967421733], [0.014898540372108674, -0.003931677265549582, -0.01339721253496689, -0.04662600094484001, 0.010451152618247889, 0.0017706059706806985, -0.012981952049304614, 0.012576168575619493, -0.007188413082900251, -0.0708603805707039, 0.06684692868410554, 0.014798254978119204, 0.01455538457159164, -0.00195176207176738, 0.05954556593631286, -0.051926536536291874, -0.10127493494586634, 0.0373820797117923, 0.007002567303731751, 0.014107519605382623, 0.010154174525497396, 0.029168998575210665, -0.053959581818245526, -0.012897084096670236, 0.06334580168039906, 0.059761321452460194, 0.020198591999185042, 0.0010791123025092, 0.016626996756553714, -0.058152463739897395, -0.025018188042674833, 0.051619631129241846, 0.026304621216662268, -0.07235759655266762, -0.03002322608398833, 0.020441519892720018, -0.028576895048110874, 0.024852055829536174, -0.022668218384252797, -0.0237520586195755], [0.02587616180390826, -0.04336538546154844, -0.057202417152353593, 0.038865005688059714, 0.024418265462727875, 0.013639145659873704, 0.07691494584237739, 0.012683174889658465, -0.03711046589798106, -0.020073815483469693, 0.025346877478623575, -0.051660912905459724, -0.006497094532523394, -0.014676745074109874, 0.021565905409671914, 0.020115306487476385, -0.05415638667549993, 0.03989779883741397, -0.0017719317851650862, -0.007388792562570264, -0.009503178016646258, 0.017863473203626544, 0.07208659734128188, -0.006947712866701567, 0.06896490794870293, 0.023707202095948596, 0.05141239324818427, 0.028911690109906008, -0.03221320182379625, -0.09457437469871974, -0.0007294445331505082, 0.014446227924650652, 0.043888037084614286, -0.033988154040461675, 0.0384348992728892, -0.0831640346447086, 0.017499863455944602, -0.10943209246566735, 0.0502050529103447, 0.021555608371838345], [0.008982046524884523, -0.029430312071975884, -0.07948162537781861, -0.013504916970921519, 0.032134529333664036, 0.03209440015261379, -0.00044590904666870116, 0.014130734214575587, -0.0450985948232651, 0.011168710714156005, 0.05025672290534433, -0.05835908818328123, 0.0015109909285282257, -0.008477435434680063, 0.033431321174843716, 0.0012755334257974816, -0.006549360324172476, 0.04287703502002246, -0.00717517665577382, -0.02404571637889406, 0.013191242659032019, 0.01246938219620363, 0.006937494024646915, -0.004409746507105571, 0.09312752370275458, 0.03303449856820134, 0.08461839718419867, 0.041708511278500074, -0.018107518505967604, -0.11457782113299843, -0.006354613550776614, -0.04210465752934927, 0.06123427999373744, -0.06588300716908853, 0.028236102224717844, 0.011936680265552902, 0.024958487656615725, -0.014942412385245567, -0.016055751723504232, -0.028170556413317796], [0.01858335219247568, -0.02473375557357711, -0.04689926110700439, -0.011765408674017087, 0.01579023901579003, 0.028795896925593523, 0.0051593498212386835, 0.0058897302718003575, -0.02440330696752251, -0.011104194044731949, 0.031367977550905, -0.06863024098341687, -0.0016836586592331615, -0.020248122244950713, 0.03282767427974199, 0.00042401874793670537, -0.023460574955107467, 0.050014733867385336, 0.0009585172124335048, -0.030271969280437527, 0.018901461259243538, 0.02642395596918729, -0.0010486761176528299, 0.003408537572593578, 0.06804681597602384, -0.0005536373788183613, 0.06355935443386977, 0.03071893062570004, -0.02856380781755962, -0.041812596372408944, -0.02682648429522545, -0.028031499700797623, -0.0004298011624470126, -0.04837800030281052, 0.04205714773218511, -0.012423238132081947, 0.0022870018419209395, -0.015683300173593585, 0.0008661467093071065, -0.028497608387370192], [0.0007753182428972413, -0.01065409972984853, -0.02530867905124123, 0.003044975310763489, 0.02893443814670075, 0.010284061731168444, 0.008446039478349354, 0.0026300019641630904, -0.03586935790269301, 0.003275290058140099, 0.012105994294154737, -0.018347272095570362, -0.002950508245966804, 0.0012100337780625622, 0.010190633845035385, 0.007813720274901426, 0.0326164527038207, 0.01604814152185987, -0.000478269652905713, -0.020549785633402127, 0.007989786294541274, -0.006536989894707515, -0.024546836141520135, -0.011725336325011793, 0.018664486481415977, 0.01436546900972839, 0.02364397049941399, 0.03153276565494277, 0.0017357243037164122, -0.04003240311513697, 0.023195229770733333, -0.03720062687380536, 0.03991854339180702, -0.04524171134463542, 0.008071859645579466, 0.017990506757423235, 0.014116904148405399, 0.013957556521539743, -0.02648206991681343, -0.0032780067745740767], [-0.00034262900839370343, -0.012467005173689155, -0.005307675564883703, 0.0011580716828399175, 0.015926978460954623, -0.002580848011584412, -0.011924662397200239, 0.0012544570983599075, -0.025347803075604084, 0.005599516923531023, 0.013531805445035348, -0.004102219132779605, -0.007493555138387533, 0.0006467596444735777, -0.003686742438793514, 0.018562546270230296, 0.03392860127142119, -0.0009277133844612545, -0.0004994276696781536, -0.003408548625912854, 0.0040137742474421634, -0.007986565647554523, -0.027931359320784117, -0.006734447198891536, 0.0032983510629817263, 0.013131393870297792, 0.006419457926489808, 0.004053902154775042, 0.007317205058615819, -0.013481828340277743, 0.010284641539103518, -0.02057179582440803, 0.02757885824772404, -0.011124533721819789, -0.016647601319316547, 0.027240832024294625, 0.012846275686470832, 0.017411527120304516, -0.01969446548478132, 0.0029345902129399213], [-0.0011583082301813235, -0.016500976590194956, -0.0005572290694286828, -2.0958781578048732e-05, 0.006878627634807187, -0.0016751593225512135, -0.013431052238042918, -0.00171255574896117, -0.018491841241142108, 0.003630901613546781, 0.015773882218417478, 0.004730079007988529, -0.003357235204148002, -0.0009989887050294215, -0.0011515192876609271, 0.01874974321090601, 0.023227007505785643, 0.0007561298588553354, 0.0019166044288452886, 0.00012275605139861495, 0.00234347603589914, -0.00622652383029415, -0.022681487393385553, -0.008546530446785923, 0.0030880597451988538, 0.01077780322132318, 0.003527934841185392, 0.0017386601813474997, 0.006801189106785267, -0.005116028164499139, 0.007125160994324603, -0.013685503051154596, 0.01658195501137206, -0.0013770660527071435, -0.01721759330163711, 0.02316895907427778, 0.004436379630148553, 0.014267697379052008, -0.0107868076279217, 0.0017711473057792945], [0.0040729623236291, -0.0031579928229256427, 0.0006247980104613752, -0.002992594023271995, 0.0036893895478500964, 0.0011039858497583269, -0.00742799451600724, 0.0022728627967273348, -0.0052538961781380625, -0.0006412794852306342, 0.004823948638995194, -0.0010895978611709187, 0.003536093286342068, -0.002954153099056532, -0.0002477201270730756, 0.0071946804992770366, 0.005013669908938024, 0.0004907306024847925, -0.002563137408596698, 0.001701659041603478, 0.0015619363502014257, 0.0007905946769763302, -0.021222583913316478, -0.0023774314200965406, 0.002630292175293442, 0.0066012563592066755, 0.003549550509722341, -0.0007497918654666403, 0.004580444296483847, -0.009346683824506671, -9.085960403532354e-05, -0.0025217485665975027, 0.008822022444726399, -0.003478527859285998, -0.008100520935548822, 0.009924092759274028, 0.003929046681364224, 0.008977080293123685, -0.009076291388367635, 0.0007899217012055075], [0.004996623945826449, -0.0002348922369814935, 0.0033286301447005753, -0.0016045630081687901, -0.00031578009021483277, 9.965092193104493e-05, -0.001228703073220209, -0.0009987956323466358, -0.001756994244700659, -0.0022081705812828614, 0.0030143739161322142, 0.004372314250635546, -0.0015039477347789955, 0.0012823772075596926, -0.0022837339537827195, -8.824625557527997e-05, -0.0006225566501600774, -0.0014161986311657798, 8.067339365421775e-05, 0.0006596694422504692, -0.0010109922397717038, -0.0033927697454864307, -0.011031075405112, 0.0017898139494871548, 0.0015518660078753055, 0.002562852355949249, -0.00039681152940062453, -0.0016835600760916024, 0.0016861152772363033, -0.004793216373064373, 0.0019533515379471724, -0.0012305182165233798, 0.0008621976746210308, -0.0014586786310580465, -0.006221824309051803, 0.001204628427567135, 0.0016162314697344368, 0.011001529397125398, -0.006354821981661099, -0.0018821963528022783], [-0.0017877552359340351, 0.0011308091236251008, 0.0034322415141042326, 0.0006247200921059302, 0.00039195170142471397, 0.0033063646002597633, 0.0021439237903462037, -0.00034739184801456055, -0.00015985887638846245, -0.0013938228675039114, 0.0014681374779569722, 0.000669017052366579, -0.00028908669634866566, 0.0021569475670784135, 0.0030972264587085896, -0.0005835828915800326, -0.004601540015518747, -0.00045682714367972066, -0.00024075264928141523, -0.0016044130008597485, 1.770586783748391e-05, 0.0009899284145258246, 0.000651071883945672, -0.003332430200997687, -1.718625966869402e-05, 0.003339836151864265, 0.0007972358653332411, -0.001010392980478028, -0.000621619755915128, 0.00098178569514643, 0.0027925656438003007, -2.9558361202716067e-05, -0.001720986032162501, 0.0017955420821188979, 0.0003290701149143147, -0.00020465137884302824, -0.0012591213905868265, 0.001418260163505572, 0.0004040903040812398, 0.000878589194852194], [0.0003982077921734531, 0.0015585352807793611, 4.4057305505621684e-05, -0.0019033234066563698, 0.001091394679509409, -0.0007507785876543212, -0.0003382706104677292, -0.0005991601143182533, -0.0018478293893403833, -0.003034774549663321, 0.000768601341269032, 0.0036383088659724437, 0.0005319203922862721, -0.00016320044080468324, -0.0007780517665368272, -0.0014156451769918275, 0.0014525273589060207, -0.002164732841059599, -0.0007183425146786506, 0.002541674730178157, -0.0008108791312634173, 0.001940356313137041, -0.0013428722934624312, 0.0029960230722203053, -0.0006820952574894275, 0.0015220489287027167, 0.0031507621796472754, 0.0010585061524412106, 0.0006646924900821925, 0.00045828675843232955, 0.0020435283487542323, -0.002788086175570543, -0.00037882246047232456, -0.00010157020064483006, 0.002029326110300612, 0.0007554243771358531, 0.0009504351439547782, 0.0014574405968798814, 0.00010155708053423147, 0.001179880966357841], [0.00355028314010543, -0.003370386310796963, 0.0021413685581598355, -0.0006735810510860665, 0.0001327932639976886, -0.0019705291993351356, -0.0011495692657020435, 0.0012972497966581215, -0.00044807518067985355, -0.00017265504961977944, 0.0003636460923853804, 0.001082163424249635, 0.0004953854045597935, -0.00010786476415763511, 0.0006892155446163296, 0.0014051856505153096, 0.0013889991324808968, -0.0009970496967045706, 9.846968238659808e-05, -0.0039257000058166465, 0.0004088015881693181, -0.0005284349064772257, -0.0008399573212102905, -0.0008397283999082228, 0.00046915844738856896, -0.0005609059042474573, 0.0021823249825668523, -0.00010257152066904976, -0.002528599864662851, 0.002072640287607714, -0.0009275606339490268, 0.0007553575183920959, -0.0010763441680991341, 0.0004604049033803779, -0.0019264677585343806, 0.0017020986239916435, -0.0008153896505899973, 0.002232985639651466, 7.874434058385214e-05, 0.001654886902859558], [0.0019240308941173808, 3.465652856185316e-05, 0.0018189804031655639, 9.606224573061206e-05, 0.00016511870621870587, 0.0012418137067400092, -0.00012257993790978106, 0.0009685769138455328, 0.0008257055253236515, 0.0027874515194056316, -0.0020783234430658015, -0.0005061724183770394, -0.0018635481912393967, -0.0012675216769955763, -5.130039980164402e-05, 0.0017136913679028619, 0.003016136772303477, -0.0014485928944429785, 0.0018692880128068268, 0.002105528715086192, -0.00023263473912881787, 0.0027774674508900202, -0.0004586988011867685, 0.0010945505640139626, 0.0009128947096263527, -0.001376302771972621, 0.0008576222599610154, -0.0008468705269714041, -0.0008974417541661762, 0.0007017788195447089, 0.0014212648454879513, -0.00035008877048308394, -0.0026772966905533806, 0.0011817138507438539, 0.0011465935170069214, -0.0007891987393823109, -0.0007389354788217932, 0.0011799108280016372, 0.0004961767624953663, -0.00048552316671866174], [-0.0018487362208510006, -0.0016817591400672671, 0.0003072950304930332, 0.0007663181186332003, 0.0025180443284634475, 0.0008859525173201456, -0.00030644349248010785, 0.0028144091811334836, -0.00069424391426009, -0.0014629564624240865, -0.005063156140427435, -0.0023371462499354218, -0.0020165693450238677, -0.0014138215486426762, 0.0016519081794542111, 0.0011863764943108935, -0.0008613324851575187, -0.0008102667604764857, 0.001293147819018624, -0.000910617619326853, 0.002330400502233367, -0.0007619495240851265, 0.0023976051425212276, -0.0019072293188504353, -4.894774325881096e-05, -0.0012165587828804447, 7.173610642665963e-05, -0.00020292336929535022, -0.0031910602243080404, 0.0008880853250890356, -0.001362764145133242, 0.0019665170527253355, 0.0013304424491145017, -0.0017656567079654014, -0.0004558226150781132, -0.0008261039270855325, 0.0013061822909064844, 0.0011861310098519179, 0.0013240875536775943, 3.093341625077205e-05], [-5.103375263339968e-05, 0.0002897670105281659, -0.00039870508863855007, 1.2378880066260356e-05, 0.00027771208093943566, -0.0037404848877246365, 0.0010235328837472077, -7.481530042345435e-06, 0.00029492239530788623, -0.0025393493349842246, -0.0010305275036242014, 0.00019356918956909102, 0.0005287462947058341, 0.0012704893183449794, 0.0008806394825029678, 0.001547365298196189, 0.0019033316334740433, -0.0001788507470316502, -0.000453534196766943, -0.0007520056907430396, -0.0013587838712566095, 0.00048602859417274535, -0.00038315999570768855, -0.0013099990962288607, 0.0014174519116963106, 0.0008396807337845287, -0.0005637905161756036, 0.0016772203123080619, 4.117923949942898e-05, 0.002786063799157799, 0.0014605800973621582, 0.0007124188732695235, -0.0006566273446194712, -0.0003913074452212672, -0.0031000683402791964, 0.0005315957784968389, 0.000511215695004791, -0.0014428250990998054, -0.002364617856255375, 1.3000967716447036e-05], [0.0012292077699383459, -0.001408018109225403, -0.0018098202433165407, -0.002228583687463951, 0.0002547760560799298, 0.002549152461368338, 0.0029236826220348845, -0.0014576979584686768, 0.002403196498696522, 0.00019768539404570854, 0.0002759074331312981, -0.0003117386118794979, 0.0007695605922497788, 0.0005313730779730444, 0.0020225552258704756, -0.002272277757854311, -0.0005215271334630251, 0.000811085906156874, -0.00021352095253352157, 0.0014663236854777664, -0.001045336848701341, -0.000399812578574121, -0.002253777572252128, -0.00036209071284864895, -0.0004728679598820191, 0.0008771510266625369, -0.0007474876938441192, -0.002129354440963636, 0.0017774389887763118, 0.0009824450457129878, -0.0002504172069085906, 0.0011233676670293208, 0.0033507381933043276, 0.0011349087330634828, -0.00042863620647507313, -0.0011370344315491155, 0.0002350245149325196, -0.0020676601091338996, -0.001034741636693619, 0.002164073104154849], [0.0032059284526407853, 0.00037282262461513503, 0.0021013553357687722, 0.0008988570378605467, -0.0004210848480897064, 0.0019247373659474001, -0.00042613135483272945, 0.0010153937134383484, 0.0008074922387521707, 0.0010834586995608951, -0.003483250293927896, 0.00022710878769032725, -7.049148394208748e-05, 0.00014585870220131664, -0.0006019525558126771, 0.0019046460493876598, -0.0009730869674603659, 0.0020158069556499374, 0.001444110469985603, -0.0010157679402987689, 0.0008561383805187668, -0.0018056068512920839, -0.0015521499999628177, -0.0015271711083735884, -0.0006624902407866239, -0.0008582292721993471, 0.0007860746755378105, 0.0016799527189952257, -0.00017539679595076753, -0.0032464672626745985, -0.0009333148879860181, -0.0034673265650357363, -0.0007208421965483149, 0.00026780310667814705, 0.0020293814109980696, -0.002303553767914562, -0.0012360874065992507, 0.0037034137914610005, 0.0008125199746625278, -0.0019922221510919806], [-0.002075457346633701, 0.0007388878131170941, -0.00010938337155659844, 0.002761866776479857, -0.00029424209295745294, 0.0015797361414530966, 0.002516125956888872, 0.00017895295985335, -0.0021600257114724325, 0.0003333534253205967, 0.0008813745866364127, 0.000838388809110784, 0.004745142629580488, -0.0024030244789456628, 0.00032277579743955723, -0.0022914828382723557, -0.0035212970863839365, -0.00025888876419986895, -0.002048022094756816, 0.0003279577831445869, -0.002243988462681022, 0.001514143438868244, 0.0007691101829479743, 0.0003738668513949995, 0.0009403228789249821, 0.0022864479886898206, -0.0013327818372163211, 0.0002885692431213028, 0.002125265181033206, -0.0009021332716968019, -0.002791380588981072, -0.0016668604467503468, -0.0025365999910807167, -0.00013949465785300302, 0.0006458025205065946, 0.0019598971200211956, -9.464753761180256e-05, 0.0024102427653117406, -0.002163281994436463, -0.00022030230561680174], [-0.0016742130817927522, -0.003316933822846856, -0.0031042011389029425, -0.0019493829138206287, -0.0020585892809953767, 0.00046734439432366423, -0.0034661302044250108, -0.0009803203373448717, 0.004349495110543103, -0.0032039319093729924, 0.0015921694721804326, -0.0018198525681366855, -0.0008429268147568837, -0.0013521242834209854, -0.000628146485765501, -7.641264132074621e-05, -0.0017928208073786538, 0.002289193686110251, -0.003214670972180465, 0.000946205033535073, 0.0015357129087693662, -0.0006873935274596802, -0.0013373489602653606, 0.0009172588117394952, -0.0007892675322841866, -0.004606081777850262, 0.0011967576147499084, 0.001454545150738648, 6.674010745864402e-05, 1.8881056177228137e-05, 0.0007803425545986904, 0.0011915213209158382, 0.002626157181854096, 2.721836422833664e-05, 0.000286699943360845, 0.0014631306473680532, -0.0031407206226325185, 0.0008993537035658437, -0.0014104195763058195, -0.00016003000667153], [-0.00023294501772358326, -0.0003808594887431511, 0.006958831939264876, -0.00014353363089139704, -0.00140846393019476, 0.0025600618092219665, 0.0017811649091164466, -0.00247446745123766, 0.0008117641196829932, -0.0008625771280380994, 0.0019337467467645533, -0.006497728380072047, -0.001372842924263883, -0.0005712070908489168, 0.0022949737482386426, -0.0025892130649232854, -0.002320605741561721, 0.008110552651161314, -0.0002557517896556233, 0.0009388173750603985, 0.0032374730626391506, 0.00363469625645339, -0.0014200098521325276, -0.00013304438009401843, 0.0018826256315918688, 0.001789813553257502, -0.002113019391408421, 0.005159161965062347, 0.0003006365619594, 0.002700146368773046, -0.0004012188390184715, 0.007877043339369843, -0.001950643692284958, 0.0005956688271844386, 0.00885240627802985, -0.004512280697658336, -0.003711712678263942, -0.007227301888708058, 0.00671733212340236, -0.004865240785662763], [0.007397935555111041, -0.006161772419444445, 0.012524852876049592, -0.008816934026763727, -0.0023962073112896226, -0.001224466635721722, -0.0016696655421047338, -0.0008950751180223223, 0.008459884086268203, 0.0003742542252891903, 0.003467273329855482, -0.017998967879381468, 0.005942996263437078, -0.00810357239431428, 0.008452750060178607, -0.017591648447731093, -0.006579571507890847, 0.011104106033098908, 0.0021349681051252628, 0.016010849011353995, 0.010158925859344569, 0.0036563620126773768, -0.012907361594482077, 0.001875608943197601, -0.003178490324310534, -0.007283642311380675, -0.0028222755928983168, 0.0023504379893972338, -0.006566493899524247, 0.0018117735982858586, -0.003415970190448297, 0.021702990738370342, -0.018016951402576604, -0.0057666267189248055, 0.00885501925702386, 0.005541642724710884, -0.011450563135615596, 0.004634427651821829, 0.0024434379997571344, -0.009434190570700702], [0.013070732400043193, -0.03360173080191101, 0.012664231321098588, -0.024432390867807578, 0.004608065197974665, -0.009026063776667955, -0.02106201999598506, 0.003600628515283015, 0.020867118789148546, 0.022445540594907932, 0.017326165009655215, -0.00015313324589570518, 0.020584942198628168, -0.006409935716091853, 0.006531665889533257, -0.011513865306802474, -0.021514170522808566, 0.004151332028364717, -0.0012546558019434007, 0.024206118418588753, 0.009861280596356006, 0.0026236023032386287, -0.03919932946765735, -5.2349139562782144e-05, -0.006621590867962044, 0.007709250858079322, -0.010060719469991843, 0.013576828914740137, 0.011227837816562433, 0.010150185000896757, 0.005087483685411704, 0.0458320095338812, -0.02226335219859492, -0.021163096040628767, 0.005453703019733097, 0.0487080349691649, -0.019969100384316273, 0.03849812846170172, -0.030789413745326445, 0.002462323963300083], [0.03278067605417203, -0.045848257898240576, 0.018099245424757354, -0.03890708644431108, -0.008819066780954158, -0.030768563308017128, -0.04218911113267039, 0.01704836610331651, 0.05259393797843511, 0.015242854991930477, 0.03880540546043356, 0.02151445404571071, 0.036567810087839395, 0.00023659153541523968, 0.015362732341141858, -0.023987999630626824, -0.07071792850613902, -0.012642640574809351, -0.00671222227678151, 0.044849662101014605, 0.013153480485925321, 0.006799705886971264, -0.08259103720923769, -0.01118392975606789, -0.002548371078028025, 0.026832872423479107, -0.030252894564124153, -0.00047937242480201923, 0.036252308496241586, 0.05512756421390129, -0.009113140361646344, 0.09079424281886463, -0.03046953040083652, -0.0328548760131531, -0.02251705705816057, 0.10671088379599893, -0.053495392783585484, 0.08185375704814489, -0.08900359452135669, -0.005168826013966856], [0.07588236142234395, -0.025384472598068756, 0.021405205678063782, -0.06725338225378046, -0.043884945176325074, -0.0857597868139244, -0.06298769233507075, 0.03922813801171, 0.08597775894367059, -0.0001240787569373519, 0.042354792656201304, 0.05457347598009181, 0.0481816338397537, 0.011813910340143214, 0.04208575386116152, -0.05741992982441923, -0.09697281284125985, -0.013574953740409824, 0.0024727861411977456, 0.05107791510902329, 0.04202965433239765, -0.004683805856770224, -0.2027405974300862, -0.014390624797434037, -3.289217438699955e-05, 0.022287372480957808, -0.05167270774033719, 0.019966117436016145, 0.026495272337415533, 0.05667862283555556, -0.07008303658856839, 0.10996474629479455, -0.03666272841496227, -0.0762929488419598, -0.08550877150368622, 0.16490390510871866, -0.06921473441721715, 0.19313708204112412, -0.13109567696325058, -0.0061669606769007845], [0.07544673523200643, -0.0199371409650973, 0.02771131125308726, -0.07341827371340638, -0.011295231387943739, -0.1040579125918288, -0.09934395098977467, 0.07420835402868504, 0.10010951341422249, -0.024804539109944332, 0.06999213029655242, 0.01903451674042972, 0.0684052290730071, 0.017617190630122646, 0.024503182703439652, -0.0870341026998166, -0.08220038384148998, -0.038554059308611055, 0.03167212410927277, 0.021252143767046348, 0.022742377315621013, 0.016285348570369937, -0.1540144920708958, 0.012553857225868539, -0.017263622298260548, 0.030449478049054342, -0.061226974777858816, 0.002526421777497018, 0.021791691432356486, -0.02811709868148274, -0.08382029603089074, 0.10137445798102455, -0.03963015190547981, -0.0344823766257086, -0.09142352901572674, 0.10035125910517398, -0.067289967844682, 0.09804241596823407, -0.08310930855651316, 0.005608641827971509], [0.06450288231851331, -0.02485182036195661, 0.032571071354495, -0.0933992925613677, -0.0018903834090242021, -0.04135049131820348, -0.08328193873112456, 0.023885570133199384, 0.03698603580265022, -0.026043898293510385, 0.0713813094867809, -0.00407555102640193, 0.08720523116917281, 0.033796285720576205, -0.013196241758454831, -0.1570924782737968, -0.06959164078079663, -0.036383545335722176, 0.026693548840139747, 0.03983351964571897, 0.026802691036264224, 0.047315953347450534, -0.06069003456485715, -0.002055680679625232, -0.01594850498658039, -0.019628056479493065, -0.010248555639173339, 0.03590859887451489, -0.0016044372676880456, -0.03250234047523453, -0.018217577423222615, 0.15569392821464068, -0.06497486968418686, 0.004727990006168237, -0.023625545737907167, 0.11092392619786462, -0.10775968023085063, 0.050794570687323765, -0.10793255891278161, -0.0027568080658921484], [0.11631769883316281, 0.017326664501676328, 0.040428477196387536, -0.12272154947649894, -0.05382456112223054, 0.019926054298819343, -0.02928867090495646, 0.059874474873253085, 0.041882726821056454, -0.06840097484306781, 0.015197272201719956, 0.041980155159549205, 0.09700653351756354, 0.0218664171963393, 0.06298594850481609, -0.1558446736968974, -0.1562858434079177, -0.012655605659993045, -0.01735639139392522, 0.02630767985908072, 0.07705932906937865, 0.05299971917061304, -0.10209186653179571, -0.0035757404346396654, -0.02005401798568759, 0.004320205297057975, -0.015828133404846265, 0.05576082742389365, 0.011006593983692695, 0.0037259937493793415, -0.04431274727059436, 0.19617139086133403, -0.049318183065348194, -0.0671712461391538, -0.13635800579028864, 0.10000387105855338, -0.15847722191370567, 0.15471960652817057, 0.00647860363694372, -0.04057271652079978], [0.11216750799391047, 0.12657093810360484, 0.013889245176748688, -0.12233454551397785, -0.04187237417008527, 0.029572990702013777, -0.006192358452353115, 0.014683083395309424, -0.03472703740893063, -0.13504516663297664, -0.010301840700128089, 0.03715403865999938, 0.04760896192262935, 0.03078015511852179, 0.15202858964653423, -0.1853233474492719, -0.043459721804486096, 0.06394342733203925, 0.0016601508373122222, -0.04417183909040669, 0.008850419997848986, 0.02035929332643276, -0.08273984865405376, 0.005860284372086067, -0.006337358835871345, 0.06246211141203529, 0.01830613178478798, 0.09698443053675135, 0.008208072410812728, -0.15515737624373302, 0.00809008003775484, 0.06811069950057355, 0.098669584597832, -0.047561639811792136, -0.040621804801842645, 0.007461322111987623, -0.12117006833859269, 0.0015556696636552126, 0.020194740671802127, -0.060089174176948035], [0.21984537871829227, 0.06413190667916577, -0.0498966683529369, -0.18264789560420658, -0.027469934526003253, 0.021325541957083385, -0.06163126656175964, -0.08695220219954726, -0.15294678964889083, -0.21918524717714605, 0.05375896846775275, -0.057607131874029896, 0.06917536581528988, -0.11640278383888528, 0.03794041062928622, -0.130444035416817, -0.007311700442147472, 0.16784552652962564, -0.0038239141781375038, 0.0012994390508203574, 0.024859121997163884, 0.025792888677833904, -0.07411200141668056, 0.008405573485942733, 0.03330234948169065, 0.02111957886466929, 0.04164034104077218, 0.013873817262939759, 0.015338944362046752, -0.21172754918361697, 0.032663151299572396, 0.04282415450194503, 0.07290447291509215, -0.019142210519774484, -0.06375002767760356, 0.1355943078539473, -0.09053773414396461, 0.11122853634339103, -0.07162915248820417, -0.06570922431662458], [0.12934006478941368, -0.045880288653591575, -0.038987871598509694, -0.15760073971683064, -3.648411028113923e-06, 0.10207468999860364, -0.06459565989189442, -0.06314144590432176, -0.12301405059957266, -0.24357926130216095, 0.10039066780854895, 0.024535690250268236, 0.009266823719167618, -0.1330071033504557, -0.03253278447537838, -0.08082840298535576, -0.11176785163643894, 0.11815546755083156, -0.05695161030384419, 0.10066826023792746, -0.022476687736987487, 0.028369055800825837, -0.04577506177627996, 0.04162539587614479, 0.13586175263594946, 0.07414748161411927, 0.041118844310379064, -0.018069446627453016, -0.016782921764960046, -0.20968010971507936, 0.02331491735746044, 0.1471853469601316, 0.10984874434481667, 0.03458953054921344, -0.19531173385781644, 0.12303353046858843, -0.14969406661617451, 0.024574682877659508, -0.04133223095095514, -0.048009481406271294], [0.03739514877667329, -0.02845184625719786, -0.14070407452622852, -0.0822353935697047, 0.00276402810883689, 0.1107040963565838, 0.009204886245066018, -0.0612192467734312, -0.038776458806192085, -0.17469869355455242, 0.10506272454945575, -0.015322659620477854, -0.03614345092129736, -0.03706103447378311, 0.00382260992385679, -0.06052289510574252, -0.08091150237865213, 0.13115595178359674, -0.06957694950409134, -0.02194207507074778, -0.00011002679517513885, -0.014812822433966925, -0.18395165682880438, 0.01417688719454256, 0.18358136801201902, 0.08644699127603639, 0.10606933615330338, 0.06863858208971743, -0.059517571342520274, -0.19088259783352599, 0.021193518663669492, 0.03206934657950857, 0.15257154400262843, -0.047489061552452326, -0.01045811642355856, 0.09054646191894916, -0.05381714599540403, -0.1333747219043971, -0.06934294157378425, -0.05399420484526625], [0.08919680405414977, -0.1398458957797437, -0.13607419951233227, -0.056151701327959144, 0.10010513449076996, 0.005572556178506583, -0.08070907598234148, -0.027662975339086748, -0.1713457933611747, -0.08492925201966622, 0.07239952491242609, -0.015434232572093127, -0.019654180158313758, -0.027042097662712275, -0.08685882830821436, 0.06641012788675586, 0.1392143357623569, 0.09553653239023158, -0.04872954516854897, -0.06698207527571352, 0.037810722937219245, -0.0031510006574232913, -0.13538729805639557, 0.009969006634323952, 0.07149052123093158, 0.03081196888956106, 0.17416905122207524, 0.08637371100052187, -0.09965818171618365, -0.2148330639149554, 0.014736692280972817, -0.12292429767699672, 0.06864005456256628, -0.046434090019934815, 0.1297847226572853, 0.25584803807693407, 0.06191319882370349, -0.004891997174320145, -0.22810490532496405, -0.10868642149183996], [0.10581596557612827, -0.10435515706189973, -0.0646017150082676, -0.03342986170153938, 0.037591030327836755, -0.012338185670350416, -0.06820023941860123, 0.01849632990953479, -0.18565376179745804, -0.016808505619563104, 0.03426135762214793, 0.07132777412224083, -0.014854371094787669, 0.060203449406194105, -0.009811790109697262, 0.000923476639034241, 0.0662091405770616, -0.012409929420248676, -0.006322893918140589, 0.0070402808281232266, -0.024759329762609236, 0.03151938628805374, -0.13248734120137118, -0.09015837124068206, 0.05637181609915451, 0.15984951293910593, 0.08948952029596113, 0.09212122742895783, -0.020253544826673953, -0.1733763269558606, 0.0015491774440524457, -0.15025327460421264, 0.13609325854302984, -0.10510788708258072, -0.0031853260386950394, 0.2279214913679405, 0.014075755931035456, 0.01561556162770767, -0.15561546318322714, -0.0663301461998413], [0.027265604896110258, -0.10937753456412042, -0.03563325251471218, 0.004363760624326194, -0.02039004838197051, 0.030368893065205235, -0.03546834509177281, -0.04057573793210759, -0.11673995319252226, -0.012094343148366658, 0.0007568893250367653, 0.016906401148230492, -0.0011506152297421472, 0.019522366384876515, 0.011274908714921152, -0.011332048225928202, 0.04667628092847581, 0.044241894496127636, 0.004958112419442516, -0.008566092965064854, -0.032033784096830824, 0.0026279920819352147, -0.09913064115505194, -0.057334502372600085, 0.03690662136059952, 0.04120677229326702, 0.08042547491027566, 0.0654039755014791, 0.017379538514294884, -0.08303840935391199, 0.019665004580604117, -0.10597491579652257, 0.08448749695326646, -0.012470998942880805, 0.07613333305221245, 0.15719642198662143, 0.008292354913277747, -0.02081457387189912, -0.021303400156777938, 0.005270032632611888], [0.003675055929318954, -0.09452170428461226, 0.0019465113538541681, -0.013912968891486953, 0.003617125274405452, -0.025723924076226385, -0.031568015962220274, -0.029183166163408977, -0.04138424061005747, -0.00948390264804405, 0.0032216712710032695, 0.004979816615096944, 0.007412092763089829, 0.0030201386836828147, -0.013033445109942522, 0.009300787494866646, 0.05758591061309858, -0.018724123382279433, -0.0039817294086892056, -0.0037719370372670973, -0.041178023034839986, -0.04069383721815816, -0.04022460837805011, -0.029484805091639702, -0.019292212122318495, -0.0028817340074431676, 0.011381207629977585, 0.04267497541902885, 0.022852712208763462, -0.026361355937148893, 0.024317542846206172, -0.0867996075299625, 0.02993642137125766, 0.02639700365998295, 0.07174729957570011, 0.07224203154085872, 0.01452693180028933, -0.004948198976423864, 0.016388934707233117, 0.04424279246997765], [0.014881826414414054, -0.05370532890557951, 0.01775219520526423, 0.007425244803953933, -0.03145141535767229, -0.0329776005223522, -0.02620455388620992, -0.005043428917537664, -0.005666081979647585, -0.03015837627986939, 0.004228604421515526, -0.018754765933694947, 0.024191989812015546, -0.014696729282630145, 0.03814720669080821, 0.0048934832980611015, 0.03801185849238816, -0.07922547889922214, 0.005268476906180539, -0.007819030372582768, -0.02387667921480358, -0.03479152480247954, -0.01365930254991444, 0.003154063837194971, -0.018496355965607843, 0.0024250999461625767, -0.008625242043007162, 0.022795280570458428, -0.01841088813001233, -0.01541513259000763, -0.0023360570005327365, -0.11059450360577947, -0.0075810534528803495, -0.005286733421737325, 0.04788224163798067, 0.02248512068480492, 0.004605830988418075, -0.014480329062019244, 0.07368544409854194, 