{"layers": [784, 100, 10], "epochs": 20, "mini-batch size": 50, "bias": [[0.6810852979762801, -0.4478957999779082, -0.04401669730876235, 0.0588494373008557, 0.4502792440778097, -1.7510026379521686, -0.7617757651851951, 0.701386787872109, 0.32742833011433925, -2.2383902995575418, -1.8689637827850751, 0.47579507183987796, 0.5279210724174107, -0.9014924556754591, -0.20614064213652003, -2.1884382146005885, 0.1792649988309816, 0.5607892435211596, -2.0596328665745087, -1.695234701994964, 0.6988340252901721, -0.18533825643090632, -1.1394901168623794, -0.07640430555908795, -0.08878147586835541, 0.5093529664190122, 0.0464188546350831, 0.529204692877124, -1.0546408438691004, 1.0488898132316997, -0.9002750471344612, 0.5708158132875933, 0.20892314162323083, -0.09618178440913731, -0.9570874732267171, 1.0683575471574338, -1.4258380591551953, -0.25208537122798663, 1.0452754944608331, 0.440246541809351, -1.740309984398892, -1.1094412387831878, -1.0602904330136, -1.6863324811027005, -0.5385043808223612, 0.3395105671570601, 0.4448113053818622, 0.8209651133376928, 0.40358228418092235, -1.719894671660997, 0.611775777613453, -0.7598269128699221, 0.6708111000197718, 2.1196402636307963, -0.2539319574951301, -0.43484065026699187, -1.0816503508737856, -0.14936098410402918, 0.7895366811759333, 0.013525559712492356, -0.7995012497220793, 0.5674885007174776, -0.9848740286548032, -0.9306684880412124, -2.7172584405843674, -0.0329908740100732, 0.19311582185886506, -0.3373761827471139, -0.4971398206075736, -0.24846513019041905, 0.7602740638679113, 0.9223347005550597, -0.8597812528297839, 0.587396470035767, -0.9183247877090542, 0.647994988562139, 0.07642687189771338, -0.29726866375329053, -0.7630518520272863, -0.332270120126413, -1.5037769001664216, 0.7444472095912559, -0.3840661260027757, -0.6287160354172792, -0.8354841296585165, -2.2206346368827203, 0.09070866745413857, 0.9997209334987233, 0.8410991200619922, -0.9282386336247402, -0.3383337522021182, 0.7546051531318272, -0.4103857874530952, 0.01110725084920382, 0.856216412021328, 1.0632549384290855, -0.16467986486080874, 0.9466912498790893, 0.6940855739523641, 0.10044023124835097], [-1.860916582584915, -2.874391995515406, -0.9850048853771279, -0.4818159164479941, -0.6988927765204263, -0.39950505855323076, -1.638151700093856, 0.32295145699058864, -1.4000373003767352, 0.6407860427550005]], "number_of_tests": 10000, "number_of_trains": 10000, "weights": [[[0.04625531323782172, -0.04182765645441618, -0.017143437070542413, -0.0035223463105797373, 0.08384500932086723, 0.08480035870850408, -0.04864699694909285, -0.01584268091957728, -0.02141822044768612, -0.0070265439000591744, -0.010602886440127848, 0.018666077640597044, -0.02082674310476729, -0.019037096326225668, -0.05824156222587899, 0.017576142437991223, -0.061114453024845965, -0.03167030847021824, 0.024166297686381837, -0.05181718473710824, 0.003819850320682383, 0.012665712574053722, 0.006591386538686385, -0.051634435115805205, 0.019713611029092797, 0.0239366978160818, -0.025890770123913685, -0.02161814820628243, 0.05933216992197996, 0.03444410207849536, 0.011208621022081821, 0.046969923798394694, 0.03530256286582485, -0.0145520688093669, -0.0033599698728809186, -0.02355687685615235, 0.003118404845770732, -0.014189133543304365, 0.03499567438837645, 0.019116290169513283, -0.004439834147892642, 0.020641479256678558, 0.015006539518943788, -0.03035547031587021, -0.05151168760726871, -0.05272951383973456, -0.01923109739567214, 0.014587938724578964, 0.022470735634324404, 0.034884200447295205, -0.022542697162760333, -0.014684192757075526, -0.03758841133153509, -0.07778066550090655, -0.02364855350361038, 0.01029825927338296, -0.0297043167553565, 0.008486890001765461, -0.08286363274388826, -0.03301360373947079, -0.014647436892121331, -0.0011793195787671246, 0.004243272603819623, 0.014992974339923042, -0.008244062898136683, -0.030662114178768175, -0.0003676279528291927, 0.058559080775297805, -0.029935859348603218, -0.014602021087848683, -0.035272029446324515, 0.02810498749677757, -0.03610841318700862, -0.0507713201450316, 0.041403293961290395, -0.037004922094588236, 0.005809202171523171, -0.002034448339268626, -0.03712646586424758, -0.006472437720316644, -0.02948420600485309, 0.045934411873472684, 0.06128411188389275, -0.007992715449417697, -0.037179964040934814, 0.0091773629915601, -0.011468204711238762, -0.046155933413505094, -0.01557850854057516, -0.1148863630566797, 0.026753855686204395, 0.0006487825384908919, -0.04344084229444373, 0.02283250511419443, -0.022455779449631123, 0.03713310411305771, -0.028389674911008248, 0.006830414759300984, 0.0060352150024283735, 0.023145309705322796], [0.04829010225117486, -0.02022316932771632, 0.00013770425821833945, 0.09208417335444005, -1.4406890887775922e-05, 0.002053001310832255, -0.0534788779189713, 0.06541629238192945, -0.010862563211966747, -0.02144139290000406, -0.021570143391757345, 0.04323367096650021, 0.026392363574673894, -0.03994578908231153, 0.07121461839892013, 0.039888944492687546, 0.024943473406237312, 0.0159178124831708, -0.04074552465923436, -0.023438915194056074, -0.035436271390267955, -0.01393997477537647, -0.012846897016468267, 0.03725429640886577, -0.06504403571940719, 0.04421599682354735, 0.05848028803687555, 0.037730543813711256, -0.029291662668381763, -0.009394777348459383, -0.025559477998965616, 0.020135992497715402, -0.05341189074810154, 0.044508011235752466, 0.05073746608795682, 0.047881494065860945, 0.010008240214814527, -0.006883096113910817, 0.014213793777013234, 0.025686309238019327, -0.0007165990264669132, 0.057327346978666455, -0.04473242551304097, 0.01115413656734703, 0.039065428581166114, -0.06655331289121863, -0.046413281535962435, 0.03434866175484914, 0.03402491896488934, -0.031129449900263083, -0.05365999383404947, 0.03246567382716909, 0.027330762219348503, 0.024622166260029218, -0.04329854991392014, 0.04780990979426116, -0.009469067405445808, -0.004023838373682632, -0.034288595566664366, 0.0259489612764151, 0.023427605623280685, 0.031520740812052216, -0.02464860691153687, 0.004315761749433767, 0.04692089071011192, -0.005022447969635349, 0.023696757107535285, -0.06464624423990191, -0.019368187943169992, -0.004720176458025212, 0.01814547490696082, 0.028523917602260206, 0.05844361221295447, 0.025255976092089003, -0.03842765882627409, 0.035455524117794956, -0.0061090865787449865, -0.03538949352606213, 0.0030111379167241164, 0.03204879283558508, -0.04115263062820728, 0.03208385345338611, -0.023326982972014257, 0.006627336280325772, -0.05413891244203681, -0.010246606169785207, -0.053183860724429106, -0.038123317275566455, -0.022738564856103736, 0.015395552497721832, 0.016861699288882606, 0.009872074890588178, -0.010827676118625377, 0.017528359003528695, 0.013430362077321985, 0.0728909200180877, -0.016524081875930425, -0.038214370655249005, 0.037667137378440345, 0.037936881497900296], [-0.00773593151132366, -0.011842919716149779, -0.0061931731834581095, -0.036098769094335716, 0.0987257448274561, 0.03832140981267498, 0.030800008248308808, -0.03066883384005543, 0.03853579164454468, -0.04930608846938702, -0.01429581930944441, -0.008706987684074345, 0.10067476204721026, -0.017437101223228935, -0.022228306990626414, 0.01091720172900214, 0.042243862529073736, -0.01499063745734387, -0.05757393148213901, 0.03477798718295995, -0.027907041754464155, -0.010298525474398636, -0.06088156245165874, 0.016688709301505962, 0.007072781904422403, 0.004371398751797377, 0.031188840056486287, -0.008990737789335323, -0.000815733509032876, 0.03580155678231579, 0.07669130178724473, -0.01232713833834958, -0.04160179158217569, -0.02713331041464951, 0.0247798889279019, -0.062236449721226064, -0.03211251795508687, -0.040933315777814054, 0.02727953032867367, -0.016562265935089325, 0.006271174635549296, -0.03541745307290744, 0.021097465451937577, 0.03249392383267283, -0.01632669223242461, -0.01023145966733606, -0.015672272761720323, -0.01397696451414877, 0.09442954796342423, 0.007915131458825546, 0.041610084120125665, -0.0016094404585379949, 0.048983088777986725, 0.015655860357073437, -0.01336323691397898, 0.03459620546039464, -0.0035411003710918093, 0.07603504267718394, -0.010342108192644918, -0.05443505612936756, 0.02492742211259147, 0.01618001621758704, 0.024313182628982365, -0.013446077069326826, 0.0669039274062168, -0.031181958591824356, 0.0280451213584402, 0.03903943278386301, -0.0032570267575707055, 0.014075401511898122, -0.03530659710975818, -0.06905581494546023, -0.07250614975460912, -0.019936719638637454, 0.007438105855979264, -0.052510435989101115, 0.01855005960271988, -0.027070233486512368, -0.011728492932144487, 0.004452654516773329, -0.0029353311319294728, 0.023372719808515113, 0.011257804348960782, -0.06313910970463332, -0.026630445874882485, -0.006577669612491049, 0.0254133026337977, 0.04723048758790672, 0.0650076180944039, -0.005475518582816564, 0.033471271704404046, 0.014596325921039521, -0.0190776467765712, 0.029887155436989665, -0.00881429971669415, -0.015391893941599653, -0.05065969713814876, -0.0006013249031191681, -0.015898960159925115, 0.029593303560867416], [-0.05970420148822715, -0.012481283408380952, 0.03865762794872247, -0.04501987145069454, 0.0022315625190032157, 0.02228817269029232, 0.05996085213627148, 0.032143180775608564, -0.003714683943673924, -0.0013590371594734314, 0.016274913913371748, -0.012509930495293262, -0.03508914147283297, 0.0049889090702692745, 0.011568118762968878, 0.014023247706774716, -0.05417865785916225, 0.016189941730180197, 0.012363314209915197, -0.009224365817844946, 0.006867834339154997, -0.006346016428558538, 0.011904717807401068, -0.04410685669521598, 0.022068521164967898, -0.009317739001779818, -0.01440121906298744, -0.028837434432579755, -0.02477679883078307, -0.007166844212223154, -0.010473843235955856, 0.003947104748648339, 0.02537553163409102, 0.018425114038271496, 0.07468185524390085, -0.033436647738282484, -0.08881480911788082, 0.009008682513303903, 0.06448666368447738, -0.014068478489176327, 0.020794673882081356, -0.04937282970412553, -0.03598655124206068, -0.029494258819039814, 0.019471445563063072, -0.040184933476448394, 0.04574889923078021, 0.01247504265496552, -0.00729642639102784, 0.02012854172874872, 0.03547939059937121, -0.07646923565593602, -0.060133817014160824, -0.0014190957548434054, 0.0589012164848558, 0.004029572274982118, 0.01911956791634814, -0.054376079013442734, 0.05643488905513127, -0.03305478054064151, 0.018981659757521366, -0.04048303501273525, 0.0941566651681145, -0.04227900700080128, -0.032742401201204266, -0.03057432554972656, -0.019539380320747767, 0.057767080987066226, 0.05753610751962669, -0.03388507363963433, 0.01588362101826182, 0.022530498202706795, 0.0625859896470015, -0.04296901021547956, -0.00889480950732453, -0.03784098234146119, -0.10524289844001512, 0.023291882778948066, 0.013058791373600324, -0.012223892687814467, 0.058468759391330984, -0.018134561145696334, -0.07943056758132583, 0.025291975091620105, 0.04940169140615088, -0.02751973083689817, 0.041161324688278385, -0.02614894608531918, -0.00997027981743679, 0.020010363440608015, 0.03708448160186605, 0.025451853396557787, -0.01136056645786315, -0.011392144519751558, 0.00428746678047343, 0.014729635122761185, 0.007858807799809003, -0.01908425529455022, -0.02288454996472624, -0.06065457990495356], [0.05121888246347974, 0.015389767865912861, 0.015351369278380598, 0.021421162891996685, 0.01422882601393337, 0.0060312091512642295, -0.027045250654779182, 0.014362466367726897, 0.04252751164164588, 0.043292640237192204, 0.0494106971097019, -0.08929132671286878, -0.017643506970947784, -0.011819491466496615, 0.016719472024929155, 0.03390966036777029, 0.058279333226600186, -0.015391510834865514, -0.015735304592953286, 0.003658450048569455, 0.05096937001847245, 0.0011400956987707713, 0.025375195326044812, -0.021423421832040677, -0.008693351426259382, -0.011523260954782547, -0.0010895371567612693, 0.020546404299937607, 0.03225866542821954, -0.05131154843364789, 0.02211014312021226, 0.08317040348731324, -0.01150277445972639, -0.00836038185089837, -0.005802276586656137, 0.013840205387129313, 0.020414296462151017, -0.05919318041883899, 0.0009604433809472166, 0.019059761449882338, 0.020908897746366836, 0.004067529290636486, -0.10205771097492118, -0.020262276540202646, -0.03525239417140011, 0.07451375750192592, -0.0005619575419360863, 0.021025771745371895, -0.023509540278887568, -0.007087994362877176, 0.00011389620239344544, -0.01929353578822175, -0.014100769309799605, 0.004802747508467209, -0.030186992989413644, -0.028985128037639994, -0.023491496462533762, -0.08193438858352155, -0.026315243924388332, -0.03839331182075472, -0.02059958477942182, -0.02132218629678975, 0.021725488900315167, 0.033316672134095934, 0.032234040921840505, -0.008972572440303538, -0.03441778086051449, -0.005458973678604579, -0.01552477264706586, 0.05788029173589642, 0.018131512975911694, 0.016704568778286025, 0.04248805930195201, -0.003910112671685747, 0.012736184733565767, -0.04355195286361318, 0.03098627507617802, 0.02683863652024487, 0.059312004747306774, 0.021364932679625404, 0.04115379698823901, -0.009475825178580727, -0.038681957119328335, 0.030509827568468574, 0.03175677501730536, 0.006788501530396396, -0.012470409915687906, -0.017764611117336446, 0.01571100894776447, 0.001840506900010078, -0.05263837230242304, 0.020105201664718395, -0.050979924063819806, 0.016330742130128677, -0.025979682624495907, 0.018818817950982464, -0.03276126989006896, -0.08195707343864388, -0.05400618598114522, -0.07414570346304654], [0.022193940940471845, 0.008740605018222344, -0.015279699201484493, 0.020601502585938177, 0.012860965614150698, 0.0025024692421067854, -0.03748685269360811, -0.013056829434348324, 0.04165146551336801, 0.025938795459142523, -0.010436502431745856, -0.07347169530243329, 0.02476330830101154, 0.02759218655807825, -0.04821943895770583, 0.02324849030212851, -0.011807914074946938, 0.018137379515593584, -0.02221869516280646, 0.04362852504918408, -0.0457302061675041, 0.04663867630196842, -0.01726487162533634, -0.03166058197715111, 0.0020129115668729137, -0.001997150595092108, -0.032833473254227453, -0.03346321254952184, 0.001352216827212231, -0.005866192959892126, -0.021169394325914852, 0.11373025840561563, -0.009349794616023227, -0.05041106010043064, -0.007716423312107317, -0.07820978036685057, 0.008812492326460192, -0.0023166253670535873, 0.015292098578275562, -0.01227770841457567, -0.10023787903109324, -0.030196462725361584, 0.010659133842443594, -0.03888986736853082, 0.028813813680248802, -0.05131315248577256, 0.006796706770165363, -0.0019273395225846534, 0.026516589670097287, -0.03297995898774016, 0.0010192669428112906, -0.0113350872177623, 0.019579339447645006, -0.0011185278616101723, -0.018258608584843086, -0.04787132866811505, 0.01864227969667958, -0.022568114130870454, 0.008139239593924246, -0.057646413554037476, -0.03598278664466996, 0.012880389757686087, 0.01622092338316484, 0.016253993993819126, -0.027656636933812036, -0.009856024989831602, 0.02112641180090267, 0.03594042749016424, -0.013628381137882239, -0.0006332636859699719, 0.034791200134997785, -0.016610534499147202, -0.0311716952728693, 0.05088623305182787, 0.041168325586935076, -0.01898943647121396, 0.039794582210362466, -0.05188459058045502, -0.0071782051212075865, 0.02783515413603931, 0.04545026669168618, 0.08395540253904693, -0.01662244542567669, -0.07678329452449703, -0.01889044747951892, -0.04003620891999352, -0.04883060592390248, 0.05296208709025162, -0.02527548075263286, 0.03783369224638309, -0.07212716579268663, -0.007742146871042563, -0.05783849213664126, -0.007553575549145597, 0.025483021353894676, 0.01702723537379336, 0.0013581324528905, 0.03646773186569908, -0.047929963838979656, -0.02739487236533662], [-0.03582442758666971, 0.030934560605270195, -0.00591333433404198, -0.014480463798190646, 0.09636226270314377, -0.01673409090655186, -0.05160001483530547, 0.0158324621418776, 0.028398720373276506, -0.00579788118502755, -0.017673649652271518, 0.03966328457608662, 0.009121095165781827, -0.03332417940067445, 0.06254934920329445, -0.04391478870261737, -0.058867730701727204, -0.019212358311734894, 0.034535691374419294, -0.041274248861878644, -0.0025495182082880398, -0.02337643383815776, -0.0009531361708648121, 0.052026401390734764, -0.025412603662679438, -0.0304611421541667, 0.01381721845000941, 0.032161069311033116, 0.049608972420262604, 0.02528701610122925, -0.0458246323452157, 0.02873953977738544, -0.013239174710456202, -0.011108079413379117, -0.015855973436936233, 0.05234420377097696, -0.03597419764105746, -0.005335233676616503, 0.01122609105950243, -0.05141220334377164, -0.0003375814256491462, 0.008272128474547029, -0.012228107262587645, -0.05671362553135759, 0.02250540332194477, -0.020679170693868053, -0.011836002513515034, -0.01902698603651353, 0.02994067524229318, 0.03094390366877434, 0.013700709466147166, 0.047688073604557235, -0.03500295738920212, 0.02097950116986801, 0.010675163833877939, -0.03154068292110458, 0.029601990773964006, 0.09923106513564589, -0.010226317977601224, -0.042961724648148986, -3.7352608499620216e-05, -0.02145078014769846, 0.021936117545255332, 0.016255144563982065, -0.03490776889404542, 0.0011821258684989145, 0.023191538408435734, 0.011745571810522458, 0.0025047573190235903, -0.019210078023280626, 0.0029336289885815744, -0.11375454128061799, -0.04165781773188495, 0.004793047269027693, 0.01226747429470215, -0.026451619046011423, 0.08555875830376942, -0.0495438646901939, -0.01661787793690717, -0.03729537032424116, 0.004516067622488051, 0.013531986774382363, -0.010826351938901307, -0.028851036649742073, 0.016298106858603605, -0.004106427301933845, -0.06837353920930397, -0.02418040939050099, -0.020926236774237307, 0.038313475662036724, 0.011878787310593317, -0.05848607027474548, -0.03866579136550648, -0.017228458042719136, -0.050652812269917274, 0.06246435775157903, 0.014766880062911068, -0.05661916469873123, -0.02330381458582896, -0.009019384318821185], [-0.07647261997937553, -0.00949787594493759, 0.03760570616930717, -0.02129305172440387, -0.027770921575118422, 0.017205852955385237, -0.014316440922456236, -0.05366551762499339, -0.037786610328304604, 0.07007371962290601, 0.04515062137713143, -0.03494210297289821, 0.0636133325441901, -0.009461496888560341, -0.07094528125966792, -0.013172216150659522, 0.014026962690361475, 0.02306739107166586, -0.04260948810282493, 0.011064650681055235, -0.06279704360179005, 0.09734777484329182, -0.019316457910986958, -0.10767009470841453, -0.0026605615660408354, -0.03273175646516511, -0.07256561232970762, 0.03426706749128886, 0.011625512832192004, -0.027792387487309153, 0.05745584664692149, 0.05697950545360917, -0.03737943020383237, -0.0007549142352173384, 0.0657929728097668, 0.015177078182744226, -0.02546618192708901, -0.023141885630161937, -0.05672914304589, -0.015505580162873263, -0.0033535200181292624, 0.030185123688087154, -0.03932990034498897, 0.051322758539766006, 0.02832175969839835, -0.0008845219570675712, 0.0405576460664847, -0.005657955310744105, -0.04997433997253661, -0.009632509503811755, -0.018181554407524402, -0.014219225854839342, 0.03960145132739142, 0.017911052715698247, -0.04604231466148319, -0.019959348924849015, 0.015966285774996463, 0.041737097852337555, 0.03957548034689319, -0.02293784962665828, 0.03272647165836163, 0.09579603844619931, -0.03932793582631689, -0.048228440395405546, -0.02840717916266618, 0.009652492217266306, 0.011536783479855602, 0.013046808561873407, 0.05389646737891811, -0.026089206088901577, -0.03504764725601203, -0.016047668298990615, 0.11350934894060753, -0.04047214293002805, 0.016990732387041296, -0.05823627720848296, -0.03894830607064036, 0.011053603528206104, -0.004075079046195048, 0.029166101613575565, 0.008044389721246156, -0.009793235409859654, -0.05420735313729422, 0.001809814521740676, -0.046981290064385284, -0.014847716626840332, 0.07828415340039167, 0.02233334605884449, -0.027758476378718658, -0.011824227098747855, -0.0032058145080788194, -0.022727723773650944, -0.03669800029975487, -0.020912633205863174, 0.004891534866713675, -0.06846446339468536, 0.10291045959372197, -0.02853814913375003, -0.019509647964464433, 0.006880157447997559], [0.023651448146068916, 0.016288005834581787, 0.06357862870181757, 0.02423373141303524, 0.041809180264627266, 0.0007594962618991586, -0.0037825207522233307, 0.005848472679768112, -0.014313931637358123, 0.057518657262892584, 0.015009672056245822, -0.00833072379544699, -0.029081348539630226, 0.04573538550435806, 0.03484000474866549, 0.008437413314060936, -0.03444620217916035, -0.0471125885369643, -0.06686579517507729, -0.03603329765731758, 0.03350653209719422, 0.045970286781290566, -0.02198902714545602, -0.02772329409608142, -0.012010835866366979, -0.008114150677126657, -0.00245696275779461, 0.0549603448916623, -0.023824323847413575, -0.02139673500397516, -0.01765202325139633, 0.0037617835758986047, 0.0006243091583299999, 0.018091873366438256, 0.04283542710079018, -0.006294650283155312, 0.04278716054909907, -0.018209115839497372, -0.033830200184919904, 0.01375861476900355, 0.06312007842351607, -0.07910907191540276, 0.00776072107963009, 0.033022073601610615, -0.008633043516738633, 0.011875491677897101, -0.038838446236387235, 0.08032246575459762, -0.0028333950202850703, 0.04446123292162071, 0.0016352394231742287, -0.012070443703508222, -0.0054570990550465315, -0.03852497162360181, -0.014225405932822921, -0.018731823942012737, -0.002662420376044948, -0.06619190313729713, 0.03221877028785396, 0.02778154113690703, 0.028661997119813324, -0.04782960963169523, 0.025598651001416995, 0.041065494148419875, 0.015544821015595215, -0.04127516104836357, -0.041696969787953835, 0.04857742594784488, 0.019363339675901443, 0.0220995939525565, -0.08341399588584747, -0.044093483801553646, 0.03264700441005648, 0.00910732509399263, 0.01071337627736845, -0.004259713217470297, 0.05797900846826376, 0.023319332083854224, -0.0029379334164594765, 0.060962293709717424, -0.020304026484633718, 0.013846977691614134, 0.04209128686340418, 0.05982595815696886, -0.003914219290081792, -0.010183786307904981, 0.05071895345611804, 0.01806367274678683, 0.019346466498534384, -0.0060204580942189315, 0.026746468905929813, 0.026751347381556954, 0.0023784786579532403, -0.023708617472959447, -0.039848950429591336, 0.01216829655959861, 0.04559215324104095, 0.004237768545502007, -0.0054702816013818874, 0.015365735257194865], [-0.021466125384853582, 0.00745752401855781, 0.028474617672341503, -0.032390384810564735, 0.011168153404385142, 0.02680480976156393, -0.012669566834176433, -0.08355073236012489, -0.020836975904086785, -0.02416806083902888, -0.02036097529992933, 0.019364588816119018, -0.07241871474686072, 0.00859550745708583, -0.00027454469793206456, -0.0063775146478118345, -0.06449576640041227, -0.03874042322208252, 0.01161231753123789, -0.13983171746815345, -0.010035850481493708, -0.039825416856200294, -0.0068995433446577695, 0.004165357955680953, 0.02502614833176958, 0.0400216380664313, -0.022233957197483927, 0.016123708624034956, 0.0584323776962384, -0.012414708336321379, 0.034868724795668, 0.0005015451148818353, 0.019704769036522508, 0.044480889964742774, -0.02459645291420071, -0.05632563552652823, -0.03711970639513849, 0.062139086252047254, 0.05675661303480749, 0.019778047557914666, -0.027010132548213914, 0.0036525681207301756, 0.0314803786493141, -0.014255248711330904, -0.021822358638252326, -0.03444185329685122, 0.06935087849424425, -0.008904403471186224, 0.030919775812667742, 0.031086424103682953, 0.0020795353161480283, 0.042328962176885566, -0.0015278366302173534, -0.019843938529769407, 0.023632107273487666, 0.013074569718565842, -0.013338843353678551, 0.06024638358224887, -0.0007112410728483497, -0.03920169257215358, -0.0093936750167115, 0.03768489057474235, 0.00641381292169703, 0.03013103392429109, -0.0013160968416303454, 0.06665678796289966, -0.023736509311655433, -0.030557974572947823, -0.0498924252991668, 0.06614645278541743, -0.005752243369214432, -0.01745177962750421, -0.02439959692807283, 0.021534378464664515, 0.01745515890161139, -0.036005809176301896, 0.05824104985192787, -0.01793049154030661, -0.061501395022645365, -0.027346517126395655, 0.050898763263120636, 0.06429243069299871, -0.0041518376199392165, -0.0062363742718266075, 0.014719813464360871, -0.0510255428633298, 0.011050244516291883, 0.0197033241565441, 0.03434556306815822, 0.03932760937818099, 0.01700866736825297, -0.04030462289678501, -0.04769564953917351, -0.041132388820616955, -0.015565078566603992, -0.02132463167568327, 0.0027998370391027275, 0.07824714005779637, -0.009376534540882378, 0.02398174273710197], [-0.010907789190404587, -0.006629899905575503, 0.018088677046133046, 0.012131331580401689, -0.03485398364266019, 0.0488103596714922, 0.05407864411504665, 0.029728796930955263, 0.022439373782057504, -0.012353007842056833, -0.04047060186151311, -0.011120125924887583, 0.040878418304233104, 0.009187403424495165, -0.0009225509252857529, 0.0027202398078070124, -0.038319314453481614, -0.027183259778623414, 0.022296067832505193, -0.0495981103111179, 0.020532528153415653, 0.0124239688897438, -0.0400996352857844, 0.02182592967867512, 0.04210607307227978, 0.040814781345264305, 0.0254939564021572, -0.007840758778133899, -0.029226205483965654, 0.014814496910389678, 0.014588842308396516, -0.003604147683127973, 0.04548721922650581, 0.022053274507930695, -0.04332531978388949, -0.000462016859462701, -0.07997700757440288, -1.5447591696824908e-05, -0.04941455153586093, 0.05789112681922613, -0.05481329436444857, -0.00786965482712727, 0.04440591647650985, 0.029808521072875526, 0.008084398348634092, 0.05969807607610709, -0.007274960658727514, 0.004073841405769806, -0.01858567246965108, 0.009043550925991009, -0.05371350196686911, 0.016068117417212337, 0.003727288624303478, -0.02344244485008116, 0.048820382275322136, -0.0671498651874616, -0.059639261551633516, -0.009769056372785013, -0.01842948312176079, 0.025597741939981634, 0.002584754626788329, -0.05445620103650763, 0.0298003964896402, 0.017691076458630186, 0.018278363934553697, 0.0334731234276228, -0.1210075817435172, 0.034548760749907564, 0.021604100238061825, -0.027672260247425036, -0.011838757203634753, -0.026596605347523866, -0.0026928421693073897, -0.003235844717187072, -0.024438020368710834, -0.036666669497171754, -0.006107120252400102, 0.03495297387491496, 0.03344017084119192, -0.006689449462562652, -0.034449750052503295, 0.020830419617262314, -0.06613000117199837, 0.008412735033063449, -0.01602910655933846, 0.05677236752263788, -0.04479902693056028, -0.005615152053860696, -0.04621585497539296, 0.02471419099413081, -0.04323244405217761, -0.005970147996976965, 0.04135192108548497, -0.0497363289692777, -0.06950178798281047, 0.022971462586464986, 0.06748338585214728, -0.058264332907654356, -0.027310041348615206, 0.06046169819393865], [-0.006800522500320466, -0.07258056438815377, -0.02836281156650763, 0.010210726558796533, -0.024911657152700356, 0.012258215978233329, -0.0018879722819594733, -0.032931467989848695, -0.017805065937626537, -0.098571761267625, 0.0037918600085464623, -5.209197748310466e-05, 0.001576405858032252, -0.06357201320929712, 0.0044111887445389495, 0.029501051893655768, -0.038272758282291854, -0.042593743621972775, 0.008370364114084034, -0.009423760064809281, 0.00806906072450237, -0.0407531167875951, 0.011043251118591712, -0.010761832293633047, -0.006743378273739064, -0.03388078337775787, 0.04180879734213577, 0.066948559429946, 0.007479565580085918, -0.002301951702658524, 0.02868603490448125, 0.0335775701141484, 0.032646948562112296, 0.005855560411308788, -0.01902408448546736, -0.028801186585880614, -0.04890268467959274, 0.04450002152392979, -0.030048429155834968, -0.06132267530519869, -0.050466137799106255, 0.02798776471131629, -0.052185118886073904, -0.05408428595516439, -0.024369545939298257, -0.04998523487684728, 0.03225399187908102, 0.003750539590411986, 0.02235995970196116, 0.04027041792489103, -0.019188503833710395, 0.028290912186718496, -0.011973559554480076, -0.05697083663760897, -0.01002501274092524, 0.030471676830810226, 0.011242989573371083, -0.00046660296621083805, -0.027127108706046284, 0.02512976046647963, 0.022839314398740825, 0.002358653004976147, -0.08031888144208467, 0.03613147039257598, -0.0007245524915732199, 0.033002984312563204, 0.022789239313791575, 0.05312367406690549, 0.008614354938096029, -0.010812958180749276, -0.03438553315841135, -0.014521880387903694, 0.07747649164213213, -0.04860384683995852, 0.03708943082661982, 0.056782532597807245, 0.04170191036965783, 0.024468001247066277, 0.01282399563105395, -0.044585174292145334, 0.03683714605166193, -0.0024188372025590655, 0.042066985267742454, 0.03494681917143375, -0.057047219997955506, 0.016054210829065874, 0.000618286691995253, -0.046180215091156065, -0.03690717164751282, -0.031212516263016153, -0.0183809263470482, 0.05211364251443731, 0.015865057161300124, -0.018748764160774124, 0.027941922504532198, -0.014951833794817442, -0.03090169139344329, -0.0009762817845646778, 0.04425144404527705, -0.05035603016872908], [-0.0015529026286458679, -0.09340414658029492, -0.07597195504356745, -0.03451257104025538, 0.0005692838145178395, 0.027159938633027056, -0.015110754567235572, -0.012584549753092216, -0.01871051887779979, -0.014559954405981802, 0.020172535175461744, 0.0334292025251016, -0.0631148414356023, -0.0239734042269218, 0.04185280500225026, 0.028486826699661336, -0.056886241693270535, -0.042721424582682306, 0.024205634967375635, 0.029959957594814925, -0.03024554540730373, -0.02047689135805054, -0.059017750798960066, -0.010927122018564921, 0.011944413784119803, -0.04409178742815928, 0.03580475403634397, 0.007076995809127456, -0.04491795934191796, 0.04550126812366116, -0.02606618195314709, 0.051133948069293944, 0.006190136002686872, -0.014935568547824171, 0.059132279714584755, -0.010153270008119202, -0.018256379029750008, -0.054839826631785375, 0.02501736242145851, 0.03008943562762914, 0.02845614929150618, -0.05308667963863421, 0.0012197799519025354, 0.02790665513469462, 0.008998670495385792, -0.01264927573127867, 0.0690809160476644, 0.07139345481079694, 0.007444598811301968, 0.010920410966807024, -0.02167369235492414, 0.04827399449215629, -0.034288521961027996, -0.06221874545985529, 0.06035892059544834, -0.027346683152986963, 0.029243993977180166, 0.05873558472626672, -0.012601399916598303, 0.03694140963427776, 0.011434284859940672, -0.015509416432263416, 0.008511197447301519, 0.003160268636143707, -0.08975577264520965, -0.02244860535760822, 0.019058570155287363, 0.03488808349182366, 0.002280275679487567, -0.003532597041529023, 0.0013168958418069837, 0.027821379497277747, -0.0008964718100634442, -0.002702784385471639, -0.01739782801454781, -0.037521909091320436, -0.032308656543985605, -0.008882786221663939, 0.0030225891979544267, 0.04954448416697941, -0.047798166489581205, -0.005836910307065151, 0.02099506007132896, -0.00029790429741635265, -0.03587628667908558, 0.01278803347951574, -0.047788738650936066, -0.07973641993845722, 0.0207781384746162, -0.05966852769233521, -0.03334591713119655, 0.021303875177979537, 0.0182141738138169, -0.03261389946643306, 0.0471876760105305, -0.04362360920339404, 0.008076705574607617, -0.01014610483515614, 0.0044542405113751115, -0.058535639359122156], [0.0110719228470759, -0.0005328846033328061, 0.004187740133000543, 0.01482817311597861, 0.0718492423767211, -0.01271710655974154, -0.04518590511468438, -0.010870212388464908, 0.02103611704527612, -0.002086894784816006, 0.043436111966817015, 0.050216121312490064, -0.004748668496183642, 0.055657915692353115, 0.015580896341715006, 0.012159893115621885, 0.013969206823675666, -4.110472306670377e-05, -0.017655981590406856, -0.05158181979564282, 0.018983466161419667, 0.015367047249070866, 0.03098837360592223, 0.037845691764864624, 0.028038374249350583, -0.009135815569888482, -0.015071327318551698, -0.036854822937732484, -0.0066763600445617875, 0.014520527456108533, -0.046409044186966626, -0.02343169278209762, 0.003157762024903686, 0.033536169091290924, 0.012032105343362779, 0.009782139129258334, 0.010594281145666413, -0.018411224827300204, 0.0010232156210224672, -0.005716093805323677, 0.05137212395490973, -0.029364350125458624, -0.008745711385781367, 0.0276488773145858, -0.021055114650217848, 0.0005049030532098085, 0.00885898965583697, -0.00027909030874087126, -0.009635264886858359, -0.0753177610191175, -0.02823337587713659, -0.025182237749219294, 0.016414361149548192, 0.028269207597539158, -0.037880779747240294, 0.03998454846523482, -0.07064804568395425, 0.005562991382980144, -0.012248096334609208, 0.013266909952128965, 0.0391596625483796, 0.00997380602215977, 0.04052189457061369, 0.004363567121795054, -0.0032276317171671927, 0.01970620607991596, -0.0038452180612859933, -0.026382996803593767, 0.05935958680059013, -0.009636944547661687, 0.03258588074728439, 0.008065854738297665, -0.011836332085638281, 0.05860864819608058, -0.0014499842535536163, -0.025649586719603153, 0.02642338368417382, -0.04229288756879087, 0.01532856561401019, -0.01422327574421426, 0.022765468543764874, 0.009834746698810225, -0.03953473821401048, -0.007061406711707854, 0.02454625435936287, 0.001556198415763063, -0.02249656539844617, -0.0075192187158875405, -0.028678832992504878, -0.01796490515243464, 0.03973974782590425, 0.008261279937113368, 0.0651719901838595, -0.01137560429684898, 0.029062904675084524, 0.007509948252470689, -0.06101242742460795, 0.02275883801636973, -0.015212466675837108, -0.006394513084447878], [0.03808183969260851, 0.012959453379064892, 0.023751081569903305, 0.015551052918025936, -0.0027484981623006476, 0.07068035056850935, -0.08014447522819665, 0.036092561386964636, -0.05287324112403682, -0.02724811393574277, 0.02377770241055424, -0.0069842814778474155, -0.01995284321462383, 0.04644437077105302, 0.01241151326394548, 0.02913809529688895, -0.00756605769569299, -0.009404100595654857, -0.017851682105130124, 0.027042294940785572, 0.013830827421051833, -0.0025142454124902824, -0.03908986583599883, -0.025261209404837125, 0.016947227498991708, 0.030812233054108264, 0.04258758621574121, -0.028543081553330567, 0.06312910132783556, -0.0403118488971105, 0.014714578257545076, -0.011475237502434892, -0.0020567711187148147, 0.06006111218499025, -0.03538793203126385, 0.04732169281350228, -0.005336469695770427, 0.015263364973500854, -0.013360490852101824, -0.024016927648215457, 0.08124664820187202, 0.03614093496303563, 0.009238698555701745, 0.01541689601428011, -0.01477553127055895, 0.06853324242772081, -0.030447512622733958, -0.015348459955011093, -0.019314251703782696, 0.028783998111417217, -0.011563071402607093, 0.012104643215612457, 0.0062824408162817005, -0.018109825710469953, 0.0043517403583378305, -0.005487299777504972, -0.0057255944213612485, 0.006631993910708931, 0.0012680541536482732, 0.03465999389142218, -0.012528412273217637, -0.013319774141236347, -0.009132918545168178, -0.015280326127891772, 0.023183561970663662, 0.04423491927010852, -0.051352751147586966, 0.0020069086919925717, 0.07144415392945923, 0.042090326661427264, 0.06145433254418664, -0.031205544637775143, 0.043121480063983295, -0.010826340169461369, -0.012657895234010293, -0.03021450431761718, -0.04804738247530662, -0.06394619039255431, -0.015684880052163414, 0.032599475091468995, 1.8264466401857497e-05, -0.024845923373267995, -0.08207607541222815, -0.019594581068608747, -0.0480047531462536, 0.052079392307060136, 0.03743383956984306, 0.014614447567662971, -0.007452523979519817, 0.0045151006076393115, -0.00048624433488225337, -0.040695637219088476, -0.029101794427985796, 0.02045264435417593, 0.013552203942866221, 0.008198580461076417, 0.04523246687161868, 0.0005862462542202488, -0.0028261872403394085, -0.0723244441669317], [0.022632169977083616, 0.03496175817762657, 0.028492336001724402, 0.018837846022839798, 0.014598183707876066, -0.02360120807844121, -0.006469993120100913, -0.02124214233447768, -0.01415183459882008, -0.0034580259265858428, -0.0053337658037232475, 0.04530505116422752, -0.05255758619525407, -0.0037803624474791026, 0.05057726309836237, 0.057849464234598205, -0.03576354537640833, 0.01088038306136119, 0.05810479413026748, -0.004803626735007368, -0.036113367354444675, 0.015892817968278707, -0.009978986127411082, -0.03377222230586092, 0.0007390178571068421, 0.04502098501537362, 0.007231767017829289, 0.028312094919299476, 0.026873788516925855, 0.016584052736362112, 0.019500763057044675, -0.03181488573307264, -0.024195643972233467, 0.038285217260512455, -0.019766270488302238, -0.021701252809206584, -0.01982303876120068, 0.03613422276449445, -0.0549136444793936, -0.01561758836443626, -0.01897374354152753, -0.001086594925007565, 0.002578397317853919, 0.058189271672241374, 0.0371230718773011, 0.01689803961166291, -0.06466511948205449, 0.03816391947337272, 0.026141026594241824, 0.04876123300740267, -0.028719685598039182, -0.01873918021562292, 0.10032278048911715, -0.08694590877609357, -0.012621983955344794, 0.02061990588841151, -0.021286185783559782, -0.013942418807113643, -0.03310221051301252, 0.037525667285614114, -0.014440833373004633, -0.02570627653843021, 0.0002896205716129262, 0.001163339017133892, 0.024917304737756808, 0.002258445943987034, 0.012806480155532887, 0.012695736586103517, -0.02740243276540086, -0.015786633229587906, -0.005594155950475822, -0.07777459022491807, -0.057755349343477876, 0.01804290652464488, -0.02882860825563417, 0.042003333955775254, -0.047303642783098045, -0.049137742485980934, -0.06265568455954183, 0.030797537640033717, 0.0047153692401789345, -0.0003022663703796385, -0.023374217205895026, -0.021568146893650157, -0.014181213385025194, -0.009026886418879176, -0.04163116532621484, -0.0048231303745406165, -0.03967248380109369, 0.003153252949516969, -0.01577590374441162, -0.03687236944347845, -0.0018688391702610368, -0.018107696966105192, -0.0032821635987697008, -0.024216456907158426, 0.0040139903033120875, -0.02865447560453359, -0.00585914151817012, 0.04534224590446267], [-0.02484593579092278, 0.0612698426999912, 0.0172333505276877, 0.05093078533762062, -0.010340375851401764, 0.015111632730069635, -0.0008470345561641179, 0.002044361997244745, -0.03409407280677815, -0.011884650778340907, 0.03877765945625502, 0.03475332563356149, -0.03338073640833735, 0.022873235951598545, -0.008148538424808472, -0.001899214628603781, -0.025998863544659957, -0.06167778791969894, 0.023727720513580478, -0.07005779408591747, 0.07275867216804544, -0.010231665661824705, -0.034192385339924115, -0.047252327741406974, 0.07149669187028086, -0.056969250875427216, 0.051520516381018754, 0.019087759862393427, -0.04606438643718858, -0.048480819920603345, -0.02939736165579884, 0.06538609312126456, 0.002026928365439256, 0.04427931949506954, -0.011801012561476521, 0.013401446046140452, 0.04166204515941192, 0.015234235821255854, -0.019994759609272196, 0.027085599804081924, 0.005160330587136588, -0.0014048875772707868, 0.0056177875579581866, 0.044278815354550194, 0.020113763215941733, 0.045506283446281666, 0.009537384543325082, 0.006624761725509935, 0.019673943810948016, 0.05504587469690476, -0.06270730834937542, 0.03893010291237218, 0.0711266538586519, 0.01669142708004545, 0.009301890490200129, -0.011811000117168534, 0.04780540557444883, 0.05386105676808365, -0.028551456997263653, 0.011557628115528159, -0.015759316396192262, -0.008903959276174375, 0.02367120736017529, -0.018473676765030582, 0.02419888572524887, -0.06833676671605851, 0.009105250453432676, 0.048585830907574484, -0.05415153728664438, -0.006518523258400471, 0.04867183821221488, -0.04136939404757299, 0.003792349485948641, -0.000500597591628899, 0.03348024437655436, 0.07743453217654217, 0.01237818886332706, 0.020142844241442148, -0.023549706985752924, 0.04613538858136178, 0.0210178794237535, -0.028537107309077367, 0.023857076296552617, -0.022064934637159337, -0.04214496241693793, 0.08406047327329645, 0.07824162967293037, 0.04010766601945629, 0.011533951631566007, 0.010750650880135004, 0.03837894698866371, 0.014466903886383815, -0.013772522876190383, 0.004412153061176137, -0.040033346820834044, -0.003362721481219608, 0.029624649675437133, 0.06559741891555632, 0.03141229731001638, -0.0036457450013908134], [-0.040327697309970954, 0.000777449506060358, 0.006782206844690235, -0.025757285801836314, -0.011170911816623401, 0.018643679807077936, -0.02672998684824696, -0.03164915802351124, -0.010320303530124272, 0.04430549009251285, -0.0033107356830488744, 0.038322779896148344, 0.006014107701610852, -0.02961900097556729, -0.0009668424351206166, 0.027873185787351977, 0.02124470157276511, 0.012044220795478084, 0.053524203380670585, -0.04107986360424074, 0.011206829639807037, 0.05290903266481237, -0.023285069257269315, -0.06429625188566017, 0.0005880216891467742, -0.039048778548431085, -0.04518963782253851, 0.043500800600561114, 0.017577495735583332, 0.012700390148271509, 0.021768916672236058, 0.035580180128137025, -0.031242675518966527, -0.06424880108087556, 0.026178513303362686, 0.06393423466961791, -0.01708168271579057, 0.024411001578215186, 0.03924221685226483, -0.010479600346517317, 0.023716745472477433, -0.013835741111520333, 0.059137957890989135, 0.025931833346271166, 0.059799439145958734, 0.04367724886175424, 0.0044954189265886966, 0.017868011531143934, -0.027040823039505262, -0.007709787019725596, -0.03452676212153743, 0.03149324593480976, -0.03102056913155843, 0.03765812374410642, 0.06729839648566106, 0.03211539206165029, 0.03618476850704038, 0.047794816918697726, -0.0022539353809072522, 0.06829846991601342, -0.09577113001388231, -0.0004967537422142237, 0.04053477164865288, 0.019604445917348147, 0.06474849930144869, 0.01313563269499625, -0.06037108760009274, -0.025319061766565527, -0.020948224191062743, 0.05320947961983605, 0.005046020928338405, 0.0391990687531019, 0.020638909876255582, -0.04694852465572759, 0.05743145933480715, 0.05226510016775134, 0.05925697551831586, -0.020422862870026464, -0.070362920390192, 2.385687075551393e-05, -0.03180106108774967, 0.06147855448952969, -0.002490510563346598, -0.004263384562879395, -0.018151272995070866, 0.02061675143343547, -0.019873856885468714, 0.07600402781747624, 0.015393593544661216, -0.017478576523773534, 0.046904125679225195, -0.031342769792450424, 0.0297680230982291, 0.0640699404278619, 0.0021429461071305164, -0.03839221985798202, -0.03904634826861922, 0.06911177599577618, -0.018042003380569136, -0.014421393706193435], [0.029125662112239076, -0.004710613755414004, 0.02422359743632965, -0.05275868440215079, 0.045954978066570194, -0.0379854759163346, -0.04642337158605862, 0.0006772894371201115, -0.09528427653492223, -0.058030685495206326, 0.02417819329301161, 0.011312340600111758, -0.030202111885427242, -0.012986428356098501, -0.0017083291842544509, 0.04811103536786103, 0.010980016847640661, -0.010968880132940359, 0.06403201714019643, -0.046949670253662736, 0.0010369114227573577, -0.03373976657531896, 0.05389214843366526, -0.03508925917463828, 0.00969996794421931, 0.020971148831493428, 0.015037226727147796, -0.03780479432457755, -0.009919197898356887, 0.0011105929165714154, 0.0336520916841965, -0.02241124806836443, 0.015347409657994356, -0.0377385802241229, 0.026503207130541342, 0.0068099019969844465, 0.019416705183522617, -0.010359533923014374, 0.01956509912503664, 0.04505899134673031, -0.00977659317870734, -0.025038188178875764, -0.0092006982093735, -0.0036358106461769277, 0.01493123388135679, 0.017819920294467658, -0.03974338483277686, -0.00032272646134957504, 0.03697588945650093, -0.06684892494178012, 0.004352127511782286, -0.005262314968144049, -0.026588613936834756, 0.028758909752898302, -0.020956316179362694, 0.013372021978097108, -0.016434873746911518, 0.03574129605066772, 0.02120046357075654, 0.007736792386659471, -0.001410421047645351, -0.04150263949747149, 0.000785324766664752, 0.0640750980763909, 0.003991417173037605, 0.02844031145454987, 0.02092058765062667, 0.012029821324084443, 0.014233050499045819, -0.034335002817529034, 0.04469605776463469, 0.05900654793441792, -0.029164911592276948, -0.053866171117407435, -0.010827003652025758, -0.019143112890376294, -0.03394119633808987, -0.009638583012095917, -0.030902053826501012, 0.08828623781328507, -0.03096929980897878, -0.02053820266922217, 0.039602064789609065, 0.015095766131151619, 0.0034317028320703523, 0.012735711564716106, -0.020135045721946167, -0.049926967782134055, 0.017308459264210995, -0.011981690706941306, 0.015467568383807124, -0.02874741093649824, -0.01291984516488935, 0.048804438398061804, -0.025713631730025513, 0.0027942298297420672, -0.07777031274127294, 0.027208580681133056, 0.03065642909134531, 0.027716062034932046], [-0.0528034064805091, -0.026045285998745508, -0.0249506304550415, -0.04500322650982687, 0.02011645310805784, 0.0276781710805056, -0.009163244809077811, 0.04226709408521037, 0.007032836585578342, 0.07442366195357418, 0.049197617053942266, 0.012794765250783872, -0.039589552244755376, 0.046729469406372834, -0.0069851455618133, -0.03724406135378974, 0.014056533138694547, -0.05689247046464434, 0.003665214431616183, -0.018573808270231723, 0.06652602223938027, 0.026942718414703307, -0.003141932369979556, 0.06946765718296521, 0.04061377407094121, 0.02155227488842235, -0.03872649190123433, -0.028561095014276856, -0.061840114152868386, 0.04229796797668631, 0.024179720308504613, -0.07594505245741706, 0.03487368034357501, 0.11816950135098264, -0.035524815063649504, -0.015719469232227643, -0.03034867918934343, -0.018128703291433977, 0.024943641136893978, 0.04384935188360689, 0.03965118180405145, -0.084819118311735, 0.05693193837527634, 0.032079967352920485, -0.0007958110119818048, -0.1040556106070106, 0.06727873273850107, 0.008495743655505341, 0.05671255990404509, 0.00207368370995927, 0.039367429083695574, -0.012146507230341589, 0.09760382845016817, 0.023907479434361032, -0.00045573207293540455, 0.06462569482788283, 0.005014944091405538, -0.037902931927033985, -0.03895268547477199, -0.017968259910692567, 0.020286707126989167, 0.021726703525271087, -0.01688822002472989, -0.010345361031846656, -0.010084964708639704, 0.004324571534953271, -0.012185052069478204, 0.022956860246671162, 0.03657593198394989, 0.03835818381570133, 0.04128786295461054, -0.058314945679043446, -0.005217253102805617, 0.0012757115285840447, -0.05336641795014823, -0.018359715978330735, -0.010334969618117662, -0.0658369024510827, -0.02519577006387304, 0.056520225594592875, 0.030602164843039913, -0.0895356435846494, -0.011159881227873524, -0.052115858825603704, -0.014126113574566989, -0.018526863223472703, 0.021276908073355652, -0.010497796518339507, 0.007249261417469249, 0.05064494376800015, 0.030865185870970424, 0.07845389650597234, 0.022730439974925982, 0.012465972638449552, -0.03862350548658726, -0.06974382575948268, -0.018462859495231243, -0.01361882021215565, -0.04147619848406277, -0.0397269113682733], [0.011807963502994468, -0.004813578207471987, 0.0544366111494958, -0.07214677269036977, 0.046587893243141915, -0.0042256986922036815, -0.01643883653332098, 0.01964624607947196, -0.03463990930804911, -0.03571629856698454, -0.030089543583695942, -0.004817353030320241, 0.04035583431812752, -0.015512560729458726, -0.018113934979542556, 0.010966486428457451, -0.029393138370825394, 0.055964785664459955, 0.03448840610568735, -0.07309746294057576, 0.04268917368984934, -0.036110658972072454, -0.026193919153367558, 0.013026563538015979, 0.05123652922855081, -0.04953224558492854, 0.00201233929087377, -0.009166312977496512, -0.07657715075298561, 0.03901405397132633, -0.034854429239378586, 0.06229811212021929, 0.019109179442692817, -0.013132229142768594, -0.019301206611791657, -0.04377566300155798, -0.020168178427842826, 0.019597878305078628, -0.01637552815809824, 0.001868518456886585, -0.00932521570862529, 0.0452308073791878, -0.0016358649650466245, 0.012600826595837772, -0.003287572745062799, 0.012003801116632998, -0.04157386679338227, 0.0006585297223621694, -0.02710583374526851, 0.022045662553288704, -0.01623043421521363, 0.013039714798688621, 0.07470909618035358, -0.010899522438330062, 0.026460237983113526, 0.026660199488341512, 0.013266968141994335, 0.010252125741854124, 0.0404454865595697, 0.03173798161606713, -0.0041922156064413225, 0.0253830815186254, -0.03218654038164404, -0.026814944622301076, 0.006946626197271669, -0.06757841653216454, -0.03196351035873875, -0.03939734927499987, 0.00024358699023198122, 0.0003920563395401904, -0.050143784557130255, 0.006133139904069358, 0.011043783016682069, -0.02331724647189884, -0.01426626908756223, 0.03335045209627942, -0.02570690884429199, -0.02898635850771465, 0.030566427942497146, -0.10420082507388156, 0.03345188724401399, -0.008173604114389166, 0.03640135714444763, 0.006334176259398668, 0.007334772902445739, 0.007331089615169504, 0.01328724264188395, 0.038572318734697346, -0.0380715868766897, -0.016889269390663618, -0.015494604670385765, -0.0019296393099339695, 0.028774989350296876, 0.021902282339565923, 0.013081493771937446, -0.037835044811489894, -0.021593028014640317, -0.045895562034912886, -0.03517665387494806, -0.0471411524261292], [-0.031059320608168236, 0.014669767897103728, 0.005756536084325686, -0.06318044023792274, 0.026525612227981665, -0.037404589001180606, -0.02975333392116771, 0.0375651882909051, 0.011695708861979619, -0.004131615435941362, 0.040111228751761006, -0.051014465471786966, 0.02980393765627771, 0.09032040442678806, -0.019988172242369432, -0.029939742678487195, 0.018502064346395314, -0.03482234366505783, -0.04263957258639933, 0.002166564066984353, 0.012557265871431345, -0.037448632674950126, 0.053196996815773265, 0.015895991166091597, -0.0005928030353641607, -0.0348707133579273, 0.0699290752385961, -0.006301888134633773, -0.01658380728312318, 0.012459248056855186, -0.019104999076508568, -0.0203383511581184, -0.053306971387044634, 0.011636849927038617, 0.009333432199727671, 0.02251976472106531, -0.05440729218529093, -0.015454622276985547, 0.004102882604867575, -0.039853432865875164, 0.007759453224558654, 0.02804161245278274, 0.026474102851197216, 0.013181923472765023, 0.015502943029718027, 0.0016193542749778206, -0.01508574722186184, -0.05309914515548064, 0.0062202972733863444, -0.009655089731122028, -0.020015581144140794, -0.009189895168774746, -0.012068387946736453, -0.029462765672174658, 0.007392103174860434, -0.06276188256352813, 0.029646571058746116, -0.003371572668079861, -0.03726814038652889, 0.04315748592207756, 0.009536840183340093, -0.03878299884245333, 0.036410513545954266, -0.002710865798502254, -0.01646947555273661, -0.012708222466738923, -0.0024834157374748083, -0.023327256514407823, -0.05890757342417509, -0.05244822279349798, 0.03888366564791895, -0.022062509562861727, 0.04791359250976561, 0.06374629928646909, -0.009114981666605997, 0.04807511002680058, -0.009722350115793865, 0.021829474164967586, -0.0018317672915904764, 0.060306319527959944, -0.006426417285344929, -0.011405977842947841, -0.008216996998394557, 0.028041141510830297, 0.029833783727080985, 0.06483176937467461, -0.03487441393692649, 0.03726467337474311, -0.024024042617064985, -0.023565821349452627, -0.016105905298777076, 0.03291696801978763, -0.05217263255539001, 0.0838872877163137, -0.004072575541724328, -0.01742088798261152, -0.0008048088473231229, 0.05377874291041859, -0.005750909200225752, -0.05094316228009228], [-0.04354631611779738, -0.004364795962929349, 0.062390564996770315, 0.008744471382617972, -0.04835781244090864, -0.020363985586122107, 0.0026500324405212385, 0.0014010691062285394, -0.029338117031022837, 0.003495979651318975, 0.019768457322562417, 0.025276469450735164, 0.03997513117528697, 0.0016940085184942463, -0.05496483675897449, -0.02952359011451535, 0.01118289522752567, -0.021317582900619712, 0.03846260817386373, 0.02423516127950811, 0.06092630748593997, 0.0527861253871657, -0.029533427142586055, 0.055051878147885584, 0.004294985133998638, 0.022750169122624612, -0.003869463396016498, -0.0003940443211524951, -0.019736215074510278, -0.03326535904842235, -0.021830185839821353, -0.016227532196458536, -0.021741888213577795, 0.02553147785251658, -0.001628783479772721, -0.01537639875545532, 0.04913848037384117, -0.013193475870178049, 0.04292125965706547, -0.017735933523807854, -0.012380602752159192, -0.018298865373320625, -0.014179278390080747, -0.03251352433361752, 0.013851156592633196, 0.02983888221749256, 0.052610389011783804, 0.019034217584211748, -0.0020568056872660953, 0.030722880502800812, -0.03551984326267761, 0.005964720206935068, -0.03026220619578283, 0.0199298522181139, 0.020792307730078785, 0.019061872023910267, -0.02902395996597471, -0.02916042237396358, 0.03403579837992724, 0.061342074190406055, 0.04016148297319228, -0.026249423434702233, -0.022071270846988136, -0.09182221029482003, -0.005058572641233577, -0.03570606321147259, 0.02318608316599561, -0.01975846231547679, -0.027041680591659265, 0.0024407813790123575, 0.03373626010810438, 0.03148119083580833, -0.0014278482985111587, 0.03339052384758619, -0.03865469502394188, 0.03946456224349289, -0.04299218715729226, 0.05259255773388114, 0.030458436453883866, 0.030198368797044225, 0.03986376801173185, 0.03827470804799645, 0.01668530839261238, 0.010169082887859476, 0.03270548821295836, -0.00803759706667329, -0.005631569245366966, -0.04966212267172895, 0.00500753791458739, -0.007669485544924538, -0.004514446542710656, 0.024076611369275244, -0.0002711905056567255, -0.022227022862685072, -0.01349908855481955, -0.0212474216100671, 0.008671919491234933, 0.04950637467977437, -0.042873292292119974, -0.03302402206915561], [0.0160080854038039, 0.019736279173995883, -0.023619211061223597, 0.03929626123857005, -0.010485102344363286, -0.05718759406513704, -0.04422013312712143, -0.003030863774330407, -0.000930159796371617, -0.00853496031217991, 0.01720540790836036, -0.04074282303384773, 0.02834276243441792, 0.02508197493023028, -0.05021297151807358, -0.017840013563586592, 0.06519587583433223, -0.014765347035605824, -0.0006655318611493678, -0.02259762716726485, 0.08207117757397983, 0.0035346533658400844, -0.01873823833726614, 0.032974031150514796, -0.04636253242063923, -0.018482995299961242, 0.00558155143995991, 0.009138772806797021, 0.01920871582640732, -0.02278340950258361, -0.004204050401332473, 0.060707740797792425, 0.04480088492202471, 0.013318814156858814, 0.06475771046817726, -0.053586273059667816, 0.03586610609356246, -0.01578454166466731, 0.015356885629606718, -0.04121627767256965, -0.009694917167696973, -0.04229217304340017, -0.0922754667565398, -0.09165790667089717, 0.006530338487343869, 0.009832082923320277, 0.06724804450034857, 0.021806778339293276, -0.024947833936310105, 0.0209448850557126, -0.03751921404645585, -0.04587522486615299, -0.004275466716422229, 0.0004009913887978075, -0.00012342747348024374, 0.011825968329745237, -0.018650059598891888, -0.037316561713536124, 0.05827097186249203, -0.03314065993547019, -0.008270975270376277, 0.0038917297543486205, 0.041241468994488495, -0.022204228181778918, -0.04667130626892298, -0.009330924561925477, 0.008569938405366137, -0.006484915654690451, -0.0018938146446472151, -0.06461216827034028, 0.01176430046452376, 0.09140631501659649, 0.016951038642111647, 0.024673247929567564, 0.0002433195961300759, 0.05358391171582239, -0.0616246069124306, -0.015102438231462907, -0.06556376036605065, 0.07300068221211173, 0.022187017373370515, -0.03783459575386171, -0.026881371371695214, -0.03400086448036066, -0.05563404383436624, 0.03825342567575446, -0.037564180514131365, 0.022046760498304917, 0.01647954234037265, -0.004198266249128588, -0.0005551513096047867, 0.014126876632218604, -0.047050506852182164, -0.005698204659080096, -0.002373740100570473, 0.02287271059597434, 0.030360659628184246, 0.0021692156629666, -0.046973474210481064, -0.018022107428735668], [-0.01653513923451154, -0.0001183787663061834, 0.026452459074854138, -0.006041965613872997, -0.04891546933669011, 0.03077375655454486, -0.010166714793209755, -0.005983037106445266, 0.00028759574483290567, -0.004119275593653516, -0.052957420234500355, 0.02554419692678232, 0.009455979975519987, -0.023833551327557635, -0.02304934502045529, -0.03794150520251739, 0.016251162591567385, 0.027630319751319337, -0.08612275758751292, -0.007425819738239084, -0.05939640562440507, 0.007896741567409651, 0.044835097159402246, -0.03211712387779949, -0.004349842608893726, 0.03191718917565605, 0.03473608308222797, 0.02201594133803171, -0.032945361824732594, -0.07741565679791307, 0.008365588342053018, 0.037748762553849624, 0.07033297670977125, -0.010766519875556347, -0.005690889044669525, 0.03300745678778907, 0.0068866943982489786, 0.0014142589105309079, 0.04864691275687954, 0.030354074764317892, 0.013279683283373141, -0.0238665489237636, -0.00119067657802046, -0.02425407084959579, -0.0009507202737406372, -0.03411804018405765, -0.043304463471742036, 0.02408061353600356, 0.07934335282810007, -0.01529379190891705, -0.0162317888714793, 0.05690262498017502, 0.06273253597447649, 0.027074301767917232, 0.04715246925097514, -0.01441292993461487, -0.01715355852460891, -0.04289859866688675, 0.06983998521101405, 0.04706461868598864, 0.0717682999561703, 0.021231008923523687, 0.020893907981044898, -0.06621048773809778, -0.04932503074671103, -0.10307008132097455, -0.057963905144542124, 0.025854559127058887, 0.02809437225250673, -0.046460486465988764, -0.009056556302688517, -0.00044815573852587836, -0.044312253082387856, -0.028140038673690936, 0.023186041951035852, 0.008804274380868136, -0.016489511010482162, -0.007133339102137646, -0.02493807624437269, 0.028864301368593227, -0.025722958772589923, 0.03301628911861724, -0.03886648353361201, 0.03792572504709725, 0.026697441858357585, 0.01432079511862601, -0.0010671358738975115, 0.01152162151297727, 0.045501161388908126, 0.0031482583631740136, -0.02705647533670278, 0.030465272152668223, -0.033916435184680786, 0.010706142110293521, -0.016984780624810188, -0.0010374007509866617, 0.033890448118973064, 0.07589929278573156, -0.042073222305435545, -0.01332865487779384], [0.047479497306644275, -0.03944490291075639, -0.04816393905794271, 0.044079303781612234, 0.05000425161114995, 0.0034475780102508694, 0.03577358666040913, -0.008984280920528574, -0.0008024753509203038, -0.041485695416737425, -0.025404027316391943, 0.05332289863542979, 0.02221363707084831, -0.046332593824145354, 0.020376060980015973, 0.0010411943707291846, 0.03707534247743266, -0.02024842893550683, -0.025688726117596594, -0.0038881089126423154, 0.025603738090436628, -0.049549357077557414, 0.015358955677464262, 0.03120342933119819, -0.02024512034366557, -0.010697423120263722, -0.08126496852077368, -0.07897791886532234, -0.0232566255952426, 0.015018286469463779, 0.03186433495590641, 0.028203243608939933, -0.0006254451005330494, -0.008076814805025768, 0.027524331929712115, -0.007745102711788711, 0.025858437841232082, 0.0281435294737735, -0.00132354774612532, -0.04671578684953685, -0.08079197470990335, -0.03873277572808691, -0.017166151792136118, -0.016071774131167043, -0.018510382718991192, -0.06837437697802509, 0.06474546115566977, -0.06603625619984009, 0.03200728782997797, -0.040504040327961066, -0.03559541929793503, -0.011647734814743184, -0.020909749551226087, -0.006263262706269327, -0.020026690819937607, 0.06885947621362709, -0.0003188946521044276, -0.025520365887991336, 0.003685752959534591, 0.013806051216516376, -0.0597735028201996, 0.045704839421352235, -0.06970702949417039, 0.03586465504849915, 0.0489663113528189, -0.03138168173014718, -0.02656102436785842, 0.0232446000951295, 0.01112026439605257, 0.0006330023948269385, -0.06809553570358928, 0.015390238284352617, -0.06476983730835387, 0.044314867702543094, 0.06255026142750364, -0.0016032488272900137, -0.02471987992397106, 0.019427112993887535, -0.01596122730764272, 0.018966669692629883, 0.010340603259273638, -0.01094329893935562, -0.06273846611620378, 0.027410985149607325, -0.008896868864294355, -0.020230590494608926, -0.014376492795975731, 0.01965080201958961, 0.02091750869029838, 0.07402811081520874, -0.01467062749244176, -0.05777703296012409, -0.042930270814461984, -0.07066763821836644, -0.004802085449975034, -0.0037310820829597195, -0.017564662618223745, -0.047695723399681304, -0.008355850396676984, 0.01912620565728573], [0.003424729126855613, -0.06361179146746965, -0.053332900363290206, -0.07201986754819971, 0.007099606811621871, 0.00487248424001745, -0.05776501237034905, -0.00925002969090567, -0.00398785433338317, -0.06867261844179137, 0.024984053116522933, 0.04412552366561038, 0.006201318991660951, -0.024940306601081687, -0.055278507997194345, -0.004071800582856076, 0.02752690874920928, 0.03824115063943325, 0.02064006301644949, -0.024023821071491872, 0.007426982920870423, -0.0043077312019106145, 0.0042556730616970665, 0.0047485590038256085, 0.00884209144354082, -0.05268373604881506, -0.08224121208160817, 0.03287146582119297, -0.037613840518429656, -0.01115084535966535, 0.05480918575640918, 0.06862062773919082, 0.007497356474603595, 0.01934955868106568, -0.013206934951282731, 0.046489608804334864, 0.053691176462229755, -0.0464962237627656, -0.06145041132392268, 0.03188182764203744, 0.06855493247097846, 0.0020288964974102515, 0.056962430999901184, 0.026961771815501922, 0.03141912291082859, 0.008275467694440411, -0.03159999408685749, -0.0035261643246337787, 0.08716655152783094, 0.05136319939404777, -0.014086623731286468, -0.006682132910404897, -0.007759681809496937, 0.0018075726739139623, 0.017221257680617056, -0.018639113629870883, 0.020915775669283647, -0.01687581373722914, -0.005044622000898754, -0.08366204260384434, 0.0011619246031824623, 0.02146771475796936, 0.014962742406104922, -0.03877373904676549, -0.01102488914871966, -0.02761815678054846, 0.011916318716601763, 0.006666279825761922, 0.009294568385041363, 0.027037213950103146, -0.01289440837270616, 0.002525363308959539, 0.029848525449978187, -0.05498347329368909, 0.040144050975424055, -0.0047171716444840694, 0.014033815517579552, 0.04377032520756554, 0.01315293489530777, 0.08500026677868033, -0.021619153863399028, 0.04026630589894809, 0.044869301103607574, 0.02934047398396718, 0.012485487762228513, 0.04310441749420932, 0.015309917492428236, 0.017079558225496984, -0.022484228872504924, 0.01068764872267112, -0.02514948756563318, -0.0043874716361051135, 0.005883521683326387, -0.05456343010457505, -0.007761131035602481, -0.048725645649668206, -0.029562687611284298, -0.027677482545431453, -0.023262419515621052, 0.015239813400632098], [0.008173348896595172, 0.009366319940974564, -0.005447849331074186, -0.01462782864649059, -0.011685315544896227, -0.0012669126639521212, -0.03054521081629949, -0.032090186977282255, -0.003988574259449255, -0.0023225794675120377, 0.01639648523173476, 0.01634627010680029, 0.06204437855883778, -0.005179295392134765, 0.022286856923997157, -0.06287678921862001, -0.0598794573189873, -0.00371394158427452, -0.03672185323748587, -0.04525378499685862, -0.0697553708821521, -0.036297883720565936, -0.025932322209931788, -0.004280642168800651, -0.03266163078939355, -0.010731751479418449, -0.016073545551221896, 0.0512295987855734, -0.0028395080265387345, 0.049388419365959266, -0.006189753507535785, 0.02782482304723407, -0.030835414024402256, -0.010762555475796865, 0.05277787717053511, 0.04716251413241914, -0.05823155793370442, 0.028811036291950344, -0.0169205604480731, -0.030530242113786594, -0.007984796138208348, 0.025474451830511818, 0.018886364880498812, -0.02120454004722807, -0.03496554072174724, 0.05795729017047133, 0.054818441806477006, 0.062404929145930044, -0.05158694381643445, -0.04097856108988518, 0.015611552379582814, -0.004076600013890771, -0.015698856004201907, 0.03807000683918296, 0.0361807650853798, -0.012843507641293774, 0.027953847479338215, -0.035010238338134304, 0.030467453519440316, 0.007954795312469945, 0.0033350649786012864, 0.016847208348973165, 0.05643507554739863, -0.04512178277990591, -0.04994093172592582, 0.01636872060904049, -0.021996072203114368, 0.03888429112226443, 0.005926928845461905, 0.019480587447535554, 0.003532131088878532, 0.014319900444879791, 0.07337470019262732, 0.0868681480358532, -0.03843195382884601, 0.0171245086384086, 0.009278588030066013, 0.03258787572419208, -0.02558815142545291, 0.07805590983956301, 0.0025389932752168396, 0.06998568477883009, -0.06308765608760203, -0.02578336716156052, 0.013959441955784847, -0.018486422904879608, -0.006269854933648353, 0.0056416186870049635, -0.01851115308211416, -0.025666374831017174, -0.05603890280363946, 0.03349121913366157, -0.01635503023890362, -0.06136126946182777, 0.026170619002537105, -0.009478537965887166, 0.08042105050043993, -0.030921033099792546, 0.057348669131496166, -0.10347362680238714], [-0.015163814665796336, 0.05692484690613455, -0.018235424888924434, 0.018241356351230965, -0.006213129367986981, 0.018310605056185713, 0.015534183495382502, -0.03994111937286356, 0.008517115872644093, 0.000453811163520286, -0.0008661433148723872, 0.01503577776243808, 0.06024389107712199, -0.013152490201930628, -0.04458618485724873, -0.010921743854074552, 0.03336937303341918, 0.008600741776816256, -0.021536856307049504, 0.047770588714830635, -0.002995997249030019, -0.0170048972529563, 0.007413888121293937, 0.009063838438394338, 0.014269215212856512, -0.05984053773323541, -0.03765842863637145, -0.03211214254098417, -0.01567744813234642, -0.02950625776371867, 0.008295685229275068, -0.04320477494819794, -0.01003942005433822, 0.02049728076975152, -0.0050026083520200845, -0.0370429233645996, -0.04341011234210631, 0.04893745561153245, 0.01908772745563235, -0.011122283844007208, -0.09187502722975158, 0.020926080282258293, -0.03984804823404494, -0.029749380743113656, 0.061127304012243235, 0.041357145089990416, -0.017533865820456837, 0.03987524027525931, 0.0070376907956974525, 0.04144625343201293, 0.07129751351086572, 0.07119690629439356, -0.0007493972499524014, 0.0032693459430725717, -0.06083374664999567, 0.03530250675875252, -0.0724204853280023, 0.013139749281868479, 0.03963576581048942, 0.0050661123119313915, 0.05814376792797361, 0.06431223886541687, 0.011823667868591124, -0.0015829408957472846, 0.04112216338484712, -0.05981901311981112, -0.001067456378336433, 0.02805142237357426, 0.026866661907542663, 6.444722440741488e-05, 0.010234246707959076, -0.030786902915305434, 0.03731577227184468, 0.004843988539102158, -0.04826858799700607, -0.06466853245705975, 0.07153526991135405, -0.008787712759828864, 0.056379948383678324, 0.02541139940028511, 0.05231776217477215, 0.04084057215051292, -0.05080641329598743, 0.0077955408660068965, -0.038316400222783056, -0.02411708286385922, 0.03335170554624278, 0.05739924023164463, 0.00586829931944332, -0.057817322945286756, -0.016745674603350868, -0.02754768790482627, 0.0007384587036139225, -0.01632038820206363, -0.010820199874291819, 0.014830735618675036, -0.055246092428361315, -0.050708772504578635, 0.042288828191379815, -0.002285874233322185], [-0.09075704933031292, -0.029434759930390623, -0.015458339149362591, -0.008066265317880527, -0.008477698811391536, -0.014852677280575256, 0.04099531360645595, 0.0010715263340837975, 0.03850656890171082, -0.07283275587402589, -0.02887890682780852, 0.020665003658929166, -0.013288664074522515, 0.02040327615235185, 0.02414476566949127, 0.023914603859394368, 0.03886254292117028, -0.027314421959480886, -0.0025436651218975113, -0.008940171248195829, 0.022868034291104566, 0.012681855660045475, 0.07332669452429603, -0.06937530525436834, 0.0030003874242486087, -0.023349071286042834, -0.012990810439052128, -0.006266400191249368, -0.0054911230600550665, 0.040258689192360905, 0.004878624885004966, 0.016703639084121997, -0.025837330558165054, -0.02358266228151383, -0.033617726181443215, 0.011295200735274452, 0.04497891536691015, 0.0023354327417797176, 0.06157867742221906, -0.016349768439114145, 0.022782490450760837, -0.07816601895722133, -0.016411148483514132, -0.02829895482494904, 0.030189587733610267, 0.013020547307840706, 0.05106662667470991, -0.029660170681945024, 0.04923815712090385, 0.024054155545725837, 0.012344876989876912, -0.010099433037376314, 0.011033090613436129, -0.015242921217756547, 0.028726196964757696, 0.03485197813999534, -0.012625416857420907, -0.047593046799897995, -0.023407183629600942, -0.030886948674118658, 0.005021539317238977, 0.04194364949068278, 0.017999751285839992, -0.01913841464094961, 0.0008500669710242395, -0.02690773542599141, 0.0057773715962677104, 0.026875719146283422, -0.0004188306262814767, -0.00032323196776172015, -0.03601798801172075, -0.04986051312231177, 0.011131061170141274, -0.027792315963477327, -0.022227459434138102, 0.006581598519634287, -0.002483365261305365, -0.0418283194671867, 0.05625858273456493, 0.029298759865628635, 0.08846449632084964, 0.028345985237610446, 0.003996556469989495, -0.07538748719856986, 0.033255239689179115, -0.02323653006939518, 0.01137671064735341, -0.004311451829095118, 0.010524771803961329, -0.007914201312267768, -0.016567867353102186, -0.03931897302792079, 0.05136245626415595, -0.03803344678372211, 0.016036662700667798, 0.03718777186789302, -0.0011366747960235872, -0.06358095923238237, -0.020115399703033606, -0.010262284461731531], [-0.04868388463418043, 0.015375024696943383, -0.04674798152425749, -0.054031900282100497, 0.0030013924657507013, 0.01972198391566866, 0.025385330123060608, 0.05100417268949003, -0.006159313916400093, -0.059581133114749045, -0.006061070417038415, -0.013861514928066728, 0.018557227501895417, -0.013325423738301973, 0.043860697904779394, 0.03310054678592147, 0.05542433358944046, 0.041927681481377606, 0.006850581859567787, 0.029738926640179686, -0.032439387897831455, 0.021290566025868405, -0.02805180431887815, -0.010174023845850186, -0.010899462564069737, 0.020093848557833704, -0.04632469876613212, 0.054322260901813274, -0.03629862739821787, 0.031532683547897844, -0.026510333110636403, 0.022573634755839893, 0.008541283619312594, -0.017921555725194892, -0.04553895691604921, -0.01359230428925692, -0.005438584840484178, -0.06219861742578357, 0.013235366587414785, 0.03547706228462958, -0.020985973410567113, 0.02786210645370286, 0.0035046303857792366, 0.06150063009412522, 0.007531563354828917, 0.005796996480814581, -0.008673848034286539, 0.006977503568034476, 0.03686431066188765, 0.033721432773401276, -0.02402939709109928, -0.02265685319762009, -0.028362400426217616, 0.01959499196245123, 0.028876536605328428, -0.03966045908025252, 0.008792964975586735, -0.06460836530299222, 0.004772368074826855, -0.08650885012622139, 0.03415809227066323, -0.0044909165151720085, 0.011695816523697921, 0.08096876812609559, 0.014463348421640116, -0.016579798696168362, -0.0667383586416881, 0.0009965909149635761, -0.010321074761506708, 0.02807516439492037, -0.006126977542066485, 0.03263581608916473, 0.022536618218879565, -0.013212203766711983, -0.012478347500149147, 0.0026042233946264796, 0.015521231978183758, -0.009566722227267071, 0.03298059784425334, 0.02874429719539305, 0.01847557758452273, -0.0235488294351987, 0.03395590121524141, 0.05082958669917284, -0.012923612532501917, -0.03350380468362117, -0.023023565647572047, -0.03858406419325589, -0.00733978307094233, 0.03026356145472606, -0.03784741277506425, -0.022900347798796586, -0.058968218761855505, 0.01322359829256948, 0.03189731755921576, -0.007774959712349313, 0.03263789325665059, 0.040574977619792015, 0.02929467580876954, -0.005563705171010784], [-0.0377728038041575, 0.01876368834029962, -0.031234738607575696, -0.045574616668755445, -0.08189507306949116, 0.07329381938714821, 0.015071186502329071, -0.01946314482744755, 0.01882975591720952, -0.001698507751738633, -0.05059165022633975, 0.09117096320209227, 0.03229567067089919, 0.03019509061024101, 0.03588554557091246, 0.03880067933619495, 0.03807658109340307, -0.030383536778480616, 0.047904715232302074, -0.04246774462887882, -0.018966754188615938, -0.043927794189476684, -0.0011325479849716993, -0.0521944734202304, -0.04226185955117744, -0.007050729766168518, -0.0025454193126013607, -0.02524931943385506, 0.01982415574451677, 0.05169912079777509, -0.017680830415079923, -0.014866144250355602, -0.012069588714433014, 0.001874450842558884, -0.01010264741405564, 0.024216047528814677, 0.004810887768701764, 0.02274257341088363, -0.034093402719477854, 0.04781717087353277, -0.02155170524211609, 0.028793383087406105, -0.023437576181447227, 0.025551209033841536, 0.029874835619510216, -0.05757708480535814, -0.03137153944903301, -0.011573907086624617, -0.019922982170394603, 0.03966183156277146, -0.008568180883147493, 0.04018153236269959, -0.03388577114104168, -0.02300831777501864, 0.017072285693238157, 0.0027343897168704456, 0.024842528096659926, -0.002336953150600542, -0.03750072292067551, 0.03358478530650391, 0.001191301461230427, -0.02145189672868026, 0.0037789767189579035, 0.03555734384689869, -0.01931980548271717, -0.004827083753358099, 0.017539513757725937, 0.08152874044197665, 0.006097155542771468, 0.0002492371263128371, 0.006166191879845497, 0.01796277236254922, 0.028724184440994595, 0.05192820319075531, 0.02913017231255836, 0.019080752793003242, 0.022130017500387806, 0.05197332950175578, -0.0014325276094427728, -0.06609050018481692, 0.01154969920459929, -0.019649653430741532, 0.01137506934720559, 0.034429055151441824, 0.012302814813708133, 0.09750720415227959, 0.0738010060179342, 0.04253754484841906, 0.014631268446643236, 0.00463628589210625, -0.03776045521962217, -0.06512683974660981, 0.00011042601187958385, 0.04297525624108545, 0.019071670438609207, 0.09255129685314337, -0.014530573813959821, 0.04646826754498682, -0.0002415654447629248, -0.035205195499956043], [0.051861779056054345, -0.03264632229764871, 0.013670957512166322, -0.0012482407892881358, 0.0020130905360860826, -0.019411262777738428, 0.029346702491313555, 0.029192415978316785, 0.02962442670089024, -0.02594476790264383, 0.04200283824534397, -0.031044639242260922, 0.040530659814043045, -0.026787243859126633, 0.03444886149469773, -0.023962268855786874, -0.008428990591272492, 0.023833912210963253, 0.07286922991433487, -0.014121502533978317, 0.013337316858708233, 0.014689654024829215, -0.06414400428974519, -0.04689248258814184, -0.036758929577170536, 0.005343888435644223, 0.017984791463404436, -0.03610387707535921, -0.02509909785687234, -0.0070184863839548705, -0.03810388096570338, 0.012026299559763429, 0.05029605909368319, 0.007599380373224826, 0.03146231648988279, 0.0033046730342731396, -0.046098143220739095, -0.0080658962801594, 0.03459308030061152, 0.004568727882703019, 0.016803874886010588, 0.01290296168660816, 0.02531060383639925, 0.07528546841183983, -0.014801017200826766, 0.04423854469533951, -0.010009307894880904, 0.010820904475366492, -0.059538382581707724, 0.06314802363123939, -0.00794066915450692, 0.025647249247831242, -0.026902430349080297, 0.07368537194229284, 0.008578733873383662, -0.010934162173387127, 0.006995351620790637, 0.03988759249059801, -0.008567256883438483, -0.01455464069686346, -0.06295770335944788, -0.010810278571026712, 0.04160638425262716, 0.005464262947517486, 0.04751778157333764, -0.019138094301007588, 0.08796457857831752, -0.01597915970541291, 0.02625845280222243, -0.02004313835637586, 0.015392990103671463, 0.031919885616220056, -0.03030923460795429, 0.008126173857540183, 0.02339706758265915, -0.03324537176972192, 0.07225141169268695, -0.0002708134700389931, 0.026858757785279956, 0.02307543970216151, 0.019431816948515215, 0.015296538849699398, -0.00974609099177824, 0.06961820440304552, 0.02473233122239293, -0.012532807190427356, -0.014786466776019755, -0.025980185371414142, 0.01775977821776224, 0.07706567251988694, 0.06559147196280499, -0.005448613117229468, 0.01972254120785603, 0.034087819658489546, -0.005054308381638014, 0.0011811279388050488, -0.0038349784123465347, -0.011484923488840401, 0.019095849729738844, 0.011360814166146161], [-0.029779979503485925, -0.009235732995057784, 0.003958533780538476, -0.0510259495909917, 0.03763896107123934, -0.0409620765677911, -0.02966464976942365, 0.025777250274692923, -0.01022582380794397, -0.0015143200987159306, -0.02049276617668217, -0.020302124469215928, -0.007603316939527012, 0.025481161549394973, -0.00466979067404619, 0.049960155786689366, 0.05916417905044332, -0.02627932260175375, 0.005433597461423768, 0.05326606006850983, 0.005172202007396634, 0.00039874104790282855, 0.0042484314331092945, -0.05970618625741948, -0.0023692282874455094, -0.006022226160885975, -0.08635084874039062, 0.04227020588673339, -0.023152041489945173, -0.036795203661131703, 0.009429180304721901, -0.015508858472858371, -0.03441317466459517, -0.04900635420260193, -0.025784675221173108, -0.028054933668233396, -0.004316064042212663, 0.03428035559691167, 0.03679610132442095, 0.01373556714949631, -0.029049784634402862, -0.06548387511504837, 0.02901556984447621, 0.10910548492755076, -0.04719066328410423, -0.0167479118648368, 0.025445300323920107, 0.027053971193083323, 0.03207982776738646, 0.006074960591011575, -0.006158746673138064, 0.015061075296158851, -0.021841642313709466, 0.023801105318438976, 0.010214370989949298, 0.040069772005953956, -0.024760106076683133, -0.017658308082175427, 0.009723330352682004, 0.005529020588841042, -0.047944463445452154, 0.012248750685507046, -0.049621611604069325, 0.031312675765399485, -0.015804377886058957, -0.028782773026972297, 0.016541578530936026, 0.025389915112827777, 0.04247602649227676, -0.012156077208234008, 0.029516907171258606, -0.020447292492504737, -0.03280486313922224, 0.04589387382955174, -0.02863504985469755, -0.05121352587603064, 0.013091246070072796, 0.01620743434653448, -0.018731858824462527, 0.030088434230758503, 0.003540170455624225, -0.0068115235724901186, -0.027119860937536277, 0.034846510580171804, -0.01719857146650717, -0.05722018130935434, -0.011227596404335799, -0.04278972893781154, -0.043197564896360535, -0.025377308567061534, -0.024984289326836173, -0.008688073514145812, 0.006773874348508928, -0.010775125184441051, -0.010505833085344559, 0.02434034986719093, -0.05409162035332527, -0.04252867697914454, 0.01390619716069963, 0.04192580778440247], [0.01749368885311192, -0.009870317542263751, -0.01470832341071086, 0.023461083468428148, 0.014152699846531325, -0.00906597942756181, -0.06703326596551426, 0.03609778326910807, 0.02258678074864935, -0.032500913589167506, -0.0036019189347818773, 0.0012559712264718515, -0.0774217844676841, 0.0271773946521486, 0.0888017407885398, 0.01146339462624785, 0.0029873205854692585, 0.026485263772095095, -0.03932804862017943, 0.054524682537465646, 0.020212033633626378, 0.04374113123565551, -0.01047918509908406, 0.03989397038754144, -0.003985527923129435, -0.013892765878818342, 0.015469133943351929, 0.04098375369165286, -0.10367735493472913, -0.013562306223847336, 0.01586082892582662, -0.05052524092370498, -0.02812819977161259, 0.09201773506404735, -0.050734458158979916, 0.06706289786527138, -0.08909293032656752, 0.010945558215682499, 0.015288810817027916, -0.02171145883037711, -0.029619146097803188, -0.005344470014573161, -0.025446577387156978, 0.02222296770020456, -0.046464760334626494, -0.03970160485763602, 0.055142447769549754, 0.00042634941304482915, -0.03953352762135665, 0.010032117678045217, 0.056297524601155065, -0.0015867900923092748, -0.0825551349800566, -0.0015011438487415195, 0.004164021297160776, 0.046401867518081855, -0.004686254956915512, 0.07736736473838372, -0.0010747787608940866, 0.0502429996416528, 0.01663255550991235, -0.027246636770603804, 0.08313256045733493, 0.019007303062103485, -0.06470241507169212, 0.00811415656776214, -0.03956425122172395, 0.0017949623215271055, 0.046410515702509855, 0.025881127732659492, 0.012662170587682786, 0.013099536232256745, 0.0004652114559985755, 0.05070254594110094, 0.013479410412816566, -0.010437494553482122, -0.00015387507950064125, -0.009076113768038142, 0.029981066032068363, 0.04433483414455504, 0.004237102150095482, 0.04352142265965553, 0.049262880814053105, -0.03132661173238339, -0.007060645697403894, -0.017409166908726844, 0.05999670531710001, -0.0007658060017992058, -0.0033775215230824112, -0.02631929160460222, -0.09220798769522855, 0.0017563899580182723, -0.01553671205317368, 0.012219276221798955, -0.01557863370620961, -0.02941546691980487, 0.031124723074145915, 0.006098556629691773, 0.004722435177216679, -0.0513362561460492], [0.061621937187566624, -0.05683407645263761, 0.014584531077339726, -0.03003911310195299, -0.0569490223561752, -0.07208026186596331, -0.022264285845579164, 0.0012303664726143746, -0.004460280079368795, 0.06963086577218401, 0.017073892280596636, -0.04043934185135625, 0.003475672161113282, 0.0011170232435737785, -0.06744655412304076, 0.002820402461856023, 0.03498847224630846, -0.022627260178238864, -0.04716571849209403, -0.00036557160963362486, -0.0058862229738279115, 0.011086417111769447, -0.05603778337420657, 0.033516117082641884, 0.061390020954250925, -0.0006154189329492261, 0.02875925836464346, 0.011820916987199134, -0.05391452246635984, 0.0008295615871364612, 0.02313275605989904, 0.0780586434546449, 0.024235805454827935, 0.038809559048671304, -0.005961659409140713, 0.0040379085746349115, 0.03728287304203376, 0.0035236107662114055, -0.009050321550496244, 0.04140775320551803, 0.04111235096366143, 0.017350752016157895, 0.016853877816256174, -0.08878044615621813, 0.03277025534667677, 0.05138964448221001, -0.009326393653424385, 0.02435667387414636, -0.07092739600248504, 0.03149799157481516, 0.03631079707473725, -0.04843751175576549, 0.04567556156044822, -0.022708144146638423, -0.007134444474556354, 0.03242086665720754, 0.01309281327399138, 0.008537585551383212, 0.01688317610299423, 0.008032290457486387, 0.02972006928306703, -0.048703150237852204, -0.038212139551269106, 0.03915310451751422, -0.01823873293014775, -0.008697699324582604, 0.021330255096265648, -0.005193973483493613, -0.039921634044656026, -0.00661132903627434, 0.008635521218809367, 0.01610473323012094, -0.02409156879243004, 0.01232786611399426, 0.0033379585108757304, -0.09940477425095887, 0.0330948162659241, 0.03181744513535138, -0.03590450583938223, 0.03902851505903122, -0.024945488974448135, 0.08898353321952211, 0.037117847087068105, -0.010443039787140174, 0.010276337631574671, -0.030799244077504808, -0.07182541154417994, -0.024117908906514187, 0.033025036604563, -0.042758465196773454, -0.03494794423306969, 0.03902452789477208, -0.004730940258397131, -0.016696219806248573, 0.02663655828707742, -0.02810094309159627, 0.010319313629015132, 0.0017049650540499532, -0.04265221260820114, 0.03811225104134244], [0.026279641174040552, 0.05584755727496523, -0.00032581542803153185, 0.005375054780902642, -0.027577324991620855, -0.027434899515379717, -0.0028900631195422025, 0.0011205105240497527, 0.019063748794201744, -0.03904978465543486, -0.024416564335492684, -0.013080248887572718, -0.008477042284981098, 0.06788613629811475, 0.027262023070693416, -0.025882785125649305, 0.07045042936045982, 0.027982074667684584, 0.08813471302880058, 0.020035509766436494, 0.015037112997013553, 0.012071131067333691, 0.006434483531108121, 0.04722569815650163, 0.087679085300142, -0.026315102741444323, -0.0548126195953553, -0.009681350231286062, 0.02719323061029025, 0.017846376598178424, -0.033387154580901995, 0.0033522188420425747, -0.038555602650846364, -0.013941659150282035, 0.010524992043610498, 0.005275572274721161, -0.007538367038084331, -0.07708636681393619, -0.05841773121785687, 0.060108553609900604, 0.00819479447662094, -0.03593684875143929, 0.030090268028569084, 0.05628273942265342, -0.022136490263956792, 0.0025503309847980686, 0.028513599867730843, 0.04520604442298451, 0.01989178233262423, 0.009267325485378291, -0.05293075087961509, -0.02951679690785077, -0.012087832355762572, 0.007061676361736758, 0.0047221104837605575, -0.03406075473776598, -0.036482634730894, 0.0806930883032743, 0.01546002368892954, -0.06919803279181433, 0.03261790657213246, 0.011997053938459009, -0.02213372374560797, 0.007039733277343666, -0.03082154577706103, -0.005426583781532207, -0.07358027739060723, -0.01499601516519045, -0.030760395788043748, 0.040831820210982486, -0.05186826411721586, -0.03480680355859206, 0.00046867719205637956, -0.04034343653293197, 0.03179104557854653, -0.03528242087796276, -0.022548064823443258, 0.0014029617901854855, 0.03070809043729336, 0.032045680210614956, -0.04652995121189234, 0.05543194599204457, 0.040226040553527846, 0.0011178329652070523, -0.04009001569859001, 0.008880183143154554, 0.03925854432708268, 0.008432086422153364, -0.05239473646767042, -0.07391225569358278, -0.04886509267973069, -0.007651586218948716, -0.06929513284913935, -0.016553852438653996, -0.003386640752257559, 0.011463621514857181, 0.016466805303053278, 0.02479042466600695, -0.03123046998341735, 0.05823190581513654], [0.02866013268340571, 0.017180684009323002, 0.029666426692861986, 0.04896229479405639, 0.06374947516784452, -0.006694490838274167, 0.008992388241535365, -0.068361384366062, -0.01097454235265379, 0.037306695612326864, 0.012669444477066466, -0.032537462348363376, 0.01846315338552011, -0.06860617706611032, -0.004358918561535545, -0.0534765397767218, 0.022846176518121264, 0.03905028724863484, 0.008621877485076722, -0.003758449012691732, 0.014949821825677305, -0.04301440032690616, -0.04587093614774508, -0.010641364802120534, 0.008579681501641933, 0.012790336679820534, -0.030000400937557764, -0.008831684032838578, 0.047036038804962606, -0.06701194431445576, 0.014394922444961137, -0.05724666651497871, -0.0011650758408038718, -0.0035458128238694724, 0.01702764956871753, 0.009928649856245517, -0.0006767079559775408, 0.0023836541337701102, 0.026448464470819655, -0.015399655086148063, 0.0014674460397933475, 0.013766640898629348, 0.007044054144110198, -0.0028767109945861628, 0.015024794434808253, 0.05129954474530879, 0.041767715522297376, 0.04619025381486763, 0.07517442153366842, -0.019118983301088483, 0.0069220354969740895, 0.003997972606168366, -0.00017818033286004474, 0.0305694662662546, -0.009972640878914633, -0.02157105835475257, -0.012664713668882513, 0.026113037741843145, 0.06910106621862071, -0.04225788109979378, 0.001155425861027709, -0.03599212386303482, -0.04612356859276176, 0.010753040497357253, 0.014191757713995907, -0.010184211075953305, -0.011948640586180715, 0.015037953540933935, 0.06894137918172367, -0.015327601203825422, 0.0682149652474075, 0.020185412014673578, -0.056670114137443474, 0.06504303698803107, -0.028806279407789976, -0.012509487936505925, 0.006082328712603084, -0.02731278902179801, 0.03801469460711682, 0.06781118697458591, -0.003927725322290099, -0.02011451069885581, -0.009529145329586186, 0.0009900353928620393, -0.055048932670571246, 0.047363947058123274, 0.012042390353520017, -0.030860576186807525, -0.01395562568310461, -0.00043750606400417685, 0.011795457640622512, -0.047543866295226805, 0.016457866628846834, 0.0443370370942627, 0.003264747356929513, -0.017220611377174812, 0.04128410271450767, -0.025186880348024878, 0.028039680101764504, 0.028231260174840133], [-0.056221721915688555, 0.012188492104426425, 0.04214432049712198, -0.029625201904947242, -0.009182734472983373, 0.042098250705498455, -0.0010824940997527864, 0.04517683502694083, -0.03378191004112639, -0.08219144148878961, 0.058201279001489595, -0.01208318473218523, 0.011791092398141691, -0.006787448777297789, -0.019166337219686393, 0.04254960846503653, -0.03216451879715158, -0.0030189528533067275, -0.03187461468492954, -0.00864035243986906, -0.04380918014974008, 0.010220582838542856, -0.027853121637867937, 0.004688768539867093, 0.04133832375865093, 0.03136493375795455, 0.02287506830981342, 0.07807927082611528, 0.021949894921551482, 0.04483690666334364, -0.01794401685035266, -0.048766482686738014, 0.01865712539378779, -0.02315724690585076, 0.04883050717644322, -0.004545144084494755, 0.0635225109087262, -0.003459218978537178, 0.008313986724817755, 0.038740352389085256, -0.04869695160163478, -0.06681509276505337, -0.022314727431361796, 0.032284850729186174, 0.044261043704128075, 0.01167273660997815, 0.02131881403388725, -0.00010749387489487334, -0.0718348951006164, -0.036900750101846715, 0.013701360173952636, 0.006940954218535386, 0.036296295441608416, -0.022819310089503934, 0.03791348530828832, -0.033878031721587036, 0.0602292900800704, 0.00688508220041037, 0.04272855118105961, 0.00436107768731404, 0.044855925579547776, -0.019876008157833486, -0.015228752327908235, 0.0002521957427506483, 0.027831783005837028, -0.08141288496658776, 0.05046826522714702, 0.03072125637774855, 0.031306154802099584, 0.05328989581159046, 0.02990330610149329, 0.033146549681241436, -0.022528947631895554, 0.05417241920724967, -0.033110614321624675, 0.015923957020562898, 0.011353372171339454, -0.034239258384903874, 0.05944332550156295, -0.03825952629912633, 0.04125720419535734, -0.04462934055430302, 0.012865499011870797, 0.011324477919762247, 0.021796423372713977, 0.0006147730173740115, -0.0683803115726265, -0.0470882658863859, 0.019657007876822563, 0.007492379614209504, -0.032436442803662965, -0.087625307174725, 0.03868954297622544, -0.07544717759353645, 0.04101734782423192, 0.017828592757806006, 0.08323367368977667, 0.06784805354715158, -0.01586107528214153, -0.011649197856377164], [0.02530943632893185, 0.002693841752522569, 0.01731692654745858, 0.029777208415367764, -0.012641339931657801, 0.023356929798404105, 0.01938574659570406, -0.06594774799631957, -0.025171435224553337, -0.0906404159761233, 0.011625608073057164, -0.0024558881448812128, 0.0013781520093589775, -0.055508468794111865, -0.02724798057625763, 0.03726863853612423, 0.011709151984943458, 0.04309948613263829, -0.02558814906716429, -0.03248454257173456, 0.020809561327959622, 0.029204524972652062, 0.021445851877728746, 0.04357156641847441, 0.028038417949227262, 0.01804865486045802, -0.0656656066121686, -0.043759320301823335, -0.024631517604552896, 0.005148442866261278, -0.027579294369230095, 0.03488373922738362, -0.001974564322463406, -0.027590541670352228, 0.04319331724812913, 0.03656390475418049, 0.012190939103008015, 0.005765508816345368, 0.010272606694350718, -0.040404261598355314, 0.05144644709691286, 0.012440295602985398, 0.0067645599129347814, 0.04230631947946051, 0.03177743854170206, 0.04266427769423422, -0.0723658312119135, -0.017091173755726618, 0.019595676720978554, 0.0027668470362788157, 0.03211365313958155, 0.05407425129281588, -0.012871896415859944, 0.04894764487369581, -0.026202729893305503, 0.020239353954849916, -0.008529246791638481, -0.025088667208303838, -0.04906420396920354, 0.00691268590229334, -0.03729438112244774, 0.014104400234733687, -0.029406402310608964, 0.04822339094085181, 0.011120167244438825, -0.0010912930639552113, 0.018111469705330428, -0.004648047788257884, -0.05383442047914554, 0.0238889748317668, 0.018607291259165302, 0.09061855782304923, 0.06338313963076779, 0.019776662244773223, 0.002390388584345532, 0.015187677779168567, 0.009334033695986463, -0.04045937111080106, 0.029972615334115764, 0.03992751162237824, 0.006520542412937833, -0.02237108253749916, 0.00017282153422388443, -0.056268226124560755, 0.03425540933741911, -0.017454828280768178, 0.06751225906753609, -0.0035139889859662457, 0.036488633111947846, -0.023963857404942116, -0.02627285742111147, -0.0028322503469884962, -0.005587506298693569, -0.10265774972046465, 0.008930013315282193, 0.034964675837289926, 0.0433535546716324, -0.019044366479434745, 0.003731297685956316, -0.05758311781960736], [-0.00572039223870748, -0.02615195475125936, 0.06780570168407701, 0.04148664595415299, 0.027232092609542454, -0.006811983414746978, -0.0018230076798022071, 0.024138112265977556, 0.04593144702243353, 0.08638276698164749, 0.004646926089055304, 0.012657335825096388, -0.0005734323183519584, -0.04309106113795356, -0.05989989669626435, 0.020764275861167147, -0.022042038001888694, 0.03901050268458222, -0.07447107519395375, 0.02077552583883068, 0.04124036972488161, 0.0164362347429946, 0.03814921303555141, 0.03381957391175972, -0.007963060161557308, -0.04501299446339559, 0.04757918743237287, -0.005345580919001762, 0.040956118863313185, 0.0430186635886524, -0.021676362136880557, -0.02773144372848533, -0.018169593559698494, -0.006291730854529287, -0.02280338887868969, -0.02812326379632953, 0.045517218005694186, 0.044189479989748835, 0.054331786086923135, -0.06055592223937396, -0.03772076909123891, 0.050167176197042196, 0.046811244388056165, -0.017457756541478964, 0.014036911938662485, 0.010630304716142494, 0.033003732782433376, -0.019583611794458704, 0.019948059538728236, 0.011828995083817299, -0.06622428173111537, -0.027908125204662574, -0.02169582453688307, -0.006680878285396553, -0.01732313735392018, -0.006795858546125302, -0.017648992201342882, 0.01865790947628212, 0.033149892077002696, 0.03514872691515099, 0.014833133463202641, -0.036815129473292525, -0.033381558825312865, -0.017253063567352084, -0.06192234247271573, -0.0456554365266985, 0.06586826832426956, -0.01573789720375128, -0.0031889807702830952, -0.009889784147585493, 0.00018852842863325805, -0.026857097205390888, -0.053491446846140225, 0.000889647126173262, 0.0053498318750729934, 0.026640184265612772, -0.036093392917966594, -0.054737126302842935, 0.012123878053529925, 0.026638786852293907, -0.019388598152976874, 0.002534012868413898, 0.005499347900688439, 0.013935266052717056, -0.03361491209213679, 0.011487710980692234, -0.0006589013156014506, 0.046834619258670024, 0.08994223056775226, -0.05514817648233595, 0.011636283573610535, 0.08335496488043792, -0.04708626301725601, -0.033214006893631916, -0.04050273412335197, -0.03645854950740531, 0.01742536942516246, 0.04500844765649084, 0.04252804261827679, 0.0022617789673921983], [-0.00866607405016546, 0.039749838886056675, 0.0237504344721135, 0.019081544178790853, 0.01183303596577364, 0.057351125300440176, 0.048690303549068885, -0.0210677545507141, -0.03893783465690262, -0.03178667969205844, -0.02380800633821307, -0.02133771334819466, -0.009411926605676689, 0.027351772967123104, -0.03268531593820322, 0.018612907770351635, -0.03678404533722725, -0.04084395162293711, 0.05321767904267761, -0.03881837140358503, -0.05254128210547699, -0.018701830450707297, -0.011022020979092363, 0.03284375295626045, -0.018574345071962078, -0.0015442743821893771, 0.04393442574842592, -0.026865215791863403, 0.04722095431810082, 0.07406900717169997, -0.03661168620798422, 0.014622960243257538, 0.026708406453678717, -0.03767177572725847, -0.022952705453305525, 0.07535642173885207, 0.019179603173685, 0.03049703157943888, 0.04365195115193954, -0.003696956001808492, -0.014495914999187644, 0.037718979830635, -0.05433634825827631, 0.02125095569675435, 0.019342103146694937, -0.01963560753045812, -0.030326800924126082, 0.05083049377271709, 0.013141464642469562, 0.03572777356221606, -0.038409212806743344, -0.017637194510816082, 0.04550298934019177, -0.03904912267854363, 0.027161387755046475, -0.0622774745892933, -0.025009985773353574, 0.014711424456284363, 0.008655708165129854, -0.024771071813413603, -0.008002643241479824, -0.01291791601974375, -0.020000142778522974, -0.006582396110130929, -0.03631494473399813, -0.05662845349019983, 0.05283002147228994, -0.014355535799693842, 0.07785798500886047, -0.03769298659744384, 0.03620983129854504, 0.026006926017844666, 0.009349760223586807, -0.03203626701280889, -0.006555457431405159, 0.011503364645073256, -0.047426443140313856, -0.0001378067864517013, 0.0330028761836524, 0.02583224766864988, 0.018876383294378855, -0.00947174318529798, -0.03841690197792701, -0.06958393723438265, 0.042514332247044984, 0.06392238923092665, 0.003736602984103008, -0.03216091778560505, 0.04257887964204805, -0.04053803761542859, 0.011577939924809617, -0.015963671611559104, -0.04705719936953192, -0.02091709245327383, 0.03443162947074797, -0.017778654884958587, -0.005434781564400298, -0.02904532235902508, -0.014630627947626982, -0.0028332814209484753], [0.05732855057263578, 0.0071933577474864565, 0.013317079233076656, 0.07787910172779697, 0.04667175368545207, -0.006015804030409584, 0.02649413679568442, 0.050753048042044835, -0.02083889889642794, 0.047237104103576316, 0.0003533742232624776, 0.012177743996109608, 0.01725144888336121, -0.0006035911620101543, -0.0673783425581954, -0.014420483686527971, 0.04144106724154457, -0.05376755105169515, -0.045970006029674965, 0.002734275622817608, 0.044277513581815545, -0.061788425635472044, 0.02813133003733139, -0.02248167854858035, 0.05573751341174066, 0.05538079551269043, 0.0011699682828453604, -0.03206883962575101, -0.0008477189661577986, 0.02943696091284628, 0.08509929377439869, -0.02624095761933262, -0.0041581880492638, -0.01404480957235831, -0.017024793684245847, 0.041632751453436166, 0.049540818766804474, -0.05572835212748996, -0.01561625307460454, 0.0441075198860029, 0.0882284607006294, -0.04326486112620095, -0.04872022928110303, 0.046573500061153454, -0.011889553155066132, -0.034914280320724335, 0.034746989983542274, -0.0015394335345695245, 0.040085055215315454, -0.034277728560690036, 0.02193949028208922, -0.03325783828761388, -0.0025970762943332785, -0.05510312190819921, -0.026488462506990704, 0.059977539531165164, 0.07134574576540262, 0.02488183702169851, -0.052608975227840964, -0.011189605897405263, -0.015080489885322717, 0.04712598076751196, -0.0013938932267269892, 0.048143164189324454, -0.021672350015415513, 0.004560763869334747, 0.037361166059816965, -0.007230093907166979, -0.009423124677099947, -0.06814438366166972, -0.018806883014435134, -0.011080042893640573, -0.013952379136147325, -0.00247441621306793, -0.023702016866871473, -0.029011887669978354, 0.004396172063095909, 0.0430755874370577, 0.072362897121406, 0.011326934465986557, -0.01230667641801421, -0.014538050227495674, -0.012614435743812505, 0.01697135804514859, 0.07245170981420143, -0.015623705511359783, -0.027776031379953325, 0.011954332665685628, -0.043803352334970735, 0.03249480280136924, 0.03269393801859592, -0.003989049723763796, 0.03720847145652368, 0.008244401430849375, 0.028311242028511242, -0.018006603697130617, 0.0044577629261011685, 0.010141291580228253, -0.06262686526581102, -0.030089892819678055], [-0.009138997901934617, 0.014731248014041973, -0.008999255316462841, -0.116306591135891, 0.006372022112446477, 0.0766540324301465, 0.05774901209050379, -0.018169949298043397, -0.09848266112615908, -0.042374392436457846, 0.016187128545072746, 0.04445710466700725, 0.008260424287937426, -0.0015664488862762141, -0.010075517812749834, 0.03259201362306687, 0.002899062853303975, 0.031219487012382422, -0.0333649772315679, -0.01244490389546079, 0.02262635098519922, 0.01299713377858098, -0.03804474501953971, 0.059463261771962164, -0.013955996771651607, 0.016341413017585783, 0.018360179863063826, 0.06783234239875056, -0.018460829164742305, -0.021098509737457524, -0.021660635082485554, 0.01165638163642165, 0.050246767108067726, -0.05590664382075103, -0.07382744735953167, 0.0391487099370267, 0.065133081546678, 0.01471129477840421, 0.025929809942958987, -0.13464702962194416, 0.04930090050564392, -0.00546761460059905, 0.01481223633097458, 0.0023463561777513093, -0.022173560607124557, 0.00936216923292789, -0.11285751697744219, 0.04018884523962603, 0.010874589952697666, -0.0007465006139813945, 0.02197687966593742, 0.025072964366292413, 0.022010973609495603, -0.04817678647809364, -0.004281459171137094, -0.021732656566818706, -0.031234574806232526, -0.01367857248181587, 0.039556365117144006, -0.0683548812818249, 0.002881610314777334, -0.06854702016822922, 0.007810281717404889, 0.02561787201671452, 0.050051306117392995, 0.04203157803474882, 0.037209769570528586, -0.0565164510629111, -0.01262130414444197, -0.06733895096775132, 0.03188723002762156, -0.054272984562850284, -0.00928308636053702, -0.002363812551151368, -0.01084887321574123, 0.026984934285851553, 0.045913007436907884, -0.013257559449371294, 0.03605330801240881, -0.04455079145340067, 0.020395899250653667, 0.015157671802778782, 0.01395484941382495, 0.07683386906148189, 0.034213018848776026, 0.0014692292272899643, -0.018165370845096087, 0.08346866446773868, 0.021043410788465142, -0.03855064507646255, 0.042528582062449596, -0.03528902041949499, -0.04912253149824231, 0.05686229801982913, -0.004590944787949853, -0.022063278300545837, -0.03003617468780711, -0.04718833586701327, -0.06444792190861832, -0.03247447615006598], [-0.03357890146121776, -0.04083131172277302, -0.017390302346411868, -0.06013726498686408, 0.008407329907025288, 0.02478741301292935, -0.05455246045651945, 0.0379751700005813, -0.10182131144783116, -0.017958693258365334, -0.017382182030591047, -0.04166054394381624, 