{"layers": [784, 100, 100, 100, 10], "epochs": 20, "mini-batch size": 50, "bias": [[0.5023284276957733, 0.6408273926185627, 1.0552659539359956, 0.21336720520523583, -0.2125580770391199, -0.33859851802275265, -1.243807583496328, 0.5500720541678614, -0.8280326341792068, -0.42904768939259713, 0.831772760069227, 0.35476824836793064, -0.33552705631335145, -0.22034602158712163, -0.7185579666834515, 0.06988858304791178, -1.0151357027584886, -0.4303116572138253, 1.9112485137584392, 0.21004245872396024, -0.8501650642989574, -0.0451799441841095, -1.5980125953483704, 0.6428245717091587, -1.5004916166018, -0.6620405335627277, 0.7639907739278436, -1.6098527419388373, 0.05386964508586538, -0.8609795492274999, -0.5398423691536134, -0.7137904174611444, -0.9168498585674367, -0.38456882302594464, 1.0259787034095342, -0.12387541558800527, -0.4223916960770506, 0.6443930336890671, 0.41366433312968426, 0.38212168836115806, 0.025749189982090696, 0.5291127448803796, 0.3622724654516701, -1.5465900544053035, -0.2912206490712945, -0.856514414968529, 0.0062911591838876076, -0.6545464752702221, -0.5796039954992378, 1.3858769816629144, 0.16972824628079036, -0.22853098882199185, 0.8535993776257315, -0.17794986486672737, -0.12122881991365489, 1.1413995665544006, 1.3728369889674263, -0.08801758168188284, 0.67808706819226, -0.30023515787808214, 0.06347109930746367, 0.3733431208965609, 0.16831757953550436, -0.26780674819990724, 1.0052585233364268, 1.661645529284891, -1.4326488525478045, 1.3629555498925507, -0.9110833317038608, -1.2917753073198768, 0.7120997961279296, -0.12753184454905409, -0.015346872648816191, -0.08049409300496481, 0.6004274720611759, 1.0037716083877606, -0.7311850624698576, -2.005510954254173, -0.14505320637622837, -0.13125363665271353, 0.6952004131300935, 0.015550668723588783, 0.51171364713477, 0.48651665302943065, -0.5330492364762579, -0.3993491903832263, -0.5230107960628547, -0.22235157883602666, 0.7420905180505043, 0.47989775960766007, 1.468905465213646, 0.06326676157952411, -1.9132231520862018, 1.563154545544277, 0.04473202062265681, -2.086447558931832, 0.5360599247994138, 0.6976525600089902, 0.4388088556143478, -2.0100213203172714], [1.5050363818342987, 1.3208402625557218, -1.4389006616894853, 0.009890300676647567, 1.0170883815036453, 0.5243049070879982, 0.01851951047165286, -0.8001598584632102, 0.07185796556788851, 1.0060621642198497, 0.5751714429597894, -0.43558654481038706, -0.5910015582917589, 1.8133175181098375, -0.10680511540032298, 2.2577700567762604, -0.5705078763210287, 1.6792460603088255, 0.3327431230496411, 1.4464081634598382, -0.44258519291690274, -0.2927209100737779, 0.08770390107801593, -0.11002849653122113, 0.19937582985157107, 0.7608986870326921, 0.2735089103737385, -1.065991516594337, -0.24159724461917978, 0.004774992218182541, -2.1007629230203406, -1.141728346985038, 1.3728531765890348, -0.07239844887976757, -0.8298591402568414, 1.8809411573813253, -0.8910802414374199, -0.3418279900143815, -0.14556841297182754, 0.9384187056429176, -0.5139419530532328, -1.4646597511280341, 1.8993039896012909, -0.33145563980014414, 0.6857131458715802, 0.459232319891437, -1.0068407378353608, 0.8487487099559206, 0.23220868017552612, 1.3584956699854391, 0.294410418815593, -0.685152749457682, -0.46588536878513553, -0.25382653808837036, 0.723144729715003, 0.5522408538121977, 0.358613266270387, -1.544627346169442, -0.6104733379265674, -0.6584901641254579, 1.030765547386083, -0.05280070033707294, 0.08439724539495327, 0.6203297089222479, -0.03876075204153004, 1.123094252921869, 0.13845945877140403, -0.04438409230446783, 0.20337059940589344, 0.21987976892966102, 0.2950207215331691, 0.6944731937761441, -2.0310351019103337, 0.12879863704429573, -1.1426162344851754, 0.7407472666058267, -1.0616380571801913, -0.6591120439775185, 0.6174193961515909, -1.7944581573800495, 0.27739303169959867, 0.058467988790478646, 1.2211972614345368, -1.1049272638032535, 0.6096913831621321, 1.1231446837463934, -1.3205202570284669, 0.452169962399801, -1.685899336328283, -0.4200811464035395, -0.6035281116853055, 0.11658087325277099, -0.7652191750723568, -0.761459727368613, 0.6455578560119581, -0.5225112912450577, 0.9966611669911808, 1.66946738448382, 0.9851885489084327, -0.6538098505633276], [0.2905982742980905, -0.7360862933390235, -1.33353480938331, -0.547697718394859, 1.045456124540346, 0.8232994301938932, 0.33543851503201866, -0.8207843756609878, 0.6633821932774692, -1.346989631009385, 1.4544445113445983, -0.09691901327857794, 1.0222273095742973, -1.30323521435496, -0.7950063155951893, 0.1786570302365245, -0.4793335690278412, -0.7616597931694206, 1.2863620521987789, -1.34793232625392, 0.30936985985258547, 2.1355374425583706, 0.6511549599093762, -0.030164641593939095, -0.4973795044108854, 0.004482233840664651, -0.7239469734918419, -0.6464768089960697, -0.1323190774738749, 0.8714380642303099, 0.36713797574940465, 0.4564102809052901, -0.6630938522687175, -1.8074459336487259, -0.9029113229697662, -0.45737929033717695, 0.5768130526139633, -0.7687842144461686, 1.5027589200965337, 0.22614969036921204, -2.0332630831603415, -0.6960235760966671, -0.7266737324011351, 0.1656542651423658, 0.0741116482221126, 0.37622398352538183, -2.1435210929917456, -0.31721545944234064, -0.8952708101226264, -1.0537333111431362, 0.8245355944708227, -0.8289293352185967, -0.8928012367876649, -0.15142859681995, 1.5842052076165867, -0.25008723938113664, 0.3511933814095187, 1.142803364065623, -0.6625437094440557, -0.23015435893714495, 0.42654704911092994, 0.796489851939925, 0.9561650376593697, 1.5566540211276216, 0.47333852941517, -0.4432303725389546, 0.149292898324754, -0.7843579133064117, -0.3377671809356232, 2.3349640832669905, 0.4523247084155646, -2.0148685096683216, 0.18224749638696047, -0.39813851721242544, -0.3977887915136542, 0.1330376991034279, -0.1320750438322677, -1.051187327154857, 0.6001067179227091, -0.7137154106861843, 0.1840419483825416, 1.298891864395949, 0.7683754504378459, -0.45879242657248753, -0.93066701336058, 0.5092775831192854, -0.05326293583386999, -1.1539551354449233, -0.016272332545921125, -0.6505304005213998, -1.3421135502523232, -0.9089462748573097, 0.7872571715479535, 0.09533371049940044, 1.3076634375969975, -3.414158507243712, 0.5000875771850392, -2.0111860781802626, -2.6926478052903793, 1.62686211371379], [-2.423331097138631, 0.022589629794457944, 1.3724576434344975, -2.338369855571298, 0.9636421657522481, 0.6808562846200152, -0.5759925359578941, -2.9925971692990965, -2.334300917291872, -0.7249115427778662]], "number_of_tests": 10000, "number_of_trains": 10000, "weights": [[[-0.030458249964225137, 0.009094379550285789, -0.03132270543048896, -0.030049813238642448, 0.023973126350612016, 0.010821357257388284, 0.011811037851973454, -0.01033979679637778, 0.002505611652805926, -0.009060949297445746, 0.045000182942855425, 0.070420293681015, 0.018089764393870916, 0.0020095455918963494, -0.03952948481126047, 0.008948158702877285, -0.044252388930208504, -0.02425319977329444, -0.0618238056361459, 0.05965087132355098, -0.04683736016385837, -0.02220695886009709, -0.01853936704616395, 0.04411376635626236, -0.024635507771768293, 0.03659061561176958, 0.033449410266792594, 0.08554451851232803, -0.011718116308764863, -0.05881153643427612, 0.0021140275727049482, 0.02739969646191581, 0.009738631569323973, 0.03772490693356926, -0.027712162279730883, 0.011641125191121721, 0.049020060326923506, -0.13221563078013296, 0.009512076452918704, -0.04561349124901731, 0.040154530583456256, -0.04216031909614928, -0.044273148974857825, 0.03792032431962777, -0.002886873108265677, -0.011157653765654921, 0.05028644996889306, 0.07028352775459021, 0.018310517594278607, -0.020668884768763083, 0.00023178937359711346, -0.02610781674136411, 0.017989300519644088, -0.08603155851859302, -0.01027016377832349, 0.049742564526773544, -0.024632189629127856, 0.01898125923620779, -0.02765048628841002, 0.0289720725923651, 0.01924757670603614, 0.02915504257004628, -0.02223130167198227, 0.008919868180230793, 0.02193819704741153, -0.01916630396038587, -0.013667152731192978, 0.0053877932471372, -0.03397216098883296, 0.04757276741185143, -0.0004132075585443253, 0.03130392541356602, 0.009286871578481657, -0.018064524224754876, 0.029220490137486163, 0.040814324556361005, -0.026234252830523802, -0.011749821690949321, 0.021038883007913196, -0.06377722851100627, 0.015564427630409185, -0.031136180854426026, 0.018048491035579223, -0.006465710241125581, -0.007794173938197776, -0.002142238455543284, -0.03981846687790922, -0.023845312876734175, 0.0007589458030190724, 0.02730446979574023, -0.05560366720010762, 0.0985068079800777, -0.020385522139707984, -0.02499922304003381, 0.010046966038273849, -0.04093366789519798, 0.0005169169517800742, -0.031698710296451854, -0.017856129394061747, -0.08490721264395101], [0.022628493141076143, -0.07496647497208282, 0.0016009180084581714, -0.05421684535332717, -0.04394461903005039, -0.003396015834882819, -0.04454449560544373, 0.028866881334393513, 0.031166921211727535, 0.002547320421680782, 0.039552952828479315, 0.021914113606017034, -0.008392782209048572, -0.043701898054688174, -0.009414447183663193, 0.03963372072086685, -0.07436479234245826, -0.0366263519770986, -0.022429042635541956, -0.043980327390406394, 0.07997645507155193, -0.013838239049694497, 0.07510313121427502, -0.06225200745011684, 0.0059921578315745416, -0.008388967397564576, 0.045743934926285534, 0.001361803530867827, -0.024088402196568593, -0.0026799513519800296, 0.019857845926351106, -0.06278799288777642, -0.06569662811596992, -0.05661846432381144, 0.017327630407026864, -0.11913198078968629, -0.047286815528119995, -0.020207565995642995, 0.015831485832130725, -0.07186137116592108, 0.03363630308594085, -0.04428945708449313, -0.013171704674693837, -0.012280955468833227, 0.0754801215118034, 0.03564137495682208, 0.043002842918715756, 0.026377357784983884, 0.047338620503839385, -0.010465045696025025, 0.016342019620176552, 0.025265494162691256, -0.018490752737257376, -0.017437952135337362, -0.023007335366125526, -0.017025156238975388, -0.036787168910984845, -0.02001740125408789, -0.06185988550068137, -0.026910478230017035, -0.023731216646586877, 0.046452137629319754, 0.015790072544852325, -0.0014043964873091152, 0.038302575450840544, 0.0076774653648551405, -0.011689947910966074, 0.04309909947871951, -0.08102904775681144, 0.010675985893388676, 0.01699706780055313, 0.0032981085733605683, -0.0012536085255474517, -0.05636469806679712, -0.0011222394465785902, 0.03512903312932581, 0.03850891537849622, 0.015950620582792847, 0.007968372626159539, -0.0011202116953057048, -0.044711996355241014, -0.004205433776196119, 0.022124382240833077, -0.07069243924272074, 0.01108909008492704, 0.010417552186066908, 0.06320826625848718, 0.005142391039589315, 0.027486808690087437, -0.03238766159234989, -0.029375962016464675, -0.044459092205866343, 0.04354206987948914, 0.06989094101062222, -0.050168938136161474, 0.007833094368992792, 0.010278481240937914, 0.02532859989849079, -0.0059144131936177315, 0.038427474686195624], [-0.03813994817783512, 0.028536262882612306, -0.008941239319544018, 0.0382702210397552, 0.01163584103195486, 0.004090679819522697, -0.05497349373359351, -0.028692393653029263, -0.04009424447697239, 0.002911722156578805, -0.0318001526260325, -0.008557481668104008, -0.04348420271269283, -0.042291858530248354, 0.00030624726047856894, -0.011939177653424152, 0.008383661084071401, -0.013108312913073955, 0.012472098752218795, -0.010932502985114752, -0.0029383321297892524, 0.07582957255188985, -0.055380073261011735, -0.05126418959334254, 0.0017269709155121888, 0.037218000027708906, 0.044361779940146125, -0.03330257571562929, -0.050317153623430276, -0.03818172435984135, -0.04706194642852442, 0.02577423285654438, -0.0494383539672344, -0.057367251293386406, 0.04379735338138216, 0.007784272990111201, 0.032079244785121815, 0.019566930889543456, 0.013593490210506404, 0.029058816314037315, -0.009888590738853783, -0.052911857304986334, 0.018008549531493563, -0.009341479873571475, 0.043614835282975044, -0.010282176878437153, -0.002283831362320141, -0.006601851944470934, -0.038662170170816024, -0.00031502341867010016, -0.01668136982157713, 0.019045945809771803, 0.012334244821643315, 0.03887768300655731, -0.02940242073337175, -0.03469721830889795, 0.007345535277739922, 0.011900293723023394, 0.025633310246355248, -0.0059131574088259805, 0.022967519830735562, -0.006784043577076801, -0.04569144755367076, -0.042284649227727615, 0.006785388550755953, 0.06107060343337961, 0.017537631045288878, 0.003919576642023798, -0.08215950061453253, 0.020553000383939833, 0.0350263037209432, -0.032980464597321554, -0.049917784364109825, 0.026986256210639988, 0.027025577203552417, 0.00036033311862287336, -0.016998880175993922, 0.006397521313926651, -0.01784493759520476, -0.015237730717782188, -0.03887606034080455, -0.011506059830245169, -0.05520037373334477, -0.0002278402919759397, 0.04122032994218745, -0.0039225238332502325, 0.028729486524202163, 0.0019141379182351895, 0.0587398581074982, -0.033097353453238956, 0.01633444813776871, -0.010925685444256214, -0.05945628694539408, -0.06469486844678048, 0.021018282150026945, -0.017308391838581516, 0.03521361277081851, -0.021840118851801826, 0.03491321759582528, -0.008784973185327189], [0.02069127871352366, -0.028505165778183832, 0.06565864482461163, 0.013987414597358581, 0.03803480911181214, 0.0060028920740476535, 0.09447428887444509, 0.021103221136984963, 0.051006072120232435, 0.023095960131713857, -0.02814775530217216, 0.0014225805725087005, 0.04422883821937816, 0.027551879099956128, -0.02233397206499018, 0.032663796555174054, -0.017594552659889857, -0.06585962377975418, -0.00563080713326113, 0.06262515620487322, -0.03418362434277383, -0.035183808846689486, 0.013838868661660385, 0.0390766582147197, 0.01009943488128834, 0.018893599732406955, -0.04183310871772198, 0.007204233196220412, 0.03650206170727319, -0.0038845984382737076, 0.02286574885461785, 0.0065158905601080674, 0.002363507389000251, 0.02395264483274458, -0.03955145158845879, -0.015873595125004598, 0.02992465697614494, -0.04966550954482565, 0.024757157995385092, 0.0168059940607457, -0.03849106016006906, -0.01434392437802604, -0.057063735305031824, -0.036699855545320716, 0.029340375967564183, -0.03169023843954549, -0.022736687679136214, -0.058325248731849716, 0.05826900272158916, 0.08257523433692812, 0.06684610886897868, -0.003834414970430216, -0.033692150507216266, 0.00618503275286835, -0.07071682367388624, -0.012751322323821437, -0.0030995400053925046, 0.0057300477172276655, 0.03012749574583315, 0.011413968844299483, 0.0012389435458129464, -0.0020075950241568528, -0.04738924147101679, -0.00849704283087783, -0.01562079388255499, 0.013387285783511088, 0.025818820172998424, 0.061194587231720145, 0.03972032902526708, 0.04636123708688714, -0.008740187783855075, -0.0008968557668173657, -0.05209531119416927, 0.0014533037253789275, -0.005916589282192188, -0.017252695619053217, 0.031786278882685357, 0.024736712097287446, -0.031328678991676816, 0.01387130747007462, 0.058340279667517154, -0.022415301535830136, -0.04364482323523835, 0.06091083434382514, 0.02731037258811937, -0.03242438295142019, -0.038281892501913536, 0.03829206615502008, 0.05133806820053165, 0.026865523893175324, 0.03566236761730382, -0.004196329832351799, -0.09828109729762284, 0.029989229390703958, 0.014480303571804598, 0.010584502694720267, 0.0038148094628670803, 0.051789577143837306, 0.013062515054602796, 0.011815034048331329], [0.08639270927566789, 0.035683903813857755, -0.06622879330231057, -0.010073754898075335, 0.03307545270630608, 0.012314538326778798, 0.008351371984569665, -0.004684371326337075, -0.02728286404923779, 0.049972211253826795, -0.015802871092303154, -0.005180613812350104, -0.10454378973435999, -0.05054385433892709, 0.003714505341423215, 0.01969330228717542, 0.053138261098030264, -0.00752150224259291, 0.00707551745031674, -0.011273213814852205, -0.0048252094143885664, -0.03593855244430467, 0.018357169774566685, -0.032510028674466396, -0.01284589305900525, -0.01600407973554398, 0.031483280027611645, -0.04977899327973345, 0.02767016164409281, 0.01395709886252412, -0.03724088006921818, -0.0250023711660047, -0.004064198763907036, 0.006263118368116533, 0.015895391058242062, 0.04521445591592232, 0.03237582697464636, 0.030507690018632037, -0.0005869070210336562, -0.010834990821415912, 0.005554694208369415, -0.05261102412920521, 0.023061479573578177, 0.009856614947674282, 0.02740188880007885, 0.012414623883956956, -0.018578663131635434, -0.031225274407315828, -0.037076565954195354, 0.020721966406741107, -0.0157578999667377, -0.02327497698644323, -0.006925537831500025, 0.001342503565532151, 0.040584013722374135, -0.05766240299277469, -0.013460959548435073, 0.026787784335039703, 0.038465618753140425, 0.028847943358671482, -0.0686835409211192, 0.0169410977979473, 0.06288769763827992, -0.021205735509988954, 0.0036278884495513637, 0.04233930708721423, 0.007132385080919968, 0.03668323730803025, 0.005899591436305774, -0.0020633936816424887, -0.04307063769788653, -0.00014061406294522895, -0.016094249214051212, 0.0068429190796940095, -0.007684029747071319, -0.0059822632356868214, 0.014102819157531228, 0.0039525754129092205, -0.025788134669256602, 0.03433290940877616, -0.03511373194190457, -0.006305903424588266, 0.052780308822245894, 0.013699749714709018, -0.016460322194773155, 0.038089699680677, -0.032030056378427645, -0.04811769616483421, -0.022273051378189877, -0.017475323210286626, 0.012652337258913468, -0.058691513213052215, -0.0007069544763429745, 0.014678452057613997, -0.05804843150813159, 0.0655717135476392, 0.007557740259499645, -0.034425737040761684, 0.08608610400607229, 0.028393120858000224], [-0.030682225364485963, 0.046843925611421054, 0.024047012085734627, 0.001671205235840914, 0.01563329239256706, 0.05406205555706557, 0.03523291861798534, -0.03092632097798943, 0.005107059169286872, -0.04236194446953181, 0.02187911229821634, 0.0011012965369979373, -0.012474033876093495, -0.021287896268873324, -0.0028447973124263153, -0.032683719798699454, 0.04001187888890041, -0.0636010881786433, 0.004592489999470837, 0.047823131083567685, 0.03522312915884809, -0.05715928092608006, 0.01126296424370309, 0.018140064366172624, -0.020562554824184866, 0.052222301657308505, 0.025410306245615338, -0.06076594929171691, -0.04072092489146585, 0.045128988417890266, 0.03066374785003438, -0.031704401003113385, -0.047461341800023156, -0.0378184463628442, -0.011499424241585284, 0.010526929460092779, -0.0465303672125711, -0.03780362930089005, -0.04996460840979631, -0.05165253729779676, 0.0010189895254299917, 0.017132720356061226, 0.01576272184728525, 0.029034123598311257, 0.041428266930518855, 0.001957627430225879, -0.0645185634668086, -0.0043097588012214975, -0.0051266944251832135, 0.0025944618911518747, 0.01031657158761108, 0.021756658595525166, -0.0018513405697816957, 0.002214457841288406, -0.06640553522773376, 0.0006243295316301125, -0.03096634450983042, 0.014012119367347961, 0.02746914142268376, 0.006719072418539635, -0.038982283965487065, -0.02067379632445616, 0.016460413274288467, -0.03340119358091221, -0.01312782787450715, 0.0599422833739543, -0.013800150731611437, -0.0060341244169629, 0.06371413935433762, -0.03489563115653849, -0.08129650928340475, -0.027858248776770348, 0.05092566469335506, -0.00010850923641496654, -0.008738057410200829, -0.00941042011597381, -0.02123333210863113, 0.09924113302593407, 0.04008419098415647, 0.03529888148046982, -0.025705153596142036, 0.008818782496254583, -0.0032505674388176964, 0.028825988402678734, 0.0021613995335617274, 0.04995726389141894, -0.062013619143775595, 0.04414856721593653, 0.001716708307508311, 0.07131036037233107, 0.043392236884315524, 0.016900827954160758, -0.02448511373193796, 0.0033323974853548275, 0.02017540360613832, 0.04858302109799282, 0.028845026066299063, 0.017575751807541985, -0.05760249668388001, 0.014642287268604655], [0.0680305009766336, 0.05166321933339529, -0.026423375508687185, 0.054326556513611346, -0.038642039123913, -0.008471795739242467, 0.06769520385435397, -0.016162613123370674, 0.03478719875015309, -0.005742832505333752, 0.05710910658857921, 0.05078200821408438, 0.013986152428768585, -0.038191095056838514, 0.028204062946167213, -0.031098225634155673, -0.011061157327016135, 0.010206449285282866, -0.07117437794336755, -0.0700662884288898, -0.013970598112712873, -0.01180807052927255, 0.056820063157593574, -0.02315095268698275, 0.012301002280372616, -0.027043014914732908, 0.07460650251543983, -0.0019193704504726346, -0.018563655481224503, 0.01844285306174167, 0.06016487524741418, 0.005605995231317626, 0.02145267408863085, 0.0147437771125618, 0.012148310149760767, -0.04818423168664556, -0.011650838877106308, -0.004334778515395849, -0.007236039603028276, 0.037060591318808234, 0.033748634005519376, -0.004107547023012903, -0.008804884312993758, 0.08375198085575601, 0.07590150240413397, 0.0504851367028651, 0.020201764275074998, -0.031433467192005286, 0.0006268290652785258, -0.02095047247679396, 0.008705853981345078, -0.039160080917637306, -0.03657822356488677, 0.05013767352823062, -0.005506822794029086, 0.005699524811840822, -0.01177154399671291, -0.0280512188204189, -0.0322953064689517, 0.03204416120997274, 0.026972419418498143, 0.004074917485890092, 0.011828197274531486, -0.031037100700468022, -0.023096676021491597, 0.038768448431593376, 0.02611980386811086, 0.047828080166450314, -0.01563845624116279, 0.026664628969551765, -0.03585594385714802, -0.07738807640891818, 0.018184493425121195, 0.006271083949726839, -0.015696258269605776, 0.004947949500695368, 0.04674191662195679, -0.059401862309558476, 0.012105493336396225, 0.07556113062103625, 0.007731677120697809, -0.03207827525109726, -0.007284126157327547, 0.0369026440038299, 0.03346000671331943, 0.007644875199204313, 0.06553155139181654, -0.014905838564875528, 0.013113270816745633, 0.02893486574579248, -0.022086665355038938, -0.001496036739765164, -0.020966430439420133, 0.07773998041982612, -0.009831626024923384, 0.03811428744956052, 0.04897577861009513, -0.06157512995083134, 0.005645954367051473, 0.020538512779289152], [-0.005233900703821556, -0.0703620417715749, 0.006659502648672999, 0.034409126225154664, 0.011100369487106434, -0.0040118140573636475, -0.0030666507654019434, 0.009925033660703953, -0.0007031300791432767, -0.01058050309852175, -0.00023884048518492754, 0.02044376007942458, 0.002968936798694863, 0.05139681981292497, -0.006106353869114721, -0.03611675064205035, 0.0531588959120601, -0.019532220692423358, -0.04101430814217269, 0.06011081895060694, -0.023026893624240093, 0.0482544385290992, -0.03470959611515996, 0.014005642393847056, 0.045088696396133554, 0.0558761618188239, 0.010852777256432937, 0.03253424547932247, -0.017333223093032597, -0.024047837916449682, 0.039343755454740226, 0.027083580225924723, 0.011399821986010797, -0.0016966675971256168, 0.025489475025075353, 0.04001714440358444, -0.016716327613525452, 0.02702430564846778, 0.02488727162028352, 0.04314525328818933, 0.03916147369391271, 0.009273454040508274, 0.0010507493731239555, -0.002485111086867586, 0.008428443299016446, -0.011892424299494426, 0.01626345529350305, -0.03248156528780381, 0.00040800726533978676, -0.0376751105339305, 0.013382616170941141, 0.01676956416440795, -0.025260478737537572, -0.07903910045710374, 0.07048987394546562, 0.0007472283817182852, 0.02150610107937115, -0.011432820510268473, -0.025482729565809558, 0.02515985511816126, -0.025582325820656643, 0.007244825805075094, -0.03467904737761, 0.011540855734931448, 0.0011031794497819304, -0.030383068353680813, 0.06671032041706114, -0.04531081719836901, 0.006353423172281404, -0.020038721354121988, -0.012454797444429743, -0.020177849705973062, -0.03017930825820416, 0.021825858252879766, -0.087068652812053, 0.020992121833714936, 0.006033361283350064, -0.04627448094043434, 0.023531461647917806, -0.023165352379576523, 0.0061743561922991234, 0.00521393540136305, -0.01442578313118272, -0.023886552077625103, 0.03608560403464836, -0.043613526762730996, -0.006909934836450396, -0.001375378798028303, 0.00553421165610097, 0.03159061243682952, -0.01628236025960536, 0.009234686084758026, 0.012970834433932528, 0.017245841047965633, 0.009142951758866738, -0.04780259729914429, -0.04981910911646643, -0.05454212853786525, 0.055508183808588296, -0.0035813513593828186], [0.025667621585891115, 0.02543241332538921, -0.055888124345063614, 0.06266794669758276, -0.02762365132251724, 0.05254311708858206, -0.07208951109536449, -0.0387062742184041, 0.05873771334852775, 0.02787015136190828, -0.061530740942368316, -0.036461152053767404, 0.03657389657943566, 0.012753897816384535, -0.03221404025520047, 0.01757039795252244, 0.002460118271248982, 0.010322263425207609, 0.023052047440510582, 0.006003072578708924, -0.00896209014005677, 0.03734353832708118, -0.007543048907702076, -0.03713343316283834, 0.11003742542185053, 0.022504127871778412, -0.041999061395995664, 0.014398732232842935, 0.007097113771040728, 0.001483197296989176, -0.031387822245138024, 0.0007463562522379275, -0.004682696951643558, 0.024660531587517884, 0.001196951346042798, 0.01639441996374333, 0.03680596198364883, -0.00032481997298462604, -0.03500259711136361, 0.0047857204376607195, 0.04459302369776162, 0.06446097483705275, 0.012058287939870311, -0.0034031225744160843, -0.005299364235305482, 0.023996473266856513, 0.015297492193814308, 0.011539159317241586, 0.02489168744134094, -0.013084198402736896, -0.05074873709976033, -0.07002705650788484, 0.0049065061774637864, 0.012635278472280829, 0.026254196816127187, -0.03072956952018744, -0.05275417866500882, 0.0036892789308795378, -0.04222548018961145, -0.07156735907560374, -0.01414108049565333, 0.04381208558689156, -0.04339072923402494, 0.0048694244478294495, -0.017601868711501125, -0.032523066045829135, 0.03895601615408013, -0.0022608407043457493, 0.012236100337335291, 0.027318322486984136, -0.02515067578695067, 0.028985050032514333, 0.04502974018765083, 0.021059977531191335, 0.04400714382090495, 0.028984681961040055, 0.0331435384836881, -0.08386645406219369, -0.027913318257102894, -0.025700385467730295, 0.02888721808426432, 0.0479074314989158, -0.018216964309582043, 0.02867602797667408, 0.04875221784531864, 0.03260766259420033, 0.05985204043578056, -0.012795100632162918, 0.015225012616883415, 0.004425821595702017, 0.015640039234884016, -0.01216578071804445, 0.0509175353248454, 0.007429409752803331, -0.0006865781241724634, -0.004099312690824819, 0.014499979723032783, -0.04798569094590443, 0.038086354447799335, -0.013292002812009646], [-0.022816449228660177, 0.04634152691063981, 0.03694919125437914, 0.01750094553526954, 0.03662087431453693, 0.04034531858892571, 0.00877674032328901, -0.00916153124566841, 0.009912810712529196, -0.01015570380819243, -0.02234437984021541, -0.012117473731518157, 0.01369893011671866, 0.060334510528869484, 0.023189546972531307, -0.008127965563331108, -0.013618016142482968, -0.045092569934453645, -0.018378399756642166, -0.004066549917120578, 0.017809361037030423, 0.030875969356889774, -0.020777304426125853, -0.07877942768933716, 0.022298252003740384, 0.009098989559236189, -0.026453656651352738, 0.026667235308138797, 0.04821324881141651, 0.022609965194024605, 0.03533162304214719, -0.02547593262835301, 0.060406162609879854, 0.040134182104088145, 0.01809617342119194, 0.0012538792198355305, -0.004303964376050673, -0.010121315912605055, 0.04623992254642399, 0.029713483239125812, 0.07847008153960751, -0.06670991149359712, 0.05847647908594465, -0.022347044200620017, -0.011872681509531762, 0.03626776370243669, 0.025874311859676265, 0.0019329500626415186, -0.0529695452692068, -0.011872305051125423, -0.003451046730784391, -0.01172718833337372, 0.04780339023807687, 0.012256258821178695, -0.048784825940786446, 0.09179515834936096, 0.03137554222785996, 0.0363995614747947, 0.04413730922477012, -0.0360386155631648, -0.11354380549115477, -0.004696320964164906, 0.012670004534486272, -0.0720056982720337, -0.032623410321366425, -0.05527004057101481, 0.014164044106366833, -0.02536767806164161, 0.015387086996148262, 0.08424526636376306, 0.04630250228539416, -0.014920567430325974, -0.06242001147025744, -0.03407427361891996, 0.04785155919528304, 0.011407814187160538, 0.07030188049981528, 0.04992782186533807, -0.04470682472148003, -0.04630796748365361, -0.028378945845156465, -0.022908004723645677, -0.06012239357530058, -0.020239149411931903, 0.019144172753545713, -0.0219714486188576, 0.05462033118953071, 0.012992968453364862, -0.024419489742111833, -0.003524074416190273, 0.021571014992384344, -0.030312112353030756, 0.07001666616998779, -0.017590235131771374, -0.0025364992946893803, 0.0022222719223851557, -0.02002763661145521, 0.010179676536613192, -0.00610206278979782, -0.004412636498021763], [0.020104205654293106, 0.02268682957197397, 0.03515976235278584, -0.02898794985777212, 0.05166807315318765, -0.0688715041645176, 0.06578788777587083, -0.002126664565330909, 0.04479734431231084, -0.02130161890942792, -0.05757792131591031, -0.004366501109523094, 0.02837548313959336, -0.016782976822835416, 0.056305720221248766, 0.020957922018116828, -0.027216866733405936, -0.012952081128893168, -0.04209265723113145, 0.004924238131991207, -0.0456790250071734, -0.0015310238073511563, 0.020209383574985026, 0.030575811859951636, -0.07010251257635569, -0.026801144514076, -0.026617187088773933, 0.004943905751678909, 0.02036457447536678, -0.01814885733881751, 0.006633689104679026, -0.007228382688490573, -0.021180640916562563, -0.033895177210088785, -0.0020772798561011475, 0.09044322943557236, 0.021535179315624754, -0.011341385781499895, -0.04496397476227866, 0.062306378819026675, 0.07469195010467661, 0.009179870346495178, 0.011000106603410402, -0.008418330660712414, -0.022253739228879264, 0.041520506312982694, -0.03076050035521564, 0.0206367709861377, -0.03637638090367874, -0.023739458335139896, -0.08405322232588908, -0.01355506940863036, 0.0026041147173293576, 0.027228686099413226, -0.034364834166351256, -0.0671803942673467, -0.047122178261137224, 0.03813668341404803, -0.02082913418911334, 8.677218407005884e-05, 0.045806861628481625, 0.028648635517665534, 0.014298056524733623, 0.008964083770026934, -0.013512103370826247, 0.0070459269482934525, -0.029949393322694837, -0.03926615198139866, 0.02601969958609982, 0.015855953512356812, -0.014812358527266296, 0.012488712851847448, -0.06503997197983202, -0.09875677245144665, -0.00409943023677035, -0.046876107756277936, -0.03830615965833087, 0.013695720274250473, 0.02456812971538453, -0.10272135678513777, 0.00050792393865905, 0.09307268489417063, -0.03377668981353083, 0.020180070094267834, 0.04096750961090969, 0.01568138288574205, -0.032466283800411715, -0.0021462658349009644, -0.014111301320913936, -0.011528504213389244, -0.06559852362415976, -0.019901571433151567, -0.01975659816951684, 0.03212519380041204, 0.04414296865921026, -0.004556382938174094, 0.015476279669550076, -0.017362661407301395, 0.0825550014546397, 0.011800559526044824], [-0.03016928658098026, 0.02601126628495749, 0.014717986984817057, 0.034053703981267495, -0.011052396821781687, -0.023822905078472414, -0.0001589434352566796, 0.010255636216050967, 0.0006208715443354021, -0.0009384647804046674, 0.00041890421358479124, 0.054820697091495924, -0.03741327264005368, 0.06597194537915638, -0.0729278923064544, 0.046567373263671434, -0.025656706329912096, -0.061927202376372927, -0.024377757472319767, -0.012220373558015054, 0.0650852216995709, 0.0001140532404941286, -0.08204802659676202, 0.006324108347666709, 0.019947372947652888, -0.04018588336315152, 0.007378951541551327, 0.007915322671880625, 0.027387563039852576, 0.03176932106511192, 0.06003557394453564, -0.008560520372047579, 0.032916284424444255, 0.047258581256333004, 0.014051450268759522, 0.007642046951821318, 0.03112064539172454, 0.016375055543163403, 0.0052942384769374615, 0.0017847896780153454, -0.010565064629134898, -0.012923580042708136, 0.021986622891159605, 0.016477556646960483, 0.014263057009041713, 0.06553304243883833, 0.05348695699594319, -0.024555479269905416, 0.0013219898178308874, -0.010942064648916998, -0.04356201439663148, 0.039248036142422206, -0.004461416189713797, -0.05021906953014351, -0.02908016319874662, -0.029203223221751392, 0.008332340845301624, -0.03334983771647268, -0.061767978685094774, 0.007667619945258123, 0.02340278153756804, 0.0052685480703006295, 0.023894874579342425, -0.022027736336755022, 0.01931894186074472, 0.042163778586063495, 0.03882585226150495, 0.020971824024527526, 0.012348890747830406, 0.03046786125139317, 0.08171560693257501, 0.047627294588197484, -0.016937154363037183, 0.015087761694641539, 0.014954370139577377, -0.01095564069578966, 0.018403632406798563, -0.01840946219991209, 0.03051658976072118, 0.06346961632541741, -0.018948300784285096, -0.05311832338877964, -0.0025113244485902757, 0.009204316491259792, -0.06308439520525547, -0.00889194881784215, 0.04763105672783133, -0.06445989525239679, 0.006725158262743002, 0.04890949549813792, 0.0047374770359770715, 0.02048155236350128, 0.09712731082497929, 0.024002666740702873, 0.031325493411933816, 0.031801209780394336, -0.019469179553249918, -0.024609331109189628, 0.0010401627976650625, -0.020695385999808392], [0.013315492469311248, -0.007906195671420427, -0.0019464093388098312, 0.021944304073948318, -0.01464880168395113, 0.005511454934238998, -0.010988712833423021, -0.011687441376355488, -0.025342995012725095, -0.032962175379054215, 0.019523944476652656, 0.014020869996888957, 0.04184375443110427, 0.028702862116844054, -0.01707557852492601, 0.05755139078378023, 0.014296187400694684, 0.05919013400042535, -0.006677306832638287, 0.06106704263869183, 0.00675040230122427, 0.004540669377662557, 0.06774148511045505, 0.0977323658812417, -0.011351165853730052, -0.01594332015150985, 0.09167164136276021, -0.02168315458938609, 0.02500312734246974, 0.023472466579668325, 0.0224917754729104, 0.021361583319625004, -0.028679786534303888, -0.061211839669021134, -0.01437716193100334, 0.006336664356555994, 0.007323503662084806, 0.019651128970859428, -0.009127079952298629, 0.043334865371697874, -0.019068047572588433, 0.015149499485309977, 0.018401364929293836, -0.02280029475053733, -0.00943529622245363, -0.013965774739051296, -0.06686641013643171, 0.01463057948190426, -0.02380781429869608, -0.07221052601557705, -0.04800738315529511, -0.022467450646417923, 0.08719842300942948, -0.017939425662788288, 0.007773582299110044, -0.02253140744400194, 0.022596976687172483, -0.003442399676775585, -0.006399147709437638, -0.039946401351380514, 0.005032533150293592, -0.024283679715312676, 0.08266261890824353, 0.04358729566466305, 0.02812240273530112, -0.05199794233175096, -0.008057206942455888, 0.0668408883469176, -0.04204284659587368, 0.04440720641364792, 0.024773267122461175, -0.020276916800409574, -0.0254611737642824, 0.0282964212605201, 0.04146261493858909, -0.031505724329211844, 0.05455617527057111, -0.0006445511252029207, 0.015518135316765446, 0.052262416137406356, 0.010338282834919865, -0.01777108369286819, 0.005280037926583872, 0.021253370768589464, 0.0666694473964144, -0.06012719576920861, 0.0483992071706777, 0.009561586314609832, -0.04128572203453165, 0.09958884618065468, 0.012844635848138627, 0.04949850086113871, 0.10050630279418325, 0.01573099535014057, -0.022408831931587565, 0.02242650970077737, 0.013418181354781473, 0.03776921017274664, 0.03432200755226133, -0.05674842350099899], [0.01895717850269689, -0.015076137615381638, -0.006728524876184152, 0.031994878300205185, -0.021868147639934037, 0.04234821860148624, 0.014168889818138413, -0.026483662866663423, -0.007807517285930991, -0.046087543713133255, 0.05356479984266123, 0.018547198405585115, -0.006863044303036931, 0.07783780305325799, -0.02874028011413741, -0.005332355582395764, 0.004686260830060191, 0.07388495674907342, 0.021342003297084442, -0.08194410473459886, -0.007448492870477938, -0.048475785810389936, 0.002666920047773852, -0.03093080551946156, -0.021925815796509825, 0.026760605783224548, -0.043298151557263805, 0.015303317078496925, 0.0070298084048189165, 0.0009315369995694256, 0.009802238539189313, 0.03714198562037426, -0.02131357581515398, -0.01966405378864745, -0.00957452496141579, 0.042989658137353066, -0.014678371072389578, 0.04239931078061552, -0.040177357000149, -0.026096165743855638, 0.026872549866229826, 0.017847453676227885, 0.015003987152494647, -0.01410336269270246, 0.00271155918612744, 0.03914765659033155, -0.0033301500620227156, 0.013999620889492222, -0.03056806357441406, 0.01200201794062065, -0.029169305623520284, 0.06862745876181611, -0.03909236385136457, 0.03369086731456146, 0.047450077569346924, 0.003130720044943196, -0.009129631640250411, -0.009372860280713612, -0.045084249769761775, -0.00805569562894608, -0.013072111552433055, -0.010154747717093774, 0.02098203982423742, 0.028908287894205662, -0.018379056180613258, -0.0020616529772330603, 0.01964375311485038, -0.007848838561703568, -0.04787832795378664, 0.020829795485475457, 0.00694752629639988, 0.006546789188213344, -0.03744988390345893, -0.05595888198678053, -0.0482455274648672, -0.01957048395091029, -0.02243586155079887, 0.039586905126263595, 0.012650308770487366, 0.03661669786163286, -0.05275655377855709, -0.002922974364463893, -0.00845580586695287, 0.03653570414993312, -0.06405715640958994, -0.011694733867819395, -0.002270996452411538, 0.029982307418546898, -0.012287395889551274, 0.0024060142718279093, -0.0071037625923606644, -0.025907289993822073, 0.006350439503371329, 0.01351949201746055, -0.06136293695105491, -0.023427788407561437, -0.0178806678521173, -0.08312511422496492, -0.05944678791744714, 0.02477338916860394], [0.04722962686044708, -0.028594453719794764, 0.031032704179253915, 0.03141885566475428, 0.04682102389424732, -0.026623468531686168, -0.0033883077231515466, 0.03756112480621627, 0.03913170779169206, 0.0027653636964749496, 0.007186088285192167, 0.0601438128719806, -0.017708962147260168, 0.031033299386637115, -0.01155419953548576, -0.03651713632604472, 0.005371775457691685, 0.053215331727844206, 0.04217264240007489, 0.03177121711023147, 0.00941281919695653, 0.016377663472624617, -0.016869036124333457, -0.03215134651868509, -0.03168610386289694, -0.0547123749939358, -0.016138513494998587, 0.007604079820596027, 0.051981969950133114, -0.05123419323548884, -0.021249407400404048, -0.032194082631754134, 0.0432391631051666, -0.03810183559408659, 0.013991244072805496, 0.003226549689135129, -0.04134162263293851, -0.007599201124858129, -0.0005703029523245731, 0.030514594221483015, -0.06638114684230573, 0.10998513895381884, 0.08359969791747825, -0.011851063203387139, 0.0035629103948268087, 0.053045291015741076, 0.017770024211802894, -0.06490383034327236, 0.04934540284204842, -0.05324853113425824, -0.01673874686429862, 0.06489586917003452, -0.09026270854798717, 0.03497468593780219, -0.07226475163747134, 0.007001018719706844, 0.04623158146339016, -0.008430576229418204, -0.014661964723701694, -0.01653362662572529, 0.026849129211992614, -0.022261308461001855, -0.0615462644194509, 0.034663886034351075, 0.061118730771530454, -0.0034229136323171917, -0.03167700314381681, -0.005989547345552218, -0.002261204385594162, -0.019719759835608506, -0.0022680002867316554, 0.03509492073058285, -0.03211578595522436, -0.02046152876927431, 0.01972355488060351, -0.017870025013463124, 0.016304886539057976, -0.025520435986187345, 0.025012986220820366, 0.0642264198713727, 0.03208885574149032, -0.023354025377248514, -0.002172149945034255, -0.03329036245364751, -0.046654097083682206, 0.03419278641142043, -0.005598768362197106, -0.04066417732053009, 0.0037781637101650953, 0.04510857163324205, 0.008152205559201557, 0.018223644389613994, 0.012330444335489079, 0.07846522344010322, -0.00036473593247429524, -0.014014089251054648, -0.01946874378051777, 0.07346143649042619, 0.04872683166542828, -0.018131160911678223], [0.0014814605059481872, 0.022158779804303773, 0.008266538761612159, -0.0008128957415522218, -0.021040814410605433, -0.03454142081012177, -0.044279826029428454, -0.09617617688721175, 0.018783460095568406, 0.002658217516978046, -0.019788505902218728, 0.0074222215452516786, -0.006584374830122344, 0.020877333381764424, 0.0227551681856992, 0.011896615252117696, 0.018652021306237596, -0.03635360476966746, -0.001666567443678085, -0.022981508610416198, -0.0024218476700165648, -0.05389765731554972, 0.012440361439599527, -0.015002452475512414, 0.024629226131686697, -0.029427274102079515, -0.04770061960622234, -0.02818424426005972, -0.021950418495093958, 0.010749950065468352, -0.04617222638000327, 0.008914529339748845, 0.01362468342653517, -0.03641200440513577, -0.06229809819245868, 0.054016673373434194, -0.017309455320078708, -0.06095377974585814, -0.021966753690693747, 0.007416458853546073, 0.05495320295393007, -0.014331230411060294, -0.012842853853677505, 0.046169128837367665, 0.03953739296103596, -0.006593510387556121, -0.01813034697045522, 0.008685190336786892, 0.044076801879984015, -0.05531356969898192, 0.0022230738115694318, -0.003977400020119562, -0.002897609194465656, -0.006733280140991643, -0.007580927311052541, -0.0002978800276132622, 0.03150715168853054, -0.004923868209550343, -0.057136764080609186, 0.016242334988931538, -0.004166169347568437, -0.034374454456375554, -0.04493148495849335, 0.006241104969380467, -0.03789209215556603, 0.01588162116831657, 0.032161644948498554, -0.013477916509960636, -0.024509213744911048, -0.012072686296863679, 0.0013548130064828193, 0.018445725158730174, -0.02103211775970923, 0.012769283971760196, 0.019127910953116348, -0.06903231256205222, -0.028074477788814736, 0.01040529081915748, -0.0063030481653608755, -0.0021325726455686243, -0.03963654760468773, -0.05165040879080117, 0.04422805149002124, 0.049795904994200564, 0.02742169564534464, -0.025246485568180453, -0.041735443950305845, -0.0163590401811454, 0.03692915652753552, -0.007975656846330236, -0.005830966761131779, -0.03975058493055383, -0.02781339244582668, 0.026513948997989357, -0.02535675823917275, 0.043823245267146003, -0.07113895485783413, 0.042972761277173005, 0.014335543527198054, 0.01692955817230285], [0.021731719633377014, 0.021901121668741932, -0.03723923669033427, 0.04162998978491108, 0.020860317668356495, -0.010783484353126031, 0.03145302663458647, -0.02230997471060506, -0.006562265275264832, 0.017239327099599175, -0.03231782499612767, 0.013197579403290145, 0.03845498975113691, 0.061835298465759525, -0.025195115225408477, 0.009613800400852707, -0.012765842060767193, -0.0318762261739288, 0.008273293629545184, -0.04219060282389959, -0.02573182241760883, 0.03220039576353408, -0.07233615116689603, 0.024206616350782972, -0.03041507222143845, 0.011722533418192549, -0.01025634179336273, -0.01865478938404585, -0.010364871334823226, 0.024704638897440706, -0.03667949533516573, -0.04878963652486925, 0.03464371724051992, 0.03721923800341782, 0.012572477175528552, -0.037443457329850806, 0.007621114350228906, 0.002885814296154326, 0.0675821006912993, -0.000300155118025726, 0.010480584028361512, -0.0023424866547025304, 0.035832850635490195, 0.02305602014259739, -0.030118364809328668, -0.0046535908176626554, 0.01600154657694368, -0.032814829773273685, 0.02428230528478929, 0.01296207342296468, -0.005842465724816799, -0.03594886483991655, -0.0036670064859624387, -0.04002177437646329, 0.03924800487837957, 0.010333919362515284, -0.02256526509395811, 0.01417081708813917, 0.03399227871421694, 0.041745311791045736, -0.019648678579374378, -0.09013942768389079, -0.00936279693106198, 0.009441134926905844, 0.06395038394612894, -0.0455370062849562, 0.03980232111021498, -0.057154300825060136, 0.015383764648977156, -0.07441282802654939, -0.025484843399730176, 0.02945414964980077, 0.054739587989864856, 0.04511859311302501, -0.0033023101211576266, -0.018301739364477706, -0.005030753945022076, -0.02227154014745027, 0.04589302274231526, -0.0455121779629848, 0.05400515382377671, 0.016155968273504115, 0.001160285782085593, 0.003755336568602477, -0.028345073785711005, 0.057013367816669575, 0.06509096124310204, -0.02060198875398041, 0.04946356307608692, 0.02927184014855221, -0.007270514944932813, 0.03245323283322235, 0.04296635301958982, 0.002613259645938762, 0.015965158322299004, 0.05026128881669531, 0.017699131783486814, 0.01162537524998977, 0.043784122895449, 0.022548266264974103], [-0.03653438698226439, -0.031519997643209154, -0.06520628938942175, 0.041353585316138086, 0.028180672066453208, 0.04019020089254717, -0.02674238454523075, 0.02398951323151906, 0.008845090739360318, -0.08039472187806068, 0.037945791841234866, 0.04583284894575148, -0.05535108500301824, -0.0016737515008438105, -0.052765816941410734, -0.009454564522315639, -0.020796319886692897, 0.01911180996002572, 0.034829074259977895, 0.013479689039261037, 0.02214609972854657, 0.02980993363276296, -0.054836043471038404, -0.01517400116060423, 0.026557531325635642, 0.014391189198480888, -0.042941410897253875, -0.005628487706854129, 0.061593187238826376, 0.0013538261970004275, -0.026774215149434972, -0.020897153606587723, -0.02288893246034491, -0.09069696807635004, -0.037306153228880694, -0.01874003187948501, -0.010347961726249978, -0.00483304471774059, 0.02372687586497707, 0.007321455549664668, 0.028548892278676134, -0.01077126309531993, -0.020430489146067137, 0.02465906838478218, 0.07981841619585642, -0.05105310411956012, -0.047260182061465095, 0.0691985656558131, -0.027967499791138255, -0.0455420855597095, -0.029094115657689202, -0.018857761147319116, 0.07939401529625892, -0.04664704982349105, -0.04607259499685813, -0.02337880060685161, 0.025946810545425487, -0.03519125073447932, -0.047032504325912695, 0.01223640956466289, 0.029759856349677868, -0.0225330858924458, -0.02353163530772997, -0.022519343613218494, -0.00013957468810273086, 0.004832281365417076, 0.048321686495066886, -0.017182830047516348, 0.09865977938153714, 0.01705143364188117, 0.037715423188615566, 0.006438356542162002, 0.030892481449736865, 0.04606915247526292, 0.014487481855050702, -0.023419355400925934, 0.04320445794263259, -0.03797639915753588, 0.007478860716832112, 0.05810652429888622, -5.4566174331399935e-05, -0.048528747965813655, -0.059771454069948875, -0.03750443439532337, -0.026717309228751557, -0.017734821254561096, 0.02785906488803775, -0.0022606796492691274, 0.03707149118665045, 0.0163603376946933, -0.04259978943308546, -0.005549568478736742, 0.021309102232331872, -0.06043123438623294, 0.02312222103283085, -0.004166295678126109, -0.02970891402542073, 0.025726130933963597, -0.03234381153819718, -0.0025687232291772884], [-0.008589997714017413, -0.05045845351959494, -0.02407814385206598, 0.05155436298303781, 0.01965428395379918, 0.010951811921348713, 0.006638945953771559, -0.0261699671646134, 0.02559156361583284, 0.03014538254353797, 0.015757074373846564, 0.01768919284050098, -0.03963662027412008, -0.023279591696764926, -0.044339303596513294, -0.011770792539506428, 0.04731343223799815, -0.00492155399063848, -0.0021757709341754645, -0.025299964380544333, -0.01777884085850323, 0.019192434461928958, -0.07625889064163356, 0.0434475559194029, 0.0004891977981391217, 0.040464579141674915, 0.015461732329911285, -0.0317678017136608, -0.03351720134931301, 0.05888491797588091, 0.009116632064455728, -0.06451212206384613, -0.025532305456307886, -0.03933080891578872, -0.021750087321869338, 0.0038168957919629586, -0.0049493181686447955, 0.019732607722916816, -0.024605504913645007, 0.02645679156839087, -0.015110753195779697, 0.060161333637760536, 0.01911690708694428, 0.01671111946145916, -0.02822655193221855, 0.010842596480949204, 0.014939806027277446, 0.028362392016869055, -0.028881954570649102, 0.011861171602648615, 0.05504871840481086, 0.02437628921810525, 0.005725668045652798, 0.036107034154103275, 0.004941281628800545, -0.07174774079544909, 0.0350949165992007, -0.046958403999552076, 0.05871279711671963, -0.07221777974620962, -0.05587291803773465, 0.025044593004259107, -0.055643780587608736, 0.020037210934678355, -0.017966484475566185, -0.013394774439700009, 0.032936557239817, -0.0036743288258409995, -0.016002736895234626, -0.002667464802481609, 0.023712498151138725, -0.07241580264798202, -0.0017164208574481526, -0.014497182485892079, 0.04921779107771624, -0.004310595765769106, -0.016553982486521394, -0.051782814409723134, 0.006323717897314584, 0.0003512483671178815, 0.005260568927029371, -0.06896350025136547, -0.018434142399971664, -0.02357881171414467, -0.05181436170856592, -0.04654574775420453, -0.019060303377972376, 0.02433000147492285, 0.07073504054918524, 0.014010142238029327, 0.012836966593797116, -0.008101875044736369, -0.024309545761196063, -0.01252033950012295, 0.035963434106531, -0.00017135523162698792, -0.011673740772997822, 0.007963188882027359, -0.0025831657433639955, 0.06543536046288286], [0.027945906376331667, 0.02427256767074254, -0.0670619736205521, -0.024362211254668982, -0.0086280051947087, -0.04626996226827513, -0.014836064859461585, -0.021437632605585545, 0.0028837991870599936, -0.024190770235421776, -0.002506654727062509, -0.004752671333387222, 0.009305547988323231, -0.011268003402415946, 0.00362322589040196, 0.006012449926261367, 0.013095081054355239, -0.017611442783388224, -0.004545420340606707, 0.00679475993993998, -0.015782482557519812, 0.03556517056713519, 0.02355366458467446, 0.05534526869990187, 0.035965986656852786, 0.00144772063935633, -0.020699016832520973, -0.011476548176370758, -0.02762941387168567, 0.10592058724924718, -0.05245057594929712, 0.04015118051533013, 0.008394080994593333, -0.036721198924208026, -0.03492373861449894, 0.06946911701087465, -0.02585887862055723, -0.005482059963818951, 0.03087037358810229, 0.009732094862044995, 0.014986595669014627, -0.01317757192753471, -0.010511341288185169, 0.010677611894870249, 0.015754586980266626, 0.049310131228572744, 0.031112159141270992, 0.03273371171308699, -0.034412502857435405, 0.03899147834231905, 0.027634050077938135, 0.04071060852026979, -0.03570099414331388, 0.02384666296879205, -0.054070797164831146, 0.015030859642234783, -0.03783765830435851, -0.001339599950628487, 0.015910694126755175, 0.0029582665519385203, -0.02910938868821606, 0.036178999038709796, -0.01502051177281643, 0.020030002292824367, 0.024274501636390357, -0.02194689886344819, 0.030039026768994326, 0.08435676954255089, 0.022066373118145806, -0.053666784522218375, 0.007690145503300338, 0.011311111929115299, 0.00880140723247695, 0.025170728961139407, -0.017829790525570738, -0.020851046613493955, 0.019532977269846735, 0.05185080012547643, -0.0493673844420007, 0.013779367123539839, 0.0038711103438772375, -0.03529230614503851, 0.035631612818979246, -0.029240466440518347, 0.020076323147571535, -0.0251698822880817, -0.03634781696575673, 0.03979367198926485, -0.029693567058007984, 0.011103308738374541, -0.03417619304690029, 0.027010567723281392, -0.00912479817121016, 0.04624942714174064, 0.014028811822069796, -0.03222574757888751, 0.006761472265327518, -0.02746515719844443, 0.03483815102338645, -0.0022571795566903195], [-0.011224782218731758, -0.05386000061259462, -0.013171925074103598, -0.07153383137507718, 0.06591819611085376, -0.011378891442182551, -0.027824191374023307, 0.030439056373783954, 7.895207878083107e-05, 0.03703657974884315, 0.029971405273341634, 0.004938356340308907, -0.019692595266521066, 0.018862618473847296, -0.004451987712505197, 0.01718349904735044, -0.040066515958563934, 0.04347601212585805, 0.02429101691442472, -0.009850706111420169, 0.043876886528712855, 0.0999286196383755, 0.013101881661605355, -0.040387492778044966, 0.009936198751492478, 0.035817184963011756, -0.01900809903561616, 0.019426079560072952, -0.040797208234810534, 0.05443855058781712, 0.03851086084728988, -0.0653889155285914, 0.013463063832348337, -0.0077846907240700655, 0.034969169546015616, 0.06061642652369134, 0.004930598298181488, 0.058767131404992345, 0.02049446226974258, 0.0017044251177456388, 0.03554092108358574, 0.039603038479056774, 0.008900485249635633, -0.03144481801518629, -0.05784081098121185, 0.03157515091673226, -0.001862841315410519, 0.046242119845829634, 0.025317114412518722, -0.09821626190637134, 0.059068479171196064, -0.00828755658534315, 0.04841361624577968, -0.0284354839623331, -0.060888093933540895, -0.050418417799211454, -0.04468065013663934, -0.019568843394240486, -0.029680706794696494, 0.0419347722438415, 0.016368668619856398, 0.0215437694550921, 0.01657482976460046, -0.028577358548184707, 0.021199530734492874, 0.06650501218420735, -0.005222520933935907, -0.041182669917462784, 0.0347168497839915, 0.0193871006530864, -0.021813465442052465, -0.08673055614356033, -0.010473448528589753, -0.010034009287934598, 0.03250613938951969, -0.02378843707959002, -0.010263427997282665, 0.03270638236329002, 0.013646514229093933, -0.04377520451561866, 0.0352351057316793, 0.02148804095182196, -0.020733261686458893, 0.0043524172676580675, -0.07651205735472826, -0.02174081006489219, 0.052535834656910085, 0.02980728214476948, -0.026037951626298565, -0.0055506856810596346, 0.03384642011378291, 0.028065528380331762, -0.04176035740495549, -0.004662406526803781, 0.02459935358951848, -0.04124850228159923, 0.026462124454439087, -0.025004393825217495, -0.012070721970987703, 0.05218072529304492], [0.06440159890475512, 0.06259575062908167, 0.058931857253759316, -0.028458918361184533, 0.006895211652872008, -0.021672596104011715, 0.014399521106425067, 0.008370399491050779, -0.004679673045128228, -0.01620464010080025, 0.07472001654294626, -0.007370409423874785, -0.03592571295853892, -0.049070477301000046, -0.0353916519736015, -0.015331268966512839, 0.05561099513044876, -0.019718587494949067, -0.0076797539265882645, -0.021046181112564906, -0.03376430997809555, -0.010262536908948457, 0.03399090792047066, -0.009697163232871167, 0.056405704892286766, 0.00854492469627926, 0.007244962244747848, -0.04029368470983896, -0.004523777493626523, -0.0034979230753411092, -0.0021342715871271777, -0.020612756508678238, 0.006082425290401238, 0.040383304866921294, 0.009606060492853483, 0.04874021432506692, -0.01272685113135064, 0.007828853265547338, 0.0026757476878058956, -0.02068973989057582, -0.01564097510461741, -0.010264465564574242, -0.07472136112618173, -0.025742957589635646, 0.07551694133290067, -0.016943299104720023, 0.05204866716744299, -0.027729202920943972, 0.04824718947001144, -0.02653031406681002, -0.01590677648490882, -0.06680029730584021, -0.03257959313339601, 0.008327212082190673, 0.010006000494049974, -0.0059669639990811854, 0.001575484684497192, -0.05151239045035093, -0.020933661622374918, -0.024086907776361407, -0.05424647957489186, 0.03060550312921066, 0.01370119013657988, -0.03520718672110971, -0.00863491145513045, 0.06655152195645338, -0.02953900856848927, -0.01615852050252236, -0.04046067455210114, 0.004667729802250386, 0.018481453224956847, 0.03219091687762566, 0.030071487064942507, -0.030436277928224207, 0.03187470910071239, 0.00047528903556158373, -0.019635999941118507, 0.013487343444474656, 0.06398203835784927, 0.03257379900670719, 0.04339596654019028, -0.028537426571073735, -0.007476676702589348, -0.0477262845050728, -0.0136074434312441, 0.05280763374624817, 0.023618332309491025, -0.0034596130655450315, -0.00048221048182529674, 0.01941580657896097, -0.0022155679620662564, -0.029242780920248262, 0.048966397502487005, -0.03001277003497707, 0.044337529363788625, 0.02113320592153672, 0.015033214928096903, -0.04684169690967202, -0.0012734990847335361, -0.012480747629143337], [-0.030063023950311688, 0.11290319085048613, -0.024983983927315948, -0.001604522747840845, 0.014024864707485407, -0.024799262573210905, 0.011865276647054338, -0.05428129071079918, 0.04725507680445988, 0.02207932136560661, -0.01682490351214139, -0.006758161504052917, -0.00959937989689414, -0.022546713947578782, 0.0113791452322627, 0.0419813318479875, 0.028699307410193203, 0.017351153619458604, -0.009768160898967556, 0.053381454501982985, -0.0013184091039863336, -0.03822660840932458, -0.008171043321402945, 0.00281580999951763, -0.031040952694735148, -0.004499253381133095, 0.022596860725114975, 0.019012589477037913, -0.006686253029854037, -0.02939232397725549, -0.037112828519453946, -0.033620509412752166, -0.03097150239144878, -0.0032532929855097845, 0.043473252156063825, -0.03340852939356029, 0.019184420095701534, 0.004996564010175814, 0.02282438342017841, 0.03471306455026862, 0.03901986669774079, 0.053389432068014844, -0.012257082497127765, -0.04883298390262985, -0.04159420185039744, -0.004180289519218559, 0.01289607281665893, -0.011502242759225241, 0.007033132668088831, 0.012796050561721775, -0.058070896528327615, -0.006973540415109221, 0.011804361748594033, 0.006202382775895392, 0.016400810443046802, -0.02970407364128531, 0.007884444952892512, -0.022005440930654752, 0.014815064032089226, -0.006785940666614133, -0.05540597777864936, 0.03131604758481187, -0.012043512023514908, 0.03189297924463037, 0.05880586480358909, 0.021325939680149664, 0.039231227521389314, -0.05639878736521326, -0.0023904950795817716, 0.044337561619506465, -0.08356097690301816, 0.02200712611924061, -0.028176272200845943, -0.05269907840152176, 0.011295937097106218, -0.023766694770418706, -0.014670998203465844, 0.02440667482254373, -0.007772278278781674, 0.045779329463767275, 0.05092843885893402, 0.0022609997063656145, 0.039587072103933536, -0.003075040714803528, 0.00841917362544113, -0.02913908824810448, 0.025607405771467605, 0.0005265966189276804, 0.008215524979552158, 0.012009602159917082, 0.05938925463928091, 0.02904630389164632, -0.020992641525916032, -0.0006404124273862511, 0.005493799092884731, 0.061206540788101366, -0.006001234578722191, -0.027797497070388248, -0.008327421420851959, -0.022724801986515542], [0.020569462623988132, -0.0664696782091554, 0.03606727276236959, -0.026019191393586487, -0.019639670431765895, 0.0798187349503372, -0.061387200549778476, 0.05043875593736476, 0.013435902230055466, -0.0008390282336451633, 0.05560218134469277, 0.05624679832607864, 0.03185762297856239, -0.006422625082122349, -0.01732089340598099, -0.04114654184024657, 0.03983803688767448, 0.008601803929379724, 0.01658296196083465, -0.040785530281108616, 0.007591450143936613, 0.00896420510063185, 0.04113273803882674, 0.05395615692868176, -0.019311008034107343, -0.009489897593248383, -0.034239565386516624, -0.01698028431626838, 0.07931202039433398, 0.0037410452230359874, 0.017990241786746814, -0.004505240135997959, -0.005520947645737524, 0.024456503425705756, -0.0002474862992395808, -0.002308432700964848, 0.03595256463771986, 0.08745731423219708, -0.004170911991139974, -0.013655539362832316, 0.06786487488678293, -0.0025482099711203353, 0.02144977499743301, 0.03586480323213617, 0.011590465172377712, 0.00565793253369309, -0.037118054206788625, -0.03781321460752141, 0.03674482616915771, 0.039950120741203875, 0.01612149438851647, -0.034273472978918196, 0.03527515501102268, 0.013000335261807126, -0.021714852627941105, -0.041154326987296874, -0.054079407283681574, 0.029368710058923535, -0.04172970788174934, 0.03937468075078713, 0.0058760001109317015, -0.0078062174715292235, 0.003966830111611611, 0.012135963268490733, 0.06109941654655476, 3.930236673833255e-05, 0.015255513656271286, 0.00788510175281667, -0.07666169137688277, -0.011098849885058036, 0.018083950601400025, 0.016261919124523516, 0.03241541766866898, -0.00042184573029642366, -0.030532908514446403, -0.012184578629320006, 0.02588925561096408, 0.023109014844128396, -0.06907956578658347, 0.042846747997268404, 0.03334597738297404, -0.03205294525601216, 0.012355431763451328, 0.036119611862376874, 0.03099862801113352, -0.04675008366338186, 0.0406283695570444, -0.004291688508080249, 0.021563385935074703, -0.04271191220629728, -0.036364663190644166, -0.025831148365604302, -0.06594419529013248, -0.07745805167402423, -0.03564441891138541, 0.043691351042375384, 0.038069573937485765, -0.07597325634037966, -0.07209662860671436, 0.01414195699367575], [-0.04260899994361899, 0.020675378541258636, 0.03855460096879436, 0.0212283269630324, -0.03442997292983473, 0.0468778136809725, -0.01116104808273301, 0.008900043882318086, 0.0460904719884443, 0.0328274533650192, 0.022042391626936563, -0.01337199975043881, -0.021279389810494168, 0.0025828662937696046, 0.014051564096896481, 0.08464543649726618, -0.002396233181508742, 0.008802227962474915, -8.641889045641742e-05, -0.0037989501535810807, -0.023968675688048533, -0.1083431958269197, 0.04560728310181456, 0.021829314791501072, -0.03347520692256316, 0.0011143828493922303, 0.00952756141359007, -0.02284212233861221, 0.05159593341013074, -0.046059650396537866, 0.011445679842911442, -0.05143834924860488, 0.007589177502145336, -0.027129675070357656, 0.00785617063073783, 0.015240641429445798, 0.09157175052549801, -0.03130320306774497, -0.008088154563435434, 0.010147387810383969, 0.008721285692277328, 0.04085516628314323, -0.044403765516498994, 0.021100705133207043, -0.02688739769361481, -0.04244534148407842, 0.027477190884466894, -0.06033733105818854, 0.03910381049738517, -0.01399416846321775, 0.011695605670124561, 0.02605696521897143, -0.02237663115592308, -0.04869877785081171, 0.04192610864921462, 0.04616646990105079, 0.01883998290661671, -0.013980962745862389, 0.023530341390081845, 0.05579729216756728, -0.041595827939684006, 0.0013467949335720505, -0.022980487607868152, -0.059621279174641315, -0.05194038297404488, 0.028556215574227613, 0.03177764282368143, 0.0008503852501795816, -0.018089523441885233, -0.05465417117912312, -0.011514392213608428, -0.023380459052881726, 0.06337222904176162, -0.01379778311640754, 0.07158903810245319, -0.004297080321038859, 0.011422439299200253, 0.03526517750325956, -0.045423529278371316, 0.006670155740112, 0.0419402959062432, 0.028217116823996198, -0.05818024741635897, -0.01415945481746685, 0.027283797586583277, 0.02247113350335839, 0.005814502867123811, -0.07288617431976219, 0.04088217534546794, 0.07336897629057573, 0.06388202208049915, -0.03741822178927086, -0.017046637503078683, 0.009072130757554536, -0.04482613460543897, 0.052329500173100126, -0.004783129980902873, 0.05816549589086485, 0.03150721257182693, -0.04590785564391276], [-0.03097011155035995, -0.021701017998165203, -0.011202599726396721, 0.016009906070979806, 0.03936564837736056, -0.04056806337464654, 0.028463137650697762, 0.05997032164237294, -0.018374070956881653, -0.051660672805483254, 0.021945833727247024, 0.007232735819328703, 0.022591370521179717, 0.014136631140073436, -0.028750171499230513, -0.046724510684584185, 0.05399180935776656, -0.033819994459767834, -0.03522082538836155, -0.015209926906011646, -0.04577441863793711, 0.048161873974024536, -0.006294919864355872, -0.04178967390048745, 0.08138322409377678, -0.0044990634384788905, -0.0007396083437586828, 0.06350215523414797, 0.04639142193840318, 0.003317818686755435, -0.027673389900138016, -0.025265307022339947, -0.026564566110187773, 0.0002641057916151116, 0.017022986181128356, -0.05211443949818204, -0.046487466987777, 0.0017774720982143394, 0.06595704968112043, -0.0113147646189679, -0.04681734904247022, -0.05173768961639763, 0.0015026410706707998, -0.006998962326521252, 0.03138531889482583, 0.029333801776569902, 0.02125414738123853, 0.01880005048465572, -0.015533979894504916, -0.006546170176366872, 0.03185134451207856, 0.05519228271385491, 0.011352275986398899, 0.00828285295374914, 0.0800641033272708, 0.0027281571941073605, 0.04376323485128949, -0.02892593012181452, 0.04862419036010189, -0.0025709306017593, 0.028333681465474676, 0.010174192825597343, 0.03582124024271728, -0.03820742062235543, 0.0822010072221461, 0.03613091548826133, 0.0166941566082422, 0.01108893069734246, -0.08295223226887875, -0.04582716589773666, -0.000889394024688124, 0.03873853962364002, -0.02116773165235553, -0.06565665265152017, -0.012147189814909332, 0.0446074930212472, 0.07676860652729464, 0.05223783570443648, -0.035095915987736336, 0.055704440473395775, -0.006387001913535283, 0.05828292562048772, -0.03192649627233834, -0.04720765772746795, -0.02924863485124737, -0.03147894798660635, 0.009257924945592876, 0.02940128066626674, -0.03890520725885951, 0.04902921520123187, 0.004548555784723616, 0.05377932797384447, 0.03547280387915248, 0.022477716378884464, -0.0145278206593916, 0.005926660612879712, -0.02048891134929863, 0.002882460999833354, -0.010537327618819665, -0.004976957994910256], [0.025390125644830445, -0.023148183099481433, -0.052307525747130094, 0.0020728967382864795, 0.03688596065737018, 0.022483742991080292, 0.052620481611522614, -0.01700718939046981, 0.032736481873212694, 0.005415101717687708, 0.05551478884028528, -0.0026012163156170246, -0.03244995556618849, -0.04887855455704773, 0.018984992370631098, 0.006428773225971547, -0.006715745697113825, 0.01525815611462296, -0.01736665414570535, -0.025812142584341936, 0.004331118886299684, 0.015202883683955198, 0.022851911581852027, -0.01326936308027224, 0.031219831327733132, -0.07257037422644483, -0.013682584466307856, 0.005174682373774279, 0.029902044098153672, 8.217195101043496e-05, -0.023819362927421758, -0.04837238613824579, 0.036091857903979195, -0.0729140064292271, -0.025713302451212127, 0.04589859970041567, -0.027091441979881132, 0.09171231386783867, -0.052270975079561285, 0.02242632020291063, 0.07034943715824801, -0.008166221875973741, -0.0006766316734041128, 0.014087007668355748, 0.02495296895120566, -0.054954956288696594, -0.04462285549415037, -0.009730810860540897, 0.016454096048921077, 0.03730771368849121, 0.0044931386090689435, 0.0818971073662125, 0.006447413798245239, -0.0583232404243769, 0.09125637900424127, -0.041666780757297024, -0.06277710196447353, 0.01624618249580251, 0.019634522624717748, 0.0944295387213021, -0.01342136981853185, -0.02015311858064837, -0.03819851200406411, -0.09124268417718476, -0.008319167828832217, 0.032168892640515534, 0.0033524504411233703, 0.013618689311126298, -0.015923492463961127, -0.0249984965148219, -0.02650870876474765, -0.009749108021159686, 0.03922046288012095, -0.001861321220153905, 0.01844468884514581, -0.038018743802056165, -0.003719258294615717, 0.010755686943435894, 0.026087571773766527, 0.043315738459054696, -0.004705412220180932, -0.037761924594641706, -0.025110683711855673, 0.0029980948878349507, 0.017365947839705003, -0.023585814409987485, -0.01730366256786744, -0.0392279345039822, -0.05607636132719143, -0.022320218114461953, 0.019176802005360007, -0.04111429093571867, 0.017297056495042724, 0.038889362896898656, -0.022192180656163813, -0.12247708257668857, 0.0033337032225373197, -0.045361749377517864, 0.009032370627766306, -0.04902682073629634], [0.040003916478996725, 0.016719058065190334, -0.009178999884040853, 0.011672971935603793, -0.05017062701897766, -0.01599621464218846, -0.004405780092647462, -0.022898979650379975, -0.07312145375655411, -0.026474110796201576, 0.08054475252107057, -0.007541779660282151, -0.02003609379556993, -0.05661509483512754, -0.02908765638081663, -0.02200698537830441, -0.013133285145437818, 0.004915521889804616, 0.03331596570472979, -0.008729756132727994, -0.021613453795009667, 0.053882150794128426, 0.029299291017231763, 0.04301667712360004, -0.016204407152619497, -0.0014020865632733248, -0.0039949777906860325, -0.019024167689972102, 0.034129484767290524, -0.02477394906924553, 0.05109755561711622, -0.0007324971077079813, 0.020307014043261917, 0.02992349591872259, 0.013817191783769556, 0.04995596181688726, -0.017558700444948564, 0.06296915510323672, -0.008836911919641501, 0.0181818716806122, -0.0271865104760004, -0.04197043623426375, -0.024116785873466023, 0.038856905198712176, -0.037515320986179705, -0.03913651389938726, 0.05966298713766291, -0.02497212676981264, -0.05155647009047791, -0.03340417924452807, -0.06636960088346121, -0.019929454679314416, 0.033371067404489536, 0.023779308468629187, 0.04397089728261794, -0.04540571801773365, -0.00969060135425382, -0.046017004719153126, 0.00919870192199068, -0.0408924655448471, 0.011283018400646916, 0.03989318550461085, 0.0014647700360756971, -0.04716419861367237, 0.021352973457274486, -0.030910474165863996, -0.018663042145115664, -0.04972343574883421, 0.0733201961789847, 0.03887918720778124, 0.03748053735384782, 0.03323756598283237, -0.036168080016787105, 0.008369210274356262, -0.013837192265005724, -0.014613113720058728, 0.044626882778032964, 0.04612570855677467, 0.012542251483954393, -0.0732990242279554, -0.006167475594383821, -0.021641617663826884, -0.018365063850602412, -0.07708605632986207, -0.09650862021523704, -0.008028203084138073, -0.03587458610828364, -0.01837427945736803, 0.013443192232604706, -0.06464422663254121, 0.021167031932432967, 0.04938017107360613, -0.054771274248242754, 0.027948094302655466, -0.0032169215130431693, -0.033227072771016185, -0.03161504421734183, 0.03305503231729381, 0.04993164963515298, -0.05162133516289516], [-0.01711587231776841, -0.0466538767003335, -0.01343780888408187, 0.007516070400733772, -0.010920834393753175, 0.06714271880553879, 0.011868941271968818, 0.016844558458373845, -0.014235478700621453, -0.005886200029872622, 0.00306936263090578, 0.0381788161239875, 0.011790651598458438, -0.035848975604611914, -0.0734267163773909, -0.029570450715643872, 0.013687381234095443, -0.01611095454964502, -0.016522859053131025, 0.008752999502754585, 0.009405430868136928, 0.005637016577326117, 0.029728861500496293, 0.05054045444459985, 0.035968358756286775, 0.011707582745493722, -0.025636999712737165, -0.007492445351721646, -0.0506789952750868, 0.002847030696265074, 0.016139179139117207, -0.014406838814363715, -0.04670545626995714, 0.03793814542887322, -0.06858147242882498, 0.0032790180496980272, 0.024719078784845964, 0.030471645018114158, 0.008286794082218897, 0.018810604587429003, -0.04909934521010772, 0.051790238981553986, 0.0009129289006980701, -0.0489107515949119, -0.008740387445855839, 0.022543514821862305, -0.011601369233273645, -0.00625182716420425, 0.03308324915394807, 0.04390053348115044, 0.03366733984179204, -0.042379732927934156, -0.017020641957620115, -0.040231116669816214, -0.0012592040711753914, 0.03303178984564024, 0.021623745882856354, -0.012260343372018, -0.047294141032855765, -0.0007950265749077158, -0.0194770443193655, -0.015070743956549965, -0.004248381863309, 0.007578132091316896, 0.025035891193112895, 0.008613619485530423, -0.020154330206971105, -0.004381921537213724, 0.016718508429527046, 0.01966430296297462, -0.04913474209363793, -0.07600230844108687, -0.016414044191890173, -0.024610771695001848, 0.05242802997104741, 0.10482190306101778, 0.06808699849720036, -0.02914759223930302, 0.009078297900810946, 0.07834026443819432, -0.012858484761209437, -0.07339766735905436, 0.02830898021162214, -0.014378558326123274, 0.02075853038124837, 0.06997946987048936, -0.02191417440707043, -0.026280368957204217, -0.014637643174424423, -0.04602183081712584, 0.009739522679289998, 0.003924103564287029, -0.01876554163612829, 0.048226922620985796, 0.023954779867515222, -0.0057815546782569015, 0.017325341687138344, -0.03810863678752211, 0.023011073848453613, -0.02478886993663222], [-0.004449514713760656, 0.020608023300266273, 0.000894364405540545, 0.06512539578878554, 0.017044661420871503, -0.029476473247635682, -0.040112260710850715, 0.04374002088328359, -0.04014847235375172, 0.0009203688376563244, -0.07782241343118508, -0.02236414152012705, 0.04031995252270892, -0.06123997091574972, 0.008896286806388843, -0.03541233455396154, 0.027282526786153356, -0.058347565185320235, -0.0022710375092200585, 0.0019369576830573002, 0.042173220230883525, -0.027258104110499667, -0.041921839050479665, 0.07489490803720604, -0.04075296179436601, -0.07739524983941341, -0.05274051050123586, -0.06382433466153349, -0.014979021813739933, 0.009801074473914049, 0.01777688286755043, 0.0019720683587972593, -0.055346006616218336, 0.031764075576821184, 0.07118443227027854, -0.0053051879898050255, 0.028781868577635338, 0.0015366097383427756, 0.028163379050619136, -0.017331693198363696, 0.02668183831705416, -0.04266323721548026, -0.03465329287271857, 0.05697662241207531, 0.08949129479960807, -0.07483172087805659, 0.008316817609717959, -0.009316360695795722, -0.05002154827908299, 0.06361050135977674, -0.048162378332198046, -0.0001495537389503998, -0.05275390236719913, 0.0815030126092372, 0.015553240809175181, 0.006412478791059976, 0.006365777053386603, -0.017071562705871755, 0.027050475871289878, -0.046828104843320235, 0.0018007933713847328, 0.04047658200634404, -0.01772501208405637, -0.008027130362187771, -0.038149870683989534, -0.04987801017333323, 0.03284542183807617, 0.013371192276992077, -0.04263944889536711, 0.01038815869518356, 0.010708447614019496, -0.0006829489387260219, 0.0644681889041426, -0.05305637037879586, 0.0047425872524997125, -0.03129052438340049, -0.016226273326367807, 0.03445172088644747, 0.05241226109141264, 0.06266853464794891, 0.04097759605474005, 0.05179972845363363, 0.009356267400326298, -0.012935417660163743, 0.07796039800376071, 0.01983668479889714, 0.03804780840012877, 0.026064338142775374, -0.030180791410373466, 0.004869639199098944, 0.0038763901954580516, -0.0022208592990974117, -0.011055810613212773, 0.05613622079051536, -0.033540334278178034, -0.017740766033760576, -0.012518783498997092, -0.015275667351549938, 0.001471590080651301, 0.06052042804398795], [0.037892769612778536, -0.004666938736423389, 0.013779839354346821, -0.04684114767039583, 0.0051796730562586185, 0.055056889451674154, 0.028467633039375127, 0.011565937238257292, 0.02591884867468727, -0.02500802507958332, -0.03470811260778167, -0.018991776996351253, -0.006278131281351953, 0.05176077566683102, 0.04256895618844479, 0.03528383951457873, -0.04662720786812658, 0.0485256935053774, 0.007106005063732291, -0.017546633897537228, 0.03233200851665228, -0.06287950046684665, -0.021142289872957208, 0.030924591324372825, 0.03862133936322584, 0.023757902621570008, 0.0033766495534841177, -0.0336015371212301, 0.049006465717836005, 0.09944400239953677, 0.05834746486223295, -0.018168859660463506, -0.016161439618064242, 0.06754509194761735, 0.016360887099977448, 0.010699421380652678, -0.03843206375313198, -0.03899373387871714, 0.007589339633065974, -0.047757512062809294, -0.09380236357335768, 0.038267299877065064, -0.013939043185229304, -0.013519312777546769, -0.026183393144193677, -0.002392291290381945, 0.008168810935286859, -6.860797140906254e-05, -0.028830544874480345, -0.02145287965013359, -0.029234476102454478, 0.04099484938599704, 0.030461916824676957, 0.04715575511133046, 0.02303424254983522, -0.049687610355130404, 0.07035234856851447, -0.011458439773131724, -0.014061468242090903, -0.015023595562412931, 0.03756022658161488, 0.03489585765516482, -0.04397815268978077, 0.040101995527913006, 0.08401389414448995, 0.02240355261282516, 0.03213157748978797, -0.012947771385652375, 0.018868239660121203, 0.005872943346613139, 0.006843232040689781, -0.012587725631737474, -0.04536188396540681, 0.07667366620865632, 0.0019430991515975162, -0.06491323775735848, -0.02904513833419809, -0.01636603613171412, -0.020656398566964274, 0.012790417505851836, -0.060140404016446325, 0.03963060561557224, -0.06660540496104851, -0.0034563792484162427, -0.00939048367886233, -0.013829233238860759, -0.03442802013102, -0.02581502002586851, 0.017400120121011126, 0.03149619236961294, -0.009745188621731491, 0.022161971592980466, 0.014060525543606907, 0.0027086079862815374, 0.06887389639221585, -0.06852103898042394, -0.013221911097632918, -0.041741395474521485, 0.0024762304020312883, -0.01150107443060645], [-0.024281780309158143, 0.004153788117010377, 0.004333219103641388, 0.018601094933861067, 0.025939191793721113, -0.02613395040511399, -0.019153857456924172, -0.023970403782258273, -0.03575588835507473, -0.05470863674707611, -0.02327087452496309, -0.03595512030393601, 0.018719548896289018, 0.03639157391957454, -0.04919397253843524, -0.06014975827894407, -0.026518096236149057, 0.07488945112575404, -0.06784794448856567, -0.009713778479353403, -0.021735437400714024, 0.07048307082517288, 0.022051150826417273, -0.04325425686469978, -0.04638216430168885, -0.03604445559147965, -0.008663336391747128, 0.002507587152949244, -0.08197914773252048, 0.007445967760118869, 0.01288764473115685, -0.010565285750642302, -0.05139703238114229, -0.015010164255532716, -0.03133054443671116, -0.012167362464078003, 0.0612792675572698, 0.014192616167015578, 0.01461097139735101, -0.008882937029573709, 0.006230914590573159, -0.004091636417553507, 0.04667732984390513, -0.030178617729613715, -0.020254635885319026, 0.01973267129420857, -0.030207459122988504, 0.015871725192722286, -0.05709665665896167, -0.0949095656720443, 0.0074622551145666184, 0.016395666779988813, 0.002044701009769811, 0.003006223834131272, -0.07305357085130094, 0.03129095653838577, 0.026053963594217723, 0.011277258025391394, -0.0024850922095410186, 0.048765024701728624, 0.020534173627966695, 0.03460853832491506, 0.00270173918128247, -0.05384005011597693, -0.007728157354224299, 0.06282337291140418, 0.014963519817722435, -0.0073255197596377485, -0.02510339731197995, -0.057918563721522806, -0.013638048984919077, -0.0002691869152931888, 0.02484713237396709, 0.006824315933166551, -0.029689628642725435, 0.023666853778423803, -0.01451077483377941, 0.0023855288519126815, 0.03456197306031748, -0.005782326534379672, 0.0068579469526299335, 0.06717661902169443, 0.012710139247671446, -0.011659160294507654, -0.030173833020856074, 0.008122705836751638, -0.06745332485614249, 0.010342633750753033, 0.028988732575091183, 0.013016384203675797, 0.003157513275930017, -0.013969199721196545, 0.038245065886116314, -0.01518868693663046, -0.06798719006489069, 0.03834457845269787, 0.09843571851626354, 0.002989270281080366, -0.024577419637782184, 0.0063423244409873715], [-0.05159515560773734, 0.0341566824205624, -0.031344354214763705, -0.015187116108000984, 0.0618283368798032, 0.011160709661704979, -0.021059307562441447, -0.03608425283674697, -0.01021763812868796, -0.04361367457093486, -0.04113336162597704, 0.008874526964097686, 0.005754335022400297, -0.08767924994487522, 0.03306270859387619, -0.018107261422655535, -0.016115573544757428, 0.07559487861564487, 0.01806279119577828, -0.05030980142914086, -0.0788792252975113, -0.006227987484899908, 0.06133073108974127, -0.047319116645300405, -0.01299950257610789, 0.019993119192402747, -0.0023240186038889442, 0.004024994470928546, -0.008247708449917554, -0.011072940953428595, -0.025863531304834084, 0.014597863595118365, -0.032317909204248825, 0.0019980271015903497, 0.010744752272902326, 0.05424609308424717, -0.038694663024718724, -0.034542663882185645, 0.00029668732301760535, 0.08656877268209973, -0.00975454626680399, 0.024089494096146354, -0.028833303521732516, 0.03870724326929238, 0.06578584886978084, -0.033539522379956804, -0.010451803227555907, -0.04467765316648004, 0.02897997426315019, -0.004728056084914542, -0.04506786674808018, 0.01672948391634341, 0.00623487609541319, -0.0345563347264474, -0.017739666399226823, 0.0442536442505308, -0.017172173529715336, -0.039892405182017476, -0.04582483491894384, 0.0620792354639645, 0.010697883589546871, 0.007910494742010318, -0.006729247502489685, -0.0496329712432136, -0.021062972333430845, -0.020565502583840333, -0.06836517333248249, -0.026925384458847807, -0.011257553024348705, 0.050131715075436865, -0.036797847733723424, 0.008987135724018292, 0.004943061437989666, -0.030603463387699054, 0.02098143635946667, -0.020325675157943566, -0.006343671071375906, -0.020526602879748026, 0.03801369108668494, 0.031577542213368046, -0.015891847709262087, -0.0011284380027480933, -0.02685141645892276, 0.04515251462478461, 0.022426910517910965, 0.022404522428300048, -0.002311930685405258, -0.013071286843525395, 0.04767573185215251, -0.033108890235834396, 0.0008179531283555024, -0.0671591409260232, 0.03392931716232865, 0.00011295502935098152, -0.06650632409547179, 0.04666282259690678, -0.034577548831999455, 0.022931269514449477, 0.07498444850764177, 0.07399926325631238], [-0.012487481050588917, 0.002745677623251687, 0.0003434284229482293, 0.005485338379790255, -0.04918131190196386, 0.030601015892845668, -0.015185302099449351, 0.028717668195782177, -0.0026519129471232706, -0.031453325234834316, -0.01894203688616869, -0.00293186193808409, 0.046833774094837174, -0.07652592280204806, -0.017524501896779447, 0.04418534000013908, -0.03364334634219277, 0.04971755961052685, 0.008874382608135781, -0.04040553302991575, -0.0029691274050102066, -0.08896697034760852, -0.022105350940197856, 0.05440735429308593, -0.008695717721957852, 0.04260244895909205, 0.03228974262689499, -0.030571701520917132, -0.005186443976690035, 0.03645083898970106, 0.008431816208052943, 0.020681655963566352, -0.0030750613920344965, 0.009478367586687622, -0.010915226244114853, 0.012708407504269619, -0.030529031979453038, 0.016249693987711204, -0.008815225183579519, 0.015109840637295757, 0.049057470266911866, 0.004747439521062208, 0.01905441073646878, -0.04890307203363394, -0.003100455632744733, 0.020651320767064458, 0.02639770777961722, 0.05393874903743885, -0.005622330164789675, 0.03320806756236661, 0.05922809366882798, -0.07066888547633988, 0.03867023724204842, 0.012150951918592485, -0.026912589182515104, 0.038075801987047624, 0.039897436587777266, -0.08920475865448298, -0.017369350351759242, 0.0031567743185185425, 0.011881308941507891, 0.03448010180551511, 0.027960995754076987, -0.007410476884475467, 0.001893791800339345, -0.0019700280740665797, 0.00543174101019162, -0.030372119819247985, 0.02029758076497006, 0.013256418908464596, 0.01368790095704236, -0.042073718503058924, 0.04599591636255797, 0.03398556367647549, -0.026073909723866702, 0.07356331650044011, -0.011190735785016136, 0.060319830015748456, 0.044189159611946756, -0.0273193579722901, 0.004057854787087767, -0.06175942444852547, -0.014663633773156772, 0.032134915074751955, 0.0018636822653872894, -0.004721869468962769, -0.04883436683053622, 0.04924692257128621, -0.028403426539142473, -0.02486165382552483, 0.01614107094036097, -0.01566459970434211, -0.02448583793388957, -0.04548589105529929, 0.049897277177506166, -0.053981535079951154, 0.025364133251291082, 0.009130650090426483, 0.020643022499269588, -0.033963599335611785], [0.060835457565247955, 0.01949827825349201, -0.01800153325166091, -0.07239749352486793, 0.014410993842663842, -0.023948941696592434, 0.06564215876863519, 0.04712996414353188, -0.023229884014328944, 0.0024165082070335448, 0.010870772118419149, -0.04468256207953621, 0.05556740573659298, -0.0027365432118592273, 0.04452651632296914, 0.045165239419884616, -0.029334297795698665, -0.022409472019639925, 0.023821667771607352, -0.0029928783741940785, 0.0069994876514443815, 0.021177989562277788, 0.00947583398295903, -0.025912237590272915, -0.07926688450722802, 0.0509408548447663, 0.012165586189729195, 0.0038755485424973057, 0.055414840125777694, -0.023005926331015992, -0.03637324970666978, -0.03396061911688364, 0.002920126503178979, 0.028041910584113764, 0.041594801534861954, -0.017177383937047916, -0.002937039000503792, -0.05075309800758304, -0.01985753753961127, -0.012939437624938597, -0.025856790318606868, -0.01326708976071802, -0.010231592088409758, -0.01605262508943775, 0.000739303546892121, 0.1076436663003965, -0.03791789232437885, 0.02260520537435335, -0.03407953280179248, 0.007656685293641858, 0.014486711062660878, -0.025147020216109487, 0.023368818807367582, 0.010628211833648355, -0.03874157618267932, -0.06435273608628157, -0.011218910447679056, -0.06670589283671174, 0.06587596722649727, 0.01969107872764458, -0.032071565889334894, 0.03145800179581185, 0.04539717465050805, -0.05602025005991265, -0.00583775403117067, -0.028039785695901872, 0.02499613313367784, 0.053917557596173026, 0.052021725356687976, -0.008379823508439205, 0.06302322917502996, 0.021981336775763485, -0.008232799271545469, -0.051700494012438585, -0.03647732882627956, 0.017633546439445237, -0.03139522090634574, -0.053684024168072955, -0.028540472563510458, -0.01688310755989875, -0.014491128009525874, 0.05684622665515137, 0.04048458687535297, 0.031719242476411495, 0.0029577613801615886, 0.034118576023907915, 0.02372527165703877, 0.0005643800936643422, -0.0001468070334715083, -0.010004302320813003, 0.04479114100713583, 0.04094599125408166, 0.006582803590569824, -0.04483182341834159, -0.03894813582102162, -0.010873299636881623, 0.015789807140752368, 0.02436473521627114, 0.008923003909799198, 0.028467547739765914], [0.043378697579798134, -0.009632931166132709, -0.045177836479693534, -0.022472131981525537, 0.008550035999694361, 0.02453141388176878, 0.029443760066718724, -0.056921522890485854, -0.05844238456185965, 0.03207906715747077, -0.018368577586764075, 0.02804483996146596, -0.005172342386663233, 0.01264196912654882, 0.03876239219476441, 0.04333342773579249, -0.013278809792841482, -0.02575462920851927, -0.006873202319771634, -0.056445523624098624, 0.01501633277333129, 0.018301139105941066, -0.051045413023161595, 0.008371696126937557, 0.03233025266406772, 0.05154524443799901, -0.03724706249018401, 0.00444372038061828, 0.016581556975961385, 0.0033471955768099022, -0.01743924289144176, 0.003332099066451468, -0.039824514507081056, 0.00769589038183087, -0.04135064657465583, -0.005688590200650857, -0.0013362261974831971, 0.06591377793710491, 0.016650353224015996, 0.002700842160928578, 0.04969701456247028, 0.02770603542150361, 0.0066827047362373266, -0.08778332585608886, -0.04085311681662686, -0.03156436399732235, -0.0029693316618479154, -0.023375804326372106, -0.010470432875099724, -0.07884915398944062, 0.07664699983725552, -0.009937320140314721, 0.015114695996549674, 0.03858778690675986, -0.009662900565682956, 0.04245473497151448, 0.02983578034557665, 0.01460859001789909, -0.007925113184010535, 0.006178307633500114, -0.07645968011019194, -0.013530887225902745, -0.022872848278578342, -0.03010549955266127, 0.07969186781071645, 0.019762022161725717, -0.032543575830542376, -0.013800350266040403, 0.01671754532598529, -0.010886523472755514, 0.006182741713187387, -0.02156325665235004, 0.030106527106588385, -0.01955407447711865, -0.03793192928661524, 0.04042238059542876, 0.003106302126301291, -0.04371191599659964, 0.01676179557235296, 0.01051412264699652, -0.07157957973562783, 0.004344912869046334, -0.019365584664638315, -0.0017074419904160839, -0.035117284408229914, -0.011522261767272588, -0.019276803267103942, 0.034547827769738665, 0.010926691013145372, -0.006429634624726431, 0.03783873101908568, 0.0076789587986911025, 0.03170570667504391, 0.014233613503738076, 0.007261361443559334, -0.030105525453827144, -0.01107049207594375, 0.00956497391575079, -0.0633349559628055, -0.00511764160350651], [-0.01921420051741686, 0.006975524687874186, -0.001397371400087885, -0.0018169051167994579, -0.004859711849339775, -0.0539437416243064, 0.015003770067090787, 0.06562789226574152, -0.014185067545085287, 0.040612255493966236, -0.03556565459055827, 0.03842016422846, -0.007192890365106766, 0.015093865314056452, -0.025805559842763656, -0.04917049227975106, 0.022665385400984877, 0.03098650046924462, -0.03713411074415532, -0.01128849406128608, -0.020113497072880467, -0.030388563899118027, -0.0023806945814990816, -0.03584824823934524, -0.040888876924080185, 0.011868853485223955, 0.03530947866419658, -0.07848844969397567, -0.0470547367784676, -0.03151812319768529, 0.03962232751677526, -0.0025100795226853595, -0.008767673733179887, -0.018187020642101964, -0.005127644086437919, 0.0016458905564100312, 0.025633730622302724, 0.053219829506195665, -0.0008917202411889887, -0.04195140597966891, 0.0156701296571585, -0.006008068791173212, -0.0011603774070195478, 0.08409515629676194, 0.007407879938297033, 0.011863908829027008, 0.01940157522446199, 0.030777607758773584, -0.01326651279951891, 0.034093156330974136, 0.0026782320708164022, -0.0013890148206232313, -0.03271116893874036, -0.010261099261014373, 0.0223792836410459, -0.031162725103404603, 0.006792691769003238, -0.06042572537852666, 0.04024653654446556, -0.012178714419048208, -0.0192715547678215, 0.009537704628360106, -0.03852215810822179, 0.0261725114728282, -0.043834290026603585, 0.01088930883373062, -0.046369303093986215, -0.011513888953688984, 0.03487151633444914, -0.0014912178610757881, -0.015545917873181455, 0.02977594990416644, 0.031826141315794344, 0.06974938087240323, 0.026524994707066703, -0.04635713246276592, 0.008143259997206526, -0.0372319621970639, 0.018040062580223514, 0.07444595859972795, 0.0015659683533491655, 0.027287105547239645, 0.03929100829884828, -0.04578185442031478, -0.0036627713317131374, -0.018341338625304647, -0.011028795073861728, -0.05329444390159164, 0.002462351996172994, 0.004932881103705488, -0.03156231289370034, -0.0009279145804428679, 0.01957287563648717, 0.018561252596340883, 0.030876536796444903, 0.0004267325914800384, -0.019915792547512863, 0.08508805929440723, -0.000580278311168782, -0.009212634194950893], [0.04892094782717921, -0.02538625828832419, -0.030813839913913038, -0.03854190029408712, -0.005327095600097613, -0.030629883516549845, 0.052845327262974244, -0.01430822663515558, -0.009606214553663636, -0.007201670674872049, -0.011623616424238837, -0.0473230385776342, 0.04388547246830065, 0.030158607468557894, -0.05349678300448203, -0.07329678026464131, -0.01785807358826833, -0.039975259585652234, -0.057407067293673196, 0.007831173608899978, -0.013561147382798074, 0.01968796974207821, -0.04961271641048335, 0.05558552231836952, -0.00935990510327702, 0.07100000505443173, 0.029851430933368398, -0.035877739648042875, 0.00912452174508992, -0.025283610102777656, 0.08346302630606263, -0.02329606834258782, 0.051591441162830265, -0.006433336798982321, -0.004231545588407767, 0.009028395315022981, 0.01218506129427801, 0.037843123411122614, -0.07787806369369006, -0.03211062036639633, 0.00763517771076734, 0.02187588743804683, 0.0032656683085193683, 0.07412878739234013, 0.006805570659717768, 0.0036882401552199985, 0.04386949807930317, 0.06273266595966978, -0.0269293074948003, 0.02134974876633688, 0.02990057745383067, -0.023274411443695946, 0.0196655822287199, 0.031330698552675854, -0.04110873241937265, 0.049075547014278846, -0.05615942689185637, -0.010061710099849689, -0.02805011228213025, 0.03460921197142878, -0.08140816962036355, -0.08828127631561358, -0.02994561339183201, -0.02050829284558351, -0.014018607192011416, 0.024407016038240487, 0.046887636246624786, 0.00042803014364610156, 0.00764611143781448, 0.006091055238546027, -0.02261142533421153, 0.011748638130467884, -0.02336209592678975, -0.0820372397454277, -0.013326399330949444, -0.02555747966127622, 0.016500651038805794, -0.018509305578550243, 0.07906489748284755, -0.018718633595173274, 0.03384790749167845, -0.009738688382237933, 0.08410405859303363, 0.01856446891994522, -0.02857694808367672, 0.012240737037377164, -0.07002405369612788, 0.012483142185703996, -0.006676248172020127, 0.037097864864088836, -0.02301471491160399, 0.009441223038016136, -0.007735111234883446, -0.01827304908788096, -0.028526027758838307, 0.007465934246001154, 0.012914918717093781, 0.009479778853591728, 0.05738372327982014, -0.008050330262667977], [-0.008569358303707314, -0.004300664709398309, -0.053968587436337874, 0.009328813001411626, 0.002280755424416697, 0.003689187147593111, -0.0019000724137747988, 0.04667970662837316, 0.061798074695277705, 0.03502360274103631, -0.022723556771557366, 0.04559400155634063, -0.021222794575920603, -0.07092989786734756, 0.010208418667832196, -0.050790381215889496, 0.028671632001568057, -0.011053406492852814, 0.02104201288362643, -0.035802152750961054, -0.014312668362848955, 0.002705922425759364, -0.005165099856770036, -0.0012490543040121918, -0.030946164534004766, 0.0256485085963267, -0.007755123449858712, 0.00612769428851586, -0.04380901332126461, -0.0012963606093911327, -0.062155064162580584, 0.014960303331210543, 0.07298299114600691, -0.03510202646328309, 0.009343466467782667, -0.027148384346118788, 0.0031402883832087297, -0.02713810183273149, -0.03295940648213002, 0.002201024862676466, -0.020707230273050388, -0.03226241239776945, -0.024665967495639905, -0.04549263845210271, 0.0026590660892138406, -0.023747179698942973, 0.016652246211521338, -0.02270076382031016, -0.01832491823904626, 0.026237969781237724, -0.002385037041255796, -0.000743557796665578, 0.11861899452697125, 0.03488058162100676, 0.017315600505868025, 0.023712254766413934, 0.03401139851566192, 0.04272917993922049, 0.004221848253183708, -0.03263420221311688, -0.030569690505736186, -0.004451306562507559, 0.028219243388631198, 0.035539256460640004, 0.03504267004596414, 0.01811231580788708, 0.05803025851921557, -0.016579425317086796, 0.02120884496816569, -0.016487773189390525, 0.0416780271407908, -0.019309321500340603, 0.002156429434192772, -0.007892002144177488, 0.04513328848807093, -0.06257027314802589, 0.012007036208536557, 0.028612420163704994, -0.08463009321936284, 0.05466608983794936, -0.03735415865555322, 0.020783403342922897, 0.05037317373429368, 0.01751748548093179, 0.035436058300648006, 0.03460793353353526, 0.013174487124787394, -0.01541220477836218, 0.004235669245099004, -0.0010414116176158917, -0.008945938148723406, -0.05361920567823719, -0.02904047267175845, -0.021244676576734907, -0.0344820457138262, -0.039219782792080035, 0.007928188858152357, -0.0356737443332007, 0.0021722552781165342, 0.045889477473362396], [-0.025211074194756315, -0.0861635162218374, 0.008283445599868646, 0.056890668512847485, 0.043649664477279054, 0.003141293980081582, 0.0328434531338746, 0.01069790582178528, -0.0077062052789384754, -0.027326861029598755, 0.040788361562708264, -0.016943470246151632, -0.039384064975783666, -0.012747904865667925, 0.05654349903612125, -0.028826754058656995, -0.03954262883136668, -0.017976365933820133, 0.019751854420132598, 0.017254638011885228, -0.017639271321355926, 0.02700034891276158, 0.017777038749484518, -0.012232429922248917, 0.002666454134405824, 0.006238982345122867, -0.017423682661307744, 0.02835742356301217, 0.05896675076009173, -0.030819173171100098, 0.004433336715579463, -0.03922637369115116, 0.03395838880061554, 0.0060389764652872425, -0.033727410352811384, -0.07288410233278714, -0.011171239223269055, -0.08130640769279132, -0.023502108971749005, 0.03593708794288486, -0.0425739596669167, -0.04440967731927359, -0.06888977440852102, -0.04310973741841215, 0.02810123857663731, 0.035530733040150426, 0.037713214427302195, -0.08375483117390915, -0.04444217347852263, -0.0077531245965910805, -0.03184749051045208, 0.019453888198560892, -0.015064233359956485, 0.052073084448912565, -0.024612857847002352, -0.031886956139029934, 0.007128299670909925, 0.018862565975725186, 0.04516178151188017, 0.04804769971819522, -0.00477893388314962, -0.020319448206982265, -0.019260056397499076, 0.014493028195445214, 0.0055237344859348485, -0.053751002048562195, -0.08008601338357849, 0.025737301456356873, 0.05933258336363572, -0.04357601000763311, -0.047203329061252575, 0.005520628214703876, 0.009909435709132372, -0.024123965027302578, 0.00462934686659605, 0.005495125811450657, 0.04958982908069686, -0.0023092869264153826, -0.024499274754982155, 0.025004448702368606, 0.011112989983180584, -0.0392902706019586, -0.0759639893373914, -0.006807088689994961, -0.01739820878153415, 0.06069377780834474, -0.016803148660052322, 0.042971190663239726, -0.01742574533661141, -0.047698948764362585, 0.010438862893936668, -0.010843590313656757, 0.05204480772849139, -0.040022318737871196, 0.07499729713951585, -0.06459960591175705, -0.02991621895756459, 0.02416271623813586, -0.03857559990642792, -0.03441505381299066], [0.022669659370547893, -0.025365084576495188, -0.054220866272778744, -0.03911836255415529, 0.026989227483860012, 0.052187509198417414, 0.04211939095144199, -0.04883358697192118, -0.019241040068170217, 0.049930786519230004, 0.011372473775037464, -0.03549594268463156, 0.05991252036780523, 0.0017292306572054307, -0.024839617042487182, -0.0839266593463577, -0.024317114936688703, 0.03649778614153363, -0.0031724323426380184, 0.027751010225772702, -0.01789487467303444, -0.03822693279605813, -0.013789401840767062, 0.04743747225868697, 0.06142167886184283, 0.013871572039521458, -0.01476061247302051, 0.005757880372297801, -0.02293556493746355, -0.0572502316350123, -0.0008342177879663619, -0.05866515676433035, 0.05905976350340001, 0.02853266540367521, 0.0031712643812766904, -0.006820495999866362, -0.01687138832014889, -0.020390134483048154, -0.038857612551419264, 0.007050891665866138, -0.008899907285692635, 0.022286547774901896, -0.06296326844130125, 0.07369515973932209, 0.008271550709017302, 0.03384826162898778, 0.005353499614811211, -0.03204839484317484, 0.01980166059611405, 0.0007941818522092763, 0.012579878863409848, -0.05508188258721811, -0.028072591665187815, -0.03025840383915288, 0.0258998055051067, -0.007698597621592639, -0.03343337533641563, -0.011517610136042066, -0.00441724365353513, -0.03633867823187324, 0.03015587431775415, 0.023776655594723153, 0.045476372859275783, 0.05966811553202761, 0.0052632156582583306, 0.018000416757156808, 0.04357042745433908, -0.005616347951546367, -0.007948006324875953, -0.023640921264028347, -0.05430786343641996, 0.03780692868369015, -0.0007247178052584199, 0.018204528286393386, -0.012573166974971706, -0.023723508861943975, -0.03969018560998894, -0.007175540910667874, -0.017936024476204782, 0.04337610722669989, -0.018267133508437294, -0.025932615726467573, 0.03296299903154821, -0.030527498526543465, 0.006658462721091465, 0.026568724832388715, 0.0071090450315773384, 0.04593520375232396, -0.049681040464826166, -0.01515532156109421, 0.007461601988230478, 0.056169405880046486, -0.06809003169573444, -0.01656628296171262, -0.02409715811582245, 0.06453898746673116, 0.045654593481833386, 0.05759988146955294, -0.037902102221097154, -0.012978312172421898], [0.053210375900674976, -0.00034707085178672774, 0.011056102754798519, 0.016591242314984486, 0.031089185782297375, -0.04867758164506784, 0.04228529295549915, 0.006019644701457706, -0.05120915115184724, -0.004702617650511669, -0.05251796157593954, -0.00459937565550099, -0.013584544556272601, 0.021300519174237312, 0.0667400313068576, -0.019100235293905563, 0.0026811349899103316, -0.0015705878129334903, 0.004426943586369872, -0.051350108963240756, 0.00511516025298626, -0.05115040686140791, -0.02943077760635189, 0.011083614600673449, 0.02677601954649867, -0.0013768997483808978, -0.0028613148032896646, -0.013589345409284992, -0.07824908707482472, 0.00019488525267264407, 0.01752172854872511, -0.036675460041887264, -0.0187643692809342, 0.002057133100856963, 0.021093344534537324, -0.00041902169061755316, 0.004389408059193578, 0.03686259420904737, -0.030107129347501222, -0.009171282485909236, -0.05719595114464982, 0.025467428143786584, 0.01895898790053755, -0.02370652060091129, 0.0600299709679874, -0.010482160047483615, 0.014306151679387587, -0.03785117549351494, -0.011661406705402541, 0.003269136124870353, -0.03196257335749413, 0.004762311689541921, -0.025377939812491576, -0.026711838656998246, -0.005526741090643619, -0.05327376214771866, 0.02354791589416369, -0.058964831347938125, -0.010746687299169319, 0.056195180143780075, 0.00960287291805257, 0.003782300142460484, -0.031995150638754466, 0.02689465390875959, 0.05731559950520545, -0.038723760733048666, 0.007228903517415882, 0.01152486109791053, -0.05083854422757262, -0.03908656404226274, -0.039444736361488014, 0.011440874273945089, -0.017972501352367443, 0.008534143755872503, 0.027869490677783895, -0.03793302935976721, -0.054843951911528355, -0.040585430481553816, -0.04784503224041959, -0.018343942872469543, 0.019109167433848825, 0.017172060382795933, -0.028498996738417846, 0.08135376487767183, -0.001565613924221623, -0.006391219071380594, 0.04503292193862445, -0.03943277218989615, -0.03170881028213023, 0.007514657495473816, -0.02448926967246389, -0.0225388079851132, -0.004195629045096174, -0.02048160889626292, 0.060315334639287635, -0.03693223176223249, 0.02949220777310041, -0.022594158432818954, -0.001751018847766654, 0.02448854897199123], [-0.043345394564594304, 0.0060373983572301285, 0.021778221333738693, 0.03150302783901942, -0.009846101057620897, 0.01540410053653746, -0.02370938413084215, -0.00044665704393081264, -0.01913836859403423, -0.0403795574371655, 0.05141708075504811, -0.013111314871001317, -0.018471321954334503, 0.09758252377940664, 0.05388521389141985, 0.005776892212527947, 0.05807711639560125, -0.004175974791902416, 0.054857618932467545, -0.012337381931697538, 0.03287321470436867, 0.02321157827892967, -0.02071801391441357, -0.005551780086367871, -0.012248852256983285, 