{"layers": [784, 100, 100, 100, 10], "epochs": 20, "mini-batch size": 50, "bias": [[2.0086750079212847, -0.8229200731869435, -1.165046065677236, -0.23622081914917614, -0.4344199986527136, 1.6473651344577076, -1.0475930358289005, 0.9577996667945654, 2.3240541436187594, -1.4258293309856749, 2.0179695524666026, 1.0072062413581184, 0.7946065585514914, 0.16537141818601514, -2.00063179702523, 1.519304397569084, 0.0022813329535800544, 0.9976725636381445, 0.4856325440417606, -0.49705611063529404, 0.5702665527899474, 0.07835548699598471, 0.04937317850740456, -0.11190739479757801, 0.05514056897881149, -0.9993216881227238, 0.9671949595894862, -0.6407612370352229, -0.6147384550811944, -0.526556518568015, -0.2560665382953973, 0.6858524465236705, -1.128884616372321, -1.6374978693266726, -1.187882692719603, 2.8776638897782965, 1.6760200658570097, 0.6219154881068225, -0.15069144817040414, -0.49014630867857983, -1.4714880786168, 0.2531105989349965, 1.121531127340003, 0.03965239570113019, -0.69415392022474, -0.05981528068774412, 0.15464701428499553, -0.3678295662878477, -0.9404746703589472, 0.0193245420269134, 1.6305841209014027, -0.028704716176496867, -1.5538878221639576, 0.9709504863659035, -1.5215222855043427, -0.5588937361066513, -1.3503972159679836, 2.171182949139292, -0.2453363535652907, -0.08653510394129756, 0.7695957910825513, -1.4768706215143776, -0.6969167584480245, -0.3734325558529093, 0.37109534061115623, 0.463638505237405, -0.3074503247530899, -0.37944726179643684, -0.660940859004471, -0.4140764127342789, 0.107399860161694, 0.6309763675775936, -0.7308398868768438, 0.9441387975507968, 0.7157600258083866, 0.7135853058888117, -1.1346431822937861, -0.5713552988179437, -0.1671177735972333, -0.2848300734825889, 0.5255329128097854, 1.1821287852832663, -0.4637729645720903, 0.1316412231658787, 1.8775369037241698, -0.5946025756107614, 1.2650675384963466, -0.7147755235296942, 0.7068928607935815, 0.36830793870610545, 0.9006658273891073, 0.21284264971249028, 0.18279728401733558, 1.5583717438262819, 0.4693047779278695, 0.5170577422735105, 0.6678095343032108, -0.38239343304011486, -2.0422334421577997, 0.9789572851171717], [0.32654193218670957, 0.6296233358048418, 0.48593240193945497, -0.8465677431980273, -1.0375768533268594, 0.2182038124494764, 0.30274320250598513, 0.4954469074518087, -1.987402787352946, 0.7851121472108418, 0.901283940218226, -0.2330166666511795, -0.7698326683940185, -1.2204471973977138, -0.3980444418171284, 0.09837552999034103, -0.18172664561527652, -0.09310903940327649, 0.4141252425696132, 0.8931197656779261, 0.9798169226404678, -0.208366026570307, -0.30161341551507476, -1.8457220942530546, -0.9805183974420416, -0.3823054309123136, -0.04520630472932426, 0.8204913107283097, 0.4741071309598906, 1.2227640656378598, -0.39064116700090906, 0.9428327965611258, -0.5341024442994967, -0.2152271608144068, -0.3488885361102828, 0.4039635211833295, -0.25449902780240197, -0.9289054762900197, -1.1054006262921052, -0.5496467879061558, 0.15142352370970127, -1.1909514685521, -0.47740085062856114, 1.5505610105169, 0.3524426463621292, 1.60540850324855, -0.08167748304678944, 0.3957009736560631, 1.305858450519215, -0.8902364031283218, -1.0138446151478147, 0.5284220821435522, 1.2256081623963533, -0.22858219115173292, -1.9137082287936829, 1.397330036416089, 1.4272285328442478, -0.1198819647371674, -0.41935825293946727, 0.8936927156344558, 0.10173726335468894, 0.10779642207105461, 1.6479666982270504, -1.9166136736589645, -2.0232261238938922, -1.0511774669893919, 0.7592191756450986, -1.477695116577206, -1.1176767221824926, -0.21201184112963642, 1.052039657785085, -1.1405529761644826, -0.10979067006014044, -0.7281470437118407, -0.45788969032509186, 0.8784929332822853, -0.4568155364067919, -0.5874449568461682, 0.3561438891025086, -1.6718227645909636, 0.34024617769532106, -0.23911709608626092, -1.1477524635818661, 0.24873569719854702, -0.868282779077163, 1.0827758187477228, -0.06014083124622012, -2.162845516050236, -0.07477822912632393, -0.14675633941542116, 2.470994118234335, 1.9007504131713049, 1.075055297009349, -1.746969786664455, 1.9035405031992254, 0.04615276802502831, 0.5677626111326464, -0.6245278743613789, 0.26392532237496735, -0.2282636253385471], [0.13411467428652, -0.931398089374281, 0.16305336597838602, -0.7550135556426972, -9.056697224079798, 0.9478073548821393, -0.6296684856371206, -2.0063622626850814, -0.06250567047694153, -1.141564130715588, -1.9263360473812292, -0.35862324473744706, -1.9747631178192082, -0.5590970848108225, 0.09113523028740995, 1.6009420800555831, -1.2820161409169641, 0.6605626188623577, -9.742249563561177, -1.1198740509373024, -1.630702454943505, -2.3198889482203913, -1.179320542286497, -1.115008245925094, -0.9030028077047086, 0.930883053319793, -0.9346803543575984, -0.24245510459332173, -2.0401872472186584, 0.5415952114356412, -6.655131258032972, 0.8348109570822662, -0.47652974610650434, -0.987508701315504, -2.5494632321567647, -0.6986446523576191, -2.0062375026173815, -0.13149769235307918, -0.17249657126582327, 0.5169280277760323, -4.6896922082543515, -2.684319617073469, 0.5045462471950217, -0.6405571513312697, -7.24466476230874, 0.26746656537310476, -9.091781252864601, 0.9865725656342846, -1.2598400006648078, -2.803893112436189, -12.051083025122827, -1.9449993102831753, -0.16074779798083885, -2.548322126687471, -1.4366101050586368, -4.848362351021624, -0.6234450299047833, -0.4520204860185571, -0.43442880117586935, -0.04698946942035457, -0.0012619477333892404, 0.9992901583553415, -2.3617694385641497, -6.237720751612268, -0.02138245373486307, 0.06111978730865373, -0.6210087633190312, -8.817093601178401, -0.830874764901529, -8.15411672328304, -2.121202751630488, -2.521657547075244, -1.9342800554726962, -2.7727912758018993, -2.5061138931301885, 0.1536960592330913, -12.183653670014198, -2.1219536768073364, -3.208977033549843, -0.4337245563508448, -2.6939830490141317, 0.4558630388190337, 0.6285961991744431, -1.9563750293040576, -9.948145705158456, 0.5713798180312516, 0.14622741433243885, -3.4115464541874965, -12.05628331956894, 0.05596265076253408, -0.2407402234296034, -1.2159403198180485, -1.3408583233884954, -2.307537689575892, -2.203572612592048, -1.2131248311233815, -0.9386475027807266, -1.7072445245942562, -10.442276282384796, -1.808693797923313], [-1.4973571184567054, -3.8908240682813675, -2.975619306792572, -1.8285028501436367, -3.8414860763466505, -6.514360890693503, -1.543665823846764, -3.4194498154977335, -6.910182440124808, -1.2670256571256]], "number_of_tests": 10000, "number_of_trains": 10000, "weights": [[[0.07193211614730194, -0.037576258996522505, -0.039527446082781116, -0.05563675920776474, 0.06267997336565016, -0.011230558036456104, 0.04157189991741646, -0.01005502849641414, -0.052667718266232705, 0.0474979754003625, 0.017635334415965556, -0.0018496370171865977, -0.022787936420922184, 0.054250823055826444, 0.01445353724707348, -0.06808644494044218, -0.050406317905013744, -0.0017552848837669222, 0.05408177924316271, -0.01524255375260148, 0.007484407830800413, -0.06973266075374339, -0.024706723921500764, 0.021589355434367002, -0.05268634970406959, -0.001032663857342438, 0.007457207309724923, -0.028598451147900262, 0.012803100778305406, -0.01945868455595666, 0.00030391637836885534, -0.016612727688604022, 0.03549852861361523, 0.019624668886623214, -0.04489791507344154, 0.0064982347588122095, -0.01938405836211195, 0.046954697069678274, 0.001286701692077744, 0.0373132930427237, -0.04848038359649737, -0.03073574787022646, 0.0003780084822367208, -0.030559657407038213, -0.005920893650760454, 0.0314945334687052, 0.03778445474925936, -0.0017815563555954247, 0.011065804008258621, 0.011521889039150577, 0.00610512443743737, -0.004597663697067723, 0.016334487367076732, -0.0529801845469024, 0.06448354288804711, -0.040932897275530795, 6.069146439796174e-05, -0.05227164851941403, 0.007316157435104822, 0.02813059637491361, 0.047418628235495044, 0.021965901048720145, -0.0387949531969209, -0.019483810508322878, -0.008739164058305045, 0.11527297368584857, 0.05199798511177453, -0.03483497767648119, 0.0023213689442237325, -0.06344940809271869, 0.005110097888019936, -0.06854356798021449, 0.019478418771410676, -0.0006799661568799703, 0.00891808298032388, 0.011662855307861488, -0.00601454359053434, 0.03533041038871096, 0.03278498556863171, 0.023835772980527723, 0.0672619019381777, -0.06670216748222021, 0.022221960193686097, 0.012638592158553993, -0.014030516521879859, 0.03721796071739178, -0.018055830332112523, -0.07178055224506813, 0.031714300705376515, 0.012633436557601066, 0.012950917489085868, 0.021373193153198074, -0.022147069386195525, 0.028691806339394346, -0.06431834584768777, 0.0009731006040557461, 0.0030355418649293375, -0.026474712654871033, 0.0061476967436123915, -0.008612074406006415], [0.04823186977651511, 0.002589758332244187, 0.010271935082838695, 0.028629811563095225, 0.02460875715189209, 0.021231542790397222, 0.0009681123613876498, 0.003748958555114253, -0.05959488298551615, 0.025751457310618463, 0.0016701048613107197, -0.012166246566613878, 0.017678326253893564, 0.028785103118408064, -0.03369275760598058, 0.055965803989871485, -0.012661290049101496, 0.03154957570974927, -0.06910161452820435, -0.02196193716851947, 0.04210694881212905, -0.024714892561120562, 0.038251039016031205, 0.006186262790271405, 0.0822998923248135, -0.015753311023071228, -0.01487845401449447, -0.037776181150556684, -0.03251784207525943, -0.012502474718806085, 0.02252499313262861, 0.07033676661476242, -0.018892622496724208, -0.015017497173120571, 0.0491684393582722, 0.004885333867064498, 0.02922612550334951, 0.007330902448112839, 0.0053357304219116865, -0.05435418627826953, -0.016865493873006673, 0.0015446597486607424, -0.02299285676937137, 0.013770464305724468, -0.020113927436737237, 0.06789377970705339, 0.018804990475924446, 0.05930408238857575, -0.05858122502217115, 0.03784799193653185, -0.010235745151495662, -0.004072731469365615, -0.018039003728522688, 0.04020113645154905, -0.013227199540742222, 0.03346102324381117, -0.02565756770017155, 0.04877101442581652, -0.010183463442758235, -0.03857026065223104, 0.04209806876126149, 0.014974611305671388, -0.006862600759335722, -0.06202672292660663, 0.04889299727147811, -0.00277985400073272, 0.0014085607652285295, 0.005435936942261232, 0.05539326459091873, -0.012943893648640013, -0.008696831086866069, 0.009254620014398892, 0.01766676858871207, -0.0475060562754912, 0.0017850996016444804, -0.029288360758231286, -0.012934313558117019, -0.06605578211487337, 0.027923583630893294, -0.013636669095854793, 0.0616393779017227, -0.009205036272147568, 0.0030473232216847433, 0.03832302567082025, -0.0022538153315873554, -0.004085352483011387, -0.015266064288590626, 0.014818924238685627, -0.061944476507698555, -0.024297910172022544, -0.054670004822715154, -0.057418209627535924, 0.02472631407706105, 0.05449221413009337, 0.005953649851881032, -0.06062754354698973, 0.01675664199233956, 0.02849271054131408, 0.00849468187875482, 0.03625745399315276], [0.0024465943244031656, -0.0517984533915828, -0.030885406969733943, 0.008528052373365683, 0.09632761203661469, 0.014014122041865858, -0.02602668488969251, -0.02387161000354228, 0.016272356106302534, -0.02272887065593852, 0.003034247298603206, 0.018773586663681, -0.03090202463154876, -0.05514044661135623, 0.019597083321607024, -0.045939547370506886, -0.05244697261679103, 0.02840192963909214, 0.031055533828853205, -0.014899372932098403, 0.013651334627319604, 0.05779546806893741, -0.021123737554916984, -0.01485655790808927, -0.032153082611171016, 0.02625528700244689, -0.035726832565627246, 0.02194756312671854, -0.05827834829181077, -0.0149324176662653, -0.01371214040108602, 0.03244179618876303, -0.0253345863735787, 0.0825851661972368, 0.010204492674126877, 0.008879561110355422, -0.0027819031965527524, 0.018894680906216942, 0.07374999139736475, -0.028940536015489668, 0.031059073716170397, 0.0411468929579346, 0.03123110721000079, 0.009427775264472731, -0.03762488631332361, -0.050039410977657114, 0.015302663831589123, -0.0478403436282941, 0.06979904412758883, 0.07534107048657272, 0.01683134226257794, -0.011710227520764924, -0.003662213013586721, -0.01512992510395914, 0.004744286107634795, -0.0014608532094010362, 0.006129095221609138, -0.017716969501347133, 0.02882996696866709, 0.029654852735045718, -0.04018739453606712, 0.008002775633801721, 0.06032835693521179, -0.01648851792271864, 0.0047990967658908855, -0.04929654950009847, -0.01431655233161, -0.0008502538467955033, 0.02383872790578173, -0.024139677105280265, -0.01190928504594413, 0.006894977869483946, -0.058768370872007966, 0.07386944535286527, -0.09940921864149367, -0.07751777918799002, -0.07211993024653508, -0.010270324022467197, -0.012257099031168398, -0.006910969308647025, 0.017615624903497013, -0.015939455212843987, 0.0840602883610473, 0.00766885418434019, -0.010915836686849827, 0.0006945313004436631, 0.004941014994924925, -0.01504285226818561, 0.047496992447357465, 0.026705068129816288, 0.0057498627552639995, -0.026216372532938983, -0.018400394158081007, 0.03150748374050264, -0.04795299024455959, 0.05410650181913349, -0.039143044783739284, -0.008128486099282026, 0.02157864134572386, -0.017618880678945868], [0.05125819231457557, 0.019819443827211247, 0.049464012144232364, -0.03644435125084245, -0.003427636148015046, -0.056737207266932314, 0.018737266070337422, -0.029052707470907616, 0.00020710861871950666, 0.013332350524192644, 0.016443189362969127, -0.04144745399045939, 0.017281346717797998, -0.04447171154168688, -0.00717583570552199, 0.031094492372259655, 0.0038930930662343806, 0.03168580439026614, -0.028163285319455243, -0.0028296698175226697, -0.029378331631302892, -0.026930692206451407, -0.0007434534139969472, 0.04236038242129397, 0.05673364777679738, -0.02613240098882838, -0.023166400830438943, 0.033831112885774194, -0.02113689292737675, 0.01824559680809899, -0.03876439674725686, -0.039407019002325946, 0.051242195063418775, -0.01110933987146285, -0.05158871332415897, 0.0332343700659116, 0.03925626472949133, -0.0009665648334166302, 0.0013930865606110337, -0.005646992077910403, 0.02733546728516485, -0.043305634923407214, 0.02455103075323352, -0.006981579618448527, 0.06477800887582838, 0.016147616748030433, -0.00807535504301001, -0.007237682237553619, -0.04344179555100538, -0.015125255556736791, 0.006905756004717125, 0.02369715822154843, -0.0065738151679580045, 0.016833624683756307, -0.049366466475904314, 0.01000606607901564, 0.06834470183382108, -0.03020588432804124, -0.010549624114369395, 0.022361449201949338, -0.007162792161646727, 0.050673392568546735, -0.008989848605463318, 0.006211949564913902, -0.05073312379607967, -0.04792438839680032, -0.01853958592304789, 0.06517707365754008, -0.02730451979083895, 0.019592940893315022, 0.03801349548086038, 0.02656025952717909, -0.05732297239991844, 0.0050996943544993, -0.04579429676709833, -0.03885247476209578, -0.019428050962563975, 0.005679412406401132, 0.03216704686540932, -0.04918640685054271, -0.011815149580592535, -0.03011867548433691, -0.03565261041030706, 0.04523194609470047, -0.009429703802068005, -0.08662908942826894, -0.00669606953573487, 0.015432833333654564, 0.03156279348762796, -0.03454691082746878, -0.026555943693766813, 0.08753426195975832, 0.018180472919866037, 0.06626094807424704, 0.03293298431700703, 0.046354388791363894, -0.02000256598707855, -0.017992862634325226, -0.010707927410636432, 0.018448123041045268], [-0.05210349398765386, -0.026972239875632964, -0.0167580735682719, 0.017949251902617914, -0.015975683667466815, 0.021366411685506823, -0.04647678706639572, 0.034627669701265754, 0.0004664067494157862, 0.00307442107643376, 0.032960257329607515, -0.04786230690778159, -0.016958402431249422, 0.002223254388409923, -0.04160748741554204, -0.05024108114775487, 0.014322114488134302, 0.06515800912368484, -0.028342975951193197, -0.006533413432851829, 0.008574395355471364, 0.04113914454158255, 0.04028972139918194, 0.004167823595373214, -0.04558131555632322, -0.04236627035287984, 0.02185879388899304, 0.05740106197206831, -0.002608711729071064, 0.011806312138161686, 0.02701528851123537, -0.004883763569319726, -0.008370270814336648, -0.06678939186333392, -0.016756026572653675, 0.023511079511154807, -0.021651121506706693, 0.04649556062773356, -0.0223940480303651, -0.046495880298111254, 0.024569191559244287, -0.051472616369942284, 0.04142485335077636, 0.035333650885100785, -0.07434608394903455, 0.0036337888635482405, 0.03108250689379401, -0.039648489741699044, 0.009912548556509332, 0.015394057996389529, -0.007632138091436527, -0.07901840026620718, -0.02330554631518293, 0.009842484732236393, -0.0015123927059743042, 0.013521000451338857, 0.008455907018669944, 0.045641578386637134, -0.03486940865868884, -0.030325156736885694, 0.04114299179720229, -0.0009446654071011666, -0.025347271234002877, -0.02563711886442429, -0.048043500020169494, 5.1792848129740986e-05, -0.03834918564754489, 0.020327794514773533, 0.03608496209802042, 0.001177367357503077, -0.05438381944666429, 0.01984091865293347, -0.016480515274018843, 0.020075368066804444, -0.008150896399279175, -0.011591500730464147, -0.06245820807548303, -0.060130986354092156, 0.023990114432189916, -0.03702955125165959, 0.05092991482962315, -0.08559941214314642, -0.03217226509951759, 0.0269118467975919, 0.05218947814282714, 0.01680629368904484, 0.0498681172146653, -0.07177978867915266, 0.06085876020746322, 0.07910564382456553, 0.004833845947653018, -0.026353916540213698, 0.037785254895481055, 0.03596204551652256, 0.020089505495738614, 0.0057733381222396345, 0.06300451270270084, 0.0033359739328430904, 0.06420806918557988, 0.007905714062292207], [0.007104384726356457, -0.0010856554907175474, -0.08433403300279115, -0.0019224568674496292, 0.01895109630450598, 0.04265831429018964, -0.02025136894797537, -0.08887687843611117, 0.011872722877741682, -0.052496486647673875, 0.022385495721977195, 0.06502198551087142, -0.061597118471097716, 0.029799344603885815, -0.03434433716622997, 0.02912639733490208, -0.04026809873094062, 0.017373754324716575, -0.022020630964822874, 0.053773137481340084, 0.012002061889807993, -0.009107577555076156, -0.0011087191289655476, -0.007348436601492905, -0.05740409243975001, -0.05186999931772779, -0.007661741890540451, 0.039567858731644166, 0.03094235736199298, 0.004950179314288643, -0.039581479665713036, -0.003555305988168233, -0.03153719517528945, 0.03579530325982562, 0.012986561910511386, 0.018807750904059332, 0.06858849619478671, -0.03672274613771417, 0.00978354043041252, -0.02355213278636871, 0.03504414285637, -0.022408818097558212, -0.00311453963907894, -0.02266728358620553, -0.020563106988777547, -0.00990313719319611, -0.000827347296617704, 0.09273718831934476, 0.023348623479613313, 0.043110490795678344, 0.03513763556692243, 0.01989103912765778, -0.009668882211872789, -0.04248908717788429, 0.01046850075101456, -0.03549925561416729, -0.02059070407536571, 0.05631235805914565, 0.04329811759445351, -0.0341549549424908, 0.0015547724902824568, -0.039792552877564384, 0.0031792737289651827, 0.015737812536066716, -0.01937737378841085, 0.040708413116245436, 0.036478572714026665, 0.02257955128898577, -0.05747488406808264, 0.023770744126554215, -0.04584467124215417, -0.08166253461203586, -0.03245283906603731, -0.087106830874772, -0.008900777783975168, -0.0223809573229861, -0.07680980250896062, -0.06107859261800805, -0.011483399803448011, 0.07041762205086205, 0.012820589385910621, -0.03565616065467615, -0.022379620635048714, -0.06296685424006213, 0.09645911946661555, -0.057396408998833456, 0.004415693467475267, 0.033029902426346, -0.04092867984363435, -0.00738474171635452, -0.05123316979749198, 0.114404704710388, 0.062022824194706554, -0.048993930894116494, 0.04322389353250455, 0.009721026237016275, -0.019320774572260578, -0.030392694051722343, -0.030204746036505935, -0.01862988034695839], [0.031666156948068236, 0.0009151077408605565, -0.01988569728406474, -0.0034974406723853233, 0.053008625892589485, 0.024586680569395884, -0.05064951232215732, -0.05426117171566571, 0.017348257548552494, -0.03750360385195596, 0.003647298302990223, 0.051980937254826984, -0.011171750696755725, 0.055110192438364146, -0.020567622328040342, -0.011207156721809285, -0.00861159108280072, -0.023859652400039576, 0.04382745482396421, 0.05143310672285499, -0.00030612581079333625, 0.01361419128209227, -0.03489171834587525, 0.011574409475736678, -0.042450148530697555, -0.014754661540568462, 0.04672844793081914, -0.00439480954002951, 0.03947373746771556, 0.017828192039617715, 0.039934679690523424, 0.012342249773499807, -0.046768744770280986, -0.07207198612571503, -0.01628875065465325, 0.0018569775908123562, -0.012531936817874898, -0.03300953186427697, -0.07504951385141577, 0.01816762810249209, 0.07674419457652328, 0.010299444378193691, 0.048140077495910844, -0.017834630320013492, 0.015280450240528945, 0.056579869507274484, 0.009748896019320543, 0.02052855300296052, 0.03850969231407637, 0.017643041644694005, 0.007619232179966055, 0.02730348017515934, -0.010227116542584042, 0.01662424289282326, 0.03571676227034123, 0.08900732031645944, -0.011771822830169148, 0.009802881464604597, 0.03313453435969489, 0.025034668426838238, 0.009825709932965079, 0.014987321630087416, 0.010712160315978934, -0.017548762324452356, 0.06318092463304896, 0.017466057302416522, -0.02161201405339463, -0.03194043554145934, 0.044252719162534766, -0.047132451098370116, -0.027635846571995706, -0.01403120132487791, 0.05069204064275915, 0.008500816070123922, -0.06480732995252496, -0.007784870487738555, 0.02026220392105652, -0.021521644007778853, -0.00594631204600614, -0.05739667808900112, 0.06610482444737761, 0.033523585220698704, -0.028880671897167875, 0.023416651696304334, -0.011845661482397943, 0.010082480073581956, 0.024756563434409316, 0.02400343173445664, 0.0490623625829275, 0.05104846750567658, -0.04325263341318557, 0.06047037738607505, 0.008891535662781464, 0.034596868193325477, -0.04853945470585311, -0.024515156750872385, -0.04374259307093492, -0.05341231669343704, -0.03618678955495874, -0.03400320592618449], [0.017807713557328735, -0.0237339459897788, -0.02330866463891248, 0.05888996347147896, 0.0049394557503669445, 0.05020494658320083, -0.02944663506122511, 0.0018835362337972764, -0.058681242513505566, 0.020575747289172445, -0.051153599551176994, 0.03909808926428186, -0.012948953871082594, -0.01163655933367872, 0.011890831213916589, 0.02175630382830957, -0.01909550841126235, 0.0010281498988856511, 0.04015411134653929, -0.05052501644616507, -0.024995375395231452, -0.022472721887312898, -0.07239385627620178, -0.0014498805691779014, 0.0035511649804479345, -0.006233881732927569, -0.0123839089715243, -0.010326626947317584, -0.015056804901596225, 0.0884489648500433, -0.03782714990493737, 0.02743270394762917, -0.07178703405415476, -0.005653344683586099, 0.001097099120783885, -0.05116729118376979, -0.0031293099533950606, -0.033003073572935124, 0.06839508674075881, -0.009887416484811729, -0.015844730862266242, 0.09418540140025589, -0.01784228006348353, -0.026230425298692257, 0.006665415937981942, 0.04054430607321871, -0.04854510023471826, 0.037524329779989374, -0.004959788664990775, -0.06279566878118907, 0.060160524089820304, -0.015338415640627866, 0.030951909222099405, -0.03230499021475065, 0.017853214821290844, -0.027718991505323188, 0.05154303193418437, 0.030478372155747058, 0.08937088976843567, -0.008053526174888439, 0.011887151305094256, -0.04543169913363175, -0.09351172780495286, 0.036773660918673845, -0.017521093359532735, 0.04106914152092075, 0.06837938480394459, 0.020559202688153744, 0.03450364208269932, -0.030872835085097854, 0.03761865139773632, -0.00853159160915725, 0.019630421762034625, 0.0624739149481119, 0.01971156778243986, 0.01979100009791659, 0.05337713177523862, -0.03557621904259705, 0.06356573841140253, 0.009561895985588242, 0.03179572440650859, 0.054522427666705744, 0.00043854271024288576, 0.021155238464796784, -0.007716046634838151, -0.037833884812547465, -0.004274456821074193, 0.0030356396573593004, -0.006947763763988613, -0.008578472429830578, 0.018281559714377466, 0.05638762413218411, 0.004241395319983438, -0.02525100247836504, -0.012254196475194896, 0.015072738137597028, -0.02016461868538034, 0.016304836960779064, -0.03953307093350184, -0.006985550056036828], [-0.04967624382634882, 0.02729203107416057, 0.025124773409844526, 0.004422995883398355, -0.00655432044011722, -0.00658080057717009, -0.03749044481004977, -0.0011983527015663156, -0.041852892598763375, 0.015257415007116514, 0.0012917938155495873, -0.004069888755258696, 0.0016979707147939981, -0.012823969660221807, -0.021332202564324637, 0.04989951910946931, 0.01778906093774474, -0.028304553381010025, 0.03204240964529633, -0.015899750404107547, -0.016937963830987817, 0.031321484075958465, -0.04926627590248581, 0.06037714927922232, -0.0014410090546215486, -0.019959687162815026, 0.06378226937325578, -0.01777796221769071, -0.03524101682497762, 0.008142245851857783, 0.013468285494637789, 0.00010575177477515293, -0.053024721500026496, -0.04285477789870691, -0.025801192343206512, -0.02971858557803537, 0.009853141230967366, 0.01802769595356699, -0.06484881782665158, 0.000510368609317226, -0.011417192736043318, 0.021670972295037994, 0.02042398283099984, 0.03975633309419374, 0.04057654333766864, -0.013108775367406721, 0.002112193088246283, 0.05228148752432156, -0.028172703417894795, 0.06808330266698062, 0.034129119131629075, -0.02825704217863556, 0.013817827017795135, 0.028656124241589156, 0.0010790586794168682, -0.0077018518612989445, -0.02320717622081387, 0.017109018451195085, -0.03340882855390382, -0.024637441250365655, 0.0016289391537925742, 0.04978078522051563, 0.025879407398731076, 0.0625140786645421, 0.02445741187284742, -0.04219118153734037, 0.0045617483247242475, -0.011325013000985571, 0.018361917688917245, -0.016558193301788003, 0.013785700538745227, -0.019254124882841134, -0.0015926612316147274, -0.047419359151888385, -0.04241519676866984, 0.002366440995550146, -0.005326607610128963, -0.008526543452354093, -0.03583369883422101, -0.002061625110319208, -0.018503606565068543, 0.005016805896391315, -0.01423239737030637, 0.01667374488161926, -0.014302464374771132, 0.053823650225542106, -0.035138923512270145, -0.008341703689750984, 0.05785440559265485, -0.002176986703875912, -0.0026391221384449467, 0.0069892720510185925, -0.03984645861926433, 0.0099025885384744, -0.006087532346328554, -0.011367947747053733, -0.01121457249423984, 0.018524294489534392, -0.019118808556664205, -0.028039218790530576], [-0.054237272749241956, 0.03298144623511399, -4.303170395513067e-06, 0.01813266319565657, 0.048654653181989894, -0.00562853147754816, -0.01790896001696473, 0.070132818012927, -0.02217493030246434, 0.015849092896699418, -0.018754839474563446, -0.0009817862595735102, 0.0459449081325476, -0.07043247762509279, -0.01496577969824473, -0.01785758060627733, -0.02321513578106227, 0.032175881927492635, 0.0013289907857258448, 0.016825640410633162, -0.019741005813700568, 0.0037022461559991907, 0.07853728030728058, -0.023214819654520494, 0.03423533888725246, 0.034308472180165646, -0.047804502974071135, 0.036979190196139426, 0.017334647691208828, -0.016782420003631005, 0.005350671819467922, 0.0006784949642159201, -0.03829976659235832, 0.032666317791319344, -0.027411295807919598, 0.048147510191767905, 0.020081356307126336, 0.041875146146293424, 0.041313756917239756, 0.05743244071679949, -0.0012953428760212968, 0.04104560380204012, -0.008574265275037848, -0.06320846819512686, 0.015810671714348693, 0.0614431946882845, -0.00856341226069347, -0.019033474352317503, -0.03213464531887169, 0.04983134391504688, -0.00676258817682585, 0.006068988160584554, 0.02738703076407715, 0.033729942836783475, 0.021652729797144173, 0.020034320460024648, -0.03780350806696525, -0.02710266297977271, 0.002626341000298478, 0.00032312327502261224, 0.03131865657202691, 0.0020628952183457984, -0.0003153010568893132, -0.033645572973161744, -0.0434986898885306, -0.043715833146842485, 0.06827244673252467, 0.06019264794079711, 0.024972059220926685, -0.017087866066794948, 0.04322752690201689, -0.05000042235721931, 0.009178904046119355, 0.04831054120284071, 0.045215989681944666, 0.01939259373309164, -0.006311985729555909, 0.027205498262807888, 0.014362394120503268, -0.024932887426935526, 0.02591738605836334, -0.03916561771420209, -0.0012947935410112129, -0.08660493158541663, -0.05187094048418506, 0.0372830023632749, -0.03384116535184503, -0.0665889917139527, -0.03504002437274118, 0.013657529997301913, -0.05398888586676662, -0.0808983387349083, -0.0666833186018147, 0.055775560660738265, -0.022604741218030414, -0.02652908447987624, -0.06284239545326728, -0.012670218317150692, 0.020076524563164787, -0.03611298150800142], [-0.02390181267049391, -0.05913660465734443, -0.030929628466232623, -0.0009699871658763291, -0.017201235699252613, -0.03166713789462891, -0.02505813979163867, 0.0437320631484393, -0.051170156868479574, -0.01914998118573307, 0.017210085206467836, -0.02671394353453035, 0.032729189323967824, 0.022578631999498142, 0.00640413792442964, -0.022879766499415418, -0.006017983148514024, 0.021881480829315406, 0.022559153230365305, -0.0197801616117354, 0.032274835145589015, -0.0035402954294931617, 0.028997292988748664, -0.01912796376276106, 0.01623070735391865, 0.053440423917990816, 0.016524363859841105, 0.02959583200326511, -0.0010624603929441233, -0.04744983581379988, 0.039758777332793496, -0.06678285777301587, -0.002721122391636329, 0.06947627670163536, -0.04897656736509949, 0.05538161732263355, 0.0027141448650231416, 0.028566972835943803, -0.03785238958655546, 0.0384728722823481, 0.03047525420216217, -0.0398633762732163, -0.021385884760773244, 0.09059191330768158, 0.029525451682573443, 0.00810866394219714, -0.05835219490476351, -0.09500219441610674, 0.0027145169857353637, 0.0053157284781341655, -0.01457266032448086, 0.012291007483317433, 0.03671236878505092, 0.009120207804095339, 0.023622471409862168, -0.009983137350295315, -0.005686381993157758, -0.019366148441583648, 0.018093533154531254, -0.021911137447703642, 0.03750178584017458, -0.05346479057703218, -0.015207744358577333, 0.031257914229626836, 0.019650677131298092, 0.050578031899192265, 0.03775056708296192, -0.027224556100432104, -0.07073877614727775, 0.0021510758577439754, -0.001213580815123972, 0.016889760185906696, 0.021082906249007285, -0.009742196107890767, -0.057493458696821376, 0.031295298917352846, 0.02161687492619604, -0.05334055638629447, 0.01769484332690995, -0.05504098428807848, 0.009481862552871798, -0.012736280912031207, 0.00876664172920559, 0.05963348817946353, -0.006707241596460266, 0.04530790615132174, 0.01011768262389828, 0.07032010762384899, -0.03577160829309276, -0.04211805519335886, -0.0052094861080788845, 0.0869202629783821, 0.0002496436195518451, 0.029060971610247163, 0.05315225084844698, 0.020072337485883, 0.014896344703304275, 0.016591260812061002, -0.02416024484708786, -0.01707400709997112], [0.05931382720417981, 0.04329536678140668, -0.04679518452710694, 0.01980305915161399, -0.004377969551252304, -0.020523221992842143, 0.020539384988016208, -0.021703257336447544, -0.011784045960195107, -0.04710519957101788, 0.024068836946869496, -0.018144778405162508, -0.03690043114044793, -0.039895923821771685, -0.010010304704864382, -0.026106775932873683, 0.056685989859887945, 0.05317113773108644, 0.03720292930483838, -0.023557799047966514, 0.013335398486123138, 0.060860199048642774, 0.035449772142237705, 0.03518117924156281, -0.022409242091593493, 0.015845329410806276, 0.006702792519292165, 0.017319101652032463, -0.0034355530435837404, 0.019950505537404396, -0.03755488443944759, 0.03406565027984315, -0.04249309482082815, 0.029087885505677986, -0.06213989769072461, 0.02359034576838155, 0.0693721446034517, -0.03027432462365998, -0.006301416404340268, -0.014599692009020756, 0.011799784661341687, -0.06098996685783374, -0.010419126302735986, 0.016303254258367227, -0.0008332553253327257, 0.021724819348793546, 0.05473840290947627, 0.035252384731906033, 0.005554368882448718, -0.034875606473797977, 0.006480267892196704, 0.07281238210227017, 0.09503015263260518, 0.027821316048887476, 0.0977374148024041, 0.04408605961315382, -0.0509731612125359, 0.04387637313452228, -0.03926485803392399, 0.02239067159715669, 0.003048189436295892, -0.018473227924374218, 0.04755639020352947, -0.01989504539116126, 0.027022400064851897, -0.04021547451561653, 0.055845914168386884, 0.05598700303054483, -0.010405834360899913, -0.049099103432427606, -0.00027924544062983136, -0.041140621853109245, -0.024746066172647057, -0.03640572390096356, 0.04410088119653856, 0.0044144560990632, -0.012263639426748796, -0.02379538247491148, 0.036114365677959746, 0.025457369751178377, -0.050069035542294596, -0.010778519950349622, -0.07551289261045242, -0.014355419951779566, -0.028720476999615944, -0.015185483556539746, 0.0016884440757232724, -0.024450625579016037, -0.07126910049619457, 0.09197089749321859, -0.02984662429989589, -0.02458605371643148, -0.0027085457002484765, 0.03402181418235305, -0.03621100748555593, -0.04271452503361641, -0.017827565940750786, 0.026761911915344237, 0.020778080372377647, -0.024551293979190373], [-0.05419099560286793, 0.06951153462633008, 0.013898582525206066, -0.010357030721078964, 0.016729615831310347, 0.0014916237286485739, -0.0016822697239409243, 0.04173436506520674, -0.06642423672295404, -0.03986905424122943, 0.029322503424444462, 0.034776480794852925, 0.03887173500108299, 0.033760973157557723, -0.01632276451180888, 0.03135056995383124, 0.05247790228844233, 0.011798344517978399, 0.03949592041984411, -0.012092032257118019, -0.019799283090033107, -0.038059750405171115, -0.011638647155946, 0.00642091227799504, -0.0956496315010876, -0.02268024151539075, 0.01994539380942608, 0.020434745603269907, -0.01846254582546201, -0.020604309226689706, 0.03608490595587353, 0.012912588041211669, 0.009343518493754793, -0.06501596279028724, -0.01885998354667768, 0.001500208824107511, -0.013548673653080665, -0.012227249868747587, 0.032286090889279674, 0.038960773052586745, -0.03543879155849578, 0.06328286390150997, 0.0036672622288330503, 0.03944870376394678, 0.04204832134365904, -0.03146403600380488, 0.050712255064473966, 0.0314482024739259, 0.0007528254457285569, 0.028217051677802623, 0.04686107878816185, 0.06980528144240589, 0.001261248460701527, 0.02667605308312223, 0.0026797556209756223, -0.07454563889220016, -0.010945173888716997, 0.00799585951840832, 0.031479356716409904, 0.07769355300003952, -0.014859125737508368, -0.0004515242317275639, -0.032369229193577015, -0.030206899490083084, -0.030994423043086052, 0.0042356656793133395, -0.025630478356998044, 0.05380205780071318, 0.027896980000418934, -0.011414096320157734, 0.03679678538158837, -0.02014502185919307, 0.009905704045878207, -0.02050192908824564, -0.006105162359140559, -0.0018981521472813375, 0.06433168228351673, -0.047558269854212375, -0.04600928560185184, -0.01696843267845874, -0.07349205503420989, 0.020828800227284526, 0.016000851791855432, -0.03325168508170467, -0.041521042686015384, -0.028796367286414853, -0.002186612953850086, -0.0009628000873414831, -0.014336394671257987, -0.038147478278603424, 0.041075027461690304, 0.004645249004245842, -0.04009768461021612, 0.03399951888129152, 0.007696734323743792, -0.031729053799353174, -0.054967895770662405, 0.00815218461947585, -0.05411828419869004, -0.06447390850577368], [-0.0012211525775794603, -0.00038707943202116437, -0.012729356903525573, -0.06504115093214718, 0.017079909159057327, 0.02839498864628892, 0.04574081341351284, -0.01463315222273994, 0.06392652258020287, 0.0009789916287159322, 0.006570126122826576, -0.02318481351574841, 0.008300959083663451, 0.04865136719423842, -0.043510059674062976, 0.009946353544271936, -0.03409062058902186, 0.04620945493152318, 0.015694537116267136, -0.02958519685949933, -0.0692315905465457, 0.07060871267021866, 0.058368493256510154, 0.0497526327980125, 0.04709733099043637, 0.0168709848691952, -0.00035563350181113654, 0.060425354817111226, -0.005694022548093569, -0.000998573006678206, -0.01343998374025975, 0.04785964160549985, 0.007165391966736528, 0.025845227341307942, -0.006995845444145766, 0.00606230269250465, -0.009619145159587603, -0.06169231930034382, -0.03191446279799915, -0.006036186488331765, 0.022537917659687916, -0.00755102688175872, 0.008456323555177817, 0.014060287171588717, 0.013781593797115748, -0.05782370582576009, -0.006042253563654767, 0.027943576691591247, 0.0705509437029167, -0.014387025297985266, -0.013656625449294756, 0.048459521263333916, -0.023539832074284048, 0.008428418188821377, -0.010344164833262134, -0.05377345014735956, -0.009004180915300976, 0.07804053253996208, 0.0658895249634318, 0.0015891983671473063, -0.018707777129696842, -0.054412843224785894, -0.012958435821775607, -0.012326648803168236, -0.03913566537621918, -0.012242037102671506, 0.03278104323184217, -0.04139658467109452, -0.003647779000879099, 0.028334514320441748, -0.033131333470595485, 0.0009754478885375377, 0.019976496620120614, 0.003832720618913739, 0.011269511657866762, -0.047919383850859074, -0.0323663674709666, 0.06176535108812684, -0.03135296913076403, -0.007933896410348607, -0.016291268554216802, 0.005254210942531344, -0.044554598680037326, -0.017870742786428816, 0.04341064497674885, 0.029594297904758822, 0.018099611053883496, 0.049031457797890615, -0.0584900036949108, -0.009979193152855148, -0.03873805809443106, 0.03156709702429633, 0.02383550662268043, 0.009993952840340485, -0.02395300795453212, 0.07118847323494, 0.018366740316286906, -0.0027113052144047134, 0.007493930995837761, 0.04831081526590356], [0.04121784214526742, -0.015233422319635613, 0.01643270441908761, -0.027526419611310502, -0.026617720117242765, -0.020305452153019942, 0.006804104869518735, -0.01795529522932182, -0.03521232616809229, 0.016378550882943373, 0.07246270157072826, 0.013736213942746232, 0.03525304341370627, -0.06505899031743896, 0.0025428744676539855, 0.03694702573876763, -0.005043995156769032, 0.08890593482820143, -0.011647422762022458, 0.015048690670347637, -0.05533810143278685, -0.02336864654770469, 0.006156624248440031, 0.0678236019449416, -0.017598591742103528, -0.03358137190945934, -0.027879592384334562, -0.0729861402485441, 0.028656602026460216, 0.05775650676138053, -0.038341224604398, 0.031099822517955334, 0.03599979098146199, 0.013726543846107723, -0.010936672989915587, -0.08672170113106697, -0.03266927091892355, -0.03905848911381579, 0.02597975769199325, 0.014796737823396557, -0.08437231741414226, -0.0291333154470659, -0.0025423550716368896, 0.0655820177608719, -0.02115169406433044, 0.05014272221244175, -0.012847062249129959, -0.01760087773253498, 0.09135991798398115, -0.0009672254360621774, -0.004702012037505368, -0.025620009190062357, 0.016613874943970194, -0.01063553640640187, 0.04711233554825116, -0.037261056740830266, 0.004537476068064859, -0.027931556218091267, 0.03686480236527712, 0.07754516423736353, 0.026429745601584852, 0.013424201249293837, -0.02941076265445028, -0.0044149233719870335, 0.03604230609420543, 0.042531404543480346, -0.01975781089918989, -0.0011521893430888146, 0.0004908829093909457, -0.04258052404540039, -0.0015035594583886393, 0.03563225163204955, 0.027743466135483414, -0.001962412640903305, 0.01271121646498947, -0.039079308838375744, -0.059561320708842645, 0.012287583030645742, 0.0239392948218559, 0.045711281946435756, 0.004974587861443104, -0.032946763882949745, 0.06319660004543827, 0.10436204829387732, -0.014782464135658637, 0.0056502054931010315, 0.02294782649582329, 0.009159186968601789, 0.0569453959075694, 0.02074337844091437, 0.041971540857263186, 0.01748846434803873, -0.01200967432866533, -0.03496275721853967, -0.028916737672867312, 0.03683632256456392, -0.002167210666879558, -0.005223756927158321, -0.04293669591578988, 0.014286830455308], [-0.014700892920238257, -0.0009537091830813428, 0.09366317916233712, -0.041603437127084544, 0.02309750665438466, -0.016931302871563785, 0.006961916121291933, -0.011626591711478281, 0.06894277690040942, 0.03980208359075362, -0.01023454619309426, 0.04035455600106147, -0.012363816679773605, -0.056915373127594586, 0.01900296018484176, -0.05695889936222023, -0.05063365306087797, -0.0009035091846281513, -0.05874344463536166, -0.004168734173025796, 0.033139878009688976, 0.02064033816586004, 0.03452185591458368, -0.005999087415625357, -0.023922955229562417, 0.030873491102633255, 0.02206160172404122, 0.03627409752787473, -0.019126678675271097, -0.006990407525671927, -0.040811108677893636, 0.013437228158749844, -0.06675125599523109, -0.05182531581338694, -0.03125902374404775, -0.010556927096661986, -0.027101053029527686, -0.005310217339551214, 0.0374270474448484, 0.0037597448389228866, 0.06767083218573777, -0.008196987501935905, 0.010457927090432506, 0.045962273192469864, 0.011661451691685044, -0.07507795783737749, -0.028876150803973107, -0.02279423588412177, -0.029579202861050775, -0.005266166844933295, -0.03960796219096087, 0.01117281820695304, -0.024787462762711026, -0.004906322400865211, -0.006431412476211263, -0.02473495975859519, 0.02781353255753168, 0.025312996389787547, -0.03423972573012896, 0.008532662413959032, 0.012651984323387115, 0.026909969160927062, -0.0772878389883414, 0.016105424100367534, -0.032509929706428936, -0.003175653758529984, -0.04155366587859136, -0.014032967002013001, 0.01467277751505741, 0.027035534224641278, -0.06810954702665219, 0.05900633191864071, 0.015601410649356983, -0.06230913153240541, -0.060765057595245225, -0.03603853411857847, -0.012680873540257582, -0.02362809603053912, -0.0026019107558266324, -0.05856981455545583, 0.018054414564606405, 0.030499233618747866, 0.03645576989159306, -0.0697686670660305, -0.046449008310750425, 0.0026554168429624775, -0.003229581471146642, 0.0014112479055357347, 0.026979080174591292, -0.010049059116685721, -0.003285426376794395, 0.009483689873194144, -0.05649432595574548, -0.027132988759506226, 0.005912780067888357, 0.0714003581840755, 0.007281035394927088, 0.04821263424612744, 0.014618679171775, -0.0065116637633034526], [-0.0029326123612172738, 0.0041403108281799356, -0.007297919382258009, -0.003953752832064649, 0.017292059588628422, -0.02117644508555343, -0.049044432881999035, 0.02584417974090744, 0.07713478644711577, 0.011422457518295485, 0.027777654805982894, 0.05865464368034477, 0.005547796354039597, 0.01634846111472325, 0.009336167751652696, -0.028848982399812817, -0.010119108633529382, 0.028254660988462754, 0.009638734381884761, -0.02783376406001502, 0.03414315717520961, -0.045098194472151194, 0.016150619800857833, -0.006127668473298227, 0.01735568414516637, 0.05768720688723312, -0.05502311066898186, -0.023349196134616515, -0.027121698602234484, -0.028453845332747783, -0.01633875187032311, -0.023091982065097095, -0.04205076173446598, -0.033966225665031324, 0.05300394708503034, 0.011730375174322839, 0.0293752557018542, -0.010557383189249859, 0.0019191526443340745, 0.061382408913791965, -0.0001262656784960487, 0.01726586595102071, -0.10580381627030942, -0.037529242110121076, 0.009559419953627656, -0.04556379982699907, 0.031242813392529142, 0.0018822683525927767, 0.02712156584599293, -0.011421392411430047, 0.0015915559396237177, -0.023657672184718447, -0.053801257274355675, -0.034033823140209876, 0.05099689668735948, 0.027521589067270917, -0.018416680289586578, 0.04428008631141749, 0.08655239127484822, 0.010427152274994274, 0.06745925507322069, 0.008729146248965581, 0.02776182974451042, -0.01428374418386501, 0.005089201324581806, 0.016863203522646784, -0.026964989548915397, 0.038116328523454916, 0.017385768032574803, 0.05769064169376563, 0.027702667615171567, 0.042807602037730576, -0.028535669426021842, 0.025926948697825154, 0.026835647052553868, -0.03651162179644986, 0.0040245285537624095, -0.008091818626502063, 0.003020281618862695, 0.05536334548296444, -0.01458811934657702, -0.02387703331146715, 0.03701760760419387, 0.02823484368497608, -0.019507141142585338, 0.029724882189206426, 0.021272302072236755, 0.013192504900506663, 0.021512629100882148, -0.042011092896072806, -0.02746131868789458, 0.019461503615425278, 0.027121262700645524, 0.03694166664907605, -0.01127544605239038, -0.029166853889224624, -0.00833204798467958, 0.06833284012876097, -0.025591009333052802, -0.012315162417528927], [-0.061318375130809344, 0.0211623906309033, -0.06314939910373596, 0.030092552604886975, -8.138149449814741e-05, -0.012979889009378338, -0.007849963550062657, -0.002552206864293814, 0.005065971924477269, 0.013897308774191037, -0.049793694112523317, -0.03113526139062772, -0.03433515988351951, 0.04661315999676787, 0.03235568542315363, -0.027685013556436218, -0.014156083038064794, -0.00805667851855271, -0.011288070970817944, -0.02986749118803018, -0.023793096155855478, -0.018525098007772172, -0.012450512194102365, -0.04588283352875559, -0.02359196378691357, -0.002606603646492042, 0.043973664268788244, -0.013875763512684679, 0.011513074369453317, 0.0017958466553192327, -0.031530189977701, 0.04149678534096317, -0.004246498144688313, -6.733056100001564e-05, 0.05662107558890485, 0.039609594616152856, 0.0858564963850011, 0.005910254036521496, -0.011270713126555918, 0.005404995807799456, -0.017678551042332978, 0.032380731381668526, 0.0097327693785384, 0.039141100753567665, -0.012841986830954794, 0.027673249143526556, 0.01195015154700483, -0.05422403802668082, 0.026236709088895863, -0.005241961010286904, 0.050313786914692335, 0.020047157383642426, -0.014970988568022797, 0.06535130963144489, -0.002953513679952682, 0.0032137780713180444, 0.007718893912751085, 0.02005893406523219, 0.0049835666101610224, -0.06562669701808088, 0.03630912123721592, 0.008418686297713264, -0.04071677431569114, -0.01766097118874715, -0.018052651432194075, -0.018113561454880692, -0.052344137185156965, 0.024578811753278917, -0.0468847434666468, 0.05823374515846702, 0.037840679785166316, -0.01617034709735073, -0.03513435795563889, -0.03712867649686779, 0.018566963886081284, -0.010340533089727853, 0.02007272633051387, 0.019019454472682423, -0.03794003671620402, -0.051869117138195704, -0.005876924936776474, -0.019022280823285335, 0.04362995480651103, 0.05260618732497204, 0.016764380639383545, 0.005706312979079681, -0.036174463311011665, -0.08574680794778933, 0.020107499476896714, 0.01521405590435956, 0.006583997112568812, -0.021305572186009723, 0.009776048796681435, 0.001175488327501379, 0.03093977085876636, -0.012290655766484951, 0.03217018913782957, -0.028465052728756136, 0.019747102163530525, 0.008733681823040181], [0.04143855124002025, 0.07152515045546523, 0.0038397162837608845, 0.02911899733461084, -0.006747053769937829, 0.018266210286557127, -0.015519242522369732, -0.007040977952004427, -0.08568849910569751, 0.01154901839772968, -0.04138421893149435, 0.013891880655318415, 0.033267499233516594, 0.020935533833396712, 0.004361742332030349, 0.003191658757552282, -0.02077650144783093, 0.03546951353160187, 0.007970419494407383, -0.025681573363782483, 0.0071139578967512485, -0.0009356626436080083, 0.0027567112364815832, -0.008042577644773176, 0.05368449370666625, -0.024913075522985353, -0.0027538797072923166, -0.02563966598365938, -0.019352892762984856, 0.01001808841214634, 0.05582476256756686, -0.03945572932440632, 0.019842680397173202, -0.0020800794240186066, 0.035088933690409545, 0.07932841963779833, 0.047358054532618314, -0.007510619237654152, 0.0058745484622257545, -0.05913882286219523, 0.09763879125391768, 0.04257838177499394, -0.0061016434680178895, 0.04169011405479186, -0.04175703466880778, 0.00493717580565695, -0.004436026238182035, 0.00863085246381946, -0.026971800392150677, -0.03722849878287927, -0.027046467771772654, 0.0021657485302506076, -0.01934119025016867, 0.008773709017133013, 0.009137653985829493, 0.026865739169524276, 0.026845905956887732, 0.008617768308486734, -0.0010190161118732177, -0.028797544251338875, -0.01463991865407348, -0.018434280847268933, 0.022284336733481805, 0.04959694715633808, 0.03204122957335081, -0.006549705224879134, 0.027703132170183043, 0.04330168897243902, 0.06349355571768862, -0.02020710647553993, -0.0033921059559109483, 0.02743118837127343, -0.033913627952842126, 0.04245440041991416, 0.023541905255973702, -0.011969256611057265, -0.000606744150407215, 0.03602749068236512, -0.02021447444555619, 0.024699273164109227, -0.052181899146700565, -0.04950753964209355, -0.0854967030004242, 0.01615549919990483, 0.0018050780085350712, 0.06545090830679694, -0.05679326549342609, 0.028708876958537792, 0.05293524074644642, 0.022498812997688133, 0.0002117582838598104, 0.012164739056977797, 0.014444520604562179, 0.02002820588207952, 0.03260577360612504, -0.044095380788619, 0.02047546310345209, 0.04392856662188905, 0.028144340203147444, 0.04694312368429452], [-0.03586158680818041, 0.00943901675774538, 0.0618900696667886, 0.031134219646902727, -0.03457237090054618, 0.025853541127659103, -0.015107666077065589, -0.007117989719132216, 0.026566468456850633, 0.01740632594352914, -0.0014478072111888543, 0.03688843085829986, 0.0490563687254989, -0.028915866432097585, -0.04707416700118634, 0.06190518450051518, 0.007065175015119495, 0.020240099366803977, 0.019451492552049966, -0.02389256603722344, -0.015964136050720695, -0.030228848403802893, -0.014420514931568365, -0.01888983367225948, -0.02419869902359471, -0.02301573331043746, 0.0043758420717833, 0.000670080028293298, -0.029471827284491353, 0.04866939130891961, -0.019261424147678077, 0.027149579026497922, 0.04117946075538472, 0.027413299790697145, 0.031030600407945738, 0.0020798225727216343, -0.014944392015822493, -0.06263902504501527, -0.025187641030557296, 0.06467294097555959, 0.015563875598580792, -0.023773554901389916, -0.0324751715847016, -0.006104647537437034, -0.08317769918459328, -0.0264122092968072, -0.044829559113310616, 0.03131289481002687, 0.00414851360265343, -8.629996289992716e-05, 0.042573412436751334, 0.0103544076800576, -0.03457026298911656, -0.055552018953823445, -0.047054887437081944, 0.0006632451828371256, -0.011556102226705414, 0.020016651057459176, -0.021034913945301527, -0.018414972848861802, -0.06378551365490784, 0.016647948590617388, 0.03380815461443344, -0.015147232764765947, -0.03234898815955458, 0.007659538752040985, 0.01517915241448842, -0.018320654351367826, 0.03544840668816682, -0.029162978971064665, -0.007279672057928867, 0.007241853491267948, 0.0686867893964887, 0.008954665009157687, -0.004979929252206302, -0.04482556804432021, -0.030523753778410545, -0.027303703294595857, -0.011959728295134723, 0.047264185587358364, 0.006141077696179447, -0.03724647763951726, -0.0034291336876069167, -0.008758762697814271, 0.014306699018639622, 0.047192875165604685, 0.01779562069939937, -0.045419112665861044, -0.039401274837209066, 0.002931785337277906, 0.015795357691797088, 0.04761045070788326, -0.06934883259615506, 0.022078222348870438, 0.04829354552365925, -0.02559338499603341, 0.023002442434466475, 0.048255942288448775, -0.05980124839814128, -0.005028852937574496], [0.025315596992811072, -0.002159643360122078, 0.012525997240685427, -0.004575351282996017, -0.01283469044498684, -0.0031063664989927227, -0.007124362059819977, -0.014565077083105647, 0.030106952195697416, 0.016223853029595663, -0.03504815426962079, 0.015481684363999704, -0.011544600021231212, -0.00020987613391005092, 0.019305608561125145, 0.014457320405579926, -0.0008997635856060846, -0.011059135615333615, -0.02187883105541092, -0.0038601804805997353, -0.010673693461232259, -0.038731237646572526, 0.03020124047534652, -0.010483012836222117, 0.08003148638585646, 0.026660749795314118, 0.040663079343633834, 0.07815519327908471, 0.007758663690376747, -0.015096390364225226, 0.025490910938745955, 0.001712795507873098, -0.012568053351320456, -0.039251588004757115, 0.030794201117031444, 0.09248246200836518, -0.002215582860634261, 0.018081260956890978, 0.003367532118142166, -0.013437070436295334, -0.020341230347043316, 0.0512240341463542, 0.004864337635091112, 0.004143587299423525, -0.017287359709130288, -0.0015712542897162274, 0.019568340458517897, -0.03873270799314742, -0.023041212928525307, -0.014722248953649495, -0.009258740945556057, -0.018291494869629988, -0.05397390425573992, -0.005005198495554391, 0.007331023365968515, -0.0011681223206338068, 0.02623388435001956, 0.037003551302211335, -0.004037576047859772, 0.004664413974427991, -0.04699571771168022, 0.052164880452257575, -0.014758487245426562, 0.008008675263978122, -0.04030541885454336, -0.02031164352122629, 0.008156087438893333, -0.0002184591715070707, -0.011329103572271359, -0.01607476562725291, -0.06031427562253962, -0.043645326048449305, -0.016983814421887237, -0.010912489936243646, -0.01468474095995728, 0.010274009097358414, -0.00903309239524416, 0.016942550495042494, 0.006360956379586618, 0.03683829448144878, 0.03383940315983241, -0.06863235771000466, 0.05798972554874327, 0.051710512523587986, 0.027626320258331262, 0.05403695930496202, 0.0031891385492271436, 0.021207393756171148, -0.03078504113115523, -0.0520872272942571, -0.014305029782309029, -0.015670849930345232, 0.02217141947681163, 0.016769126310162717, -0.05487522577100669, 0.006682032218226486, -0.02570893905850062, -0.02793999631790329, -0.019476547579945207, 0.01935662025015115], [0.08014497871361108, -0.021168030700640286, -0.02432709718082845, 0.03913933499386714, -0.003226284041850462, 0.009460860546842417, -0.02290821799991553, 0.02002422263558804, 0.014099174466825579, -0.01625990825619159, 0.02044941554933388, -0.009147159645544089, 0.03353352977081988, -0.05082970975645395, -1.9087882418935687e-05, 0.026731574989518312, 0.009896398175187275, -0.0393613173090327, 0.05517300204605008, 0.03427398526431419, -0.006700407846665253, -0.005661271981030842, 0.0345660039402072, 0.013035935606677406, 0.02454691166287903, -0.039484004855323364, -0.01714793887565979, 0.013451981867490135, -0.05416728383136227, 0.005629324398158818, 0.06251847001819652, -0.017073620294709387, 0.017553426412136447, -0.03640622022599608, -0.01888798597988896, 0.05250464498442611, -0.022345240397294287, -0.04817562892223794, -0.0017815584659243177, 0.015217351566629104, -0.011029724385347401, 0.010923428632244101, -0.05419426148335147, -0.03316175581523152, 0.06917779140258752, -0.03134665142601795, -0.05402441960519206, 0.03874227905835107, -0.06314810873100389, -0.0182400081548639, -0.01328759298296938, 0.01659248958877209, -0.011053457490907257, 0.058440767001111456, 0.0377009618061, 0.07338054928061995, 0.03088154007671399, -0.014230225802874946, 0.034966115705400064, 0.08530122871700965, 0.02966084571792908, -0.005309717832436646, 0.011177584700181003, 0.014117581465640988, -0.02190996439828564, 0.0016521086753009432, -0.03593038379945067, -0.007272694614054269, -0.006826154776496604, -0.045210732776285165, -0.051926623358550375, 0.026042946098142734, -0.03160032703055646, -0.0026302418811654446, -0.006605700233422686, 0.12848103177209189, -0.005946228370073583, 0.007170824704034156, 0.0015849684260429559, 0.02202411225054256, 0.005478569117473617, 0.01507699487044029, -0.018829758741397695, -0.029074356516986807, 0.012412814773350545, -0.015310889376048211, -0.03262118953822865, 0.01368695103380905, 0.06031600962125933, 0.04196020700603702, -0.0193082087904327, -0.024239967150946073, 0.022553293525240495, -0.00019634469025080973, 0.02451475817848572, 0.004370811233104985, 0.008072472566244873, 0.0487675208748051, 0.01847600500298067, -0.03133187156839384], [-0.00495464798585039, -0.015443810553204783, -0.03382600287838868, 0.052955094899658245, 0.024805636673462136, 0.009250737219278918, 0.013524551472074832, -0.020087718530761724, 0.07336866749147541, 0.007675806141830961, 0.04367531809420809, -0.01889957290140999, 0.05588003252829544, -0.02841855592939894, -0.015766517118770345, 0.041103903409754554, -0.009211401147908374, -0.07425566269541088, 0.0059713517403099355, -0.010204320528717389, -0.020054375759212633, 0.02173083899473181, -0.03882141185668436, -0.02149147088807979, -0.03660792608101077, -0.03090778248619384, -0.009723875886222309, -0.03280225535975905, -0.015908061456118297, -0.016650289530556056, 0.02175544729594404, -0.04012991314175729, 0.007121374851407726, 0.0045419394345139795, 0.058220406682128904, -0.004202154291343657, -0.034836685158509025, -0.04567009793270649, 0.03795518763423123, 0.0177310554490588, -0.013848328291484685, -0.025085916570332302, 0.015790802794197586, -0.04513382540568246, -0.02065293875231564, -0.04757825002946213, -0.013399769731768438, 0.006496797996314477, 0.0764642533182792, 0.020468536905198932, 0.00012224041418710277, -0.015038811902641593, -0.05492969408650559, -0.025439441522814594, 0.01293727184843163, -0.02290671344887092, 0.015734659801319925, -0.02888326017333134, -0.02806667888290385, -0.036011691490892624, -0.033435254742381154, -0.044576606767494475, 0.03736623568789411, 0.02501481784492632, 0.031739615789448256, -0.047050606963123916, -0.017138708113793946, -0.04114303176961658, 0.05707032362075108, 0.019348879974431014, -0.049906106676605264, -0.08426955810358991, 0.02756881778023309, -0.022588487069959532, 0.040895011322201136, 0.016591655502803764, 0.04315366443563461, -0.018049641512999266, 0.0070630220735646045, -0.0006295315887888073, 0.03775777836456729, -0.02523640023956689, 0.004058728097357384, 0.01530861020479144, 0.009564441870356629, 0.020361950967320148, -0.01935404343329845, 0.021463076384025004, 0.046162642035313985, -0.00949357133284622, -0.03270402504865534, 0.010222860727282273, -0.04336572448650392, -0.032903922238008296, -0.02068263438661853, -0.015157283912424328, -0.04098905264790919, 0.027061886333969516, -0.019283595171593615, 0.07268563973090944], [-0.04983937942818774, -0.007706399364611718, 0.010255203989356788, 0.025907824179776922, -0.0055977296500413385, -0.029540670696413175, 0.007246062090398262, 0.010926546157150708, 0.041997671587355546, 0.0892728689671103, 0.06680528014562577, 0.079586341734223, -0.02336705996467249, -0.02559368772681546, 0.0015219896327603834, -0.0035201592751793777, -0.031490720800373705, 0.020215012252948552, 0.04268417275410009, 0.008051068529605087, 0.013376903275682925, -0.04615466217989889, 0.005843728717122824, 0.012962667962482615, -0.04398448374850788, -0.0010375346632639198, 0.012234386297484164, -0.010048429283764506, -0.03354399836264727, 0.03832813427728673, 0.05826748637745492, -0.02276429873337995, -0.06300072564985257, 0.011363005191062509, 0.013736482825262259, -0.01849721008183408, 0.05215268300323358, 0.0032033836695674485, 0.038483063148557754, 0.05616224777631358, -0.029563760110398372, 0.058135494379408334, 0.03316302648711868, 0.033585563360731006, 0.03300329686688587, 0.00650837632320189, 0.004527546549940989, 0.032105168380228824, -0.044494578278882306, 0.07477730545354147, -0.021839747658402953, -0.007395457308371149, 0.031798836198387796, 0.01442540576972164, 0.04309204686753461, -0.08146325338209615, 0.02359578233718016, 0.03641341206027687, -0.003840920322763088, 0.040605059314682536, 0.03198176572275193, 0.031828961711619815, -0.05101732965783666, 0.020132365525240625, 0.047323968995078854, -0.017187364153163406, 0.026796375776849807, -0.005055682881315253, 0.018868867524384242, -0.031107122192846184, 0.012323345444430143, -0.02538846166629748, -0.0012389222184984393, -0.06373381984479053, 0.011928684639206592, -2.4914980768507423e-05, -0.013376271512497701, -0.02824694356914783, -0.019230887825409312, 0.06779121996866704, -0.016666976715874367, -0.01980090578582106, 0.006189707815168222, -0.008450166723939683, -0.023456857677370224, -0.0073319217723610336, 0.010677643294368724, 0.002371390309554858, -0.02890886067046117, -0.0012744282464079257, 0.002344642592178695, 0.021809785167698492, -0.07223274463101133, 0.04686152517643351, -0.017245505169881218, 0.017214577072683663, 0.010448034769327617, 0.005877348337749148, -0.024597424146900936, -0.002668386452041366], [0.030289276112419168, 0.027377928008214984, 0.04790093677284928, -0.04566064021981493, 0.02573696654748676, 0.026030344277725017, -0.03648937355354461, 0.004080306886614824, 0.011339011278830899, -0.03477459408554418, 0.045206766186071626, 0.04593298342262178, 0.0725550440148122, 0.058115116137613644, 0.015427162998972439, -0.03928859501637034, 0.046364567259743125, -0.04142666320118825, -0.019534680239514393, -0.008676718153228187, 0.009806755098566034, -0.014605852247991194, 0.07788164344966483, -0.03785709725078863, 0.020091258857597074, -0.05662717134172341, -0.04670247988343744, 0.035627769691493685, -0.022690312458322995, -0.018824230029147803, 0.028962532820775155, -0.001989590416892933, 0.07679867214388764, 0.003764159228942458, -0.017938533032207236, 0.01656796762529403, -0.00811672628977587, 0.054461276983192426, -0.03079986459789299, 0.04642312245315515, -0.009130701228953616, 0.036804720636531965, 0.013370551116416458, -0.016125595173047128, 0.03469507260422115, -0.06640330375323916, -0.03512064628637773, 0.020665703619519412, -0.03333636863909464, -0.008162036087749226, -0.024052808800921914, 0.007002932352444401, -0.019649151853400635, 0.03685576624965458, -0.03155367358971464, 0.05737885816914504, -0.012287150035556456, 0.006486583211128084, -0.03963382137803506, -0.0002319475308077849, 0.05218738984559647, -0.0033328891073413263, -0.03210803433911259, 0.016558003462720582, -0.012541915540824743, -0.005745989327606431, 0.021052266767843036, 0.0005289459132891946, 0.08825782838531458, 0.035353742948000005, -0.003118348493284403, -0.01731598582626317, -0.00534686506211993, 0.018955370136468006, 0.05698264614778577, -0.03418752472511416, 0.03239516345506812, 0.00472477722809802, -0.027897377785961356, 0.012726896245426436, 0.015509151044080034, 0.03491548914067449, -0.00642892283423049, 0.018148300332633427, -0.004066452862899777, -0.041864423443323674, 0.02787770839622979, -0.015775687076223524, 0.032153540874243866, 0.03162630013578154, 0.06086962852690353, 0.08082171884676138, 0.01815733307047398, 0.03544485783203042, -0.0730144266821874, 0.002596381730268994, -0.01658610418984684, 0.029411228148050122, 0.07644723372555813, 0.031028289509448054], [0.04911504047287152, -0.05691870731893878, -0.04529914894750254, 0.007041760134373912, 0.059331394619391055, -0.00946700125243033, -0.009813502000747555, 0.003097181781187942, 0.0010039138880691605, -0.034557732552445784, 0.04561969921284919, -0.022215382099671475, -0.0775337964396975, 0.032410417692110303, 0.01830817294309828, -0.04706566654230423, -0.03535332610154621, 0.03231748898474651, 0.024429338957955512, 0.045823306168896356, -0.014124485838618885, -0.026102823840502432, 0.043418721394102244, 0.012500807637874797, -0.015533471119878082, 0.06923463777181342, 0.06316801102784603, -0.04894635147401866, -0.008794315884734059, -0.035976405173160725, 0.011325477427425491, -0.00500716150788913, -0.042757465392833295, 0.018426464846603097, -0.026477769238945098, 0.04651529434177795, 0.01656715230177134, -0.05421473272617694, -0.00862310995862725, 0.047312592298803954, -0.08182319965110518, 0.020931123560085686, -0.04230512149739163, -0.05923363028657254, 0.06196080759431007, -0.01876136198048062, 0.003047101565883984, 0.009637953959710323, -0.006984022745910255, -0.009670839547159594, 0.04759797152711876, -0.018189215452940593, 0.05274591573492041, -0.041281446510607965, 0.01625528694971588, 0.017259430651264732, 0.059215798958443706, -0.03610987034478171, -0.01195296123231934, -0.006852899147061058, 0.02297389182908466, -0.04248009810033922, -0.013321160912277433, -0.012422148519070437, -0.038734028749374504, -0.051135550682602504, -0.007609620002038644, 0.015548374791118822, 0.0990373049365108, -0.03511533236504208, -0.01575480859502092, -0.027327378777061623, 0.02934318617167992, -0.004517516726045289, -0.04937003626479458, 0.001982203060018462, -0.013928746939018756, -0.04177986012267869, -0.027480416579396396, 0.01356799063792435, 0.055935314505426666, 0.04479253124919015, 0.028395634067581867, 0.07676798156183759, -0.046723256190935696, 0.0010800015886332428, -0.009836147263523493, 0.020796773932760998, -0.03517593382264641, 0.0035628310974692057, 0.007544043483828417, 0.004882008577482728, 0.017925409402461758, 0.002240075598689668, -0.01676389908116199, -0.0161662529084081, -0.011566775113138751, -0.03155602186095634, -0.003841255118143955, 0.010789655742241824], [0.007856267849126604, -0.0032427223809085573, 0.0740298768947011, -0.00644635933430996, -0.0011218852282045097, -0.013982342877909379, 0.041166848919103056, -0.03880917359508177, 0.11846823535850551, -0.05768585347419575, 0.002243081809403314, 0.09366567800365436, 0.025134989437399655, 0.03805662161581392, -0.03270316437843698, -0.07616309596385586, 0.07103070123544383, -0.025840304224237134, 0.027834432027104585, 0.023362598457326866, 0.030547491639567676, -0.005676191015246906, -0.041410974247972396, -0.020002112047270225, 0.027579518872305885, 0.03167478328592138, 0.0056592780114006905, -0.034611180662559624, -0.01569788684342898, 0.0005331269632707418, -0.07016479728214714, 0.021525827669316374, 0.02673963553185324, -0.0011853806350897542, 0.0032567808954735364, 0.03585877925448514, 0.004911741318761497, 0.031918885859586736, 0.020807684452707115, -0.0448339826356471, -0.0021680342454957037, 0.0306933581508883, -0.03222464939953847, -0.020623125963378192, -0.0074834320330675495, -0.06464517012486791, 0.005221187573440182, -0.023866134997531478, 0.00011207598748031331, 0.06632520579293363, -0.011052744712528805, 0.013850585044026928, -0.019927335174827202, -0.034266708081681134, 0.010345728142556219, -0.007087619863395014, -0.019166421643997306, -0.010946023870520601, 0.017064868839615662, 0.037527710458418725, 0.05123727891056549, -0.01080477752876485, -0.03640018878413274, 0.0032390292567638372, -0.061514655164410965, 0.01180564092614301, -0.08879995562165131, 0.05601234588957596, 0.0069259020038011584, -0.016557814587376023, -0.0009331677437404215, -0.0026796962251537074, -0.048670832215648864, 0.02891182540299364, -0.03927979372299327, 0.013676641783991713, 0.047974905380686925, -0.027507397718540962, 0.016191742581226163, -0.04849201506899307, 0.03247113225655021, -0.021298875691264638, 0.0669514029771729, 0.0011262985622975353, 0.022318306959562717, -0.021825937204863886, 0.033105265663025484, -0.02170825606640516, -0.01977008584394538, 0.02783133102053484, -0.015097724229788733, -0.02889552340122211, -0.025931663520384216, 0.06580387797582851, 0.008244129934230179, -0.03004023686682216, 0.04601781553622289, 0.05074546182461229, -0.026945218861325365, -0.031565746203579895], [-0.06505599540718264, 0.013534203193309004, -0.03821371908715243, -0.022478151647966123, 0.08253917175133806, -0.025051186800754768, -0.03287022993118849, -0.037572938186544474, -0.13025927143650826, 0.027177784003618703, 0.015297336619257853, -0.04324362298511515, -0.05354477367418933, 0.03093915381474531, -0.012052305079050718, 0.034371347808001024, 0.043199633807668406, -0.058295093466431185, -0.01783426404228195, -0.0019968610487270592, 0.060646468056172784, -0.023141707787251328, 0.02500919049819805, 0.007856337257623027, -0.03986259233330679, -0.07059910595341018, 0.05770262945330452, 0.03544395987503929, -0.04559620548852791, -0.06746319776400166, 0.058319819288498456, -0.00033380727540255307, -0.05794812926836426, 0.00319966929808713, 0.039826297571478944, -0.03321501124855821, -0.04074089049551151, 0.021029653518229222, -0.02175977769087034, 0.0027292764626383947, -0.006441627561673126, -0.021832427334999866, -0.02329736545084665, -0.07265108152719613, -0.04886106472871568, -0.0022763772689249075, 0.017212394944965667, -0.02997060959987981, -0.07728399773581955, -0.05437023030042054, 0.02365288623272745, -0.03129662234995682, -0.020641964207567844, -0.004485662146561056, 0.030630567558645676, -0.028894835566719207, -0.015441264460090153, 0.06686266130583726, -0.057635769712135965, 0.027938032841404316, 0.015150502031015726, 0.023292546614404618, 0.049557215410769365, 0.0029577291877654374, -0.007064938845023472, 0.017835695867897808, -0.07682311173480721, 0.0027211026353178205, 0.048736387296528016, -0.03021852371462782, -0.012816747655998056, 0.0011095911414394858, -0.020259366736930014, -0.01834918057757705, -0.05224907677267811, -0.06801510991573341, -0.005739864573526097, -0.07342407307201154, 0.07124572018389042, -0.10001002465800526, 0.015179501325192343, -0.026110645024881148, -0.022618211340177267, -0.04500033803004926, -0.04434181579877858, -0.054293004379882014, -0.004605718986148143, -0.060658113900065945, -0.01989756430398866, -0.023928331411982175, 0.0042986360253224, -0.01003841175375266, -0.07076541852339537, 0.013607867976443032, -0.00307507481865549, 0.00995028013025293, 0.011605256280473633, -0.011662923010059034, 0.011953305054735998, 0.008515683963778374], [0.005131790360282822, 0.03260222544149068, 0.017480016281279685, -0.034567959262876126, 0.022581966716183864, -0.014608078997908744, 0.05190587555703823, -0.05031945545605685, 0.0060233587978698174, 0.00969394361818862, 0.05998568326378357, -0.030227013134425617, 0.0386139099836261, 0.0027867118493536645, 0.04928663303730134, -0.005132761178264231, 0.052613557039090035, -0.00868544894388936, 0.047102319728607525, -0.026707347607079965, 0.0033521525912184437, 0.015747975249504324, 0.07393195121522227, -0.001536335095906405, -0.002429926472482105, 0.04471308062563419, -0.002945100477114468, -0.016855473886400296, 0.013554850283455738, 0.011395999774734105, -0.02411713680748473, 0.022693087928444173, -0.048325992744482585, -0.036393698585405344, 0.033701871263644725, 0.022187632078354384, 0.000390746048226602, 0.008539479370530362, -0.0436425022471507, 0.006500881706219075, 0.008298873444091148, 0.03238107069864874, 0.02549543348170042, -0.04957724546280145, 0.007824495185299221, 0.00768681582480814, -0.02885676996198587, -0.0022101412237558885, 0.03190871806143016, -0.0029111738933558767, 0.004567541193348899, 0.03477330863389473, -0.03427558391064097, 0.05272617442874882, -0.057044000889181705, 0.03301701766366887, -0.009157665566237969, 0.04024124597658289, 0.03748305707197639, -0.0025628975231258735, -0.059802410967892405, 0.01498876290198587, 0.012061830159901102, 0.019303464807315037, 0.04093375061401441, -0.008887600720245354, -0.018432509811485257, 0.017343889730806836, 0.050842965897911686, -0.03537541812066949, 0.016014311125597095, -0.010307754046093834, 0.06579519019076498, -0.030371264970282415, 0.03481237133191693, -0.03485627369517483, -0.0254697223189527, 0.011656380485691115, -0.010489822409720004, -0.04161235534705914, 0.03782046366779875, 0.018597775666902173, 0.03878184907472953, -0.03714665266765475, -0.003309325407984914, 0.0009262582648160073, 0.017360412194732038, -0.00607564730209378, -0.014950595714502267, 0.05211766491066342, -0.0061420775997387735, 0.006718037003918333, -0.035703321152647245, 0.022006401849596523, -0.03800744955775533, -0.06024044374366667, 0.07272779784972104, 0.01445111496593458, 0.03369064186286954, -0.03955321318004735], [-0.0495785122088667, 0.035014971028610675, 0.017273459725947255, -0.03583551641938733, 0.024381264945062833, -0.0009425973740650428, 0.02152439903807675, -0.016325438250232627, 0.030388034532832172, -0.05645710886281943, -0.03643068734965252, -0.02040291624186209, 0.019633395101331677, -0.02167178118568179, -0.05163126583998257, -0.010335507953126166, -0.02706766335297654, 0.017587781617566946, 0.042843624380866654, -0.020481984725498625, 0.06797563550955027, -0.00469640390361251, 0.01662939259284065, -0.011589638218143116, 0.004205515954165084, 0.0082378770624976, 0.06655365119024403, -0.014346823147048023, 0.003891797360777251, 0.01489529554188563, 0.039618971834113614, -0.020169640730238383, -0.01899314474960109, 0.004948591955574613, -0.0071410628005567165, -0.026423123648170822, -0.05634528722097598, 0.03725951173152758, -0.01730228216346661, 0.00011177482080046527, -0.004484308760573907, -0.04065196046063631, 0.03351960447082408, -0.00672370217568383, -0.056878724793733036, 0.02975385520089278, -0.06575975589930605, -0.0022165145804854585, -0.06776937274624009, -0.03764398627533292, 0.04710397037912137, -0.015458846412308783, -0.05087910881964481, 0.030495144957150295, 0.0009503397065635336, -0.05006106467392392, 0.04727485509996367, 0.0103730604323503, 0.054294526133463084, -0.03381983961331608, 0.0613040229413703, 0.06890695362109442, -0.05825313370659346, 0.0019765328441340214, 0.061907003940400517, -0.02841265147499011, -0.0038466341373157137, 0.12103105375513513, -0.029677556437323893, -0.018099829288076644, 0.05272762999449038, -5.4773548157150976e-05, -0.031823638882003104, 0.009572455486539549, -0.020032230137833923, 0.04853850632989101, -0.0007610983642055388, -0.013203586655062178, -0.029477110583090195, -0.005455047366670747, 0.017448071687502408, -0.039344215919811354, -0.056816530747953085, -0.04666061710679263, 0.017747439268100306, -0.014455615198665075, -0.030572422055995443, 0.019554492947647547, -0.0017803727935181905, -0.027526217945738573, -0.028004837926634617, -0.046553831107246924, -0.03548006280751452, 0.04770641524515731, 0.022571898205985163, -0.04172337205529747, 0.006630591721456234, -0.05840069808262551, -0.047542547630210166, -0.011652430485398992], [-0.00944159033339046, -0.0010011757061234416, -0.025707406042992837, 0.019441549425542676, -0.03267669866211033, -0.012174023786620618, 0.033952811020922936, 0.01292539526804931, -0.019567611912210896, 0.01556093236487325, 0.009409706989551608, -0.037458851394525504, 0.031983919604387546, 0.05168220969686078, -0.043899998558260135, 0.07930024888648632, 0.009193798423193431, -0.012375581377135667, 0.012564070977596821, 0.02505909247364306, -0.011593717927320463, -0.003979068454581868, 0.008332810638826823, 0.010033063567700735, -0.028552245046528885, -0.020414543309826717, -0.03087604790790713, -0.012618114816690207, -0.00418156414389428, -0.0076754688925784915, -0.06799392813248686, 0.0415329005991129, 0.049912080926099715, -0.01824881329780785, -0.0452271396646561, -0.04553404737554985, -0.015995321520194655, 0.02996247173386421, -0.041043155916993694, 0.007372005628394475, 0.06488471286419768, 0.024137740176813555, 0.050545136658123276, -0.022102017332259163, -0.04486498221808933, 0.056742601560100456, 0.025621972817412197, -0.012736786490923309, -0.06092176263762188, -0.029551553441650166, -0.049119730345519384, 0.009810390872806638, -0.020707729046408826, 0.030817520941379423, 0.01832200342991382, 0.06590638349795615, 0.017986404584976735, -0.002795925103787226, -0.03586138329834054, -0.02318889651085035, 0.004323577576173746, 0.01467282096240511, 0.03286715901416745, -0.12617695523195932, -0.0038879062963782956, 0.06437885018055631, 0.01357512648523637, -0.0781183208813118, 0.0033092660019599937, -0.009447030020950571, -0.011131151458310886, 0.05258959177529812, -0.022646117107946215, -0.007078709217402583, 0.02350414082563236, -0.0644655293367928, 0.016227646111559347, 0.03661742244207831, 0.05463489439381229, -0.03299329682580441, 0.014607789678230752, 0.008236000565640562, 0.024495620697664314, -0.026250727206212465, 0.00033735368933199695, -0.02975773882579169, 0.027816176923649853, -0.0016951309325518756, -0.0322294677908062, -0.026924328761889726, -0.02643323660314272, -0.01012966727397533, -0.03499495498333008, 0.007369135095502755, 0.016949924601447192, -0.009815337634046887, -0.005645212131039159, 0.060129548412314646, -0.016082533816849664, -0.06002968293262837], [0.017590485718932194, 0.00024048919405358064, 4.6375448757492235e-05, 0.0051804309377871125, -0.02235595146777718, 0.00016513874753385633, 0.005249020356381994, -0.0012779723027247876, -0.053946385397986664, -0.0602036105573296, 0.011824519929085701, 0.046869016579578704, 0.014931607479438383, -0.007387767742627036, -0.03492845639203783, -0.012834251527948311, 0.05170413865925857, -0.007622630992000161, -0.026038708011940897, 0.002090104197636713, 0.033354867279545064, 0.020158118041672658, -0.00039242561413620767, -0.06567905940411776, -0.016806605290819236, 0.020567752251440398, -0.005466224041453274, 0.04071995899776123, 0.02754433520224595, -0.004847319701984435, 0.01095390532052913, 0.005729983623598251, 0.02536264567190864, 0.060306093971523624, -0.041289461248552754, 0.0022566092254349417, 0.007408014800536067, 0.007608241866695501, 0.04566600351244569, -0.0577897716358703, -0.015261742851353833, 0.018502600639901137, 0.04502803620995179, 0.006176510448724182, -0.040401254139707334, -0.07150132414119494, 0.013330679138077915, -0.015289332580342613, 0.0463840971236208, 0.0039365942980911315, -0.04413266509435286, -0.031397855891642026, 0.010851587967716363, -0.009667808163450562, 0.025391901735751714, -0.04040689908743745, -0.05616961156963278, 0.020803534862728436, -0.019116733659439066, -0.011631381361521344, 0.0028868054162740527, -0.052122776039146244, 0.022233729873643856, -0.027268613722761872, 0.053475766203063796, -0.018486641574666784, -0.001903385192615328, -0.014335780062722892, -0.017068206851705837, 0.02665606318016837, -0.04252971178194412, -0.0341804231891332, -0.015548238407998266, -0.02824744257400146, -0.005783674719635551, -0.03305757727041898, 0.07205108582891986, 0.06804880373613342, 0.016676031300748028, -0.07018544254050163, -0.022142209740919388, 0.041712559199467224, 0.006560217751413925, -0.018898991030312527, -0.005271334157419075, -0.03347672437485642, 0.07567199461242503, 0.026699478916234903, -0.08340779675604312, 0.004858448384049498, -0.022808172625421435, 0.010802449894685798, -0.014202593956623497, 0.02479376741493373, 0.0499385653633492, -0.010359886445980153, 0.02863866547777759, -0.015230690226820217, -0.08544895401045555, 0.012768877246561712], [0.015014574860696421, 0.05990035892818971, -0.04407778436529648, -0.025207620110887792, -0.025519096564632526, -0.045748425610865666, -0.01125289585949414, -0.03320227312029538, 0.03167758428233078, 0.02711371648962125, 0.0664247667993567, 0.05400216279366724, -0.014286264147459765, -0.06501667400941566, -0.0027296268470801107, 0.014232364199161249, 0.013126974593587581, -0.013043240699891217, -0.005028880768075428, -0.05567710533859025, -0.0013162730003493746, -0.06467310436193224, -0.04818899261658955, -0.045140243111057285, -0.05005470450129088, -0.01750903661121572, 0.007850764801765109, -0.002649414746099176, 0.024329491376152753, -0.021104157499258647, -0.0012518200498457155, 0.0011894044951733936, 0.003608859045808591, 0.016993140446193388, 0.020483519615510974, -0.06780495275895726, -0.0314625379404405, 0.035404339836730775, -0.050621527772297024, 0.013457436208039152, 0.0012405447214871694, -0.0002502305826217387, -0.05567571609348155, 0.004147297579620499, -0.026989393701665264, 0.033630892619965026, 0.01032976905203736, 0.006583120416198731, 0.030322923358514286, 0.0010136894895684697, 0.00694075995928062, 0.02525087631015835, 0.017675428963697472, -0.03287133969825637, -0.01786830489982644, -0.014119928652956156, -0.04857342970397597, 0.006668502825667676, 0.03782232737776696, -0.03774221168628911, -0.05776497624568576, -0.017343932595068785, 0.03698677775320627, -0.02812450903270951, 0.007767940585518611, -0.03921912031631511, 0.010661434461232154, 0.012757799721471322, 0.004146330860772056, 0.02983279365888829, -0.04252873408368907, 0.01643100168636172, 0.02531120598319722, -0.006040543856006153, -0.011802514411051238, 0.02171971794513511, 0.0006041783191710759, 0.012663821957289097, 0.04397761292985618, -0.00047906605241764384, 0.06667750675620013, 0.036187676211401995, -0.025816295898197807, -0.05179179333745789, -0.0188759078591612, -0.03812830091215017, 0.004420365620563119, 0.015942953311628497, 0.033595640118273117, -0.022335348283293872, -0.014836779611055784, 0.04365072232021291, -0.050980449624085135, -0.0038230358649430866, -0.008305890538299561, -0.007480450702174137, 0.0034719251306901014, -0.025011520841044868, 0.04896950230498126, -0.0034225393014510708], [-0.026392342429458267, -0.016757954266789044, 0.007502029511310461, -0.005310447381434852, -0.012122908987129, -0.015117873994883922, 0.017011607212464006, -0.020884059872748446, -0.04946996039982943, -0.009319134336077405, -0.01155098524013897, -0.010200694585145352, -0.05324501604444246, 0.02388050418632888, -0.008429060857395457, 0.03346668276669365, -0.03885868170680582, -0.011702119960910848, -0.047594356397180466, -0.0008865514027434288, 0.0006807580987286227, 0.03264656041802325, 0.02317331990647617, 0.005957653353297318, 0.05916056390623568, -0.00579405690151233, -0.02178170822475631, 0.007647108875687196, -0.05659371802860022, 0.01692681091364445, 0.05105857428232994, -0.03464191611637084, -0.04181894519854501, -0.013444328889823554, -0.03872969406017797, -0.0013441030001220971, 0.02795693118712898, -0.01975986479642292, -0.000559725903321767, -0.04597520066945881, -0.06347950113315352, 0.027164709142677185, -0.010057230227125175, -0.016894864285574598, -0.011918225367678963, -0.07543513697906998, -0.04584004097751229, -0.046913887712823184, -0.021703308984827405, 0.053151936914538636, -0.046729933632783126, 0.0587777155779528, 0.02871958980223206, -0.03765876068220009, -0.030274344551150616, -0.020643571571798185, 0.05391858695538104, -0.014585532938172554, -0.06527528225559136, 0.04925311740752311, -0.10744807801664438, -0.0028225852428581917, -0.03762118517575979, 0.049030889129477846, 0.005612042131432364, 0.023496239827460467, -0.014047778757604138, 0.05890819218803378, -0.013056342289464876, -0.037943363092862024, 0.014165727450613466, 0.032777770448162234, 0.023052462632853255, -0.003981841495814342, -0.02277328109087029, 0.03960777060695731, 0.01961703489385427, 0.00976201086449599, 0.034277252841421565, 0.007513505206090744, 0.01511761126728959, -0.0025966357866867326, 0.03072170799174978, -0.013624564007125263, -0.023026459507614297, -0.020630868950430082, -0.026859903591510498, -0.01425471334140956, -0.05268680859383725, 0.02269355711581027, 0.0019149909435437803, 0.028628894492228104, 0.054809294528472836, 0.011401126087314301, -0.001809610737737194, 0.03348720980274301, 0.004719888072838343, -0.06840209145370213, -0.03369184699803497, -0.012780869642122349], [-0.0017802168008812943, -0.0036175128462383045, -0.010763908745382997, -0.04397702440388241, 0.0018206389875983808, -0.09516574974284625, 0.04676205661084179, 0.05438464965100594, 0.017979639449656123, -0.04328462657900072, -0.04144827305954127, -0.027223301618848998, -0.06716989575509326, -0.052479758952755313, 0.05852425517789578, 0.017496739608344324, 0.038608361336811545, 0.028790241351473365, -0.06679386786953234, -0.017557764620958878, 0.011013402685110018, 0.03553033211232948, -0.030068970480895425, 0.013388405194530127, -0.04195954817555917, 0.02195471067458784, 0.04327504502443947, 0.003973763689530354, -0.05250105885699462, 0.00947792672407219, -0.07788906210628367, -0.0611070441620974, -0.03888965211282751, -0.08667009816881785, -0.12307240633249387, -0.01309268219028051, 0.03831006806999221, 0.011616261690764114, 0.05311913713756895, -0.04864167487401361, 0.03805349360483851, 0.017121121942491133, -0.050451585526475044, -0.008958869732385723, -0.04824355846754009, 0.04210714707371119, -0.011748359336097261, -0.0025202236738396315, -0.024699168848547837, -0.006227937638780652, 0.038665095968846534, -0.0209171999254786, 0.025203398093224076, -0.03230727844170521, 0.013902142881878788, -0.03245423865959041, -0.0006059990808070546, -0.013417429067958024, 0.09741750416112394, -0.02027634234597014, -0.013467747663257555, 0.019368311554309098, 0.03977289435471069, 0.03188825660660725, 0.006925097668147224, -0.05341678521408121, -0.014086103235661203, -0.0016865057895283047, 0.001858573697927403, 0.0031035346413510875, 0.01992471723044431, 0.048929379689182366, 0.01316807277519412, -0.006743252114578302, -0.008461506372607456, -0.027490922534181426, 0.011732797779638357, -0.025408051158962504, 0.00489351094212045, -0.042461411659701034, -0.01568126129975659, 0.07559084743826054, -0.02147268120320009, 0.026563020939562882, -0.0220316806123315, 0.009914976837785635, -0.04853794736251676, 0.019769767389315105, -0.0174450939130672, 0.008547097520282466, 0.004039022547353378, 0.0272737387724007, -0.1103809794063442, 0.01738440773693718, -0.029372989170247873, -0.05215102564184723, 0.04167896433803358, -0.03794007292856218, 0.036621747143749696, -0.012580656140068744], [-0.05948689647817953, 0.032064487045611, -0.02197257825300724, -0.044603297166244886, 0.057614196078186374, -0.05503671191978495, -0.05506609942998752, -0.018835099808305375, -0.004460125619864708, -0.050682523602862344, -0.015212827515047132, 0.04736854519630126, -0.05964812187031157, 0.013844114094324575, 0.02786826473426134, -0.03877739481314042, -0.020372029903300105, 0.012743221812457066, 0.04821606684208824, -0.02179864218738774, 0.0336929735551218, 0.03294068334730643, 0.017540813879172463, -0.023050772431645064, -0.05617490161389819, -0.009817337059272516, -0.0485495126270312, 0.012628758633069549, -0.03280421745723036, -0.017692902872700093, 0.04405337714732493, 0.08295432433918648, -0.001965442051412485, -0.0390098332542098, -0.05048951672393309, -0.010555554432600804, -0.02500999571890551, 0.041722166445550136, 0.035042105268674795, 0.03639316417094694, -0.0018865372637668803, -0.02560146265613466, 0.020547853385045636, 0.0354343301923329, 0.0018192441562864135, 0.03955447282016403, 0.018032632353569125, 0.03735145278364243, -0.05587005574511059, -0.032297288846555194, -0.021473310278100132, 0.057075604130097865, -0.018955532670371315, 0.002121464990436341, -0.021222675071934392, -0.029520902061587813, -0.007456438627129821, -0.0316067986716397, -0.004151129524083504, 0.06020980657312933, 0.02719114662091299, -0.04026296392722887, -0.033581364493820515, -0.032805842738137185, 0.041639060838919766, -0.008576485083171593, -0.02679507007606313, 0.012780500339120895, -0.0009230256633486463, -0.030623604580570767, 0.04210580499405788, 0.00933758999978184, -0.010812237918723338, -0.057497006037399705, -0.03523658927455061, 0.033411195387699925, 0.09970902511595851, 0.05108272565609135, 0.05728715237673164, 0.004384494294000237, 0.025444111423702495, 0.045302224217080404, 0.031892836341056184, 0.02034426831229942, 0.05433801884552536, -0.0038790102404699183, -0.079683380753767, -0.010944971066607473, 0.06097847541443259, -0.05121260533494721, 0.01693985092547698, -0.015825848978965683, -0.05110585986076529, -0.018839196053186173, 0.06598613886560213, -0.04093139811986854, 0.045940869322205695, 0.07097465869417416, 0.025295867912539967, -0.028645643137014013], [-0.03405972569363254, 0.032690898164062475, -0.007894526922826741, 0.030045559044294196, -0.0085518374286958, -0.03258132008501704, 0.019543708566478867, 0.05079113639622425, -0.03471382340196142, -0.013911712209973408, -0.06369847934112377, 0.04989759545080135, -0.030621964779941592, -0.032953505344127144, -0.06353038323139609, -0.08581061728648266, -0.02482232204443353, 0.03283755058514226, -0.0907293385522528, -0.013028039939424984, -0.06174544661005074, -0.016400663390843215, -0.0038502744785392446, 0.0028838199084541202, -0.027500616955112772, 0.0037009827283935926, -0.006571113647788712, 0.0722153811073805, 0.009966429361316007, 0.0011573844991607306, -0.05281582489874196, -0.06906460417121758, 0.021334679288961576, 0.04750294364568356, 0.04871477072469066, -0.025227930259166816, 0.005242050471157697, 0.013418660131371466, -0.044595324067378546, 0.012597152715575839, 0.009689331525886816, -0.06291221469332695, -0.027212494877190848, -0.018387717456111202, -0.025424867814747988, -0.04852376836541759, 0.06039737393880227, 0.028188457910122235, 0.0008424687839540377, 0.012567058125127423, 0.011538173934371027, 0.06309619365967113, -0.005545581767116599, -0.0019949690000561644, -0.008373967037337768, 0.035668086336113215, 0.010858747465601825, 0.007301847273399271, -0.023315083251579546, -0.032543878264099955, -0.05405500961560983, 0.014092573650916602, 0.015222336620645347, -0.04543729719879349, -0.009453812792980878, -0.0013287833773404673, -0.023495504163059868, 0.02532880555731538, 0.018048441629668933, 0.02924652791186008, -0.019471649965742667, 0.03937101111749273, 0.034047459325556924, 0.004248012962937758, -0.06164107409931172, 0.031250487041382814, -0.0198143756768018, 0.05543144098216568, 0.07210698326992009, -0.026600637436649883, 0.029586305576181922, 0.02447742684369456, 0.02783562696649399, -0.022387913470864693, 0.06589556602893998, 0.040930043011317994, -0.03679098497903622, -0.019649762662765278, -0.06196948912336129, 0.028618959253419944, -0.005319248542058483, 0.017626471659144834, -0.02786156699116217, -0.04671926266341557, 0.08057729939163674, 0.024775911462466237, -0.04425461557049736, -0.046805285416272595, 0.019574712808431382, -0.023526859089358525], [-0.02710058048856047, -0.019152948742985648, -0.01647443744032718, 0.03242577350027368, -0.015014062508525938, 0.07137406994320068, 0.02061257830927198, 0.036034868696788486, 0.009175164779021862, -0.01830525086366775, -0.018379260854851233, -0.05977118585056912, -0.019600468664138226, 0.002780587075245759, -0.03751028959122983, 0.0015507859015848739, -0.0684107051622067, 0.05637366535019238, 0.024092184383593628, 0.038663963428373034, 0.013878710038590208, 0.04599481048821434, 0.012450331082240201, -0.010255214560002258, 0.048133910328716306, -0.03287084500959366, -0.018904695933669082, -0.00961099222673889, -0.009507678196476826, 0.03595068401835997, -0.03385304401951874, -0.07602755152172823, 0.04583916141571753, -0.05895434775044508, 0.0018195066337294283, -0.05307825579275171, 0.01972121365709391, -0.01974622056665619, 0.02052373508710355, -0.004392069951070149, -0.010171007549879207, -0.037481133240036386, 4.816547273722395e-05, -0.012546864122189326, 0.005518904594422794, -0.06991913274946726, -0.030981396051998778, -0.022136424447109844, 0.06670759733495601, 0.0848076142334966, 0.008432416984180078, -0.08430457529551501, -0.03182684698546617, -0.01523511256219239, -0.0851352315259035, 0.04256775523193429, 0.009238968930917496, -0.01113521712381316, 0.007513552742186654, 0.00738150172529625, -0.002238885157544771, -0.0013580828995044347, -0.043568268937529867, 0.04743401094670826, 0.01650457974407727, -0.004942310874755565, -0.020622535982792737, -0.029345645677348577, -0.04716755057276934, -0.025971403220108102, -0.03336877625784976, -0.022201330573980316, -0.03195759036760538, 0.040973357504330635, 0.0016127297285746392, -0.09257556555109663, 0.03479273208530832, 0.03735957268188495, 0.012164125238369888, -0.007219775497527307, 0.010035774626588948, -0.06514646545882219, -0.036427655735573515, -0.03848900638788804, -0.031328995735915646, -0.057098929243856185, -0.007876783934856075, 0.007748636853627751, 0.003517154025246909, 0.006870880116125203, 0.021573263995181235, 0.0473157875565682, -0.0026410566581300315, 0.03964068228191662, 0.027053020427760175, -0.0023936795532599254, -0.014919129641512817, -0.05362930264211296, -0.015130726182448056, -0.03807071739573376], [-0.025633779028612556, 0.008639269849182101, -0.03590129941998439, 0.011452865399535278, 0.011920746437921402, 0.06633858663025186, 0.04282666579691754, -0.03007135772796906, -0.0044625270477954716, -0.04629848493207024, -0.0362318841454913, -0.03378242320923783, 0.02079757755992058, -0.046701761542683816, -0.034953886497447725, 0.028816921059650252, -0.005040172724589328, -0.04178059430216488, -0.01433169426075121, 0.018256046913790316, 0.0053628250247012175, 0.026506237697791556, 0.04587327068387585, 0.007091947304112276, -0.03666129617300864, 0.017578964708395553, -0.06113855605816836, 0.033917316132129414, 0.04089971455109098, 0.01359656635308796, -0.014864543562809196, -0.04364366113232261, 0.04970880227028819, 0.03457653051290721, 0.04491460259288921, 0.024631402002518166, 0.022694822767445444, -0.0187842995268214, 0.02346912066571747, 0.012277277588582169, -0.000597038196751053, -0.042464835111797154, 0.007014896082889542, -0.08057650220194026, 0.04323260522200939, -0.04061473861267992, 0.02043339192672966, -0.015302798934613268, -0.022643107663473883, 0.00147450034766814, 0.05954573010992362, -0.00025639990832904976, 0.06761928789309006, 0.036436533511742, 0.043733968694450114, -0.015144760941741999, -0.028848807227375865, 0.00044230649648348367, -0.017624952514804105, 0.11026754106302601, 0.021246157472308708, -0.00046520441034087596, -0.019050010862703692, -0.025590972425830402, -0.03488465336431168, 0.011680925228488577, -0.006079340930096645, 0.034818387945460355, -0.02643564896569633, -0.07139409573564512, -0.02498816828970713, 0.025795302919657228, 0.02317272072115129, -0.03505836683119082, 0.004613864361893863, -0.002735849572383524, 0.05480926495239983, -0.014859135578612521, 0.02753086527590548, -0.01843809543017933, -0.021761891923395067, -0.03696282596990746, -0.0538773178649393, 0.03160835799440447, 0.01319929656983059, -0.0132597781200467, -0.0548074648316349, 0.002601701795166103, 0.0006995544977048603, 0.004201514068870069, 0.045377859047264685, -0.020195466392913905, -0.05014973111329416, -0.013238860483815614, 0.007733355467168495, 0.0074189006433163325, -0.0005429578911213744, -0.02360869862515264, -0.010562098716981775, 0.00813704140074488], [0.06889621268174047, -0.04460972994561552, 0.029037937956363655, 0.04035327118898104, -0.029690625629993302, -0.040515971527830326, -0.0403753782156827, 0.012196748002789071, -0.04574871127227893, -0.005829333133120435, -0.05006743550334986, 0.016906175397214188, -0.013861068698422888, -0.026288056375248375, 0.0019982620682662162, 0.019004257425474652, -0.025477437727698688, 0.03325454699500212, -0.019279065682787578, 0.05301894314959566, 0.022113587577430815, 0.0036951110477417832, -0.051072307726028374, 0.026959528990186738, -0.013923700033993461, 0.01848776346375239, -0.04073220721684208, -0.0288303542878786, 0.026254652767264887, -0.03193652999725605, -0.04095290457601162, -0.026711969496153013, 0.03283035981946505, -0.011348124552440775, -0.030990582936345237, -0.03312159027797718, 0.0003822623511321402, 0.046207530762211006, -0.009251335035437739, 0.004700644871324049, -0.0482642477538039, 0.03151382462008571, -0.019121784423754392, -0.05502986426761028, 0.004522676600861831, 0.037664348504644965, 0.02829429223802754, 0.004981209801521862, -0.042090657169838785, 0.018855828769519384, -0.05604527609653083, -0.0481498665812108, 0.021229674309286684, -0.04097426869464869, -0.016215902976057756, 0.03667983159436219, 0.021183771845974652, -0.04963320953938643, -0.05713300077648021, 0.0878291463913469, -0.0181487025483109, 0.014350011029297841, 0.05102966352948977, -0.028965660782363647, 0.022675686053615758, -0.015515023502484477, -0.063552989890924, 0.04335516257590856, -0.03661130718786251, -0.04778082212241287, 0.08420413404331753, -0.045773992637724026, -0.03365254277813138, 0.03181108752938776, -0.030502086118571345, 0.014800322177883976, 0.020700297348398088, 0.03195090834313295, 0.07331960422001776, 0.07312362943663195, 0.009965984460642948, 0.05314317095928188, 0.02535826944462541, -0.009462187182914673, -0.04802089387287461, 0.01891337466426038, -0.04424092562536757, 0.05210632141228693, -0.025943136917130922, 0.02983897641070412, 0.04512098372247864, -0.01905337234501955, -0.0015481887309936977, 0.042235218877208165, 0.005326850283542525, -0.006386931991861376, 0.02324465819505104, -0.015048042502080318, -0.0013740124064205122, 0.015194248276894234], [-0.028238733401279487, -0.07503594237712112, -0.003392730112282709, -0.043448349146317115, 0.010424232804019221, -0.015354617668832034, 0.02538015047910614, -0.010698197786028336, -0.03259779300973545, 0.024584749012865944, -0.0445373640327622, -0.017294142962709678, -0.028866729036954114, -0.0835372895606915, -0.001647572916009106, 0.11207883791009311, -0.010123612316956845, 0.07699175436573664, -0.06092544487674143, -0.03716499832483095, 0.015170505339711282, 0.025922604961634906, -0.011365241967575553, 0.045302249672103355, 0.07583590037019647, 0.0018966630990849716, 0.06980631233708241, -0.0013110215819487293, -0.000609912119605664, -0.021173836848940506, 0.04078023382984062, 0.01570273773226195, -0.02343358149300698, 0.03059665625378085, 0.049360433098160315, 0.038861627975624695, 0.03360086351006814, -0.014386630064188296, -0.012084542645008632, 0.050878059112304086, -0.019931190207055652, -0.002884709207980697, -0.0016877397473651075, -0.01291629820625737, 0.03727795481507164, 0.04135444647258638, 0.023378312722216438, 0.027425664228766425, -0.003629609441305363, -0.04932944029821177, -0.0010325655422157905, -0.0036411630515400125, -0.016337007333279537, -0.04910784544374502, 0.04903866349074298, -0.010307526048558282, -0.015198800427084585, -0.03034510123769697, -0.060471423192732195, -0.03217885362988553, 0.010858824349555212, -0.0124737619715061, -0.0031614640725976953, 0.012770597118006828, 0.04026477917402786, -0.003481789321158299, -0.026672906066014357, -0.00018761551978631457, -0.025151895691873764, -0.025779468831661885, -0.06269058066654466, -0.021698349927204715, -0.029256575807986067, -0.011537188563910176, 0.014923506338417799, -0.020852659683174256, -0.011696503409539056, -0.039617483146342454, 0.0002473727103212289, 0.02412251668046828, -0.015731487569433766, -0.04930464418259583, -0.017487174642522803, 0.035508893992211736, -0.03440181374073115, 0.0301628744742267, 0.017367608498795668, -0.027139143462397278, -0.009501204124019821, 0.014394849285102597, 0.0037710516236941173, -0.005964386036668364, 0.018853770826814907, -0.00908042325416176, 0.008041019125210984, 0.021530769874129534, 0.039853517094593664, -0.02343465736335469, 0.0037239277164368765, -0.011274038506529123], [0.04433302768306194, -0.038209303485274806, 0.08442177859216102, -0.04701193823463808, 0.014278907670130464, 0.017212339087330143, -0.0723058651223834, -0.0022926803284614504, -0.055367306196033785, -0.050117488242116565, 0.037671914131499534, 0.02600866575758885, 0.0010364120398291482, -0.02658353568872322, 0.031164632354342872, 0.05686373001358919, 0.0006083062282937454, 0.007118679050199617, -0.012980497503091588, -0.003320743977049429, 0.04700473558283961, -0.030100781642971964, -0.0043620858054484336, -0.0008991927555695141, 0.0315032871205802, 0.03199024121087821, 0.05589582974188191, -0.018955300074398284, -0.03859304645251921, 0.05457937026033382, 0.026019964623975093, -0.02300774217000073, -0.01690621329036245, -0.07143818618087024, -0.029521969401091887, -0.031814622322494934, 0.00375530714985909, -0.022444402236576896, -0.051823067158620284, 0.030787866497772428, -0.03415268692711132, 0.007823499638470448, -0.07430293379036707, 0.06888484691293446, 0.01580951801328922, -0.09513371875357235, -0.01916024836042737, -0.042876322662840395, -0.0197113387610301, 0.009147767635283003, -0.033527203050582315, -0.013589572146990542, -0.022948822327340343, 0.03606746413216986, 0.0136615756190973, 0.054591095263396804, 0.011372351548079088, -0.027851601620372982, 0.0075198031297420784, -0.0882693289293791, -0.027969672321677855, 0.012136310086584194, 0.0033093536482453043, -7.557685199772931e-05, 0.07626282104608728, 0.02157922532289616, 0.023600752550005936, -0.013576737521980818, 0.03706712507290579, -0.024021548269813918, -0.027373879257058774, 0.025937104391173315, -0.02120834336436097, -0.01637621696601584, -0.023261180778836016, -0.00870368142812062, 0.01972978664787112, 0.02879843274404156, -0.006193330763179306, 0.003796647275393725, 0.030013736555848197, 0.027000203113984766, 0.04323245434280078, 0.04985962826232939, 0.10329005935474299, 0.02470242365785753, -0.029588660860095345, 0.027345508506850986, 0.03577135546730591, -0.016957284306048565, 0.020545535876786175, -0.03282472398752959, -0.05520391989877105, 0.03638388644453794, 0.003353438744498393, 0.027946384464297463, 0.003884526139124976, 0.02168136741312717, 0.03693423013175061, -0.006759671696534397], [-0.038474365156604594, 0.027944610133415055, 0.004306291570412595, -0.014551931063210684, 0.03943444777248374, -0.004944070037650655, 0.004363039315326077, -0.027859403425863433, -0.04881192297847569, 0.04227343613907504, 0.01758628707764062, -0.03544651778739432, -0.014196261957231723, -0.04641466520423175, -0.02293202876653212, 0.007071679140648864, 0.005778972180803204, -0.04664300168336374, -0.013574272053164223, -0.025063330563702538, -0.02217007758608998, 0.015465760249641938, -0.03794022395475716,