{"layers": [784, 100, 100, 100, 10], "epochs": 50, "mini-batch size": 50, "bias": [[-1.533192871366922, -0.8565821107844945, -0.6832648233613858, -2.46872304101961, 0.7951422670562474, -0.3938400006611645, -0.29994041954402423, -0.4043359648162859, 1.7716848097532532, -0.05330714972677533, -0.5773394439541814, -0.5644053103739214, -0.07442297230811201, 0.0096913736754754, 1.5940095970313386, -0.8031040820486418, 0.7465908495255802, -0.6297656040868598, -0.7052550616195432, 0.17025071249058102, -1.1467834640903622, -0.4796234991460443, -0.10923376752461474, 0.231861477744835, 0.4968137337467713, 0.6344913991125309, 2.2902931461960154, 1.805654281931942, -1.2577033771827963, -0.8577155387335874, -0.2603498604859896, -1.0329509242745398, -1.8919680415472035, -0.38330056372378, 1.2872708729149587, 0.1579713197159199, -2.1741607648236907, 1.980554017707406, -0.5614933479787987, -2.3214941277301437, -0.2645252179702093, -2.1438082246654586, -1.3979844684324865, -2.285335036258473, -0.7714087551942528, 0.9948794205693016, -0.6136224319649348, -0.33088675899869174, -1.9280290466901284, 0.29785841760650744, 0.6448214042296415, 2.0087597135401363, -0.6739663474549324, -1.2540714289838673, -2.90076941476331, 0.15142732788114924, -0.3512709935829104, -1.1433747911569672, -1.011956947858185, 0.35450568050483955, -0.49449985226400067, -0.39987636512801955, -1.030140257922895, 0.2576659235722882, 1.2245839335385815, -0.3799909309653888, 0.3796310739485641, 0.6927410113517986, -1.063335807342292, -0.39669571113450747, -1.2852446153181867, 0.2630289398927897, -0.7079751927880887, 1.3278050552845588, 0.7032431281298591, -0.45661922210577743, 0.7735563883914373, -1.5129410761837714, 0.5403054927900895, 1.337557461605779, -0.5428006110365982, -0.4850744051918445, 0.7265863679523861, -0.3330610696503134, -0.6854177383487653, 0.6612486360340316, 0.4228501348089554, -0.4539111874434007, 2.5092270033138915, 0.781936658833321, -0.8222935057711094, -3.147884080657052, 0.7149461129152332, 0.6186723671724282, 0.40711226777877874, 0.6718085240715662, -0.7746478667926571, -0.434973869537389, 0.8029784686409996, 0.15582945525956252], [-0.5784422850865052, -0.03796434127861465, -1.7554710984179485, 0.035361222216202935, -0.16106965504321333, -1.0286354836821783, -0.1432238661962549, 0.4314941849583881, 0.2578695950687894, -0.8407315575866444, -2.2462586410846255, -0.04495745901951328, 2.6633384968269365, 1.3909566680617746, -0.024727795158034804, -0.6163718223920744, -0.4600892833852645, -0.41104736682648035, -0.8230050761061601, -0.17980105221191564, -1.1614462107366526, -0.7139574105225096, 0.8576484337103655, -0.6313685715212601, -0.6151431420484446, 1.474880180296836, 0.672580611681077, -0.01594236205330777, 0.24939334057685214, 1.1393895486821652, 0.8238766985361385, -0.7358233893065932, -1.4524440989441816, -0.2181097434372502, -0.6549940649758076, 1.4476443033231068, 1.0150415130752464, -0.5552998873669945, -0.6278517515705563, 0.38358441810061306, -0.11245290712183235, 0.31073743131337167, 0.03165683680689561, -0.13103827860242762, -0.11816875991833482, -0.6763575752440817, 0.3054502685177952, -0.33658784679292086, 0.8505943788908584, -0.8795358199735014, 0.22712769940023117, 1.0430078768550668, 0.6125974113769268, -0.16644387479501002, -0.2975572613606761, 0.421618432830659, -1.1536927087752535, -0.2605756188366343, 1.0682304586628157, -0.17599278553398226, -1.1758390288913334, -1.8593090971672508, -2.2379838894406685, 1.1699261427289986, -1.1821784457408413, 0.1505120199111109, 0.3594412971926234, 1.5358467069126747, -0.04119290037256775, -0.32499796343113957, -0.5218592759482581, -0.15378516513098564, -0.17108827940414975, 0.8991490126698437, 0.2585884532128005, 0.4716450765111185, -0.03749547614098527, 1.3042735241506997, 0.2500625766147137, -0.6960173591535268, 0.5590297873517877, -0.002379281778287507, -0.13797330841031727, -0.3363727828572821, 0.3464218256632072, 0.011095692294038506, -0.2879327380429121, -0.9223643544382945, -0.8717578772856809, -0.007046678392781478, 1.7175477595719555, 0.8744467048084276, 0.134635042925176, 0.46978303020794904, -0.892318421071653, 0.5397849693088996, -0.7023381576685778, -0.9195329917178208, -0.06020832545374035, 0.4005212211290105], [-2.743738920506706, -0.2881674639202839, 0.758715121571984, 0.955482365972169, -0.19480757319413478, -0.02106801082609471, 1.0524520224201286, -0.5144226504300545, 1.110551808959818, 2.5973410101622267, 2.1041070797147277, -1.4976211230299852, -0.05652936372062288, 0.6271138556657151, -2.2231392482936054, 0.48986444125769746, -1.2523735882675335, -0.7337705310537065, -2.4678886953980985, -0.09464531982858518, -1.6417468518873128, -1.3893593923243348, -1.3515269978113105, 0.027628085209104244, 1.0198882851416025, 2.2414208206234423, -0.5224955009031993, -1.6857937018853704, -1.5672993295691964, -0.4159416799529105, 0.02832478818429493, -0.21270864653606664, 2.2725504065529605, -0.08933522301757306, 0.8058910038456769, -1.1666776937530383, -0.11159152327768355, -1.1887126977824674, -0.945276373053923, 0.8159540940299126, 0.25073035622664797, 2.2611806205692426, 0.471806810761681, 1.5621248382550157, 0.6530837360421731, 0.7206818976165698, 1.6772317589096881, 1.903895135485308, -0.3140331051879704, -0.24574278033653346, -0.1819901738238836, 1.6030442582479543, -2.5304995761853455, -0.3976872982482818, -0.3032633152933084, -1.7270641944173368, -1.5155357191073386, 0.8036825563648826, 0.41380069412107046, 1.0876899193737537, 0.005518679804000442, -0.10618528678227038, 1.2327527008480401, 0.5648517358612393, -0.7029465389953256, -0.15132249644775334, 0.8203150827921732, 0.6379077497257248, -0.6573337668721134, 1.022267116130401, 0.9343102452041713, -0.2668664252643137, -2.1571614448451677, 0.667753510684968, -1.711158319567651, -0.3489817083205844, 0.6141962907322366, -1.957263263992358, -1.2056905149423762, 0.43242365602706223, -0.47870724942992726, -0.8303743663101654, -0.18507265729315844, 0.5236673358261339, 0.8602303306433551, 2.4181554112578967, -0.43158067047490917, -0.32953020837644914, -1.7399108393080778, 1.1902198615572048, -0.44246256711779347, 1.123429331859012, -0.13676461247971203, -0.6332296096705189, 0.06726609640959472, -0.692011733988999, 0.5603745027896827, -0.6092246392727978, 0.9798668918902402, -0.5002769176190461], [-1.3520192337969978, -3.4952033998898067, 0.9227480083895534, -1.0954959424577326, 0.48805766103352904, -3.1908672994709524, -0.604388563078252, -2.071653760481419, -0.03595121593795531, 0.8496696389959202]], "number_of_tests": 10000, "number_of_trains": 10000, "weights": [[[-0.05344330274349781, -0.02428365035141125, -0.005590099649454571, 0.03716061888876759, 0.09232314111612296, 0.049515529606281895, -0.05810420085040723, -0.013253739972987512, 0.06733486988214066, -0.0017315251885798879, -0.02888591916357851, 0.01533078434791204, -0.035380816279585406, 0.016779261792570842, 0.06633315825919124, 0.04784076875805136, -0.019952228329234854, -0.019512720910752963, -0.04938746129866828, 0.026035795343538694, 0.001384874181096608, -0.04012313682011578, -0.003000981397719484, 0.0093939668315341, -0.031244447158233886, -0.00931057925270798, 0.037437829296408875, -0.03531171436708465, 0.04530896405947714, -0.02064972453194411, -0.04077342244196944, 0.011069277092337853, 0.026264412999171538, 0.020084141300906924, 0.005162779049462819, 0.044622369722470745, 0.004337494386678817, 0.025116594009168658, 0.044916899128827265, -0.024740801217997623, 0.047902383553266994, 0.002544184477604433, -0.021298018126758418, 0.040193842887284684, 0.000617240218760026, 0.0033550501900088724, 0.019583974932076944, 0.04201234472773006, 0.0326955536790797, -0.005758371337467615, -0.08134299485767, -0.02689543386842035, 0.007051514350352454, -0.005215972549599194, -0.01217158390712573, -0.01566152900350281, 0.01392138528793038, 0.005447536105581316, -0.03606240343643059, 0.026644035657818407, -0.015551443480661299, -0.05209307366539257, 0.02752725373141577, 0.02076748019274242, 0.007383595787788136, -0.029359243620903263, 0.07338986306244277, -0.02171928336580243, -0.04341158062957059, -0.013064184299157847, 0.023498411526568834, 0.00765185186392741, -0.03506321875705551, 0.04239522492403805, -0.031024055030494144, 0.06505218839313869, -0.0748400128464893, 0.013330428392145816, -0.016210702060032015, -0.039378830206354076, 0.003124356513167667, 0.016901838086222958, 0.037679467157661094, -0.01821726227117853, -0.019501747297980175, -0.009058541300063923, -0.08874826947128224, 0.02091911930473269, 0.03350286680081381, 0.03369399238077746, -0.024952919577400767, 0.03172015957331833, -0.021540723808894092, 0.044803790347926635, 0.04534910951677941, 0.031808862463704485, -0.09176633361469726, -0.06413217895365712, -0.030902573126026855, -0.012783933551939481], [0.02572829852357173, -0.05038630688505149, -0.007586976157872177, -0.028600796776761608, 0.000658426393953658, -0.00697231490107811, -0.020148736509087738, 0.07044751095138074, 0.019231536841293508, -0.05407415370833951, 0.004732615829412177, -0.0061680747026293566, 0.001651250861082396, 0.06920895126259054, -0.029632481256814912, -0.06497980874995309, 0.004499221747294347, -0.03267989432467707, -0.02109316398549054, -0.0566022031948479, 0.012717861610325064, -0.04392138003545592, -0.024131775693195915, -0.014103988418109172, -0.000875967807286764, 0.019039954468287035, 0.03231129565294451, -0.05385836660365948, -0.03810391313350096, -0.025101897199291373, -0.007318505531022459, 0.006403812361837968, -0.035812571487079725, -0.00021447297562246615, -0.010326390302822194, -0.025219890810926224, 0.031290856895083596, 0.007441248618277076, 0.05101495009641898, -0.0024753851438352355, -0.06824425908858474, -0.020429852131833147, 0.013027571948353094, -0.01585443944886012, 0.009806680421241231, -0.010487201377117658, -0.021796891914082683, -0.024463482058701948, 0.000396436774457136, -0.018733271817577196, 0.017461661585177108, -0.05011577463449079, 0.01192793747062773, 0.03523857723512903, 0.019786153484455872, 0.0042148835233145245, -0.0368939392370166, 0.04942487114812361, 0.030317111941716685, -0.03376071937732455, 0.040282876974207404, -0.009552730260458643, -0.0035325087628504076, 0.0030733515235265942, 0.03209687752818966, 0.02455288779997477, -0.003326499982600849, -0.035442502168603625, -6.788594606843829e-05, -0.0231392474715116, 0.004250780347696686, -0.04553834579574238, 0.008220983395685175, -0.00017800607929560315, 0.05365425535759397, -0.07387847275342439, 0.016384011030878106, -0.0020354027017957747, 0.018073421714503688, 0.011657418797959696, -0.033388968235849636, 0.012435125737334431, 0.011551479915502484, 0.01449340141141935, -0.017229990778610843, 0.01157235964949933, -0.012457201488523396, 0.019527200889816416, 0.00027747906424295906, -0.028912264879403713, 0.047768046212468565, -0.00945016328128788, -0.0038302265643799507, 0.034799967787442126, -0.009935422589162782, 0.0587554674960984, -0.02342012728941304, -0.043791583765026836, -0.010194122621505182, -0.07659629947069066], [-0.09678349464385139, 0.02000981513830583, -0.03250589234775494, -0.017826014061438668, 0.036558203389506105, -0.06592511476834412, 0.022799721656897993, -0.015645820650090896, -0.006921602517783831, 0.04761126174208967, -0.012743012437339848, 0.03419617834031962, -0.025989367305435294, 0.004391529379923111, 0.006293934816178434, -0.04420714116768904, -0.051591381529418466, 0.08465080950575606, 0.032792943912572724, 0.018242916668831037, -0.004410213339883112, 0.022503022886331915, 0.019516298979742074, 0.010322826853030483, -0.003476770183808544, 0.05818915945554329, 0.0030539445278245274, -0.0556057020891357, -0.07621692231853854, 0.012276039369044991, 0.016784695676695563, 0.06855216002767475, 0.014530497565545803, -0.0035219929557085724, 0.02605188459139001, 0.03912503078299842, -0.030160557269255185, -0.02176582039408419, 0.03840473124200343, -0.019972501237113187, 0.06147517596124579, 0.08152752170478393, 0.007709646730294669, 0.001008214273990038, 0.027068570056482444, -0.03956292208058827, -0.025858364124374842, 0.07394581773877365, 0.016859911622433325, 0.012151938451406217, -0.02452284137502376, 0.04477518788256107, 0.0033539272143014486, 0.013126752997524319, -0.010225003430419679, 0.028828328430420953, 0.020443188547686553, -0.01631247672521112, 0.0349156607372891, -0.011738188009783362, 0.0250990447064794, -0.08514038917793924, -0.01164203300397555, 0.007828195357568006, -0.06396896627251171, 0.04348592843518995, -0.007034309284903839, -0.010097669756541272, -0.013559345518088899, 0.004675201113055858, 0.013027913466096476, -0.014541108311477884, -0.03181071333056767, 0.0007957795901537861, 0.04195843783333567, -0.0049127447989516125, -0.02262748828293097, 0.058137953272901534, 0.04446720565941691, -0.038053732379738546, 0.05005328293089124, 0.007044236076061458, -0.00804998865932394, -0.01753230791216132, 0.03689323820885883, -0.0018059861149177256, 0.0715568085035327, -0.025417786748574846, 0.026219353095266865, -0.051461333808652136, -0.029198688014707375, -0.0241995133382315, -0.010888595315327144, -0.01704843808726627, 0.01762385885857597, -0.007707086980369235, 0.012361056024470655, 0.05932292380931304, 0.004959429252308234, 0.06042325543781417], [0.060515815658800286, -0.002211256143785893, -0.0031809212606539166, 0.005314895256878109, 0.019836757143517285, 0.036601347993854505, 0.09986511410807039, -0.01429300087808928, -0.009200554504601471, -0.059980238488305304, -0.007340691432350171, -0.04153145388850625, 0.02008552029379671, 0.028546785184535253, 0.03799327118581694, 0.03248380081200944, 0.010704508006878853, -0.016547767970742377, -0.03803766161118999, -0.034536497055344964, -0.016696055738160364, 0.04397924040967315, 0.05633686862431378, 0.024399320725267067, 0.004787292475688123, 0.06000345043032727, -0.11467379395200843, -0.027939272755319614, -0.04878380533508424, -0.01846749533685935, -0.002589820262479319, 0.008098271483191453, -0.03810933698979579, -0.04108727684400357, -0.0008762749303859704, 0.001674425745221736, 0.008820794571263795, 0.0015714392024519569, 0.07588619558534311, 0.023480040496687588, -0.02558394055104441, -0.0266655722415626, -0.0516150788472694, -0.015197034935008139, 0.029829672029536475, -0.020937987693204894, 0.02212341600102772, -0.021339871607254132, -0.0019071395365585393, -0.009464985940811441, 0.015767270929766968, -0.017226829827984604, 0.0916251962631929, -0.017715825036482575, -0.025221749266194467, -0.05158904396749838, -0.005058098112211929, 0.023826825649221436, 0.050730739072656454, 0.029057298200875614, -0.005182572150484682, 0.05694430250848554, 0.017719998235699523, 0.012704142507201597, -0.015754449557124715, 0.0050706424674228446, 0.005718438746072136, 0.019394357151225654, 0.08830541199121067, -0.04319211713967375, -0.0325975454420503, 0.008634666440047057, 0.01670581616285276, -0.04279747194825702, 0.05214591634858377, -0.0006241591260632072, -0.044149771116084785, -0.03448661235787154, 0.028131671086482946, -0.005122086294562195, 0.023461852712294267, 0.04743533469017189, 0.02578674080028536, 0.03633935014661267, 0.020779689723501436, -0.028936280414607513, -0.053753549929921006, -0.016031968687803013, 0.006215696873168914, -0.00031496748901131276, 0.02364587048804542, -0.0103811106255175, -0.05570854377667238, 0.03088213185644088, -0.022214739571253927, -0.03965953173794704, 0.021136595861452428, -0.01418887386878278, 0.007493534950802986, 0.004241734765622847], [0.007330164109323683, -0.03263341932075673, -0.0288874233648042, 0.007525594338967521, 0.03239983326501009, 0.010752801047624968, -0.03421512323670069, 0.010625827858502227, -0.014116690169606804, -0.04444941314465916, -0.03231940306474346, -0.0012489214333974827, 0.04324676016969683, 0.03315598090968008, 0.036447507320579414, -0.0174317664712859, 0.06250664941640971, -0.008196909614727613, 0.015069179999335547, -0.005919679632361303, -0.03363363018438355, -0.015067247319423242, -0.005507502869080069, -0.05855446792673585, 0.01862801603435807, -0.01741694353693202, -0.019554179055727657, -0.028481823816805536, -0.03999497826548104, 0.06491158097309996, 0.001886510456097763, -0.009811854907069713, -0.023142407257207582, 0.062416436607501014, 0.05086839957295332, -0.08222095827555387, 0.04786931554699889, 0.06813796451736343, 0.0325922856166669, 0.0014480016117088782, -0.02361705013985135, 0.02547173236556621, 0.06033468354787651, 0.013615740782364926, -0.07376244584737103, -0.06072068237937324, -0.06482533106662024, -0.028455537258611403, -0.004541610898339918, 0.022372565435621772, -0.01322901083417255, 0.0049994278743915295, -0.03619253414691357, 0.033811808237567166, 0.03309772201950586, -0.010034374017674664, 0.018433756086159166, -0.062204437581585885, 0.0020359779375520846, 0.0591551171276058, -0.05133936033377965, 0.005738822935565309, 0.03730770947529086, -0.10485958437654828, -0.02947476157555374, 0.06142809570390165, 0.0006292601673400527, -0.07945597282600042, -0.009831439565912923, 0.0007952116126764207, 0.015369130923045695, -0.05803912534504078, 0.0134919942603785, -0.033603652364576915, 0.06151953847394652, -0.019948295953479512, -0.04397045747932851, 0.025279262914749103, 0.011066881079349507, -0.012984399887981628, -0.0038800819075634433, 0.04091444455181294, 0.005424725315989618, 0.029558450474921987, 0.018188464831437375, -0.0024955908962504864, -0.01518550524739316, 0.044887049813458695, -0.017626846928796805, -0.03013436402727442, 0.04361253789349704, 0.01974907914291212, 0.015357124210955805, 0.015006653260297846, 0.031189693020459913, -0.013599602035949966, -0.006791176381301837, 0.03692494397916703, 0.0033861095713789667, 0.010613818561330908], [-0.04754410094544411, 0.002224163841567627, -0.030159452691450025, 0.0026227837233635995, 0.03075018143917541, 0.04502666077223089, 0.030112057479614762, 0.009025698525331645, -0.019409753342324646, -0.04099082657331774, -0.025071603723800656, 0.04174500972003737, 0.037647706959746494, 0.028675636874809302, 0.04364673365996222, -0.033647680202639814, 0.03197431085076887, -0.01516307396288831, 0.036759784953014345, 0.013210701579540116, -7.448859819456536e-05, -0.0282860511370441, 0.07309206474558648, 0.051755517030353235, 0.006118209653824139, 0.023203541391185852, -0.007487600250623843, 0.0012783373863686446, -0.01920183091790266, -0.07083808708407885, 0.007845125825383365, -0.012633013817535831, 0.011646665397636194, -0.06255254338730305, -0.014676754680705057, 0.07878821326238417, 0.031020342566607764, -0.004585672012046708, 0.05530397062881063, -0.0029981238291347722, -0.024598688387350513, 0.04603280461277813, 0.05287535499637995, 0.06163975305329091, -0.05915707981233667, -0.06403082702498722, 0.039816162922214404, -0.011999539205473487, -0.008393975755971726, -0.03310049432030634, -0.03640355091246217, -0.030822206475995442, 0.07677340468903533, -0.002541451146067214, -0.029347743873774427, 0.004928759071138556, 0.010804442072691765, -0.09510700463319186, 0.012848672650774974, 0.061061504579358265, 0.031691588302376575, 0.028128798485435424, 0.027324235356953875, -0.010307206503421016, -0.03303034021602873, -0.025019366887749705, 0.06467834852845414, -0.018130133451173643, 0.022389884922483786, -0.029513736897138286, -0.026637665541307705, -0.02787424024894967, 0.04474236369818914, 0.003086327181078183, -0.0555769274552848, -0.038288020311513106, 0.01283834734112408, 0.012416993025161999, -0.012963823908460025, 0.0016934786370378049, -0.0314390568942665, 0.02737647494658088, -0.02558757030104932, 0.04614135708208422, -0.05236060361893761, 0.0321498710050352, -0.01825343361330944, -0.02594779697017528, -0.006411011744600381, 0.019713634704975783, 0.017262914170986483, 0.013708135302909707, 0.01487718708365925, -0.012266008002945519, -0.01958917169374349, -0.019234449737563598, 0.020019979623760845, -0.08993286073188303, 0.036277920326550465, -0.01279754830622735], [0.008824913339737011, 0.01714009461606731, 0.027710086947869177, 0.03639820418320026, 0.03394345736760422, 0.0069321181788909786, 0.00908898597678028, 0.045099177672423524, 0.005975519542718506, -0.028146219418524705, 0.012517597245542014, -0.053126418731318514, 0.03865112724271781, -0.08125553581353537, -0.0055762664978681285, -0.003118726828466189, 0.01709686845932674, -0.017334014563749407, 0.015079505865394586, -0.009400513125525102, -0.03817704601417665, -0.00821898942344173, -0.007976100368761983, 0.06768777899462383, 0.049158431122985465, -0.021201564648253984, 0.01483131452442386, -0.008217625600857863, 0.005756338626699905, 0.07274668563266738, -0.019122309082667002, -0.006568186412928557, -0.005134480678053223, 0.04352743135044897, 0.00045565862801944543, 0.03350959959516184, -0.04081318147511665, 0.007368507283203593, -0.019239217349148522, 0.01614061274172437, -0.020760466569368932, -0.041232359436108645, 0.007997745016682255, 0.016038695932466717, -0.020165657440417765, -0.003299718645636305, 0.03274725649450657, -0.032075380582415984, -5.656525016633503e-05, -0.02839116316572759, -0.05201636146842128, 0.006246985701137985, 0.025442287780572642, 0.050261242222842194, 0.06576386956730944, 0.07967361038103554, 0.009926068595117582, -0.07016581807133707, 0.03353580785843546, 0.05186682378051378, -0.012773111719546067, -0.011514772132837862, -0.02560174738091084, -0.02476669768609228, 0.027861286318697852, 0.1005815077101001, -0.044373404527493554, -0.01823606800179236, -0.01964324735915743, -0.01921748226190783, -0.014341351332009353, 0.062250418017309635, 0.01729104020554268, -0.02118938921689824, 0.003120033216832247, -0.0023351951486121694, 0.047841139569922676, -0.04287767452103284, 0.006894114286081229, -0.03957562555785099, 0.06959311517634631, -0.0623343000037602, -0.023362876284577637, -0.008453689619535947, 0.000705951501069852, -0.0030389187055846157, -0.021855188097819365, 0.01849272759597345, 0.01535868663376363, -0.04900961306279432, 0.02982260972314851, 0.034370769014108106, 0.022410100976906256, -0.0018058950650146042, -0.002961071130198454, 0.024562523601010633, -0.09375726364317165, 0.003810134418100223, -0.008871274963163632, 0.012452129756053334], [0.004204106987858922, 0.009722505139376619, -0.07263652844607463, -0.02959912159780905, -0.06392664103682427, 0.0972932749137349, 0.0451038162903361, -0.03251347206761878, -0.007433109696141355, 0.01391083888741595, -0.011318774031965313, 0.022904367780370426, -0.00430651953970405, -0.02703661544572829, 0.08917849455026285, -0.058330054794657006, 0.008639282348547996, -0.00684078686823435, 0.015085974998963856, -0.03367257139864208, 0.027966461587168197, -0.043827475122726965, -0.07875567600830094, 0.017980477335161046, -0.13003242982868884, 0.049883483655199894, -0.03369485224428318, 0.005287872854444587, 0.018703604080792274, -0.011505788612503561, -0.02286041576155616, -0.00982683048669459, -0.025978848934957603, 0.03514002137678686, 0.003843823533865445, 0.04228589609625244, 0.009841055136452686, -0.07393594843199823, -0.04693186968122554, -0.017487942478359598, 0.07021506854865991, -0.11110143644982466, 0.010510415971217421, -0.0792270201771459, -0.0014405953040970707, 0.04652211525043899, -0.012941241006691232, 0.033440725148998526, 0.030490460530483265, -0.08138882270424204, 0.0061956896179856105, -0.022559052607640472, -0.0337140733829571, -0.014234908277384677, -0.053297528744060435, 0.04206124502614873, 0.001446790817555555, -0.04920430826691343, 0.0005758481278231596, -0.011948943787527462, -0.023587908692408732, -0.031363837594359914, 0.005230746611507768, 0.002243056220983521, -0.07351025555219513, -0.052908246973289795, 0.016832388609742018, 0.010253163384178919, -0.04707333952391676, 0.034993512995225816, 0.04185093053556902, -0.03356489137068675, -0.021862993626363764, -0.0042388728570768594, -0.022993741427727532, 0.011285270337558068, -0.017360444263393296, 0.024581794184424886, 0.026992858172672256, -0.025443605286537125, -0.020799482936283066, 0.0481088331164054, -0.04993776159221621, -0.015421105130579678, -0.019703937950834534, -0.000735028002619244, 0.02178743308148398, 0.02437167392155968, 0.03840325011941766, -0.049734904899659475, -0.01959074492842396, 0.06525684711212697, 0.020326942029834746, -0.012980901264781547, 0.05512489379064572, 0.024019590920183683, 0.008869067691517452, 0.06568375616024007, -0.02900350376396847, 0.09767707135571088], [0.06570927311694456, -0.011593489650629727, 0.035963147225165394, 0.015797569254393733, 0.03356373343412567, -0.0077475856400676165, -0.04322340905464107, -0.08143380661991431, -0.08031617572148908, -0.05704975690111455, 0.0030189637147479413, -0.06780683945688042, -0.0002163463118532981, -0.024612999172607397, 0.015893207867741503, -0.0005325325267373219, -0.03580969723579946, 0.06396748559787709, 0.03798687025885307, -0.03478935430260718, -0.005223863046400264, -0.042056713662686686, -0.015939406646709845, 0.0031068254120179147, 0.008582840377513865, 0.0370428833772198, 0.017961925471374787, -0.02289392579634051, -0.031401258051800364, 0.013907300676703671, 0.03680719708271036, -0.033200267365409944, -0.023933295525523517, 0.022936481403288134, 0.004478509070808266, -0.05252817520625377, 0.036191271266836154, 0.03711375882461567, -0.11556925387683066, -0.07810600352435365, -0.03403911781311096, -0.020193411422448074, -0.04854407623619178, -0.041224766958417244, 0.004346431691962864, 0.0012217026839065044, -0.0013224867088669698, -0.022475796410245975, -0.0531845195781673, -0.028482284021551806, 0.07005846723211712, 0.024864308024793454, 0.005317277176691151, -0.020601063614722637, 0.0016516832975755613, 0.054076476401111656, -0.029823988797670287, 0.05828800150303157, -0.0064871000048834756, -0.011960260542537269, 0.03531175328900835, -0.012013758541776337, -0.05521327323145611, 0.027939175938653808, -0.03291575599923393, 0.020047286902246497, -0.004246590746553808, -0.03731188473580082, 0.05029176212164615, -0.0041794680889297815, -0.026509791368658765, -0.024121855359249073, 0.04858669969794161, -0.036307552185268314, -0.016734741068952744, 0.02445087703574255, -0.019038259950040205, -0.007277849238116048, -0.07332846166750152, -0.011142722301405067, 0.025231899928641666, 0.004289806234225466, 0.09242202003437447, 0.0109154659875669, -0.0067673442972297874, 0.018954528574348758, 0.0561339135650182, 0.005455976655546389, 0.021889520937691587, 0.018167217140951143, 0.015258820297943027, 0.020025843709050598, 0.07363574466547063, -0.03350979228673818, -0.020707022205304945, 0.03661153344593625, -0.026275796425813614, -0.007111154492464492, -0.030844884051101813, -0.030589022693893374], [-0.035721744744132485, -0.016794362965390483, 0.0809773655853556, 0.01385037894331505, -0.06488986065450635, -0.01929097916406605, -0.06168656591058562, 0.050622117040837904, 0.013427797155161153, -0.005177336671902681, -0.0069387582275475725, 0.015364828869718267, -0.015568316716390711, -0.05109225363531135, -0.052676429178488686, -0.04475007701753904, -0.041670214758641404, -0.004675202181564771, -0.014877364893581647, 0.017424634919570765, -0.0465243318544769, -0.06370849080118035, -0.023286687723524737, 0.004965532590526332, -0.018502714961665757, -0.044080423778345416, 0.05415312880011447, 0.011141610604659171, -0.028413892216318407, -0.02991653857935548, -0.04103290996173627, -0.021612879047044745, -0.03757714407839298, 0.01944529549656949, 0.016258670183829947, 0.03272961759866596, -0.023345381315855743, 0.03880880222553134, 0.0336054179202943, 0.020092488436763055, 0.020091878392888576, -0.042235187094575126, -0.008066961793796817, 0.004863315645082443, 0.07149469521107138, -0.020768649383405852, -0.03554885670302739, -0.0005630306931312671, 0.01096617295274623, -0.01119516915533183, 0.06867741321570356, -0.00639626845260708, -0.0628581992827462, 0.06736283639530843, -0.007735050410094154, 0.0173384091090603, -0.0025833323366994555, -0.02073621895662035, -0.005458345092290882, -0.04925911879804196, 0.016779633079061496, 0.09337296308119578, 0.051945922466739576, -0.04117603599452815, 0.04283732076310799, -0.05246990277607259, -0.023913589627635238, -0.031677324276971106, -0.010084955551641189, 0.06361210652819908, -0.013422480715845165, -0.04809813976705146, 0.05634547036931757, 0.05181566951985878, -0.053451918969944966, 0.011696845140961913, 0.05442842209512851, 0.02406480159683348, -0.02306295686773816, -0.010435987074491454, 0.018727369500191497, -0.006575665367227126, 0.06624335164544158, -0.013938171686040354, 0.07399411422701499, 0.026595293780520484, 0.05369478827464138, -0.008343826237771865, 0.027830991041726295, -0.04418125612348908, -0.044126632129948155, 0.0074487012499684655, 0.04067736797166313, 0.020001284167840656, 0.025054570996667122, 0.025152554496999564, 0.01465485481544818, -0.07488804260227633, -0.06792715587708822, -0.027844504385737247], [0.045775053193340604, 0.013544999461291634, 0.008211248363379432, 0.035558982127484234, -0.04272957315258044, -0.02190494859343958, 0.006433783277729832, 0.016226556327239863, 0.029956395730133308, 0.00915871886346529, -0.040032358816629324, 0.026912307144199944, -0.000707231561984728, -0.03360126726864898, -0.003410634222574697, 0.06499321398368996, -0.07705411502745795, 0.008084908485883025, 0.04788124976788333, 0.02318145130387934, 0.05700510854287899, 0.05556656423207576, 0.0037633796090663298, -0.020404177952904893, 0.04961260117581782, -0.0017711761767976147, -0.013064923388008045, -0.024927066465304876, 0.01143138298649797, 0.042437287619512216, 0.04398854380620754, 0.03560039821599931, -0.03150176831822785, 0.027560574745116757, 0.08497125734098485, -0.017866642258249226, -0.007013639167559943, -0.059706386061526485, -0.03672788617808358, 0.006501587251198054, 0.03041677452758182, -0.04165012329964493, -0.016126060080327322, -0.00924266027357289, -0.04046015643192309, -0.012463839742487106, -0.042119324746493644, -0.004951702012287747, 0.019474619296491885, 0.01740117717919637, 0.015872822465066164, -0.03415067558049607, -0.0027437880496202108, 0.03119206614027137, -0.00040938124274646784, 0.04024799786107854, -0.013446787530483194, -0.03457767241026381, -0.02551268554860822, -0.006697505943745313, -0.0433138924400721, -0.0018919387798966337, 0.013257068526288924, 0.05209075580804711, 0.003858384234360468, -0.022870684890747128, -0.011865421955297203, -0.011349248389018407, 0.013512577180708514, -0.0340592546460332, -0.07443670254446062, -0.08416737794917924, -0.038576828372065594, -0.010845768239822964, 0.049890069866325874, 0.04995080786116299, -0.036195175333041375, -0.0005710960746362873, -0.011394578990425239, -0.040323208913718954, -0.03497985696873895, -0.04248016647698816, -0.007300355962204197, 0.00837133686505577, -0.012682917446525346, -0.02924044132241877, 0.028483448380667475, -0.043317766704097295, -0.018115832010238867, 0.04687259531004443, 0.050571248528246834, -0.04624027297580426, -0.008443889483633935, -0.009052207996427385, 0.023176535997124707, 0.022580432506557238, -0.022127737182583065, 0.00021349615398933276, 0.014987508246595551, -0.013447684058429927], [0.06525857625165733, 0.04519996409033856, 0.025741026839805642, -0.043337948477649824, -0.020328855212618506, 0.024903834610709084, 0.05267540450145282, -0.024711772732079768, -0.03369876275501971, 0.06404422216002223, 0.07255317342243096, 0.04173544116716842, -0.06670575633558495, 0.1098304174110986, -0.031435531489099236, 0.0025598066924704395, 0.03511278702323214, 0.021471679783179046, 0.04646510918957659, 0.05097364411817114, 0.06391165838903162, -0.062096443003635406, -0.009820261726826554, 0.025022050833352377, 0.01162552603011789, -0.06562487236062302, 0.012598024436628247, 0.017517311132757726, 0.03110222205634615, 0.032194485597900516, -0.017999918759100075, -0.023835022592702274, -0.01617249728724794, 0.0796630532740018, -0.0024670163476690236, -0.012478772273786744, 0.024193194592603634, -0.017665860729577543, 0.03812007115014964, -0.009071785856710415, 0.032833356361087966, 0.025473561136803276, -0.03397693440535789, -0.029090197686758336, -0.03764268849654397, -0.05032694590722136, -0.03735426915792504, 0.013003402481870164, -0.04068903639220491, -0.0073314538873011535, 0.02286161442431263, -0.014102489211835248, -0.010376963520987634, -0.008872188146540899, -0.02996983990537387, 0.036725414385059094, -0.030032499506073274, 0.031811524057590815, -0.010587206960161279, 0.06487964645400852, -0.05698775660637848, 3.3482122385747345e-05, -0.04317760118029304, -0.009580912009498852, 0.023223457189473096, 0.005321884400026998, 0.031098206147088997, 0.035398917312463044, -0.007328503741235266, 0.012180793357018934, -0.013278657217031186, 0.0057980266416246895, 0.03046626504246797, -0.05087554461594808, -0.049238124067933105, -0.01904008732263982, 0.01929306395229294, -0.07014896169651205, -0.047798557623091514, 0.0009059010596782995, -0.05117250449212191, -0.028666037213155447, 0.043157743001844884, -0.07621498667970909, -0.02899643570406674, 0.004494910208317419, -0.06284317060607025, 0.015813751549008916, 0.02316485545220771, -0.013866450766189233, -0.023594866870997565, -0.0764065524207589, -0.00045632844307896765, 0.06977448146754366, 0.03109191189532303, 0.024421357010264242, -0.0007839568671732405, -0.058983541252705884, 0.01091626575732528, -0.033608594992761455], [-0.029587735817294625, 0.01947233933641995, -0.013395819982057211, -0.013454461900278557, 0.09281422020512017, 0.030880529857918695, -0.01390257408228533, -0.015947298749319445, 0.005796102757844353, 0.05572081451887885, -0.04518842915380246, -0.018547293914686857, 0.05298012389899603, 0.043938058374472906, -0.022078502571584918, 0.003393240629071835, -0.0003512383230596555, 0.01821016523056634, -0.0043723155190865375, 0.007955998723998532, 0.004626627850916176, 0.06218751788365583, -0.02145267956731502, -0.014711031882664906, -0.02063078481084845, -0.02024012733279683, -0.019149977992280694, 0.05814315435377209, -0.0003709945217289573, -0.03389610433593408, -0.06829715004148924, -0.008832694949421184, -0.027645821925187216, 0.016788612528631938, -0.01861183909959453, -0.03382969224010341, -0.017661089751734298, 0.05833792305920777, -0.028702822448289186, -0.05309853911020014, 0.043934102065081665, 0.0691886278415512, 0.016744956057069785, -0.0024905576281382537, 0.06121642577293367, 0.02648045566843533, 0.033330935614861515, -0.00679159473916288, -0.011138925869246025, 0.04649736031095075, -0.04457719528582877, -0.009967312413249116, -0.013228096140932876, -0.004662523686204727, -0.025111253450363354, 0.022044761529176924, 0.03781776708840987, 0.07352085843656364, 0.043620061512709175, -0.06747702666417466, 0.0016568438530324226, 0.02627272564434883, 0.04359603970086007, -0.005084457646019521, -0.02094411081198095, 0.008411435650715123, -0.03186508203703115, -0.03484560443975793, -0.024515846233211326, -0.015949206484403924, -0.06048561418770626, -0.07158839145248212, -0.03549497343659908, 0.06752525650650645, 0.017040346991488486, -0.02091620605942873, 0.026075360943166002, -0.06970874114305979, -0.047686500109832074, 0.01957935898739722, -0.036130335766188404, 0.002428098974460141, -0.08688096340228942, 0.022939734899567993, -0.025952086844194446, -0.05613013876267352, 0.05139695810047289, 0.0012229551206491456, 0.05008908102198879, -0.09946941708991514, -0.025215247031661652, -0.019584570506669216, -0.007117300536254845, 0.009043164046158634, -0.02078413377964657, 0.010702933822618079, -0.013733458057463493, 0.013657634820596894, 0.007771271476522056, 0.005703367177592305], [-0.04346304250942684, 0.045252103357253895, -0.0016979010710452406, 0.01776765920276434, 0.004834852068780584, -0.013717388489868702, -0.01072340434961826, 0.023552405545506666, 0.07747537712345119, 0.0070018714441785245, -0.007464391379007256, 0.023195755314160557, -0.003955940368135338, -0.020410387026799134, -0.01122364119291949, -0.01967522051909684, 0.014423039554417824, -0.032747204198958914, -0.013404774831459746, -0.018562008846215027, 0.007019288087677127, 0.04490843935062001, 0.01511740949974692, -0.03804823001385343, 0.028846944376208168, 0.012034507818374784, -0.1408519631996636, -0.007949258724577423, -0.07288953529978671, 0.0030157424443572785, 0.050417003881188506, -0.012391262580678125, -0.007520186967333, -0.03108649918590541, -0.019435546034655783, 0.01643014446498851, 0.01784892665207927, -0.0038288348193202958, -0.005553573844103937, 0.0272908424697641, -0.015282961790357461, -0.019475914113639733, 0.012908955819696043, 0.030636335943742068, 0.0022732917283884127, 0.012010961784102506, -0.012455392637622575, -0.010104380682500361, -0.0283756244027434, -0.036077092944238984, 0.02589057707815882, 0.01891585547474717, -0.10214822298460169, 0.02611156470978311, 0.03569623364439876, -0.03595955630664331, 0.006380393121575797, -0.0014909278780086965, 0.040602300505063325, 0.06812110513659474, 0.0244610305656182, 0.06417146925952665, -0.022524402367682935, -0.029070424282381383, 0.06475969332707893, -0.012884198335373322, 0.044662301433084604, -0.016732449667516146, 0.01477776501969794, -0.06532549537057505, 0.013697916304957505, 5.0917016633604013e-05, 0.030968044375758844, -0.047049624150177626, -0.023049765882543236, -0.012114512329524183, -0.029779698834107943, 0.02872895538045133, -0.003157656892276395, -0.02169835061981554, 0.040024485245455536, -0.0534068462993569, -0.015332785188942764, 0.09474378532885577, -0.012838745321242618, 0.0258773839186648, -0.03668117520796267, 0.03574944979310305, 0.06675968247366824, 0.08156740451592952, 0.05027064820824957, 0.013737400286703156, -0.0037430640195612328, 0.024787792455082197, -0.024824922587768014, -0.001988606710581546, 0.03233118858240172, -0.005476192274551769, -0.0024564979735783874, 0.025119403666085127], [-0.053805298255738446, 0.05221122654633459, 0.10175867987132824, -0.017991795781572825, 0.017076563577956592, -0.01797036081919666, -0.04062652405060602, -0.03770690258518862, -0.0420779505307628, 0.008751760205571855, -0.010994185541116155, -0.060720567995767964, 0.0412094846764788, 0.026760907836888878, 0.0008985606421402053, 0.054850493853878905, -0.07080475642281164, -0.006372144236516714, -0.0454044266410149, -0.02522898586255199, -0.04293920003504831, 0.015263247635725744, -0.015758465072436795, 0.020315133456351636, -0.01334022288687719, -0.07381813756004703, 0.05594719283972889, 0.052951893155432875, 0.012716522826503221, 0.040647299419366685, 0.05918105749017877, -0.015078616867635184, -0.03428729053565292, -0.022406070310908407, 0.0025199320439880314, 0.0053797832554387205, -0.01323072232961251, -0.0036690944887812446, 0.007780728947490346, 0.02105297604080316, -0.024451373787627788, -0.025327542164773384, -0.017364447063124233, -0.08096025614147731, -0.010033005555851954, 0.0466941714065566, 0.04729780209566061, -0.03678142161262135, -0.055490373790872224, -0.0019054283109270884, -0.08441143131279401, -0.013432954609513924, 0.023520699517925604, -0.08254625731388837, 0.04823635050372552, -0.0251464379585673, 0.042649372794758444, 0.008106357138302748, 0.005038272122849804, 0.026740813846306038, -0.05651758209082309, 0.028516084018874097, -0.06485660791747566, 0.024174315516864768, 0.0036740603378564362, 0.03952134702845404, 0.07461802247941846, 0.012802028294978042, -0.01580838761821358, -0.054385505391414395, 0.06389646607077604, -0.08865656784147621, 0.006806448191178423, -0.015922673054896967, -0.0319476019679579, -0.004420664533549641, 0.1091466359253504, 0.04442673295079147, -0.01591825641214671, 0.024135635729723895, -0.05199840893546076, -0.0028001557973873176, -0.032163141432718825, 5.8884071396035765e-05, -0.0022034362685200448, 0.013951817327796106, -0.017904076179023527, 0.06780730448534679, 0.04519612475761228, -0.007059137195791745, -0.008275273597569705, -0.03287125995342895, 0.031185841830868182, 0.016810387350795524, -0.015910579876002945, -0.03582275227934711, -0.020693902304875295, 0.016689002353122324, -0.05415989223936847, -0.0012165003829341505], [0.02855255371932738, 0.04337388749516971, 0.05757912605322797, -0.022466689615676112, 0.0050659286358491, -0.015957073016321807, -0.01441606616401812, -0.03519053650658973, -0.03658112250267173, 0.05793267653517372, -0.0034228053880115635, -0.0007397116441093589, 0.05801904799801436, 0.04291592777859358, -0.0222228787852954, 0.013754998550997703, 0.025882790671737523, -0.011558999053072129, -0.030556469710854708, 0.012926635772663215, 0.0167353412016542, 0.07478036615631961, -0.06726896655045833, -0.04363058791584979, 0.00968966790626499, -0.0017947125379777333, -0.03922278211785441, 0.0002940633537391165, -0.010830628909298494, -0.009067360753961383, 0.0014789937916561723, -0.025398499163706567, -0.0230615030758576, 0.014712118268550173, -0.04429687566224494, 0.00857404256120719, -0.0071318669804209455, 0.05152280051411408, 0.04744942537591106, 0.0658486261058104, 0.039064377472878394, -0.0072786117180220575, -0.024394248531045475, 0.026501942867172154, -0.013357615569717082, 0.0009629299919458586, -0.008073988157874076, 0.02384962078725046, 0.04172747993285074, -0.023033754208844244, 0.007998591502766567, -0.031146657027087212, 0.04269889189384712, 0.03549418660482903, 0.06898157341803818, 0.012806444931358268, 0.043446771722019044, -0.0899284761856306, -0.0545193804195393, -0.0323983266318014, -0.005069429977732438, 0.046635118298904266, 0.0007107271191495298, 0.009921584744912369, -0.018619845753105897, -0.03231028330546178, 0.008654014140037433, 0.057814132367649464, -0.0055016646766822145, 0.021570701684125865, 0.028117548438754098, -0.05947310436611316, 0.06257926107601697, -0.01746235304712144, -0.04927657622034505, -0.014347686194923838, -0.00829445810590347, -0.0159804811290366, 0.016625020347559628, 0.004317149063705739, 0.021213936637902497, -0.04587068048243796, 0.02911273841356593, 0.015254369946518968, 0.02746854429105033, 0.03575457222567409, -0.04386908216987438, 0.0006455693193839824, 0.014235536522029354, 0.004950066821184102, 0.016205230486118834, 0.06233564442825272, -0.008516255134256936, 0.01850378094487484, 0.04221576825911235, -0.05928589311872321, 0.02260957038262737, -0.020947334733086444, -0.02738387928370457, -0.05176098849381511], [0.03684188839936821, 0.02708463370715967, 0.07256384522614183, 0.005894970804671141, 0.03219700884742697, 0.039016968400502686, 0.04690831235904411, -0.01474244452014946, 0.009697226407133202, 0.0030656959207384423, -0.05217399084796355, 0.07363419048699482, 0.011459377492642524, 0.012955720755102755, -0.002831472628591204, 0.0547265141359127, 0.012313748409283154, 0.014532755342899663, 0.02291653865516634, -0.0014123743222563088, 0.004085086776853849, 0.04132895397159537, -0.017659193185416845, -0.08395165540415357, -0.004058997150870345, 0.037538352547280926, -0.03529395138699786, -0.007529414863410357, -0.044659213327417915, -0.02864721285131092, -0.007052042837311546, -0.019223058646099297, 0.020446590308287438, 0.012564369552095295, 0.0656389174852685, -0.06271432525371273, 0.003785446347419081, -0.015314744279920104, -0.005119658118361095, -0.031809114321023596, -0.0008202369450358646, 0.009129490515610543, 0.048419622105612736, 0.03642974791616189, -0.002387372044642935, 0.04043770108876216, 0.010186064482794566, 0.05067402926334328, 0.042339836422853196, -0.04720734769876302, -0.022580611576527927, -0.05381221112433211, 0.0188046955762024, 0.007398641659700246, 0.03369960507801513, -0.009004829371156702, -0.044945157320356394, 0.0308385009300267, 0.005643150852126141, -0.020543291224759733, -0.009485361912240864, 0.04278800611163226, 0.030965516465111875, -0.000786751820682299, -0.06283437598044386, 0.05956188200915495, -0.03867409673919696, 0.004308317164093901, 0.00819057636624475, 0.006075717422188546, 0.004124410406855462, -0.03863714626451815, 0.008628620491315804, 0.031361262232361305, 0.0728809446370374, 0.015425222405000771, 0.04803127263894279, 0.05662032853004383, -0.021671487510504964, 0.01799340191568409, -0.007174138812603976, -0.013866772056381281, 0.015868065672355453, 0.0486889207501681, 0.0710041335856244, 0.04140426468034556, 0.013206867073095688, -0.0020668465552564482, -0.044566898146584245, -0.0016686261566121465, -0.020731809220128555, -0.022681880590757278, 0.03728178311180158, -0.056690536946345314, -0.09203796209705452, 0.05587439922453546, 0.014795272265786861, 0.027402602346649922, -0.02281986085043136, 0.03449995428879106], [-0.03519772788344019, -0.03646403980004244, 0.0128611931292837, -0.007918659137951554, 0.07738701237632521, 0.013647314439324829, 0.01243378668105702, 0.031345023847628814, -0.019822945317544347, 0.004538913732622232, -0.014571168663589517, -0.02485398691991586, 0.022859521987629895, 0.019283392949474218, -0.020221746021033406, 0.031815815084124656, -0.023315987469936354, -0.060749222706746694, 0.028652425540361116, 0.05027121578001938, 0.03732932783281964, -0.06189144185154744, 0.010108921535149898, -0.05499420117089191, -0.026119598375393356, 0.02273189349063502, 0.06501122335467097, -0.05435565144070025, 0.013055489923156624, -0.06599786567737868, 0.024520181346659366, -0.02045179167256235, -0.009879043677870196, -0.03340423093926693, 0.013124189793574648, -0.002318392467284262, -0.021497334593268507, -0.03277783860410499, 0.008819075231184949, -0.026500611110121728, -0.02205077326424427, 0.02276364047237763, 0.02573378154319588, -0.06979930305121197, 0.006912747404922468, 0.008095633590338007, -0.03966437982482359, 0.047816139478120946, 0.023976475574363658, 0.021812220939474117, 0.03392665948898616, 0.07670053247295218, -0.06476309099952746, 0.003958156417564625, -0.06542288184351501, -0.012102290066479508, -0.02764768626754802, 0.00812060318931369, -0.05007430166955524, -0.006390525525204251, 0.00452736382424016, -0.05741592423954398, 0.002527196948442782, -0.03243547582992028, 0.043520795729218284, 0.050540235878274664, -0.025641473391274032, -0.042335666608510965, 0.030142650102346142, 0.0036495972359108387, 0.025346149621385785, 0.08064797478590517, 0.022769226093627463, -0.0008226022862068888, -0.000824119110395399, 0.05357746189732887, -0.03439177217320754, 0.009310008256951247, 0.020056153123027293, -0.017395079422959207, -0.029933498285472145, 0.013285422813950704, 0.01152957959764662, -0.01164292761324837, 0.058869575871525984, 0.023527932354557284, 0.009742069449412276, -0.0291391963603749, -0.052470691798489774, 0.0659190974649218, 0.03320699681250363, -0.008922226072556211, -0.025452655461424903, -0.006390663708528296, -0.006558842267436558, -0.008720114661738883, 0.01038206591099965, 0.0036852015052807052, 0.011650539179042081, 0.020594569857608182], [-0.015942907174203984, -0.03498383108691581, -0.07720284065151728, -0.02261459790462609, 0.0019919423852595764, -0.015208084860308255, -0.010414778546007628, -0.044610999419081865, 0.047750362713709596, 0.0049545993056924606, -0.008130906385939824, -0.03264850493834947, -0.04219010247064387, -0.002546885202916098, -0.04792209693595418, -0.053934531552856206, 0.0012411862554888489, 0.011572802097277717, 0.01217729429879166, 0.0010541776015832122, 0.017858042229058256, 0.04847056221719846, -0.011002844139136351, 0.012368283673896831, 0.029455615198493115, -0.02862380041778739, -0.007126475250261209, 0.056839411649494326, 0.05177162346299385, -0.0032422659135313827, -0.011318320395535987, -0.023413600744316577, 0.020571720318473704, -0.007632928368544312, 0.02205440046765513, -0.038481206515349906, 0.02341090207568778, 0.02633976518383825, 0.005369291091746509, 0.047989340106722705, 0.04750205483561712, 0.032709638852229536, 0.04607021675961875, 0.06180266908540756, 0.0064098741084308, 0.01404244315811653, -0.021913845490199927, 0.03984314680474695, 0.025980774992196653, 0.02517841577549647, -0.06541904617065457, 0.02402003281251624, 0.043838232049083145, -0.04945935166661267, -0.015933371314574146, -0.010266412986876902, 0.05149983232528781, 0.009470361764219143, 0.027396467190476254, -0.10049065889061796, 0.01907995574112463, -0.0033604626761050056, -0.02203060525008465, 0.027143861671278507, 0.013288599152382808, -0.022031313185335376, 0.010667452076166204, 0.008965670100529616, 0.11327190222539638, 0.0609760019459751, -0.05060884570610566, -0.023031513771981597, 0.015454351315598202, -0.029321934728396767, -0.05063854147885689, -0.05380744357911025, -0.0016651825094702543, -0.021975813058428443, 0.0071975215007845945, 0.02735591314781001, 0.017923034629576267, 0.06900268094695299, 0.039029220095527825, -0.006461162066887584, 0.026788844789957227, 0.024683040781012914, -0.0333709552701011, -0.018149123445519576, -0.03532777654520468, -0.0223016752354547, 0.026279049419238164, -0.03285906529875415, -0.0070434097882328996, -0.03953836508780629, 0.024168416939617497, 0.003161866086031762, -0.06701949804083868, 0.037458124403327665, 0.037990284418335046, 0.01821194842335315], [-0.019755698315878856, 0.08623769888483311, -0.004113268553562611, 0.03581909310391876, -0.014335560265121587, -0.0021299568284918195, -0.053819891039414786, -0.0062509175445856525, 0.00300322422565553, -0.007596842561564327, 0.0465718780615873, -0.00376749757943893, 0.016990532644520856, -0.013957824867591685, 0.023169030355289964, -0.03199991174798619, 0.044448589953395595, 0.011271961395326848, -0.0023095257273444297, -0.031483388622854325, 0.006517949138853147, -0.005401511191545307, -0.05183095419070843, -0.005875486545994833, -0.0030896067359838272, -0.016862731643616374, 0.016376026413143945, -0.06371491634797946, 0.02686821978720638, -0.009413375652458204, 0.0013935330752814668, 0.012840558574326977, -0.01187799855333383, -0.022580284537938717, -0.01495472758987975, -0.08306687197108888, 0.0251903377722268, 0.015325030074766812, 0.0005517200947637028, -0.030395667863786984, -0.04272685909213307, 0.05611049144158031, 0.022561604425751832, 0.05708837188429956, 0.02481188735034263, 0.018859490288228004, -0.004251645790505285, 0.033582061440615665, 0.043634625603349554, 0.016978952284594593, -0.02443270233355944, 0.012411862053604826, 0.015855881869612298, -0.02317040269532572, -0.05050401393989242, -0.10229596287694923, -0.004252262729782964, 0.018905362259063488, 0.01521306309395951, -0.01665821796193654, 0.0033047885984468263, -0.011512449191258153, 0.036898999983364086, 0.00513795795724998, 0.0038800267258414364, 0.02790122775933525, -0.03185105016395589, -0.0635570848793949, 0.00047823336384360114, 0.017037011830477563, 0.013263347841538466, -0.010184405068632926, 0.00625312019832031, 0.013854253155348932, 0.021372733363813068, -0.07740340750868069, 0.00693539232599777, 0.09921158780645355, 0.010212153242349295, 0.00821995282160611, 0.008010470178163802, 0.03894672790017918, 0.034271245514634625, -0.04139539374456552, -0.055766370671039726, 0.027334091715414913, 0.043609990837580936, 0.01756734541418867, 0.05965853503611668, 0.032630835604739096, 0.024945887867496762, 0.04699381255946934, -0.008258570655960052, -0.02371174454704703, -0.05136059282333714, 0.05591416264011375, 0.005759916576262193, 0.03746511301841417, 0.09242708899129366, -0.02531142817537835], [0.01687176407979896, 0.04463540525292836, -0.056657627829630915, -0.0037462038676062356, -0.016585398899113844, -0.03796555335000844, 0.040089179545572305, 0.01491835295892999, 0.052844802087214426, 0.030073904858908103, 0.03886886112123917, 0.017655116340849153, 0.0010186711626879068, -0.014809030288061882, 0.004216770521179377, -0.04704468717886748, -0.044589320076100496, 0.020104396729898485, 0.0009439650645307583, 0.05920330495766722, 0.01820933604201308, -0.04691022631763115, -0.036478081297934284, 0.03221792743633264, -0.046597168642215706, -0.03516996654410183, 0.023307082439014956, -0.015708749829888055, 0.013314232925912441, -0.04039405516884214, 0.06813931175440774, -0.0019272592923562128, -0.023692534319640992, -0.02122354595889795, 0.035770774281336896, -0.023743416428153603, 0.016182257000080264, -0.029334197658103207, 0.02215685666423882, -0.02297227699966484, 0.034922416286176865, -0.03298208655726008, -0.01191278916134935, 0.029415841056646456, 0.008669662568244488, 0.02716465744999763, -0.013219054313344093, 0.019028344457867212, 0.010980504668881277, -0.020498532735554447, 0.002502794204511339, -0.013343891724486443, 0.0029619298421051017, 0.039325213760769875, 0.009542824688992587, 0.06172008401725658, 0.03943018716375616, -0.05086716227078756, -0.005766229356650284, 0.047823268364061845, 0.04677510440282649, 0.016656065317840155, 0.028534176707508425, -0.011906263581276583, -0.045245787887351, 0.022674949750676614, 0.02565512226875496, 0.011685381976144067, -0.028003146215504933, 0.025045531320188788, -0.03465599411621461, 0.019976938688684272, 0.03535960874713805, 0.018298613604816296, 0.03605754507889278, 0.02018115482907539, -0.04580396266568175, -0.07395298012809202, -0.02658700154038373, -0.01378579770717463, 0.01100468778243744, 0.029614981484276902, 0.002201995701535487, 0.05593100098354812, -0.018307823260324374, 0.01937584702348753, -0.006727794793188858, 0.026445703017802528, 0.05933779376353979, 0.044791617872174234, -0.02197426106495263, 0.020107597126368393, -0.03783727581860023, -0.020126708909648922, 0.013315713440716774, -0.06534472307640937, -0.016040729765136263, -0.004275770075129695, -0.008978932080877702, 0.0699697203477058], [0.009685452324453803, -0.011689259818161848, 0.02523644101104084, 0.019892296708461186, 0.02941791784570047, -0.023159881202075825, -0.03992992830824372, -0.011972885893621416, 0.06020087920650566, 0.07984134460300947, -0.011170193904760633, -0.05827934302185177, 0.047498110185629085, 0.06417564302390318, 0.01905993778608325, 0.024232246961262232, 0.05491488657543428, 0.00899412128523479, 0.06834465398594072, 0.02475105882144332, -0.01453961343588633, -0.044174711102354734, 0.04967943491837044, -0.03258356254150111, -0.030817284597333735, -0.03953501570325672, -0.013421085137225359, 0.03179010147563903, 0.022725700749652612, -0.017991782735923265, -0.009238109513014556, 0.03355511329661465, 0.02934772646564883, -0.01092834411152875, 0.03868128473884086, 0.05838218791357584, -0.017346567128888577, -0.009176656483416841, 0.028417169924679176, 0.0008383180937033156, 0.003289044414229405, -0.02065755938823626, -0.02917780642215787, 0.035212868586352086, -0.006376620534576487, -0.0187976759259709, -0.011316228305542969, 0.024594363012064344, -0.033900698206148334, 0.035870348564242094, 0.028704337063731388, -0.03218137855544576, -0.010369230273339752, 0.031696814822942745, 0.021535172840092355, -0.03842101220119622, 0.054323504290179986, -0.008011524443901064, -0.05077054310421144, -0.013767923972986458, 0.012481623678888186, -0.007313416523984794, 0.008498123410344742, -0.0242454171398285, -0.043605276777338074, 0.011353460399729693, -0.04354304762490764, -0.01866967865165107, -0.001775179113692029, 0.06775707402062935, 0.01491747292540144, 0.06831123299835123, 0.03608017798370543, 0.02119234730105043, 0.03102866018212825, -0.00848009798109235, 0.03008191970457755, -0.033670610199152545, -0.009760336856297697, 0.013455203101328389, 0.01526035197004872, 0.07132652883421581, 0.001785666478670049, -0.052750393201304036, 0.02556028230919117, -0.0010010655227757222, 0.008549918807829555, -0.04204210199025376, 0.034028084052695105, 0.016857146672095796, -0.05858534189914614, -0.013434343059980548, 0.0358905511428345, 0.02332897297509343, 0.04214894280984098, 0.002817136829263893, 0.013139582718572915, 0.014762878765646307, 0.06572028677824793, 0.011187993028273736], [0.0025826465150727744, -0.007520441181698339, -0.05870289449913061, -0.02995900403050808, -0.022071862031715333, 0.0522621338472872, -0.006823909041218471, 0.015332919010797193, 0.042004731513696617, -0.03622712535461117, -0.024775380276630492, -0.029940972539988286, 0.06773356788994934, 0.008437423723895453, 0.039601509625540536, 0.005555995523784028, 0.01680194512913165, 0.0069904220129779655, -0.09269135999554709, 0.06417327085434271, -0.008980286953176209, 0.041709536132644394, 0.04774163198713699, -0.04721935180200613, 0.009660795069412665, 0.023406994725066296, 0.02931556761061239, 0.03585356649240393, -0.07474171848351974, -0.0056498094984845796, -0.0405197849872691, -0.018239018963842488, 0.00022075029727428274, -0.012669361068468239, 0.01797635451484376, -0.009237460740064346, -0.007843249198228208, -0.0020552464724242062, -0.03614435637947254, -0.04979256165706244, -0.012723684868973257, -0.017945737096577402, 0.08226944302843843, -0.022481802640126784, -0.04147776725481542, -0.010297522242507469, -0.06236821128867284, 0.02999181675886159, 0.04651393945115741, 0.0251530362841413, 0.045269598113339735, 0.04902889660288161, -0.06399040812517638, -0.023301213365264754, 0.03753296625402336, -0.022232509508266565, 0.04840105362854451, -0.001789901971775955, -0.03473755180552068, -0.00022577457837719549, 0.02281470383997196, 0.03233656578644465, 0.007569769910583021, -0.01807205000528456, -0.024687516191728903, -0.043336089367371086, -0.06882918281087458, -0.00298710722297387, 0.015750523875528298, 0.03546517955607904, -0.003377482498852806, 0.03454698330314026, -0.02856470540881211, -0.01868261207874161, 0.009929308631268003, 0.022261605041220173, -0.00893649930815226, -0.006541674139755545, -0.039398588564503796, -0.007780556493687289, 0.025361467703154096, -0.004444929781003544, 0.0038187517467128448, 0.0003792058671120368, 0.059498274796528076, -0.011535484871305764, 0.013035397441703359, -0.004273543014712743, 0.003736405900753921, 0.07293156307252506, 0.01822553252632645, 0.02615088881868107, -0.01537507521256088, 0.028261693733676558, 0.007035994432228053, -0.008876661476103566, -0.026117526840669977, -0.014379467304021863, 0.016090699172204712, 0.07245551242425059], [-0.03126374516680425, 0.02301547146660514, 0.04060432210837529, 0.09756290798263195, 0.008126858745071377, 0.0030254831908002986, 0.022780496197755826, -0.0875784460584195, -0.020782160122484714, 0.006126292804970974, -0.06779779601847351, 0.013119759209744767, 0.034284696430051005, 0.02257829327213319, 0.012400563068162703, 0.04822161916790789, 0.041172934065044645, 0.00349583911554358, 0.021034431648222218, -0.017875727214437868, -0.010547741489164358, 0.001326100840914603, 0.010318745215629345, -0.01839560136022132, -0.024617958520578312, -0.000996082600312745, -0.02193514210365024, -0.0017629316650555637, -0.031226878757173317, 0.008056039573294085, 0.003655489881982022, 0.010132126912541629, -0.023292397399144512, -0.02541073887939862, 0.04413207867178817, 0.03151611355930332, -0.03127791996673233, 0.04815199530644847, 0.019151117343577943, -0.08188569701490088, -0.029373955458225555, 0.03685385639804058, 0.021007320018009867, 0.03396439156874204, 0.04759000628289708, 0.05942316812236146, -0.02641233924342038, -0.018644734212654838, -0.022606479217321344, 0.0007345381577743208, -0.006671239304032474, -0.05633391497862557, 0.08397318203296175, -0.02772037193923292, 0.0002039750803848199, -0.05714771265713599, 0.01599252357287402, -0.046876663418132854, 0.013465398561593348, 0.016585886515764224, -0.049396223444551815, 0.002166367088929202, -0.022466846365090075, -0.05359065878998379, 0.077175335183536, 0.014142436320226659, -0.07130909706902647, -0.03048340658694024, -0.0023517071755189095, -0.07442081365249978, -0.020234295752949816, 0.05069139115666817, -0.00816519272716429, 0.0019506221546306834, -0.004762012265074422, 0.01736537239349476, -0.03946765911671945, 0.06764672594576814, -0.006687741572097282, -0.029445553483431697, -0.06609965410459058, 0.0593772567996048, -0.05176178661200579, 0.004885524097952419, -0.0021558693827175433, -0.029019882953533364, 0.05712216643170764, -0.015538466345635488, -0.020983161593950625, -0.006079270700744292, -0.018181136884433794, 0.03366608263873314, -0.05649376117978894, -0.01171479407926608, -0.008417063954629543, -0.04500080752999598, -0.0056541658319700676, 0.041268069691093506, -0.01531046514739537, 0.007053909770513055], [-0.0463031738816164, -0.01630611295202926, 0.01246421177389926, 0.05454773693975519, 0.05136896448418973, 0.0004172244778301087, 0.02194586316621619, 0.005456783609205991, -0.02399556909328856, 0.001081845996068385, -0.06740200407166799, -0.007676825732317932, 0.010145820611701946, 0.03796841493630981, 0.03229029933123833, 0.022355760740458232, 0.05599446357922787, 0.03282844749642816, -0.001868622902027255, -0.01202931337191231, -0.029481142389215335, -0.0037343568964282653, 0.01088454071775253, 0.05363614998552266, 0.03582472548753602, -0.07249315515733763, -0.07376584984257493, -0.01067575726329264, -0.09567408545356705, -0.054555640326359595, -0.06763143137630721, 0.031582140711296294, -0.017951637829950705, 0.04938280017006415, -0.015416381431202227, -0.041492185920412046, -0.03162840738719824, -0.004042534059249939, -0.012852248620014944, -0.022096402784875305, 0.04995795288777414, -0.024020284759107988, -0.021887957062274133, -0.032314996211698206, -0.01214243852843596, -0.016128375946644347, 0.028833220124300927, -0.006566011840321942, -0.021827564454941467, 0.03810489752069263, -0.045077806727983956, -0.027177858466296886, 0.013703931810988737, -0.027956254695585592, 0.010586210300566402, -0.04613719434652361, 0.025040052303829635, -0.0018216085781962792, -0.011584766733136902, 0.03503452914647343, 0.047515303889574964, -0.04268233404803452, -0.06541746641591939, 0.016389377780056374, -0.08935335635994034, -0.021010638698939457, -0.04380048201378973, -0.01757619306724601, 0.03823170374416047, 0.012008733856783143, -0.02691711588781624, 0.0049351190157061325, 0.005302019099790116, -0.004849304984306469, -0.03968723458664344, 0.06283643950191498, -0.03882667410328775, -0.031256652773834985, -0.006585797018094673, 0.03915203676314342, -0.010716083672941546, -0.003813514497942604, -0.018250146725786506, -0.036324739848104866, -0.02385888763604276, 0.048675897280604695, 0.06702226236389276, -0.027947065266447618, 0.06072723156674934, -0.007226515927970776, 0.04209986706423782, 0.00992617075575975, -0.018871663727667617, -0.023153073907946617, -0.043663571402288645, -0.0234637935634203, 0.0341062094608468, -0.013421100020335181, 0.04790199141534602, 0.05488796994694049], [0.062415436250551966, -0.042135688368351146, -0.015609155723828415, 0.02721618210788742, -0.01520798910796308, -0.025789213703471463, -0.015937621613261364, 0.009575889084772731, 0.01469369248081093, 0.011207980650450705, 0.01609871089580228, 0.011195996937319048, -0.03622416265275379, 0.030539526303023843, -0.005618660291435588, 0.012525789373073895, 0.000640585214329219, -0.052466868627296735, 0.020565387484097135, 0.005153133385223733, -0.012410538806203568, 0.007523273624903116, 0.050209710980168375, 0.015598230480190295, 0.007116102149596513, -0.004171662136246267, 0.0074975242394724525, -0.004776654342135, -0.04992780229108173, -0.06870143762801996, 0.05386784141288966, -0.0639860098173414, 0.014262573139788164, 0.021747824893122242, -0.009214616903688862, -0.016847961630362493, -0.0007272974270825038, -0.029019368174279688, 0.02277784155412285, -0.011275616692187655, -0.010528190747279242, 0.02809216440031008, 0.03128061393056884, -0.01465425490526299, -0.053228645841165725, 0.008458977863928721, -0.008105893638314696, 0.023702427482348132, -0.000961568516379704, -0.01572811424815663, -0.020199224192897214, 0.06191322052368205, 0.013069552500439336, 0.0041912028261006165, -0.032445718875221734, 0.040452648873532185, -0.07195672631226717, 0.009754647252281185, 0.0445389554113217, 0.017682685318518798, 0.004760075862351889, 0.05621999893275078, 0.03536849558782065, 0.0012984189778901538, -0.025926390240850434, 0.043999599578478266, 0.0024037381563136793, 0.04075741453221515, -0.045497787339458466, 0.04297922829631974, -0.028516242967574497, 0.04947077547697056, -0.017491361252049524, 0.07361471285534552, -0.07205734249966475, -0.020369002358719936, -0.054979530823751614, 0.010838022947077247, 0.00823264900611473, -0.025343080140839077, -0.014929176366943521, -0.0017803720494518084, 0.03131213052830448, 0.053263176673078796, -0.01684297228689385, 0.0030145204890184105, 0.02940486597530939, -0.034585791990859656, -0.043797001868881455, 0.0358560557226086, 0.007709045296044363, -0.036461505714360125, -0.04992688038348218, -0.028024427219035485, 0.061345802609225904, 0.0024129712307151, -0.05880613979332372, 0.04026536958148765, -0.0391542744249387, -0.001538740804781996], [0.0008506680253677627, 0.05191674815251036, 0.06295423778542085, -0.0477988127031266, 0.013979261317647046, 0.019514748453151546, -0.012989283692920794, 0.0024256012966075483, -0.00599127330484761, -0.07591949864129681, 0.04143934683506553, -0.01129942921950795, -0.006704887282386585, 0.010465252986511069, 0.017785705946598916, 0.10132656663689918, -0.04658722172017012, 0.02191483048914614, -0.05754345954519655, 0.008098614852684078, -0.02773628601612844, 0.028351355771473977, -0.02003367760482893, -0.04253143780505748, -0.0070462134177728146, -0.011010639731679114, 0.05492344948019759, 0.002914564866894609, 0.02111259261532165, 0.04707849172480884, -0.0410055152934876, 0.00014414345149737148, 0.023640012320176113, 0.03785441527292321, 0.010169884919193541, -0.0010168894432637848, 0.03650244235865349, 0.025689452780277205, 0.02022980121697869, 0.053417273920731666, 0.005844709892863005, -0.04509101224465611, -0.019036545006760826, 0.04398546577076461, -0.017232480069058472, 0.0013011991782285333, 0.005280856634573391, -0.001530885812739538, 0.029739620448314345, -0.017357857005221414, 0.031017422780885227, 0.015359097078495204, 0.034118631349512415, -0.07754198769564832, 0.02066795871308678, -0.0161047205698669, -0.024453370598879247, 0.02505718133016435, -0.02057593504280276, -0.021344788861559664, 0.0008282826293070843, -0.00652144108275587, 0.048022776720056025, 0.01117592631137449, 0.04247315082172927, 0.00722597905912156, -0.02638910671842029, 0.02423639074603865, -0.005378941876390173, -0.07143127006272917, 0.05025497327027747, 0.004682316327584618, -0.03389917649033999, -0.01782838241888344, -0.03574970228330193, -0.04596384845808206, -0.015984707968062454, 0.003899743305843545, -0.04332760452377181, 0.03406239031795675, 0.012584348050579971, -0.041386460882117254, 0.01954464841484154, -0.007068082048502477, 0.008500326828973594, 0.038343987158197396, 0.004818487185949943, 0.03360313064508853, -0.037671306819238005, 0.029112932356122726, -0.0006317193270616335, -0.005240493923000358, -0.00036737789554300597, -0.0013747713078738405, -0.0204362038297441, -0.03187678348968817, -0.05337884585730726, 0.026989372209675438, -0.02492382820573402, -0.04904894844460371], [-0.046742016039432996, -0.0023942617013943605, -0.008810689255434727, -0.008377997847198948, -0.013572261540989308, -0.04199697945001485, 0.0025056970784318906, 0.004407506077135157, 0.03981237059580134, -0.03047807786586171, 0.01770887108649726, -0.010292749844821642, 0.041464496965914734, -0.06157896567484001, 0.050099871488682425, 0.08013967968700743, 0.028881553913317485, -0.00732702673023484, -0.03331807039797835, 0.01771642958434224, 0.030319424290585185, -0.0032685932231745958, -0.05253058681445654, -0.02112665612448457, 0.03916161802164396, 0.0376257201103675, 0.029662060898547712, 0.03127613749857489, 0.009000548398061943, 0.029122765473774813, -0.022972341470709142, -0.038676788802100986, -0.005492321492004977, -0.04551589647380577, 0.005647805456663838, -0.01989407352440366, 0.01019879151066288, 0.012463123699302105, 0.05602977614637882, -0.017157779004672143, -0.043087966767050075, -0.006382635343761045, 0.02533455127524691, -0.0359665954089889, 0.003605073107159884, 0.04353113773563486, 0.011748746180412224, 0.053426239790351056, -0.018439147311992126, -0.003128157453272889, 0.07756919452810684, 0.020604717788179298, 0.06397203948202085, 0.008201791836647742, -0.05180589686477059, 0.021508973597647803, -0.03951700831362489, 0.021180633804297817, -0.019145272659382845, 0.06079352478804033, -0.01744706198299308, -0.05759949155584334, 0.004520079719936091, 0.01843245378986286, 0.005563140748421567, -0.026683201232299687, 0.0019920281172731164, -0.06468908657794055, 0.026625735556211814, 0.005586991339893544, -0.022928783211089702, -0.012800450166939719, -0.009716210241433904, 0.026752463235321527, 0.03859817122965756, -0.02350251647921224, -0.028653584674135188, 0.011642295033509066, -0.0023665868955350016, -0.014044137784758345, -0.01961956566307117, -0.050057799696113264, 0.041676108159061635, 0.010113570353051255, 0.014583068368258385, -0.002459524261281939, -0.01125969627731765, 0.01928923046063741, 0.023937869470573667, -0.022680582156798017, -0.023949435693191027, -0.010247110346636378, 0.03628635190052727, -0.03972810099325285, 0.017075383035844438, -0.000333725197008549, -0.03474749441243577, -0.02800396939425953, -0.0198798372385649, -0.08271559878573459], [0.009599108026449931, 0.008081169141182634, 0.04176171755011168, -0.013091727675902368, -0.013337366447901846, 0.0333281262656263, 0.028131386593202204, 0.026894329209147458, -0.0158272433349433, -0.012015199766381133, -0.013672642115040141, 0.01058652756985183, 0.019262974996728528, 0.07137826278530048, 0.009876198873414661, 0.05005166809303746, -0.0334321910818875, -0.0037322180364919746, -0.07001549333463475, 0.0013857022098552458, -0.021194008469532274, -0.009912356793499132, -0.01791523963239089, 0.027823457707663275, -0.05339289881912574, 0.04257750325474635, -0.0116728317217215, -0.05528639163938271, -0.0058895578333926935, 0.03138772281017773, 0.013529184691356793, -0.05009973153222354, 0.08072288532069181, 0.023269013681631163, 0.0006718216415177925, 0.00344055959292218, 0.045491945952019996, 0.0191237331820287, 0.012507356010764551, 0.05004200709761703, -0.02557179075885594, -0.08191751269449801, -0.06735866820481955, 0.049467305501737786, -0.003102641402429058, -0.04844946183568997, 0.02060781512462273, 0.03659981908560036, -0.0009081752796284995, 0.040149139779029674, 0.02171465962977986, -0.04012867365334405, -0.02660999901134686, -0.04618160846420459, -0.026063620836366444, -0.038978689042121394, 0.01127767852590505, -0.06704753275676477, -0.005514361707586012, 0.04464470207553751, 0.06224023877484532, -0.0028042678608078114, -0.009245884869461044, 0.02240403511603291, -0.032611064859852594, 0.013157623096556088, -0.0035826749659646473, 0.014558229462753454, 0.06711670220519919, -0.03660703401717036, 0.023676325984564695, 0.01726649621719868, 0.042271523131480526, -0.0059850506113269175, -0.005732660419442496, -0.001773756751410512, -0.08281915829093342, 0.031089995733929475, 0.021180913540277707, -0.04020260720506263, 0.11541547673961837, 0.06621122828420754, 0.02314961272848659, -0.014480037688538222, -0.015287272589634176, 0.00473927010080212, -0.002354792674603518, 0.011073285783569501, -0.012723717844174262, -0.01671202318498161, -0.03347128820725623, 0.040004478855386875, -0.02538769170107904, 0.018584434220996114, -0.002627239829759736, 0.00733679292194223, 0.03771854944978193, 0.030976807357467398, 0.01168132958734119, 0.05778580748950249], [-0.014566784327564523, 0.007520635363411087, 0.04709418694003142, -0.01842340402181048, 0.025753630239757512, 0.012170734614469374, -0.03777410527058679, -0.0026870987796363687, -0.0033164925092620903, -0.04056590080204588, 0.024668424462792354, 0.07162057501039353, -0.016618665589949153, -0.032434704033055345, 0.012902162397600968, 0.021691800434366398, -0.0023973376359922383, -0.07388012931533343, -0.04258572292199679, -0.020962504069295167, 0.022322539321591842, -0.020060473447696757, -0.07838715025996741, 0.023127727979271196, -0.003379113729537761, 0.012362910338329378, -0.024543297798921174, -0.026758648852179896, 0.04444009227373771, 0.0850736983378007, 0.008325876004089445, 0.02179447031588141, 0.022937930041828914, -0.016646828573059425, 0.006451735694263305, -0.03264768038676276, -0.009444047748386262, -0.049385356234142995, -0.05461144190830051, -0.0012486352024989786, -0.039508048015077964, 0.004372724213308979, -0.020336990335444102, -0.02102237368784534, 0.02816633651970053, 0.027262032377315275, -0.021357752562568198, 0.022290749704231932, 0.03625796975052498, 0.00978660768416394, 0.052052519053482585, 0.004919459169627239, -0.0065231897906078236, 0.0046980922893399505, 0.04310892946050795, 0.003435779117619312, 0.017508074813362983, -0.03490989486111479, 0.01827878990304618, 0.06622054477331205, 0.004259384997418624, -0.05093737219064787, 0.0037861011968798753, -0.009787496547065741, 0.052389182363078664, 0.039805924626549714, 0.007185911100038391, -0.03347235048033426, -0.01683801989209432, 0.0689470344375944, 0.0739444918703176, -0.016518968441483695, 0.06298930544394823, -0.014128538115150094, 0.00018338750889263365, -0.005498131113195563, -0.04356778684619511, -0.0719058605954989, -0.039556459095483124, -0.029563653628959564, -0.019131870698801068, -0.09367413227260958, 0.025468233267359554, 0.006861215581355941, -0.024330936021456855, 0.05088658549936287, 0.03410429266394197, 0.06660275015018179, -0.04741466785414076, -0.018444889798412266, -0.03418918536364904, 0.019459027059344863, 0.0017510567763025123, 0.025172847195801845, 0.004445818930960496, -0.023367370075845516, 0.017602828584392542, 0.044542972542371724, 6.477116387008148e-05, -0.027576976913923353], [-0.01225869451410632, 0.025169212997335832, -0.01295502582323046, 0.02509041836602253, -0.009166692871719343, -0.0034372754663768894, -0.022966524683952338, -0.06478281304318835, 0.014255341717044954, -0.025028259933457798, 0.031161191917957593, 0.015776056224696924, 0.051521444899625124, 0.007832045343249387, -0.003944303501899153, -0.05228250150121947, -0.00526489704287006, 0.0019403359204715708, 0.05892399502114824, -0.007320815598867681, 0.022589088906764435, 0.05343915535912968, 0.04328030592167319, 0.03846793958029399, 0.059124252806100994, -0.04373856931934821, -0.03644771587602476, 0.06145353791132054, -0.017582563044678357, 0.020119584706923054, 0.014786840696374119, 0.0335971687701515, 0.019941781297991006, 0.0694298983086033, 0.006099120162282618, 0.0007902135404589361, 0.031165891715616564, -0.0025159989218641985, 0.0038622137898765, 0.01669322855673903, -0.0063187785445727625, 0.013950647845237873, 0.020594205960366704, 0.03309552115018653, 0.015548012012354138, -0.05029609537073094, 0.020228614684560088, -0.023653379743884158, -0.017611596450876118, 0.04030527125024329, -0.007997863828935184, -0.01543317626097827, -0.07893271836332175, -0.008969082575907552, 0.018423047588822298, -0.04501458520546844, 0.038119716305456665, 0.03827158732473426, 0.04797498370129937, -0.046983521158743796, 0.059806293766734346, -0.1243497947765249, 0.0073549543741019945, -0.00801254582382472, -0.030266405676600296, -0.04804598778125251, -0.02166383413053989, -0.055099777705167316, 0.004610044384465227, -0.01009959651967627, 0.03223900046165903, 0.04977909940185605, -0.05868625584097979, -0.014810826406863552, -0.009510336923121084, -0.028238122594476188, 0.0009815061532640606, -0.04243205989375122, -0.0003801397368891537, 0.03948286290782611, -0.05607736292883534, 0.05026385412553831, -0.08259010615224026, 0.0194884421348088, -0.07509442114000915, 0.02706849166970043, 0.01746507831671797, 0.042316820923621636, -0.05342395575594041, -0.01879886526649522, -0.03522696962726214, 0.0450289346050502, -0.009819036913867582, -0.005884941140203688, -0.03815509396164933, 0.07808848579026252, 0.03876080740213459, 0.030553235196015258, -0.005657340428885721, 0.041429082071062384], [-0.0184488611541811, 0.01625895501444575, -0.0236219373426575, -0.057185295072803614, 0.00039088312814046744, -0.0029506834172359562, 0.006907075842330778, -0.0009897748880661613, -0.006269538644663441, -0.020506997545664648, 0.010065593996647294, 0.06620695281819045, -0.05096432888174146, 0.02583208437615922, -0.013193876111087672, -0.003218400726202853, -0.05783860176779478, 0.019451454295125615, -0.020985538668540995, -0.01203750723045528, 0.043557907808733524, -0.023435687701723648, -0.01625438004244242, 0.008119899344321911, -0.03459089600933308, 0.03705552867277508, -0.005723662279333184, -0.0017674180388619974, -0.0026661180798135935, -0.032157363579480215, 0.029069236030239014, 0.0625535961304985, 0.005096306798328056, 0.04064470886572948, -0.023849172139469868, 0.031025656439525446, -0.07290021664897635, -0.012757379358934612, 0.0009833989448030619, -0.019338412544624334, -0.007084680070573937, -0.04932293012486892, 0.08429553079809046, -0.005216845760996782, -0.017842413321374227, -0.02710882155410105, -0.0319453696092704, -0.03892074621099672, -0.01991458774397626, -0.0033268261319792138, -0.021394194536894624, -0.01086216807601998, 0.04009331545413851, 0.07314174056272905, -0.023932791487779374, -0.015481421969235841, 0.05419684229401144, -0.02926275770053341, -0.026739068594789892, 0.03963486661497631, 0.006456229428021562, -0.04220035050568123, -0.020710046471876412, 0.023787806936094814, -0.0015096443586450731, 0.033437479586953374, -0.024693043300036313, 0.011531974851893476, 0.039987620608166616, -0.0015296365448984823, 0.03676355996995399, 0.03194306701642217, -0.05507240804353947, -0.04851439743160144, -0.08363297714747554, 0.011995258698749895, 0.012093015443475826, 0.030867861145377196, -0.023846047457798582, -0.036017274483721926, 0.0016904876594739755, -0.0336026367540528, 0.047694499357235624, -0.0017484163130221005, -0.0011318917443627102, 0.0354863403757418, -0.03652242968499402, 0.010978700114263914, 0.08154560563878938, -0.03031820258135492, -0.004848310365494802, -0.058773062422468825, -0.016943854026669567, -0.0022763077364136783, 0.0395843650339685, 0.02333363212007179, -0.0179557349059843, -0.03752470078566957, -0.04165870618031792, -0.05421995647769508], [-0.01925041043048734, -0.015169538569512286, 0.00082815432027029, -0.020130352135667027, 0.011405101116057099, -0.021124513144224175, -0.009746137990912961, 0.022614655034506666, -0.005261730877007669, 0.026584551945135797, -0.00938347804743453, -0.013358261601623228, 0.02115403786186765, 0.05312884681187643, 0.01833107380015483, -0.006790423278732532, 0.021472600304115273, 0.0006937543585851153, -0.03289366257556393, -0.014793235147963523, -0.024446741648663204, -0.00651312158045216, -0.00724892103052462, 0.023800177260837323, 0.02964799400561949, -0.018852694643528126, -0.04638578462996366, 0.017047091909029588, 0.09425816697059472, 0.011130711186916775, -0.039254103640784056, 0.05884056128474093, -0.016470770864185427, 0.018658743539764624, 0.008360531905197352, 0.018077538378270683, -0.010444210134532549, 0.01120157832033919, 0.047381890434813285, 0.023292070284004783, 0.0859270692183568, -0.041358705574862736, 0.01916233789996039, -0.04498523881227632, -0.01538067504470805, -0.014603143126706812, -0.0035561960928334494, -0.030656606492601098, 0.029479310570664642, -0.060069018072101465, 0.010322099163500272, -0.030622278269418525, 0.06234075909221056, 0.006807550166714388, 0.027616283913679245, 0.06708378592646515, -0.025157222639802895, -0.010118857629106309, -0.03862726623014345, 0.0037599977986837612, 0.05285147505590822, 0.042326780650068944, 0.012343238502610503, -0.005746565513576855, -0.045938903745587706, 0.02240498479655243, -0.020011935632070987, 0.01774465181996602, 0.059566281187420245, -0.04226226152350117, -0.023133179582812465, -0.03328531524828757, -0.025250318937840056, -0.023438635651288463, -0.016272909784257755, -0.036186059438375814, -0.017791892007928703, -0.02141388501006449, -0.020084761860417872, 0.03169632548745596, -0.01045493792421546, -0.030531113488768864, -0.0675820302855322, 0.023842220041009277, -0.05424211147371605, -0.023928522720009227, -0.030765401211212254, -0.04440860777121913, -0.0019768245856300374, 0.0066109230611107695, 0.025034109519289808, 0.004357606422200291, 0.02372052481322724, -0.009946171171052303, -0.017172000864172584, -0.011670969858538396, -0.031239715333636474, 0.030655501791315775, -0.023212490048411676, 0.007346341279889008], [0.019705317961845405, 0.02591368208251865, 0.004554931728865498, -0.021659995672904397, -0.023604221762818487, -0.06199138485084848, 0.019211434709604274, 0.06370736668559922, 0.03340693422853398, 0.03367890210347284, -0.012278898836461476, -0.000499760965548464, 0.05692712472713939, -0.02058616890588907, -0.028544035637003695, -0.019705439824365078, 0.021396743872697868, -0.005172600523742949, -0.009081484748531947, 0.008682905602964652, -0.00915547155659466, -0.05585580433318268, 0.04169368821159095, -0.033581320637274543, -0.05667032545884957, -0.06530984476383919, 0.015860246710261473, -0.021516825462264, 0.02066918763580733, -0.04682219058887619, 0.024984369498758662, 0.007987424906966793, 0.0544845614374921, -0.03467114081813142, 0.03143853597009443, -0.07192541992588941, -0.043513365785293134, 0.011999400099388161, 0.014706809389456541, 0.025907174870938597, -0.02541922968515921, 0.02174363087850058, 0.034930100586092055, 0.01272912400565542, 0.04281690780183306, 0.010000811410802649, 0.0007329163176652919, 0.051513928741902706, 0.0685478462444717, 0.007444376196455007, 0.06908686516760483, -0.009973063308550566, -0.033768952985389636, 0.0815180296333439, -0.017355682327213174, 0.058237184617197596, -0.06097813387590048, 0.042520235681659094, -0.011427471725826695, -0.049670342403092434, -0.04364557557428813, -0.021750030930126882, -0.006416484960886321, 0.0008235112091214712, -0.0026646255445275883, -0.02294419651919033, 0.04256173761855885, -0.03835122207008073, 0.01321366943094342, -0.0548514220188, -0.015158353272948998, 0.03131518046515089, -0.06184176015393979, -0.005442802102980549, -0.04173426481532089, 0.026963818657040478, -0.025947086070640796, 0.04178702018661454, 0.044488363043255034, -0.015365746488840185, -0.021052894316858112, 0.016537945979632505, 0.025514291741477915, -0.05141183812936308, 0.05637794374606955, -0.030192893290589426, -0.01667938209285534, -0.01967408388146873, -0.01843403670345846, -0.009281427110702643, -0.015164649758782518, -0.00045201785855439027, 0.007706406136012846, 0.016149013708719545, 0.023470569646684935, 0.010633275158493686, 0.0002546783025696479, 0.047291150858750915, 0.03524275134541206, 0.005063775870578852], [-0.031461788301613475, 0.015166424428583408, 0.004104345298925366, -0.04131438285812803, 0.04008366966095715, -0.029308690818918487, -0.010678060821373568, 0.006942426458666842, 0.04942543069191681, -0.05512735063225823, -0.004851790997357153, 0.0088313526971043, 0.018224442429203357, -0.00543967706149761, 0.023497987768612318, -0.0028901262343748583, 0.04994662494462147, -0.056746662230761406, -0.06090209841313275, -0.009969061706069237, -0.022634208164381824, 0.04933074842215742, -0.0680444936128383, -0.03458624867045983, 0.020358837074239286, 0.011923086999161435, -0.015809569896240997, 0.06235712477122611, -0.013957096675442152, 0.007736629246885007, -0.026332685826352766, -0.0038122030243900565, -0.06344513276026395, -0.021775293070264903, 0.007278063090031133, 0.037040864420850375, 0.01562058141257446, -0.05075385042609206, -0.027951596550575112, -0.006059757889232476, -0.027085885878924496, 0.03279351099159716, -0.01350746701474551, -0.016107591709624048, 0.005231309017932725, 0.042963058592322446, 0.016877863764084993, -0.01769333324166294, 0.01823911096875228, -0.012606495613232993, -0.06587013279440071, -0.00013415061472996, -0.03157955980386858, 0.035708446981323645, -0.006072999872735722, 0.0027432005232054914, -0.019430696959888444, -0.02137531205406467, 0.0442104189207938, 0.10341293373803535, 0.02945423748711169, 0.007035749479928901, 0.012125688801857756, 0.01770119459885537, 0.07421401777926187, -0.0067541575492428, -0.030001893704004787, -0.011565642883201567, 0.011535881788180827, 0.0011826430782786552, 0.026730450045849608, -0.017912032294759506, 0.0006795994765540594, 0.006009205316031707, -0.039351785387878466, 0.023029541609493966, 0.05418319676240657, 0.00556802941842854, -0.03679420481304897, 0.04952698458598299, 0.026887746981582437, -0.005883150929606561, -0.052721888541740584, 0.022424229057346173, -0.03778596128584956, 0.043019970665185765, -0.010469589457635962, 0.00027888194296270025, -0.03451766420902726, 0.0512808634689379, -0.0429519503579416, -0.02459233731103692, -0.004506038653159034, -0.07116297905820552, 0.004955445572763445, 7.994715700665013e-05, 0.029924783713584067, 0.019580032939877073, 0.0007042822457663149, -0.013340521935451226], [-0.025569047065112555, 0.021143910047938218, -0.04378919006592173, 0.039983904690805004, 0.00039091024244930234, 0.026958884560854057, 0.06871879897660928, 0.020573177767065076, 0.019051164153636366, 0.07828000454000097, 0.007923863031411843, -0.08884722427736719, -0.024781047166960744, -0.008467347617859155, 0.038145474890860474, 0.013111050241745378, 0.017717345215801664, 0.05186298655075617, -0.021810824920783446, -0.026262486813387616, 0.030246900400315493, 0.016684991516384494, 0.06038500686616578, -0.04617176586827613, 0.011749435197780352, -0.03192054292353962, -0.023251436762885772, -0.019000226923625074, -0.003763389390288391, 0.04160435519947828, 0.05525427460972092, -0.018101894782733854, 0.054484534741751176, 0.06637630439536728, -0.030118995622709813, -0.023158729497409096, 0.06445726901316799, 0.012740134469286886, 0.04446511809551305, 0.05901254146285056, 0.006887040850615884, 0.036989497744706785, -0.02287974420052256, 0.007636652504270148, -0.007418776614683631, -0.014379415087994606, -0.01804144101926926, -0.01655048252921484, -0.03238419378509672, -0.015710125423008016, -0.08531942241313513, -0.015006170429319815, -0.017492545122955797, 0.04479977551082145, -0.037054186848450237, 0.0354689810997583, -0.03633491209928731, -0.023324662454964337, -0.016105636631776783, -0.057122308425918825, -0.0216596430130751, 0.008579954306015202, 0.005742676230482649, 0.009495691835076097, 0.0024169810993065043, -0.014487242084225286, 0.041046201923049974, -0.013613108895859526, -0.03743319673427489, 0.010957415376576053, 0.04899656317969084, -0.054229992012629076, 0.018035496877348883, -0.023716089407491148, -0.024922686462014166, -0.0002766896836594841, 0.0009993398240561468, 0.007260283474653954, 0.04582331956125188, 0.014433380527609077, -0.00889255061965987, -0.026012656708475797, 0.04880921338926389, 0.01924045406941178, 0.03719303878193284, -0.03831438012146357, 0.04282838348464671, -0.05074898025686726, -0.06660018441301532, 0.04596548525858011, -0.06369087528928946, -0.02262095842256973, 0.04106847628316047, -0.028442198475421857, 0.06389729428183478, 0.02542158941363533, 0.008608297759324866, 0.054504170500833234, 0.028280934877194946, -0.026585657556638956], [-0.024564894644485667, 0.009183928569691462, -0.060475813461583865, 0.0271998816248624, 0.023657858360426994, -0.08271639648732294, 0.008949662734057848, -0.017825638137898277, 0.02518262663804043, 0.005164946877933531, 0.015569807519184728, -0.022289901375921437, 0.10907835080314926, -0.041631808616696, -0.01735229906103766, 0.004667028685384117, 0.00884116630363769, -0.005225638308122158, -0.015190871475827743, -0.010193398730399787, 0.03588621921651939, 0.04055074448176407, 0.030814401323401724, 0.05215221196453487, -0.06350873073459763, 0.04423504366349549, -0.021655207251721244, 0.006253420777896693, 0.07021913416541671, 0.00995678012702081, 0.01862418923301154, 0.006278766460263548, -0.005966084629619362, -0.03834530128176652, -0.03224269236707, 0.031051991920727207, 0.04989002835628536, 0.05216450749785071, -0.07148315748243278, 0.02690022954559731, 0.02976808771994467, 0.015176409054032239, 0.00808932658245091, -0.016639799432127296, 0.004979427792859104, 0.0007010309138689554, 0.036923962756728046, -0.045952517835213556, -0.08049058668075823, 0.04475298597237994, 0.05416955660152076, -0.006738496717748772, 0.01566586425693669, -0.005031236940019239, 0.0003970773997473679, 0.04336254457700656, 0.026152419565970062, -0.0025967684039288168, 0.006539556996629182, -0.005373270912733176, -0.030663514857336007, 0.04871087462346486, -0.014699049443320495, -0.08383236535659434, -0.07194155082950543, -0.042101732414112615, -0.00903599386895111, -0.013307987435259171, -0.03084918238616623, 0.05589838003036812, -0.015315695408276622, -0.01772782605889236, 0.005779726440999663, -0.04757453520990369, -0.003105539278999165, -0.0530574721784597, -0.07973539260361191, -0.04454744997151842, 0.0008401107053712726, -0.023680312535627458, 0.014215859253707162, 0.028708132907567747, -0.05235154850598875, 0.004566089558662429, 0.023889737924710806, -0.026683675025584566, -0.02005543437282215, -0.06963248062120979, -0.017941266260494897, 0.009430799207104082, -0.04749523171634305, 0.009476264744161826, 0.0364961013314222, -0.04881073496203308, -0.07168836605319374, 0.001392932208916154, 0.005480181863950622, 0.0066633086500051545, 0.040619614509806404, 0.012489967569689531], [0.030292992317031336, 0.03587371254610168, -0.027126446275979137, -0.00891088337560194, -0.005475995872275078, -0.08315657299247106, -0.024007439079797833, 0.004725082285959645, -0.012172396477711265, 0.018412572648329267, -0.006661907500485557, -0.05205050077202888, -0.08144389246348446, 0.02605477060185648, 0.02031168717774061, -0.018601653624943364, -0.03891945200742444, -0.05935779663151514, -0.02355100483160144, 0.10005369491043864, 0.01800365210769904, -0.04650002885014496, 0.04148109034427349, 0.017581239546977878, 0.011594474494849473, -0.023075787766647163, 0.03061896792948841, -0.01820094853092835, 0.06877639134130625, -0.008494697613571847, 0.04682921719658579, -0.048237682670586327, 0.032590774302028044, 0.04665968210986622, 0.0388319739347891, -0.026829340127788072, 0.058541960465435465, -0.040898199777817834, 0.026611114657183615, 0.03491913673220431, 0.023035317860072124, -0.034049138127536335, 0.010029367026133742, -0.06499009370498136, -0.006426936797437729, 0.0017826734030659721, 0.03642675435558729, 0.004720427438916543, -0.028068810896311035, -0.025939043877123424, 0.010714852043270806, -0.02050656959766943, 0.01585012652023468, -0.029205477710531766, 0.001735017910959405, -0.03184636516176562, 0.011494521860814884, -0.01447829659550104, 0.00490707397137364, -0.029397209870938884, -0.008581918815450182, 0.008913256621784573, -0.001916386286847001, -0.010224740331369692, 0.014356085157999372, -0.04234782413759346, -0.04045512173837762, -0.055329260386023836, 0.0219457304740967, -0.005927216670561768, -0.005627242936883671, 0.0073447095310547475, 0.0063368302904692145, 0.05221000895349501, -0.006333751845947371, -0.03112081884833502, -0.02167989110084845, 0.10360496718198031, -0.012883675191353548, 0.033328122340292546, 0.011504097514178918, -0.0752458508313896, -0.020234641703000152, -0.004700856828733846, -0.062163981956660355, 0.013921052221964204, -0.02069420319738623, -0.11620863084756716, 0.021830759738776382, -0.004234216600527191, 0.001300295582311619, 0.011932130543823565, -0.004235726040005641, 0.024737970539464936, -0.010325016499604192, 0.02821648638559909, -0.028542003118339244, 0.0011013049108270362, 0.02382372398487738, 0.024855969617265758], [-0.013299707456725566, -0.0009071425770915354, -0.0190696995660407, -0.03960580390678995, 0.005757604674644903, 0.009529413642779372, -0.04800479020181733, 0.019358925066035062, -0.06404495011495982, 0.017325697000357985, 0.0110498728357324, 0.02461695173659592, -0.030295285536847787, 0.019299905127180248, -0.020831727150962095, 0.03783631635370411, 0.00541104054797722, 0.017688737522090152, -0.050114521225513804, 0.05129088519148913, -0.05084598592271729, 0.01103709426438572, -0.0007179628003343747, -0.03834186549112089, 0.03669857906308528, 0.03957432677560933, -0.009278338721110821, 0.0153732696452135, 0.05422872548331876, -0.03834607011881313, -0.02352265957657977, 0.012552096226666164, -0.0097735679873332, 0.020262159371577215, 0.0620437818109794, -0.05479506874638452, -0.011869696383515394, -0.011680079483655967, -0.05162613649986634, -0.008906403460320478, 0.04741459577053678, -0.024586192267708827, 0.07443269807787917, 0.025384599274039955, -0.04401025816265863, 0.021242110040458288, 0.022966467703931202, 0.028313952128501397, -0.03382475188646674, -0.047626712348414875, 0.10097395265629262, -0.10055027714764138, 0.025882502409335397, 0.038879582379095896, -0.03567671977985931, 0.04904766528046501, -0.00822093876072441, -0.037701638912127654, -0.004125732600765898, 0.0814858159766019, 0.05017409410256439, -0.047290965815667683, -0.00880645662256337, -0.05163104620889409, 0.02016054744834744, -0.01447012744875384, 0.030367738991059143, -0.024653819680740704, 0.010228948342633304, 0.02006869751981672, -0.00641316621839378, -0.011354931751287795, -0.010307947494815327, -0.036852475511239546, -0.01249148462528585, 0.008130409510721439, -0.03727579921233837, 0.020610881047436316, -0.012461706887479709, 0.013086263416758009, 0.019067048137902328, -0.06068057360469528, -0.027902167279117998, -0.01032836515681918, -0.0008978676425525395, 0.01990192688797058, -0.03375425408204282, 0.02816725465961474, -0.018804984836505226, 0.022118001634233928, -0.035158073455522375, -0.046527557438297756, -0.008751078565580259, 0.01051543203346247, 0.05135737970579201, -0.020031635341426202, 0.015223281957755904, -0.04573415373597482, 0.08854127874045538, 0.003574529848476168], [0.007802522141094381, -0.05849147080896524, -0.004059498966308931, -0.027690031534402536, -0.005706194350985121, -0.01389644386351343, 0.023996591241550104, -0.03806012738554201, -0.048885849176418264, -0.012296327367469809, -0.008617810214234887, 0.018225402025397592, -0.03072645903958489, -0.012546845690152162, 0.0003746418384755231, -0.02165743926367165, -0.015683039977355758, -0.0365913078806739, -0.012952710693915065, -0.026709783685381242, -0.01092219816057157, -0.0005149971048043999, 0.011228246957003698, 0.03778915717032547, -0.008160566918440498, -0.010507576511661143, 0.03504729097155972, -0.010376037413314575, -0.001861364970499912, -0.0587434438344553, 0.012524124980537456, 0.008990079943779723, -0.04895154809201451, -0.09226937222999432, -0.025611313963496325, 0.010843822470771309, 0.02150214829872569, 0.040433411380927896, -0.04792937238869647, -0.06258955732960061, -0.01923554646035016, 0.03468000843563587, 0.03306235506980104, -0.019226103938431646, 0.019168829304427346, -0.02517360981998127, -0.029373980519589796, -0.015197029633771642, -0.038362873586383746, -0.06282612247227629, -0.057174538910044294, 0.026142736419376544, -0.03902930230589274, 0.014366846114165463, -0.061213720679248844, 0.013920531580950838, -0.03696896585908102, -0.002648309788379921, -0.05100747751767873, -0.06011627068916799, -0.02124302330748248, 0.014416123570268967, -0.053967506051934254, 0.005997523277890305, -0.00510599381383232, -0.007625573762684227, -0.008596333890275254, 0.025255006218172414, 0.026051909117508855, -0.020117999025620743, -0.028837220220890275, 0.006337965531400545, -0.01074991310567531, 0.01612384804096445, -0.028238696118911305, -0.0027680744614641405, -0.014949914946180844, 0.02416384370518199, 0.07903033585615918, -0.03168337423090924, -0.04167789649262113, -0.018552634748960354, 0.006288745459188246, -0.0035290162461195595, -0.029931551566781754, -0.006655090579774076, 0.011968171578925763, 0.0614544946513929, -0.039531827702173075, -0.026589199842235366, -0.02664815352347104, 0.010007310311836494, 0.06279640862181202, 0.007661346307902703, -0.0481370873985828, 0.030089944449486282, -0.03744062804451885, -0.01917952608193954, -0.05210064677707958, -0.02632925544761596], [0.018111250538784856, -0.047966690135267755, -0.05260329018102075, -0.008254040818772386, 0.04977784289022561, 0.045709764989657974, 0.031490687293851946, 0.009709546166231276, 0.01585230484672629, 0.01583055817011339, -0.0203638265285862, -0.042601408732412374, -0.011698548857181926, -0.04901123362023617, 0.014238791949652406, -0.07243546343126524, -0.052265608671210585, -0.0010703373588933428, -0.02560750744755011, -0.042226791279995346, 0.0222958728243952, 0.06750385799286995, 0.012395765033113161, 0.013359350343571379, -0.010720276297255988, 0.008396731887755216, -0.02132072395991119, -0.037214649673347595, 0.005690075907493702, 0.0013574585357580284, 0.03417242578271185, -0.01744657103688055, -0.018365291649134828, -0.048324053903509814, -0.0052928471602694226, 0.017126711161411377, -0.010383601710428934, 0.05288727494652884, -0.018213996180868747, 0.10283199822613287, -0.03357705321691534, 0.06119887736557694, -0.020488703545364157, -0.03593070002888141, 0.011692245916468324, 0.05451907045822801, 0.008957841352639061, -0.01694133412468337, 0.01829563523215265, 0.00487398068192318, -0.009404974717267686, -0.0247383672434914, -0.011398451201641764, -0.013030766336950706, -0.03385803158213984, -0.09498627023620176, -0.03136172229188637, 0.02087664955358644, -0.004416928372097556, 0.01424250325473102, 0.027577619128820428, 0.045928227513588354, -0.0017832142912249415, 0.05400200503951027, 0.00041446071572707614, -0.028749526186798872, 0.006881186476811187, -0.03438882900392013, 0.01933659726574373, 0.04362579213048207, 0.0233715900286077, -0.025947684244197865, -0.002044464545687408, 0.07533795925175402, -0.009738286293824807, 0.025856407774211373, 0.002090992112161418, 0.08098207932164442, 0.0036240977003766063, -0.005055205874707855, 0.008141670898832205, -0.02642838229148497, -0.0442366650813103, 0.00727962281798307, 0.002438914781294784, -0.025598332973654638, 0.011550467285687501, -0.01617980134398089, 0.052584820622202225, -0.01264764255144472, 0.04198506455333042, 0.050849932597477304, -0.00567572946053603, 0.03216193160900851, -0.03937111838678304, -0.07996693638876219, 0.06289130914254253, -0.09696518033975655, 0.04733570911590393, -0.045907537645291034], [-0.0650600714989533, -0.029945689948547596, 0.008244699799896577, 0.06536220980065494, 0.011185227476650387, -0.002228216121700391, -0.0024686046475057236, 0.007164079102013315, 0.0033884849920692507, 0.05287647141196159, 0.02284932615607825, -0.02750351070784392, -0.00012134967671463579, -0.03865837536708587, 0.050385567349388156, -0.0660893435617089, 0.03293104018115072, -0.03659375277491808, -0.04448445290641764, 0.003771566215276487, 0.022935946377676018, -0.052548649615746616, 0.027474784106202573, -0.0336292762009856, 0.02986053366047413, 0.0014991487529546314, 0.003625658977757122, -0.028576000744090262, 0.033363052531330484, -0.010622519371529717, 0.010123019306027629, -0.043041949785791664, -0.002301862007522478, -0.02860051174888365, -0.0145704372637842, -0.005605850652179738, 0.03418704935029273, 0.01645381498114199, 0.005201118723713677, -0.037303711207601384, -0.01197936978786604, -0.048026423781474155, -0.060251013088930404, 0.05230950872935567, 0.002487484708736766, 0.024487281801559582, -0.026662073359199404, 0.0011609390316866751, -0.06289845680864561, -0.0579229537028373, -0.029805323852714623, 0.028219951745042136, 0.03899344480078147, -0.016566587783059052, 0.04955550867409347, -0.028840758955990444, -0.011730102425435377, 0.0155780977788912, -0.04515864356870907, 0.030698740169029532, -0.019594308245325785, 0.03542670619287677, 0.06956116332174272, 0.004625877095608712, -0.03382172724699423, 0.0856051934527171, -0.014316366118045671, 0.024645347438430856, 0.0789399373349079, -0.004848132835970125, 0.04925336558591901, -0.00365770851878659, -0.01628009086930441, 0.01562644105052657, 0.0004572402277552879, -0.06044510113121818, -0.050595837142691204, -0.06428896238837278, 0.03598826946806356, -0.07443459617297801, 0.06611617460532643, 0.0076691177725342445, 0.019930645091493834, 0.03517651088445053, -0.08370536339864637, -0.04761673675710894, -0.03393414389490356, 0.026185680129466066, 0.03425735320937361, 0.0443769561210467, -0.03470341262733295, 0.016233459776111903, 0.04310470485247447, -0.04004910553061092, 0.06995112534338085, 0.017264550290636425, -0.005746558939389172, 0.002139703337503608, 0.04391079795021496, 0.03147396850038124], [-0.00017192693709934228, -0.02933574135980163, -0.027262613882149647, 0.02495347753345923, 0.02505316477415257, 0.017657366549892254, 0.009823458534547542, 0.0032975303171217936, 0.02019771166904293, -0.006711383162489343, 0.07003535843895797, -0.022456887367862055, 0.004656002325426827, 0.011184042932886603, -0.006851248685465762, -0.018884808446572192, -0.031092017136722955, 0.016450301471953605, 0.012170382515001183, 0.019419675855711374, -0.03239975407919724, 0.041075104053299075, 0.031079952552027144, 