{"layers": [784, 40, 20, 10], "penalty": 3.0, "mini-batch size": 50, "bias": [[-1.4767293650844373, -2.975192686962248, 0.17580260975426956, 0.817387300533886, 2.876556005025523, -2.051622792091312, 0.43087449643548376, -1.908762806423105, -2.6870027799170533, -3.0897500024646014, -9.616190272441768, -3.90907545482205, -3.665971589935161, -3.2296190178639974, -3.0033104646069213, 5.1084030935750775, -3.1967594372519734, -4.378758938740064, -2.485300875710593, -2.9661924370897066, -5.702814431321424, -0.6657861424518651, 1.4819030775321942, -3.831195098070708, 0.3753031197794431, -2.1116145815539697, -3.471700890895738, 3.3082861904420637, -11.038348835054745, -0.7366910381440667, -5.499191693472427, -0.3709624276469703, 0.3535368269335586, -8.305906434231938, -0.7411695183993566, 1.2167033143447465, -3.4992571802385792, -8.004482628680394, -7.990239633494695, -0.8297722408433642], [-5.168075156674486, -0.5493877902018913, -1.1154381868721037, -5.539468572251137, 5.525503320026522, -3.997444640014679, -2.366184645107021, -1.5586383820110379, -4.536811757875634, -2.716665051069753, -2.545724615845217, -6.6554866895790665, -1.1543435366312578, -9.540591107755938, -8.499356001131156, -0.5546124791755556, -5.59124041066592, 0.263246571591352, -1.74665074724859, -2.52522215512905], [-2.910063071916857, -3.8269256305551984, -1.702996925391792, -2.6415138173139097, -2.232850889083021, -1.6760385791698178, -8.062833130951056, -4.812314932400468, -2.7336067334710283, -4.388863640418703]], "weights": [[[-8.515724369743195e-18, -7.899007678624597e-18, -1.281229615993469e-17, -4.924094021004718e-18, 9.115610261381509e-18, -8.906948370480534e-19, -1.6404867727740782e-17, -1.0875283777163853e-17, 4.863954282161258e-18, 9.941395919209028e-19, 9.418688286085336e-18, 9.211786651042557e-18, -1.0989093558759793e-17, 1.4703055688845273e-17, -1.2505506489149572e-17, -3.763924146330381e-18, -1.4676343161089888e-17, 6.650622214242147e-19, -1.0000628906855537e-18, 3.289891659574025e-18, -7.400208327406643e-18, -1.3865179491401435e-17, 1.3836834707074331e-17, 6.718217454448455e-18, -2.206479769832991e-18, 8.629149358687845e-18, -1.6687309355439694e-18, -3.2271877226055897e-18, 1.7504082921742806e-18, 3.24657075491241e-18, -2.0020686749462156e-18, -2.42560410133526e-20, -4.324651115639198e-18, -1.0163910484464314e-17, -8.79232187144292e-18, 1.3478717897446837e-17, -1.1862879264463612e-17, 9.07702454842211e-19, -1.084726010237826e-17, 1.1685687077855069e-17], [8.10659011346208e-18, 8.131834442871323e-18, -8.78417279200688e-18, 3.228107241048642e-18, 5.771290977567481e-19, -6.943955553100373e-19, -8.562822401486752e-18, -3.679189862885893e-18, -3.1713309500599353e-19, -1.4950442961747157e-18, 4.186200043772666e-18, -1.481483838426911e-18, -3.556574868979424e-18, 3.298773057807059e-19, -6.696103658210237e-18, -2.9887215849857973e-18, -1.5943909106150057e-18, 7.489975360557022e-18, 8.491700434896053e-18, 2.3011247620193735e-18, 3.833296353865931e-18, -8.40700711943174e-18, 3.1855516566089625e-18, -1.496034895979247e-18, 8.076055971545815e-18, -1.64021751559217e-17, 5.263253217300431e-18, -9.9079325827265e-20, -4.763181147260111e-18, -9.315827034489182e-18, -1.675906547961686e-17, 3.241015499817417e-18, -1.884154983215608e-17, 1.1699373721316367e-18, 2.8618388861573094e-18, -8.40499819608407e-18, 5.907948057163841e-18, 7.496011832495666e-18, -4.6115582864511086e-18, 1.6543898361629362e-18], [-2.8551117004383784e-18, 3.7026447915697326e-18, 4.913919954694862e-18, 1.813319361538594e-17, -2.0268953685544676e-17, 4.619093082004693e-18, 2.5662383487120637e-18, 4.943860906138561e-18, -3.493811462377718e-18, -6.244920088936915e-18, -1.49855203428125e-17, -2.78636001459332e-18, 6.535284105015304e-18, 7.790234073546977e-18, 1.3152769640095636e-17, 6.837145692825117e-19, -8.429607981074672e-18, -3.770039111674006e-18, -1.0012511451467546e-19, -1.2769401794945447e-17, -1.1605216118526843e-17, -9.193146339150835e-18, -9.970305276313657e-18, -2.072236222327288e-17, -9.25576904688586e-18, 8.924443899625254e-18, 5.312661895948306e-19, -1.1027283231668292e-17, -3.0580491240287284e-18, 9.613997796617546e-18, -2.3158082925782734e-18, -1.0049189286486965e-17, 1.4123778053636222e-17, 1.1250290708827855e-17, 1.4360972735240357e-17, -1.1486655827901782e-17, 6.079283942936399e-19, -1.796570247298879e-18, -9.09418946040411e-18, 8.554559474986056e-19], [-1.1413787618112902e-17, -9.233243133834548e-18, 5.5674798158670515e-18, -1.1850723956817147e-17, -1.532606517675975e-17, -3.3395960912317482e-18, 9.108372394150512e-18, 5.774488549975555e-18, 1.0792894964697185e-17, 3.953894802597547e-18, 6.237185626635166e-18, -1.0055111243877892e-17, 4.997139211544455e-18, -3.1515150207672446e-18, 1.1260286273446288e-17, 7.233834756237916e-18, -1.8625151832324164e-17, 6.975830838230294e-18, -6.700907612481157e-18, 3.6609582097542125e-18, -4.273665435300645e-18, 7.608833148259438e-18, -1.4489960251522904e-17, -4.158402385673426e-18, 7.391065909696441e-18, 7.20172481310412e-18, -1.6569395207147936e-17, 9.309598084815474e-18, 1.3995609496558592e-18, 4.808861534698693e-19, 6.287613769421983e-19, -4.504709657008753e-18, -1.876822821643194e-18, 8.50164264929586e-18, 3.063272766183482e-20, 1.3160221803275065e-17, 4.88095541932658e-18, -1.762802805330866e-18, 3.5989856665445077e-19, 8.896314848271305e-20], [-1.5189037853375013e-17, -8.669784940927241e-19, -1.2908354035341495e-18, -1.79827765275183e-18, -1.3116016346534472e-17, 3.0805809746884526e-18, -1.1111036762917794e-18, -7.927601601596124e-18, 5.9112522377921295e-18, -2.9658755019839185e-19, -7.082347721056415e-18, -5.130397200725446e-18, -3.1039135559202124e-19, 7.716276372260168e-18, -2.0736515151833233e-17, 1.1277792862447332e-17, -2.868218611212509e-18, 1.3252659006091087e-18, 3.520092027961155e-18, 2.335826580405537e-18, 2.6575221069997454e-18, 7.769569081693003e-18, -1.1781124142018413e-18, -6.4179163440352526e-18, 1.2749611343649491e-17, -6.6638793208539615e-19, -7.157128721635598e-18, 8.090052276334404e-19, -8.075891235353568e-18, -9.680671229934782e-18, -3.750201268282958e-19, -2.6083607298683265e-18, 1.3801626642085105e-17, 6.8405377773979516e-18, 3.5954879477079455e-18, 1.946068804684229e-18, -9.144501479664845e-18, -4.945703812753988e-19, -8.079087763759814e-18, 2.2006459017344236e-17], [1.0808554219378866e-17, -8.61561943606284e-18, 1.1171133587819094e-18, -1.4905527975284288e-18, -1.8670823165488862e-17, -6.854391770536793e-18, 1.3326754868923069e-17, 4.166398762508931e-18, 9.359574806474118e-19, -1.0745156025260114e-17, 6.479389826465286e-18, -4.5428458668806776e-18, -3.5200031743870406e-18, 1.3603864027058683e-18, -5.782491455672352e-18, -4.678730596372062e-18, -1.6468462107367477e-18, 1.1031087846638537e-18, 2.5475198714801587e-18, 9.357347002861056e-18, 5.159603446570548e-18, -1.8581739258980622e-18, -3.4094596578118433e-20, -2.567459305114687e-19, 6.007337302502084e-18, 1.4524580019003118e-17, -3.1331858684301208e-18, 1.3505340735698432e-17, -1.1896230006799695e-17, -7.325152636835472e-18, -1.530228651916919e-17, -7.969900601427341e-18, 8.655221371583747e-18, 1.079000043206496e-17, 5.8133861926019255e-18, -7.167245323160345e-20, 1.0610148680585167e-17, -1.5676221665976653e-17, -4.754581324707004e-18, 1.4565334919945934e-18], [-1.5156047347381382e-17, -1.528704628511027e-17, -5.0477850374523715e-18, -5.076571938709415e-18, 6.421861960392709e-18, 4.322191034609185e-18, -1.0359678901128989e-17, -1.8303296867031957e-17, 5.8232655018657095e-18, -5.345870131644806e-18, 8.737360193272244e-18, 3.1292155900615234e-19, -5.397554990670523e-18, -1.4486141504223496e-17, 6.239532796615137e-18, -1.2900974759426736e-17, -1.5340088316899486e-18, -5.9877595682317054e-18, 5.908156177575386e-18, -1.1779868668445701e-17, 3.2647087881233973e-18, -8.007080142284218e-18, 1.9029810077312323e-18, 1.6023425155569832e-17, -4.0854598608501e-18, -3.3408536582721086e-18, -2.096576159571437e-19, 8.685648252235895e-18, -1.3753790167066088e-18, 1.4200760540684266e-17, -2.640956376459675e-18, -4.7974652053396765e-18, 9.923812209010837e-18, 6.93661967260123e-18, -6.732486774652168e-18, 1.843420146330564e-18, -1.5927690299393624e-18, 2.677480420335814e-18, -1.3658409193319996e-17, 5.067402476159098e-18], [-1.8861719335662254e-18, 3.367721191222929e-18, -2.211966274808092e-18, 2.2126710818327722e-17, -4.115525962190805e-18, 4.0314892379786996e-18, 7.116854889484855e-18, -2.046466962804942e-18, -2.6252666630358346e-18, 8.796967101104437e-18, 4.077764425580765e-18, -7.506931811325232e-18, -1.5491651062033143e-17, -3.55184631636809e-18, 1.0675704348943858e-17, 9.827819082751827e-18, 8.679176929709302e-19, 4.1779409101748446e-18, -1.5858779755768686e-18, -2.299181929120832e-18, 1.2984894919454431e-17, 2.5670043744822752e-18, -6.895210522119736e-18, -7.062331382950708e-18, 2.2217275764482688e-18, -1.3497916455458729e-17, -2.4229269500745024e-18, 1.692390539605232e-18, 1.5327877489306797e-17, -6.069242826399735e-18, -6.122536896988528e-18, -5.025478871257972e-18, 1.9792992139003174e-18, -1.2193209688904395e-17, -7.034828170064061e-19, 1.1007188030660802e-17, -1.7392001653859768e-18, -6.5160316329785716e-18, -9.470885218290097e-18, 3.705560641698841e-18], [-7.832529219217267e-18, -3.413166266132116e-18, 1.6515969505060224e-19, 4.9122424281089764e-18, 5.272712942461452e-18, -7.512616381494341e-18, 3.0293956058961326e-18, 1.2243794786470605e-17, -5.489970327252818e-19, 9.878517887158118e-18, 1.3474565832610201e-17, -2.0893907155412508e-17, -5.603211798577541e-18, -4.430179410949624e-18, 1.6491691508538896e-18, -7.308796784234661e-18, -5.99461852702772e-18, -1.2416633516601361e-17, 1.0779526243501843e-18, -1.505949834885896e-18, 6.0592078238789505e-18, -5.948243878099823e-19, -1.4469261494875829e-18, 1.0064801877849959e-17, -1.6161717495150227e-17, -1.2175655717990729e-17, 2.680864336124498e-18, -3.813642221999007e-18, 2.2792048413565656e-18, 1.2469599598167202e-18, 3.4128652271340618e-18, -1.2249926792411446e-17, 1.8926134574743727e-18, 4.192885453503088e-18, 3.775552093358438e-18, -5.341857109217968e-18, 7.131893055678513e-18, -3.892090769158081e-18, 1.2512999369657472e-17, -1.414182877711024e-17], [-8.800811346864793e-18, -7.786560133533955e-18, -3.816586086089353e-18, 1.9776002544441366e-18, 8.020285846237189e-18, 9.674544163241029e-18, 4.806381064525172e-18, -1.6448989242049128e-17, -2.1498922213702436e-18, -6.453972182783149e-18, 8.06844514718618e-18, 3.919209959405284e-18, -1.5944284329639275e-19, -7.784030810433054e-18, 1.3592041921047793e-18, 5.922871501958642e-19, 8.383640646407195e-18, 6.216599543651901e-18, 1.40581247259011e-17, -2.8250736828826224e-18, -5.35882545692681e-18, 1.1143034413355094e-17, -2.5890118129880853e-18, 1.0192877061036228e-17, -1.532701733011221e-18, 2.3818113268295823e-18, 1.1311894939099504e-17, -1.6800352291567462e-17, 3.072669556179017e-18, -7.649449311545857e-18, 8.724299914878339e-18, 3.841693851874074e-18, 3.755903373359427e-18, 8.041175549589789e-18, -3.978705979766714e-18, 3.180901534636208e-19, 4.248268754912404e-18, -6.8953628328047305e-18, -3.845428687673068e-18, -7.491439961565799e-18], [-7.414670064318126e-18, 6.426516808754671e-18, -2.5868977945786303e-18, -9.675586988762975e-18, -1.3070288025342317e-18, -1.4938033057034282e-17, 1.6680446926809932e-18, 6.4463245983879444e-18, 4.694553981705478e-18, 8.736561309655479e-18, -1.4217917072792098e-17, -7.11024248076455e-18, -5.223307300858805e-18, 2.649218139886606e-18, 1.1038143137384318e-18, 1.2711359991007463e-17, 1.998133947281063e-17, 6.8783061446511315e-18, 5.56345745667609e-18, 2.3486992245017013e-17, 1.1083448422375442e-18, -8.446082363286373e-18, 8.483451339907543e-18, 8.3877059912811245e-19, -7.325927929186957e-18, -1.1741023858678399e-17, 1.3185393352324007e-18, -3.1225809728280373e-18, -6.1152896431688494e-18, -1.0189806401636997e-17, -6.944400716129079e-18, -1.2433749322592644e-17, -1.011029938961254e-17, -7.101183609362474e-18, 5.08768286790903e-18, -1.1951582686602217e-17, 8.787561211198485e-19, 1.145126339167218e-17, 3.245373716262029e-18, -7.033279072524151e-18], [-3.0785942317071935e-18, 5.2987640263495656e-18, 2.3191939070963348e-18, -2.9548210179717154e-17, -3.682864245404497e-18, -4.047488870513854e-18, 3.5481131863887284e-18, 7.402272127320849e-18, 1.129476932626518e-17, 7.662889662473235e-18, 6.820617744558608e-18, 7.605880371540342e-18, 2.248791134199013e-18, -1.5218477309875854e-18, 9.832547702203009e-18, 8.199924930133462e-18, 1.2645122849312038e-17, 6.2639415781012656e-18, -1.5346056910372354e-17, 3.592223363984276e-18, 8.195528838907892e-18, -4.419811226722032e-18, -5.41152244326714e-18, 2.893051988023883e-18, 6.104045037637266e-18, 1.0317227112078237e-17, -1.4718257391581288e-17, -3.1776116318659047e-18, 3.330936363493292e-18, -7.907295685076143e-18, 3.843428442629007e-18, -8.480896608115352e-18, -9.665427901156058e-18, 2.305001858955284e-18, -4.715967273229219e-18, 2.1622222876588516e-19, 5.8605074350990266e-18, -3.0925090324623964e-19, 1.9101247918808355e-17, 4.632537926992274e-18], [6.398305024128958e-05, 6.293066708845007e-07, 6.105544844340285e-06, 7.54166044199937e-16, -0.0006348946661269211, 1.1741710279494315e-10, -6.666007407344958e-07, 0.0001588462038270022, -6.472025542022316e-09, -3.1398699849660307e-14, 9.707168413425555e-05, 1.0340855188039183e-17, 1.8153066387585584e-10, -1.1664569367724516e-17, 8.137986940324294e-10, -1.2160697257924885e-10, 1.3837751544793726e-07, -7.561246198122584e-08, -2.1579476323922836e-14, 8.242011212003834e-05, 2.365276079922101e-06, 6.151338301285015e-05, 2.9919051928701615e-12, 1.5352526875360958e-08, -3.326750091117634e-07, -5.032891546176756e-06, -4.0586043427405315e-05, -1.2977495324531541e-05, 9.578677025741765e-08, -1.2092195981545182e-06, 8.856496406565366e-05, 4.593187767384463e-05, -2.5752027292902973e-07, 7.846019669909308e-07, 3.922752745075268e-05, -5.611468504999816e-06, -1.9534242436067156e-05, -4.717892480450015e-06, -1.0539293708043444e-06, 2.6889417483462788e-05], [0.00010807487057288564, 1.393681434526744e-06, 0.00013188000495927671, 1.6378042582874348e-14, -0.0013901956189471022, -1.892248136443134e-08, -1.4600990087328023e-06, 0.0003518648660866648, -1.4024527852590304e-07, -6.762304400516573e-13, 0.00036393635763999816, -5.663906811495384e-18, 3.921077941405543e-09, -9.89634797197226e-19, 3.597775377963998e-08, -2.6627736422575324e-10, 8.757550383829982e-06, -1.5339183886040673e-06, -4.725998066509038e-14, 0.00018047303905274978, -1.2875509136242206e-06, 0.000569219949724854, 3.773428494928219e-12, 3.361648668846013e-08, -2.8057272849642373e-06, -1.0971921907071278e-05, 2.545047200377141e-05, 0.00026890436444567756, 2.096994391833467e-07, -2.6476082856827553e-06, 0.00019435601174434372, 0.0001100767829902649, -6.468616236793257e-06, 1.278050660635011e-06, 8.589476729700064e-05, -0.00015005972113861483, -4.2779114781766867e-05, -0.00015956623181208172, -2.307549790302434e-06, 0.0005654568195548212], [-3.563876486060267e-05, 1.7489820247799484e-08, 0.00013188002610403489, 1.6387615292035298e-14, 1.0770572161698853e-08, -2.1343207743201942e-08, -5.266345416014938e-10, 4.4958382426639085e-06, -1.4029598906220672e-07, -6.759733977562917e-13, 0.00016845994484475678, 1.8997168543866142e-17, 3.921079722336383e-09, -1.0462919383119623e-17, 3.805339966758553e-08, -3.3288548788941617e-18, 9.408298031446089e-06, -1.522715269420932e-06, -1.3581229427451664e-17, 3.093618117884123e-18, -7.196188583179143e-06, 0.000483540034574534, -3.0911327755034634e-12, -2.818277303478266e-13, -2.3116193307978945e-06, 5.383389009231507e-08, 0.00012721699499913623, 0.0003308610776884446, -4.513307258271376e-11, 1.843501030683539e-10, 4.729829820732682e-07, 1.0573678397202582e-05, -6.570841001175589e-06, -4.895881366102103e-07, 2.2405505601307905e-18, -0.00015331448434334767, -6.520742849824611e-09, -0.00016607063791892077, 2.1378029255867577e-10, 0.0005637235068334834], [-1.4849485173810313e-06, 7.287425091009158e-10, 5.494999050073306e-06, 6.674535928403359e-16, 4.487738468192342e-10, -8.893003149107592e-10, -2.194309419698763e-11, 1.873265846537221e-07, -5.845666209444542e-09, -2.8162578070780693e-14, 7.019164240760409e-06, -1.0958038981359193e-17, 1.6337832952929837e-10, -9.239638530924007e-18, 1.5855583212464011e-09, 7.809213521348655e-18, 3.9201241770042436e-07, -6.344646926213136e-08, -6.5706348762018435e-18, 1.2097686052709767e-18, -2.9984119096672134e-07, 2.0147431566511604e-05, -1.2880471514980527e-13, -1.175531207888918e-14, -9.6317472678468e-08, 2.2430787596463624e-09, 5.300708100119087e-06, 1.3785871169365119e-05, -1.8805506184698223e-12, 7.681261932039952e-12, 1.9707624270807153e-08, 4.405697375954481e-07, -2.7378503492949876e-07, -2.039950569059059e-08, 3.224183093775406e-18, -6.388103925305143e-06, -2.7169761170970385e-10, -6.91927057072548e-06, 8.907518974826707e-12, 2.348828086484019e-05], [4.698845873506259e-18, 3.283971125694473e-18, 2.7443282722496818e-18, 4.198319591299532e-18, 4.367140028693863e-18, 1.5312836500036103e-18, 3.9196228468977654e-19, -1.437647346365474e-17, 4.542746278632856e-18, 1.5640877082984466e-18, -7.078048536433771e-18, -3.744417299668101e-18, -3.6314896381374424e-19, -2.996413504420743e-18, 9.668261773243452e-19, -3.8382347398775415e-18, -1.8469438507155646e-19, -7.569266103027098e-18, -6.6530264640713764e-18, 1.6042449468442947e-18, -9.441544443449629e-18, -2.1532099019083796e-19, 1.8082313605759223e-17, -2.211111534167143e-18, -3.752550733885724e-18, -7.188640558218855e-18, -1.267052593862254e-18, 4.4394232703113605e-18, 9.736977488959484e-18, -4.2644568732758204e-18, -1.0797645313098275e-17, -7.609859725225513e-18, -1.5090302288515762e-17, 6.233653106957523e-19, -4.087232675422886e-18, -5.776954999413971e-18, -3.4045529184883048e-18, 8.527787612188623e-18, 4.1136971658799215e-18, 4.492343098934746e-19], [-6.8331899233203136e-18, 7.581811938307001e-18, -1.1751306660826659e-17, 8.549121140680154e-18, -3.50060996211781e-18, 1.3665557151631492e-17, -6.626587568580662e-18, 8.913728595263182e-19, -1.5303254811549508e-17, 1.1775737984780354e-17, 1.8940246108724378e-17, 2.6448744732007262e-18, 6.0289554659149275e-18, -6.9003713809088715e-18, 1.0132359832880344e-17, 8.74724376201938e-18, -1.1438974401811098e-17, 1.1979587527947786e-18, 6.950069046029853e-18, -2.5323861102028728e-18, -7.501453830976145e-18, -3.881678272559453e-18, 4.059459497924772e-18, -9.209765017413297e-18, 1.2180463730675345e-17, 4.030119212252826e-18, -1.6214991732836495e-17, -1.509626252922175e-18, 6.95616456450144e-18, -8.165275742419945e-18, 1.363703927387342e-17, -5.2053450807399845e-18, -2.65736044199655e-18, 4.371139697567097e-19, 2.3182522355388568e-17, 5.741033004621642e-18, 6.4939081329248364e-18, 5.390016384122341e-18, 1.4692714257118362e-20, 3.4847174500267875e-18], [-8.743183056425899e-18, -3.4477629300552313e-18, 2.190854977396026e-18, 1.485185877467387e-18, 9.821794211046837e-18, 3.8696320860126695e-18, 8.681899908444712e-18, 7.877677470598586e-18, 1.121781785129617e-17, 9.64724601553805e-18, -4.066714073861083e-18, 1.191910465209751e-17, -3.2223160116243143e-18, 4.992641445710073e-18, 4.734654097444327e-18, 2.8397463657645803e-18, 1.24694560847877e-17, -1.0712653488204137e-17, -7.645400340970596e-18, 4.7909231228407915e-18, 5.611603366386425e-18, 3.2508380933668423e-18, 7.628905782079934e-18, 7.528243504803449e-18, -1.4998125247850842e-18, -7.793418544685328e-18, -1.2784945162595213e-17, 1.5674374873274782e-18, 2.004441843560966e-18, 2.0207001039417803e-17, -1.1789696327507962e-17, -2.1490673243492203e-17, -5.570014971024143e-18, 2.4252995381943605e-18, 4.095096994614567e-18, 1.7308739743394068e-18, 3.4847638882244194e-18, -8.282069011074864e-18, 5.901621038883927e-18, 1.1751220725579851e-18], [-5.939403777180001e-18, 9.327488054808983e-19, 8.047805734008766e-18, -4.1899397010852095e-18, -1.496844978194946e-17, -9.294481752688052e-19, -1.6706555651092496e-18, -4.128807099577344e-18, 1.1828919023713385e-18, -7.83987538159467e-18, -2.0607210521766973e-18, -2.7975930712810072e-18, 5.543014263107252e-18, 8.247790394233142e-18, -1.291208653956783e-17, -8.28752920203415e-18, -5.568606408668985e-18, -6.072216694544103e-18, 6.435170042565226e-18, 1.2337241069262965e-17, 1.7187329447110293e-19, 8.065883236339171e-18, -7.883887741684084e-19, 1.0418226855400328e-18, 3.322043382058231e-18, -8.731082040825472e-18, -6.5859320505086186e-18, -2.3959442379380888e-18, -1.6428504895764244e-18, 2.7054993731255618e-18, 1.2183822428467104e-17, 6.694103393707312e-18, 3.603736061450096e-18, -8.798358208272543e-18, -3.792329018255408e-18, -5.282309419455643e-18, -7.403421272560762e-18, -2.557070306092714e-19, -5.4400795782875554e-18, -3.391590063723938e-18], [-4.167132705414372e-18, 4.178538405366782e-18, 1.7362104430001845e-17, -4.533150675335217e-18, 7.5220104714094e-18, 8.003939580722096e-18, 2.7235894617903396e-18, -6.423965040572826e-18, 1.5646827695904904e-18, -1.5782345218022213e-17, 8.075018830590143e-20, -4.924521664702539e-18, 1.9902297152674182e-18, -4.602037358058711e-18, -9.119898283188485e-18, 1.3600654011085638e-18, 5.248759952029353e-18, 7.815174540296344e-18, -9.154283653549876e-18, 1.9446255311313748e-18, -1.1100593220956719e-17, 9.267972055987702e-18, 1.4476386498397265e-18, 5.930719655890669e-18, -5.8384219776338294e-18, -1.6234894321250633e-17, 2.3569844214897175e-18, 3.0341552489031393e-18, 1.4097196089449765e-18, 3.897062094737709e-18, -4.0610539472331395e-18, 6.28739665661243e-18, -1.3191716600127128e-17, -3.442394525131076e-18, -1.1565980243704524e-17, 2.471188705595956e-18, -1.2321183624873832e-17, -1.4637840334285666e-17, -4.024803129075168e-18, 9.010024373042413e-18], [1.641910195664811e-17, 1.4182014246100416e-17, 5.554441562198505e-18, -7.503907884948584e-18, -7.78935154375252e-18, -9.221321752754955e-18, -1.5896745011970222e-17, 2.7367918863735994e-19, 1.5404663723509742e-17, -4.918464587193028e-18, -5.359663589802535e-18, -2.477823314704285e-18, 7.711490236966859e-18, -3.3447731167699786e-18, 2.850463562131364e-19, 2.765921835321756e-18, -1.7744876904814472e-18, 1.6562484725786856e-18, -1.0808899906952792e-18, 3.294156341455546e-18, 6.205571894895046e-18, -1.0927308469777853e-17, 1.4092288844819248e-19, 4.793849091759286e-18, -1.3217440549174123e-17, 1.988447985925448e-18, 8.21221774152677e-18, 6.31190002862462e-18, -1.8058298100097385e-18, 1.435100952013211e-17, 1.1849098226782498e-17, 1.6358475553237394e-17, 8.694469222401622e-18, 8.760631953779922e-18, -1.739472780294794e-17, -1.7978330920393702e-17, 1.5829796893126556e-18, -1.392664935258313e-18, 5.023460197958894e-18, -5.852063604323189e-19], [7.050254972597293e-18, -1.0958235035753833e-17, -2.80443094252185e-18, -5.065109450656976e-19, 4.9510676720461e-18, -3.2496221784101413e-19, -7.284318125191204e-18, -5.47863090978723e-18, -5.318443121064678e-18, 4.348997040024834e-18, -1.4569744057291814e-18, -3.1411475650965763e-18, 1.0549714963719802e-17, -9.376106044548536e-19, 3.0830198958256904e-18, 6.00716863838036e-18, -6.16209938522217e-18, -4.738200418331e-18, 2.0955490803086684e-18, -1.397319232290372e-17, 5.571508989086432e-18, -3.901076202687633e-18, 1.4387342752704642e-18, -5.575211009937071e-19, -1.800160607859435e-18, -8.326739251484575e-18, -1.9788482294328415e-17, -4.859789325888489e-18, -6.192591361698193e-18, 2.5534152950352957e-18, 8.191587972816312e-18, -1.6745003806859251e-18, -3.2147858592316557e-19, -1.0455475963113784e-17, 1.1499465879261722e-17, -5.783598624386164e-19, 4.9846763623765476e-18, -1.1468289844462606e-17, 6.716396065315968e-18, 1.5665816662337782e-17], [6.930279506318358e-18, 4.213583857993694e-19, -2.8262845573110945e-18, -2.330578476077511e-18, -3.840716311535095e-18, 1.135820788605938e-18, 4.4922489915414596e-18, 8.823654348431287e-18, -1.210900380800884e-17, 6.654214477963978e-18, -1.244208488101922e-17, -2.832239166177964e-18, -7.592748061241778e-18, -1.3005822733731297e-17, -4.116614447771806e-18, 2.3253639692666265e-18, -3.7994381326825115e-18, 2.773509502636213e-18, 1.394069102332744e-17, -8.627224938486204e-18, -4.745822602947276e-18, 4.2897427842806755e-18, 1.6679337045861023e-17, -1.3387913355455243e-17, -4.891168646398056e-18, 1.7003271914587976e-18, -9.429005428375066e-20, 4.349258496094976e-18, -7.404768204015755e-18, -1.1641403498591094e-18, -1.3076826390088204e-18, 2.033396207950057e-19, -1.0010220203196376e-17, -6.559381158409158e-18, -1.3300303684357102e-17, -9.724500644087068e-18, 4.891272758514934e-18, 1.906678294184617e-18, -3.519474895923561e-18, 2.5091322101268966e-18], [6.7438665448553885e-18, -1.975683370567905e-17, -4.59001383863529e-18, -5.274904273839508e-18, -1.1847269516742595e-18, -2.0520228551162118e-17, 1.4829779515352883e-17, 8.164038065884089e-18, -5.940958007683952e-18, 7.086899867487753e-18, 1.693088812922598e-17, -2.691036097946975e-18, -5.656652076891787e-18, 2.6817245526121356e-18, -4.14685887539358e-18, 6.576565854673009e-18, 1.1285172181426763e-18, -6.82655193605538e-18, -5.756334240975947e-18, -6.272921522202246e-18, 5.267972843502486e-18, -1.3468811496358125e-17, -3.788460655432681e-18, 1.53388452359794e-17, 1.4188371268174397e-18, 6.983042425784e-19, 1.0569597131993507e-17, 9.851378959811115e-18, 1.6747199694764497e-17, -2.6547251650928867e-17, -5.85683206741948e-18, -2.42923073110167e-17, 1.0052476699341093e-17, 2.9747918270465007e-18, -8.31378113160228e-18, 1.6830723402551681e-18, -2.492194635318334e-18, -9.780190779878158e-20, 1.1695442163247113e-17, 5.731484292806485e-19], [6.474609574132999e-18, -4.816600723557192e-19, -1.1256819904790443e-17, 5.6855962707756595e-18, 1.876490166118564e-18, 3.57872433847777e-18, 1.1263725538484997e-17, -5.9518634904758735e-18, 4.26880151258013e-19, 1.53713971523755e-17, 7.998467422805946e-18, 7.447562624932049e-18, 8.884898283227585e-18, -4.687075297624402e-19, 4.6698021243387546e-18, 5.0136381954671706e-18, 9.512999171719833e-18, 8.883016812240605e-19, 5.213915452182134e-18, 1.1553707358503559e-17, 1.3173099233402125e-18, 8.279276722336565e-19, -7.069433463354402e-18, -2.6414231391789483e-18, -7.155008516141078e-18, -8.073696148904909e-18, -1.1531328905161928e-18, -9.060700870410082e-18, -2.480411162541255e-19, 7.562215742854619e-20, 3.716371734238044e-18, 1.1175950737807663e-17, 1.527661319916094e-17, -8.021728901087223e-18, -7.071198712402547e-18, 1.8348937700663755e-18, -5.2388720351130006e-18, -4.218457057724256e-18, 1.5165908523192982e-17, -2.5016246418535965e-17], [-7.230950587035258e-18, 1.2472784947545577e-17, 4.980251076205819e-18, -2.3390064628122737e-18, -7.735101747703091e-18, -3.653069845466086e-18, 2.1423227992850616e-17, -1.433146243451293e-17, -3.617069675369445e-18, -1.2958226586380517e-17, 7.253297373984572e-18, 1.170423771426919e-18, 9.065267237521279e-18, -7.000935874330198e-19, 9.32532911177614e-18, 2.374578162049915e-18, -1.2004385301230346e-17, -8.769015014882382e-18, -1.1346523574955948e-17, -7.379601683470557e-18, 4.851169895064836e-18, -1.0464931630524632e-17, -1.571059780512789e-17, 4.0908788576116795e-18, -1.6320377982568565e-17, 9.506982994192279e-18, 6.371969217325003e-19, 8.170248441020083e-18, -1.1585682156214142e-18, -1.600963046888542e-17, 4.566440926891479e-18, 9.540064209642927e-18, 1.0513844661917533e-17, -1.6880897258878872e-17, -7.195341688558604e-18, 8.526324750718206e-18, 1.2175795690619263e-18, 1.0708592274758427e-17, -3.0035672623382515e-18, -1.6544504984327133e-17], [8.803563738619706e-18, 5.229645036115024e-18, -3.247825907661441e-18, -4.303517051178089e-18, -4.503676959447634e-18, -2.6314155301167627e-19, -2.6697208580468242e-18, 7.437406474710186e-18, 3.012094947694761e-18, 1.2121597392921787e-18, 1.232175081147401e-17, -1.3745201893571258e-17, 1.1671263548568373e-18, 5.6094823584087275e-18, 4.045893203359233e-18, 1.3902611268720332e-17, -1.861800020637177e-18, 8.249130438996232e-18, 1.456388065757712e-17, -2.028843237045502e-18, 2.0640778145260596e-18, 1.853506253216129e-18, -1.7593197118716014e-18, 1.4246173934459268e-18, 6.206583897359757e-18, 4.544666367007331e-18, 3.727344042367589e-18, 1.8134437035056218e-17, 2.1370017560274153e-19, -3.1566772979528143e-18, -4.44558993220551e-18, 1.0830452609028886e-18, -1.4163807468523412e-17, -1.9988659414366052e-18, -5.296522096501874e-18, -9.714619381090765e-18, 9.198680284808643e-19, 3.1381209023716283e-18, -4.56428598031129e-18, 1.4898875633275078e-17], [1.2184028326030113e-17, -1.4546352448688275e-17, -8.702525707284241e-18, 6.765469422813228e-18, 8.160427122434654e-18, -4.764012989075173e-19, 4.946390181376541e-18, 4.731531255683647e-18, 8.383335358606187e-18, -4.106477239792916e-18, -4.1500297095577445e-18, -4.040931100043584e-18, -3.7477012635695626e-18, 2.5891014789310024e-18, 1.0827543939285137e-18, -3.588689143761039e-18, 5.0601721714121185e-20, -1.028255184961899e-17, -1.4802643470305204e-18, -1.5707165148318662e-17, 5.736480241572931e-19, 3.9034954531580175e-19, -1.9958238782136967e-18, 4.733674671955909e-19, -1.5703099653003724e-18, 2.913601751993207e-18, -3.623070828374695e-18, -4.982764066313502e-18, 6.59847220662793e-18, 7.228344684568426e-18, -2.687741533443589e-18, -1.9748703715824616e-17, 2.3233031985338288e-18, 5.235847933603255e-20, -7.890617322100355e-18, 1.2270033368648623e-17, -7.597538391553586e-18, -4.9239737896514334e-18, -5.060155900829408e-18, 1.039180327232683e-18], [-1.1107636010006913e-17, 5.219184016559094e-19, -1.3524696446977681e-17, -3.059261973796981e-18, 3.397090958660751e-18, 9.768343550338905e-18, -8.214922990903685e-18, 2.2849605923359257e-18, 1.3466374503819141e-17, 7.85135563690623e-18, 9.310912608684804e-18, 3.2068810173292267e-18, -5.605119506992961e-18, -3.8159608825027906e-18, -1.613697763599862e-17, -5.346517972988236e-19, 5.400852870507711e-18, -6.851114896744943e-18, 5.032347762241089e-18, -6.068682048543911e-18, 9.447284012729216e-18, -1.2478143276826834e-17, 1.196149847641231e-17, -3.634373790677288e-18, 2.2697286729042745e-18, 2.5301854468579425e-18, 7.682415420035175e-20, 5.250046189001126e-19, -2.9437298135445495e-18, 1.0074726876655458e-17, 5.931595940226614e-18, 5.075122675715908e-18, -1.2230609578963034e-18, -8.924115562245504e-18, 1.1745564179248472e-17, -6.4901015418467505e-18, -8.233591000398187e-18, -7.490807981860419e-18, -7.614220333203635e-18, 8.021387107971982e-18], [-2.3729045372356025e-18, 3.3038650237880636e-18, 3.9734268119279e-18, -2.878505976939354e-18, 1.091476202939027e-18, -1.285490091567376e-18, 1.116535444546366e-17, -1.297206933958048e-17, 1.2126076633234739e-17, -1.1798725534124518e-17, 4.8433242660536e-18, -2.8682948901663397e-18, 8.322334352429223e-18, 7.749463981806707e-18, 6.720117788032264e-18, 1.0534647704184971e-17, 1.812980138456637e-18, -4.307183650200497e-18, 2.5576951687149726e-18, -1.88331340924255e-17, 4.601386024178792e-18, 1.556496516376606e-18, -1.980975484743442e-17, -1.5057391887686713e-17, 1.3305913590369839e-17, 8.753062835962386e-18, 4.482138648876297e-18, -1.2694963133077187e-18, -6.7663596777262214e-18, 1.531166920369928e-17, -1.4745403048515432e-18, -2.0481958539044323e-19, -8.118929300126059e-18, -7.619834101942737e-18, 2.861371836257763e-18, 9.248206746364195e-18, 7.041121667665713e-19, 2.8451989745913135e-19, -4.723599667088904e-18, 5.745224039435097e-18], [-2.7254081515754445e-18, 6.746772613114396e-18, 3.719381369954008e-18, 2.0355837359436718e-17, -1.7563501097250922e-18, -7.505066495401032e-18, -1.5652444632648927e-18, -3.7217512713209505e-18, 5.40143417322833e-18, -1.052120033932675e-17, 5.815624687918179e-18, 3.1909367979707833e-18, -7.33458446120372e-18, -5.005910869074289e-18, 5.428614776743668e-18, 7.176940406458202e-18, 5.127490251524242e-18, 7.079253000712895e-18, -1.0144581133315608e-17, 3.71354703663033e-18, -5.824423379665052e-18, 5.013250633984461e-18, -1.472170903295384e-17, 3.0840749887262604e-18, -6.974354177414281e-18, -1.3100602917650651e-17, -1.5261146389666513e-18, -2.0852709171611384e-17, 2.6345787745448688e-18, 1.2651320494867185e-17, 9.186034339849848e-18, -7.526108401579681e-18, 3.699534628663483e-18, -7.396789168818959e-18, -6.308855675973045e-18, 2.1291052040640707e-17, 1.413228989794048e-17, -1.570119291279606e-17, 2.2892011946971993e-18, 5.258393073229181e-18], [4.6613845793574777e-07, -5.1396296305050446e-08, -9.530740841022074e-12, 1.9075444029195644e-08, -3.072999575915764e-17, -7.995876188430601e-13, -2.9187664039297464e-11, 8.76089223465494e-08, 3.622658948939961e-12, 1.2777613546466302e-17, 9.013835843937648e-07, 4.7866118152701615e-18, -5.681646729817264e-16, 2.0416028048956598e-17, -8.472218498495113e-17, -3.180633782707032e-17, -6.667573433899836e-14, -1.537393725616358e-14, -3.119703391527552e-13, 6.5794690956923894e-12, -7.849454434301258e-09, 5.44283189199778e-08, -1.131489987840836e-13, -1.604292983062632e-07, 5.780565716975661e-07, 5.884484805092413e-13, -4.9468304728286016e-17, 2.8781622268499845e-10, 6.531918117219255e-08, 4.962601638832055e-08, 7.663755271182737e-08, -1.7640239065316508e-10, 5.18426315533753e-11, 2.6909329066526655e-09, 5.7855053393771785e-08, 5.677424965396787e-19, -2.6900533312184293e-12, -1.4951183437166163e-13, 8.597745236371654e-08, -8.066284449046335e-08], [-4.119480085113872e-05, -1.5097661079635232e-07, 3.36128124870924e-07, 5.6034013364283696e-08, -7.009108936651446e-07, -2.3608275833687995e-12, -1.6603475274113827e-05, 0.0001562950217685065, 2.0029249328397152e-07, 6.249803255027631e-18, 9.037107051552894e-05, -4.765861110879432e-18, -1.7448544327921007e-14, 7.618734115242086e-17, -1.2151534702402104e-14, -1.6351231892233047e-07, -6.1165048478230925e-12, -4.8901353598159336e-14, -3.50787969509342e-06, 7.077700806324324e-08, -1.4815904135709487e-06, 1.0575228166527597e-05, -3.3233381327229007e-13, -5.120430947378383e-07, 1.6980411794498184e-06, 7.903526598037683e-11, 1.6808834076398783e-09, 3.5967118856510656e-06, -3.813249770989334e-06, 1.4567736400052597e-07, 0.0001649654692075233, 1.300390182892391e-05, 1.133056793863527e-10, 7.902544317892792e-09, -4.168435723287124e-05, 6.766828072765219e-05, -6.278402360906002e-05, -2.8875571316613186e-06, 2.4065473698144984e-05, 9.858197946453067e-07], [-0.003158453368991603, 1.0114734729337543e-13, 0.002954576872940426, 3.855106787975744e-09, -6.677521349716637e-05, -2.755948404267015e-05, -0.0008260317530135318, 0.010018150130933852, 1.1362965183705134e-05, 8.440666478198581e-18, 0.005516664355574479, -4.9008018274087056e-17, -1.2562516860403945e-10, 7.826736426482373e-18, 3.1135243717596167e-11, -0.0035775390280310157, -1.0699726793179897e-09, -3.3226546270991517e-13, -0.00030804804716898454, 8.950053970124458e-07, -0.00040121088074228335, 0.0007917472699200034, -1.4675970281193585e-15, -0.00021924821389732573, 2.6410367772626886e-11, 5.568056616129691e-09, 0.00029017131082760626, 0.00011781900666005718, -0.000518488720311885, -2.4816862954263157e-06, 0.009485600825948801, 0.0023278963660356366, -3.066905806432293e-07, -2.4196523718442407e-06, -0.0010499543818809885, 0.002932247325657134, -0.0031104521198043575, -0.0004888197268628086, 0.0012344095695126058, 6.0773610690450095e-05], [-0.00464698882621935, -6.308652247761849e-07, 0.004237245419230931, 4.25123607863686e-06, -0.00015334788821739728, -4.642448811989977e-05, -0.0011101522295984823, 0.015386539040635857, 3.204196216223162e-05, -7.95609651501636e-08, 0.00808286389319889, -3.682307248737848e-17, -2.109310025710313e-06, -3.4857635509697084e-10, 5.959942887375607e-07, -0.005197050400857867, 7.406147698845204e-06, -4.6444442328146696e-08, -0.0005650505002979175, -1.3709296526837664e-05, -0.0008604782019376563, 0.0016943918116777764, 1.9493274564169665e-10, -0.0004997071457815965, 9.115045920814476e-08, 2.465931725096644e-07, 0.000412128094684563, 0.00011483195701457382, -0.0007624011914917011, -3.450170898915527e-06, 0.013703390519419498, 0.003162330770520663, 3.6400503490092125e-05, -4.489138796199858e-05, -0.0015813184535078345, 0.003687800983892078, -0.004330044944321921, -0.0014514118083243477, 0.00176779827851012, 0.000364922612856562], [-0.012645293457270397, -3.220185005067486e-05, 0.0037315352196670938, 1.2434627511090522e-05, -0.007911056423486797, -4.986163336017398e-05, -0.020785735390840162, 0.016551525899841983, 2.1466593038158817e-05, -3.871966962070256e-06, 0.027350410571079432, -2.927942527710195e-07, -4.054651268149164e-06, -2.5031517451243474e-09, 2.90028700842286e-05, -0.004510904665998177, 0.0003575618525642444, -2.2592542973428e-06, -0.0015985464529545957, 6.210261312987267e-05, -0.0039287332123337255, 0.005404517199494531, 1.7180016752868782e-08, -0.00039979524335505246, -1.9193003281700864e-08, 1.2891466565137205e-06, -0.002533190265571832, 0.00010826754786364993, -0.00045363527266748687, -0.00010657982796869141, 0.020151621522805137, -0.00025373214409051686, -0.00021428826053366144, -0.00044398563364498846, -0.0020110051056188697, 0.001278544359671088, -0.004115980834708388, -0.00865456651181266, 9.65567053677691e-05, 0.0009387892808048661], [-0.0022596611767376506, 0.0016232997429719545, 9.836179609401696e-05, 1.4451519459974963e-05, -0.001843709206852875, -2.590254526912486e-05, -0.004672297572424379, 0.004457870479151412, -2.6045347060604836e-05, 6.613395424471544e-05, 0.008267870413777958, -6.544812711885692e-08, -2.709358069706218e-06, -0.0007402640117627474, -1.1126387781351966e-06, -0.0009999978907794568, 0.00029943969632203804, -2.6322699068977665e-06, -0.0004373838387743776, -6.721367563970062e-05, -0.0013232511905114435, 0.00150016122590569, 0.0018758972665263536, -0.0002671162509006319, 0.00023222039334124572, -0.0014605427036850102, -0.0017470020490516693, 0.0007917950349147555, -0.0004339423184078439, -3.906250541632373e-05, 0.00542316329377105, -0.0005473813932990811, -0.0003062757408970644, -0.00024639784907677626, -0.0015098480567803108, -0.00014328089308655536, -0.0006496727905986527, -0.0026386813633343166, -0.0002173104734485295, 0.0019654317203799173], [0.0004286521329200348, 0.0030934183835594838, -0.000192002906750203, 6.187080139729322e-06, -0.00021833123525276737, -1.948034819808613e-05, -0.00037958569508326844, 0.0016329776082977772, -5.2156129508292227e-05, 0.00012867851569653644, 0.0029430289043800946, -2.423402483289869e-16, 3.805896364005419e-06, -0.00139244546237556, -3.674827633177189e-05, -1.1308783738547056e-05, 0.0001575373929105977, -2.17878606801459e-06, -0.0006165797012221473, -0.0006904516785728124, -0.001384838019194612, 0.0033294979539370277, 0.003527809300580835, -0.00039407852524233646, 0.0003414657194162256, -0.0028134923719460893, -0.002763792328615304, 0.0007864964403251404, -0.0001098989310470739, -1.9845111137368602e-05, 0.004754073818957556, -0.0016515244055675111, -0.00014471547225020087, -0.0001185440953510325, -0.002412251279872641, -0.0001735920648475522, 0.00022154133036632922, -0.0005539475976987647, -0.0003174847156765034, 0.002978145138390026], [-0.0051378570735763724, 0.0017017224503562919, -0.00012489405230360515, 4.456873020974618e-06, -0.0028178940266468107, 0.0012140136866941728, -0.00041313318661124446, 0.004068364177534435, -0.03657830388924056, 0.00018762716372631855, 0.024765295824375946, -1.4623379245365363e-15, -2.0027963112680076e-06, -0.002102774340420393, -6.905134065284529e-05, -0.0003074157986989778, 1.1059367509826293e-05, -2.395273160081578e-06, -0.0016766230460824793, 9.319610248280206e-05, 0.005935804713237934, 0.000916664972350908, 0.0050927479754525285, -0.0015832030961514558, 9.326514671132624e-05, 0.005503909342379239, -0.004258283021837399, 0.008264263559733398, -1.7141802703614495e-05, -4.0237302366330095e-05, 0.01372437052172884, -0.003948092501151154, -1.9299229736581676e-06, -0.002576886263246983, -0.007900279386356453, 0.00021921583954058775, -0.004457511515110053, -0.008264494208131315, -0.001280291891826405, 0.01183463229149178], [-0.012500778378444977, -0.0007675252346334493, -0.012898055985876651, 1.7635205760312678e-05, -0.009370591231627683, -0.00030000702032444165, -0.004293817926347093, 0.07942907008141571, -0.07337975283778457, 0.0001925255324980921, 0.048403190130727046, -3.070101365423892e-12, -5.514798419534152e-06, -0.0022472523807752966, -0.009527680166481534, -0.0019466624167803074, 1.43549797413412e-05, -2.626811278697026e-06, -0.002831051517535234, 5.07011342111321e-05, -0.0254853007668891, -0.0016540724661104963, 0.005227389705399176, -0.004104549689604437, 0.00023814627389162954, 0.014575444448416455, -0.1340862259318845, 0.016001378968727886, 0.002412524172163098, -0.0006266038760277803, 0.043102768151562575, -0.0003420515936507925, 0.0005526916374825527, -0.008862663917772027, -0.0511709432505334, 0.0011209604548127784, -0.00916393628457922, -0.01872205068389593, -0.0003928193317949344, 0.01878585233818181], [-0.005316266323825443, 9.349997300015277e-05, -0.013237289972463965, 1.960735396447879e-05, -0.020237997111524225, -0.008603165600144125, -0.007907054742296598, 0.07785623736425719, -0.029795116847081724, 9.540729643407124e-05, 0.01887890561402006, -2.032347129555016e-12, -1.917426742007061e-05, -0.0010896184013226148, -0.006346784325801462, -0.00028482745459186234, -1.6448049507029033e-05, 0.0002783667113424544, -0.004256078457256875, 0.00011187348498382752, -0.05908067234697092, 0.008794630923478068, 0.002592575222896447, -0.00206291231845772, 0.0004420734075892706, 0.005605538691914679, -0.08677338479841622, 0.005971454205643944, 0.002338147366100593, -0.0003613396356745926, 0.028164411754362347, 0.0026194017160947056, 0.0007122715600759924, -0.006944658469128793, -0.051449290341303404, 0.0038933376700536616, -0.003952244319474634, -0.00906337736330888, 0.0003779386681464493, 0.00832256144289441], [-0.0006724830121555562, -0.019268377259222796, 0.0016049455645332704, 7.309140570340317e-05, -0.016821674009344582, -0.013277724226486308, -0.01308927395911281, 0.022078741468830494, 0.013827776953208167, 8.863874634729266e-06, 0.01115837036205952, 0.0005669473050951701, -0.0058941389599092365, 0.012757173398742704, 0.0037749502869201426, -0.00021173772478510816, -0.0007408033056352737, -0.005938455003304042, -0.01090352049813485, -0.0003748979842460781, -0.028403258173080613, 0.03375932217922145, -0.06420237936993985, -0.002026545816469339, -0.0015140142019894655, 0.005527360833883197, -0.0019762217700853455, -0.002276549219764458, 0.012084663149896807, 0.0006376196608292732, 0.004689597501831704, 0.01278346826476045, -0.002708996534251566, 0.015283540745210808, -0.020761055670407473, 0.01573838727405179, -0.0001722712189093371, -0.007950568224188659, 0.005869992214465627, -0.019747761102030893], [-0.0012063622704293904, -0.04997873448830621, 0.007549720985929769, 0.0003042492950481048, 0.0012141074885761909, -0.02414038539879578, -0.03475728709263175, 0.012108614907370627, -0.0010176241648529316, 0.0008426317231973222, 0.01780977634336542, 0.00068303656603408, -0.009399686387627143, 0.0322735189913842, 0.006793159452876149, -6.782026567375797e-05, 0.007301601787907484, -0.012877741926045927, -0.01561265688058049, -0.008919964873663845, -0.01220908599060282, 0.04617917740297376, -0.12936311455417346, -0.002250171532780361, -0.0022416779558733805, 0.018713901571987848, -0.0038916362245025155, -0.00463443395403277, 0.028936195221951223, 0.00047577416908090687, 0.00811266014322119, 0.008417125765279691, -0.00787151574181172, 0.05136736530700489, -0.014060846795511298, 0.04361242842358859, -0.014106932522957728, -0.012070789480744616, 0.009020152779865781, -0.04579928842278354], [-0.0007221448645408253, -0.025346390079635756, -0.003500699068332573, 0.0001903805883258429, 0.002341438662345673, -0.005011436760829938, -0.055222905394971065, 0.008704974455089552, -0.10260806554990218, 0.0032761327279494, 0.015453738134673293, 0.00010259038257130399, 0.0016989990800643437, 0.0038154196638922897, 0.0009435678968802162, -0.00016291742476359696, 0.03148882721319715, -0.01221718392222286, -0.0020743645178157564, -0.02316226581389931, -0.005850643878692989, 0.002941525966469089, -0.011174786087075124, -0.0006750585329902956, 0.002347610493699254, 0.00903460480965851, 0.0022283509982319867, 0.021467418331842143, 0.004261050422942269, -0.0028394364898667503, 0.018110418468098344, -0.04255652723697145, 0.00248564932341114, 0.056771727015599634, -0.024550914708453338, -0.0011128202538692898, -0.038296754747428476, -0.003636974284337794, 0.005556870141678541, 0.019204969579557415], [-4.680722109897273e-06, -0.01244540363697911, -0.0009445876586684894, -2.289497407914616e-06, -0.0014271163893982979, -0.0006970098309680447, -0.02465400122462463, 0.0009658928361528903, -0.052039377951668145, 0.0023847068392096452, 0.0029093224594384103, -2.6322554460015318e-11, 0.0009182877217847867, -5.4369493308253785e-05, 1.0050313669472215e-05, -7.085185829733342e-05, 0.01788362990700882, -0.0025730296159097647, -6.929342425285934e-05, -0.01738048187584395, -0.010911427204861228, 0.0015567311881885958, 0.004447105037931492, 0.0008017477851487137, 0.00043259785919916966, 0.0019847300986956364, 0.0003726258633008898, 0.015325742469638278, 0.0005754303402734504, -0.0014634550527252825, 0.0030686191675708264, -0.02219954115484539, 0.00064143798584964, 0.030450067574415075, -0.00897016400576386, -0.00023224106810674163, -0.018191919552885502, -0.0005676747742836975, 0.0076959090037707475, 0.016414909845452658], [-0.0007528154105306293, -0.0030811053662233895, -0.0004921614615879026, -1.1211198868351248e-06, -0.00013024207112470528, -3.7156492630081816e-05, -0.00034723154105236685, 0.002167850672647506, 0.003688657488464052, 0.0002725301037765882, 0.0013730112702632518, -2.832810763731797e-17, -4.6789445472057294e-07, 8.053681511896477e-10, -4.7842412127902145e-05, -1.447774157827646e-07, 0.0017794949844285963, -0.0002068053139074378, -1.689532469807049e-05, -0.0020747804973682473, -0.012127922553601135, 0.01083640349101757, 0.00048579564056209433, -0.0002241698041318096, 0.0006056904434716902, -0.0005132523773945402, -0.00018880931383851736, 0.004500729058910517, 0.0003590586141081543, 4.8882097577640484e-05, 0.004267685681803731, -7.197102028274072e-05, 2.202801849108848e-06, -0.0014556823455910744, -0.0025842740630274384, -6.403005075733954e-07, 2.889837099921971e-06, -1.1077900452690017e-05, 0.0053683605065492895, 0.0017876373133947374], [-0.00030589066621645485, -0.007942060262140062, 0.000545484360026759, -3.1215235297829305e-07, -0.01917222527713604, -0.004399702663471738, -0.00023408653931185954, 0.0020994236471658973, 0.015100877578597325, -3.93993152678327e-10, 0.0014653472340969281, -6.006856886469041e-12, -9.72068268024631e-09, -1.7720389161534752e-06, -0.003797603820274034, -1.797370041767009e-07, -0.007613171305576709, -0.0003461118622276521, -5.605015815171831e-05, 3.8522347886155384e-05, -0.01904941035926786, 0.04449441553258304, 2.4001696787568924e-05, -0.00018870704385445122, 0.004583854197789136, 0.0073045451843414076, -0.0003876006906475346, 0.0015678130419318277, -0.0018335565569599006, 1.641989366620344e-05, 0.02934584827498412, -0.0013480693077468516, 3.476494129465886e-05, -0.004539233269540855, -0.004482405809007194, 0.0033305338259840152, -2.169621844482848e-05, -9.781646226761421e-07, 0.0015913032266418052, 0.004315519238943313], [3.7410644951239654e-05, -0.004309660765638269, -0.0019523214117435404, 1.498649919918824e-08, -0.01824518013713146, -0.002909613753428758, -5.043448624692666e-05, 0.017439914269941147, 0.017508191170382235, -1.1515299209728969e-09, 0.0011824606132874232, -2.1466294294756707e-11, -9.495815500021418e-10, -1.1441779755987215e-06, -0.007343206083344376, 1.881478464606337e-09, -0.01994541766911279, -6.656794532513977e-05, -7.201254807758889e-05, 0.00010769535430326253, -0.013200343931216458, 0.04407670978261237, 3.974436305673098e-05, -3.101955292116039e-05, 0.006293986947204951, 0.009383407081810777, -0.0062718410605386455, 0.0012326558241366238, -0.0008723154429771326, -7.290388472832622e-06, 0.018134932206876286, -0.004232528655265997, 7.776236439489076e-05, -0.0037668194216029537, -0.002376357004312241, 0.015362458476348761, -6.121222077453931e-05, -4.135937000437681e-05, 3.915753815380407e-06, 0.0016731932927714268], [0.0003399056215386887, 9.147747699765904e-05, -0.005673822764759489, 2.008472588813436e-10, -0.020771887098575807, -0.0007742451317162252, -1.3511919604222463e-06, 0.05423786970268338, 0.01046456507343283, -1.5594333341880694e-09, 0.00018489837215450824, -5.3172506614340055e-12, -4.122288300897365e-11, -1.2254752336517398e-10, -0.001341308012753058, 1.4035134907447434e-08, -0.02030650514215768, -4.5281794626494595e-06, -2.4707411041105e-05, 0.000571729645368067, -0.007121571591572945, 0.04467106781833555, 4.06367526630906e-06, -4.011506114953484e-06, 0.0007379653070574326, 0.010724986785925083, -0.021151633278973694, 0.003467015919799996, 0.00023747560599639563, -1.9284888996377425e-05, 0.0006122108528639309, -0.011653489237098495, 2.3117497047100753e-05, -0.0006034301126196268, -0.00018466828261045322, 0.03085787133576638, -6.065822997694495e-05, -0.00014325357698302704, -7.453105525038759e-06, -0.002697138542763482], [0.00020990331722669391, 1.963459842496082e-06, -0.005807450854721914, 5.208325259809701e-07, -0.0017345212532588767, -6.975162348563755e-05, -0.00020155448597363907, 0.004979464883100099, 0.004239783253715109, -1.1962373972055472e-10, 0.0003789281695998003, -3.0976916810368747e-18, -9.493966682475518e-10, -2.7485248724400628e-14, -3.0937975374375024e-07, -4.822129900230029e-06, -0.001476582410795893, -4.652100836593666e-06, -8.890021826051717e-09, 0.00047833013343695084, -0.0005632318544104686, 0.008935758357127935, -2.5505414555708563e-07, -1.025911962329644e-05, 4.231336268147976e-06, 0.0008498231174608379, -0.001737238661221378, 0.0018483937763470082, 8.703623985119075e-05, -0.0029755189130175825, 0.0016092587537201012, -0.0009877321933292906, -2.9892873676093915e-05, -5.6678598797591727e-05, -0.0026862431602914204, 0.002433294872894849, -4.9380982665590194e-05, -9.821964823341024e-05, 4.504137603618842e-06, -0.0007250769588790638], [-0.00022003501349681962, -4.323557134350687e-09, -0.0003795485048871416, 7.276873157051763e-07, -1.5102549245286431e-06, -1.8998921042668202e-11, -0.00028151789170739755, 6.209135744996984e-05, 0.00030774603962084384, -1.4136103250520291e-14, 0.00049966774844462, 1.0355930796660736e-17, -1.3255576250042573e-09, 1.0139249781533064e-17, -3.2430281582161993e-10, -6.760301273508454e-06, 7.702058386035603e-11, -3.7400760680857474e-07, -1.2420810550913291e-08, 3.08861584013332e-05, 1.0341194754846782e-07, 0.007392521158014595, -6.131726610563327e-16, -8.552767950237578e-06, 5.909860717780265e-06, 1.6411879032326873e-09, -1.3835751530412299e-07, 0.002383352573537134, 7.094365388544043e-06, -0.004156128455790039, 0.0015444682158387048, -2.679496633127421e-05, -4.705920109984722e-05, -7.538887614926398e-07, -0.0035354258912633717, 2.0977551200197958e-05, -3.955248212291663e-06, -0.00012064129304498769, 7.342539358065824e-06, -4.350308105777555e-05], [2.034059331400872e-18, 1.0877864047117023e-17, 2.2084741234152018e-17, 3.4281554728053177e-18, 6.331356735601374e-18, -6.979456146567308e-19, 1.4571472239077198e-17, 1.6762445882050148e-17, 1.8440626382225795e-18, 4.3048116028753585e-18, -1.4277177252390916e-17, 5.875047404353503e-18, 7.707131940479916e-18, -3.609196092792227e-18, 2.8646071728730694e-18, -1.1780432408674181e-17, -1.750039778724852e-17, 2.2019381171287597e-19, -2.4941996654855035e-18, -4.896199921327474e-18, 1.987727496897051e-18, -6.986915581446984e-18, 7.34680439075899e-18, -1.9335895686541898e-18, -2.497888663258242e-19, 1.7991611218901735e-18, 2.1044279105216198e-17, 3.2506406392866396e-19, -3.68012821989394e-18, -1.4734140190624766e-18, 7.207557941983402e-18, -1.1034034282693406e-18, -4.934485719415134e-18, -8.172912606797835e-18, -7.228633312146873e-18, -3.1873705236253567e-18, -2.2889308655512316e-17, -2.361695717696731e-19, 3.1506503444606493e-18, -1.0076270797859137e-17], [-1.44857509307627e-17, -2.5098604620842754e-18, 2.3103062411192654e-18, 8.23182426021733e-18, 1.931522460918113e-18, 4.191755563264678e-18, -4.564493520050662e-18, 3.57847943916702e-18, -2.61306969711451e-18, -7.52095065791102e-18, 1.3400830032992283e-17, -1.0661396920831594e-17, 4.519929066582789e-18, 4.8850341705249944e-18, 1.0906522355455461e-18, -5.539028736142265e-18, 1.1704620616468361e-17, 9.91560541001636e-18, 3.0832053001845744e-18, 7.098261213568103e-18, 1.424987257937631e-17, -7.429813138102295e-18, 1.866506004509702e-18, -1.6690623228554454e-17, -4.4370758130230514e-18, -8.344142277711599e-18, -2.07880679787045e-18, 5.04908468241706e-18, -3.643664001203488e-18, 9.336002174574597e-19, 6.354878468861541e-18, -1.4002576245297968e-17, 1.8544678520398583e-17, 1.3050330717722882e-17, -1.5116252157247674e-18, 6.03321286299888e-19, 3.9967183186106435e-19, 7.753808609893499e-18, 4.518450390571176e-19, -6.105590326741925e-18], [2.2213562685651525e-17, 5.791677425069188e-18, 1.0953263083507588e-18, -6.916649817618789e-19, -1.21679187153803e-17, -3.611555761331639e-18, -3.3350090467235976e-18, -2.5967330366431598e-18, 5.985763520189161e-18, 6.20990796699823e-18, 9.10076380553347e-18, 1.1601763209114636e-17, -1.0738362258460946e-17, -7.845154675223747e-18, 1.0701155643759157e-17, 5.631578101720324e-18, -8.197181147824586e-18, 4.854534142731805e-18, 4.472230976768683e-18, -1.08868857546703e-17, 5.552966420927344e-18, 1.0339494873487921e-17, 4.852938584201596e-18, -7.881712636779857e-18, 1.266856171775874e-17, -2.096796518874194e-18, -6.601193870313115e-19, 1.4222653477925356e-17, 2.7411274277335823e-18, -9.260164468220117e-18, 4.194049249829761e-18, 1.1939270582343002e-18, -3.6620798045250244e-18, -1.5734113281044905e-18, 5.1591233426889565e-18, -1.0799747273839272e-18, -5.618053264206359e-18, 6.6157487920499084e-18, -7.355304739670735e-18, 9.442288381153003e-19], [-3.812577541200425e-18, 1.488958575162734e-17, 7.97748590599659e-18, -1.2797879941295575e-17, -6.103946662040439e-18, -1.0239632555069522e-17, -8.776177060750865e-18, 6.309334629070836e-18, 1.2132182226416724e-20, -1.1423694277839802e-17, 6.43287342665307e-18, 2.3477169546546743e-17, -1.3054466999666146e-17, 2.62800334164612e-18, 2.348794688583262e-19, -8.302341703351467e-18, 2.0387683381946398e-17, -1.0877328094908082e-17, -2.3804259538147394e-18, -1.0926829530364237e-17, -5.488050446524929e-18, 2.0464855662047498e-17, -2.1327197352562734e-19, 4.848323843656285e-18, 1.3321389393276056e-17, -9.004887094294183e-18, -2.418525289411795e-18, 1.3935142734591734e-17, -2.7038596135921482e-18, -7.331455919385752e-18, -7.249205323404283e-18, -1.1426323386551846e-17, 9.99948239686374e-19, 3.576234428504909e-19, 4.091484670641856e-18, -4.584946357592539e-18, -9.085753442120436e-18, -5.266566636560055e-18, -1.1079731234380275e-17, 5.009770766559602e-19], [-1.688745713172951e-17, 3.6854945831265836e-18, -6.736748520510818e-18, -7.85779688000917e-18, 2.156403046842093e-17, 9.761444755445527e-18, 1.1098204495726882e-17, 2.70971549277395e-18, -1.6387772073219206e-17, -1.4775476534583273e-17, 1.148988609919042e-17, -1.3006938743529999e-17, -2.6571752336714453e-18, 6.796357782782226e-18, 4.231191081059292e-18, -9.53445030037215e-19, -3.3156299444097854e-18, -2.0675975388694076e-18, 1.4046037674887375e-17, 1.1746817270755041e-17, -2.084835102708469e-17, -4.5582465977229855e-18, 8.114084629946451e-18, -2.1903627399493105e-19, -9.065500258636853e-19, -1.7705783008092704e-18, -9.480867198782939e-18, -1.172294250199648e-17, -9.993119361358784e-18, 3.622786769032799e-19, 3.4626249994206376e-18, 9.12307083463118e-20, -4.750643549301546e-18, 4.599226831889148e-18, -2.6705593492056176e-18, 6.841890220660552e-18, 8.957109200119489e-18, 2.559403571328393e-18, -6.568107771752997e-19, 1.1446543297626903e-17], [4.994771079489049e-18, -1.6334844535256262e-17, 6.459979521044357e-18, -5.027962469380437e-19, 6.3946669251178326e-18, 1.3261337386207002e-17, 1.0098060723865842e-18, -9.785550314617569e-18, 2.688948102892819e-18, -2.7866794377868414e-18, 3.899887791629234e-18, -7.035078763293024e-18, -5.085633079828527e-18, 1.1407637959875056e-17, -9.311509607769421e-18, -6.5642637304952086e-18, 8.29482700841455e-19, 2.0386291533926107e-17, 1.3278173812944028e-18, 9.574650524579413e-18, -5.008680466412425e-18, 1.7280042266237828e-18, 4.5591550646696245e-18, 2.0772853354950818e-19, -6.215373301838567e-18, -9.546860027405765e-18, 1.2129088728333458e-17, 2.4450575970516383e-18, -1.3538726399641099e-17, 1.490991890763424e-17, -9.975578383282778e-18, 8.449017902002547e-19, -1.0413887872821024e-17, -1.0237631912021107e-17, 1.0081565207734794e-18, -9.52562738662557e-18, -2.0912358916214134e-18, -5.322076029144437e-18, 3.893096989235222e-18, -2.0796512136143284e-17], [-1.8407242671622968e-05, -1.328154159060776e-08, -3.84635042795135e-18, 8.56973607679043e-18, -1.0969871958007768e-09, 3.8841263536220805e-06, -2.1741396682609342e-10, 2.2961948104761197e-05, 3.416917772248253e-05, -1.431241237729241e-08, 1.1837711672949519e-08, -1.797707152072794e-18, -2.981097567246154e-17, 1.3894324419974187e-17, -5.939809130163185e-13, -3.5699132940860996e-13, 2.1533059048402534e-16, 6.365185151873832e-14, -9.792913676400743e-19, 4.769605303359326e-17, -2.333902920627429e-06, 1.778024908673393e-05, -1.987695496852789e-12, 1.5251281680930876e-06, 1.922671622782629e-05, 9.87363477761873e-13, -3.1598825561770156e-14, 9.153733976589026e-06, -5.837077647925597e-08, -9.32423263792606e-06, 8.511343041618519e-06, -4.302702630188087e-08, -3.0441913354612114e-08, -3.1469227280018e-05, 3.990577516681977e-06, 1.3413697231422876e-17, -7.329661295918223e-12, -6.486083448585698e-19, -1.4308712815722578e-07, -7.367994241464163e-07], [-0.00033041849717923503, -4.147166942053415e-05, -1.9327418017238263e-10, 2.1387930413230318e-07, -9.911386499668075e-08, -0.0002940274802380339, -0.0010800842680542659, -4.766808823820791e-16, -7.512246513539647e-10, -4.501596611719371e-15, 1.1604779561042301e-07, -1.1779590125664265e-17, -3.3936854131805233e-10, -2.8934219202697204e-14, 6.643487183719866e-13, -7.008034944574366e-13, 2.458284726545592e-16, -7.98046184077041e-09, -0.0015225656063146348, -7.220402773516917e-05, -0.0008553787586840582, 0.0023590967750080627, -7.372850879809563e-18, -0.0005470838697791993, 8.116315221474812e-18, 0.001193875749189536, -6.350235705528937e-16, 0.007587458471616494, -0.006848072075808088, -2.653296932751008e-06, 2.0289612155407466e-18, -0.0012001905832352679, -1.4869914445561026e-05, -2.796628616184009e-10, 3.707765253857396e-16, 8.396465179554486e-18, -0.006504134722660914, -5.149706499632414e-10, 2.5592544243193294e-06, 0.009852945001153425], [-0.00010749239206984376, -1.4957227409796188e-05, -1.1814410624226367e-06, 6.3815437162350554e-06, -3.424229913415827e-08, -0.00022194737297830396, -0.0003720977331971343, 0.0005934334629089206, 1.0750748477415777e-05, 1.1246843341151534e-06, 2.5799495013912888e-05, 6.409969023136486e-19, -4.8298965024536034e-06, -9.534652792927117e-15, -1.9951089062838518e-05, -2.642433332928207e-10, -9.049913569031274e-07, -3.758273149804565e-09, -0.0005812493606017346, -8.375767217503461e-06, -0.00036831663221357467, 0.0008307017754080595, -3.8003666318688206e-08, -0.00018940398490440688, 2.892605991238905e-06, 0.0004129548661743793, -0.00019087504399649416, 0.0026148749484526793, -0.002394079081787748, -4.546181209409763e-06, 0.0005710427095363435, -0.000412724767997991, 2.942736964268683e-06, -4.690501125484209e-05, -0.000393428651713804, 1.976545469038728e-05, -0.0022417896467220705, 2.43327835889214e-06, -1.753367413828181e-05, 0.003383501315866382], [-0.00015211145016281468, 8.222218854854051e-06, 3.6162598285056934e-07, 1.1422787070469339e-06, -3.8749234967285406e-05, -0.0001706701249562188, -5.6083778030734035e-05, 0.0013560115252072063, 1.2358489143126205e-05, 2.8207636461856572e-05, 0.00033189020573968613, -1.9505495692030496e-18, 4.0139184426287225e-06, -4.82685489795747e-15, -1.1403988690128124e-05, -5.931228238963866e-07, -3.714350327945465e-07, -3.0124089359998977e-10, -9.70880825574774e-05, 3.724754871449602e-06, -8.154076733005108e-05, 5.128029163044162e-05, 4.174681138291736e-06, -4.1017632816133384e-07, 9.9696768985327e-07, -1.1474399697560462e-06, -0.00028021042176209067, -2.223099565826889e-06, -6.003942645134337e-05, -7.6191948272978615e-06, 0.0013808739062627848, 4.343686633260349e-05, 2.758932076511887e-06, -1.1188752877117342e-05, -0.000704341473718606, 0.0002495348788129457, -0.00022596651395593803, -1.0469771717035618e-05, 6.293530098623739e-05, 5.428692996193298e-06], [-0.0027431787335629675, 0.00011069242898333895, 0.0012327030578103688, 1.64814355412597e-05, -0.00026480444899324335, -3.6423892845376266e-05, -0.0013024699143428856, 0.010270463765561242, 0.00011990932640450491, 0.0001851473948366509, 0.004545130379859232, -1.5714487854237172e-11, 0.00045369286912794914, -5.095028107158066e-06, -8.628031708512751e-06, -0.0014993009026976769, 3.374337733139039e-05, -5.5522449822721e-09, -0.0002895985493595013, 0.00026669283543248525, -0.000699354536062191, 0.0010807004603819665, 2.1856662085417174e-05, -0.0003103954726486087, 5.785931413430234e-05, -0.00038797735090553354, 0.0001609055651395803, -3.938084245390058e-05, -0.0003219827704341354, 0.00030953059307724945, 0.008213567366758713, 0.001420918563047815, 3.862644047729159e-05, -0.00012788167675477352, -0.001522256517084767, 0.002791957140565051, -0.00289896324577731, -0.0007605618416995512, 0.0011234446900919993, 0.0001448886906001403], [-0.004818790804401202, 0.0006324300094237222, 0.00728453590940272, 0.0002983042806579935, -0.0006471326842575535, -0.00013389037073010282, -0.0032986977948839266, 0.025932461530134045, 0.00015267718628888036, -0.0013420487321369435, 0.012418151409663998, 3.4761633289476475e-10, -0.000838031717716781, -1.6279227211592813e-05, -1.7906505588218922e-05, -0.008274542619837443, 0.00029359903878065324, -9.469988639470035e-07, -0.005851542094796055, 0.0026631755883778935, -0.004285554702618561, 0.0026727766564627175, 2.0749107745572207e-05, -0.005244584808963445, 1.996286293744147e-05, -0.0007630402162874659, -0.0002453738128582994, -0.0010294369696476346, -0.001478585938084994, 0.000781439156305054, 0.025675539147709366, 0.004957673898059594, 6.909110359305382e-05, -0.0006822501325633557, -0.0047530729796699915, 0.006076741834572814, -0.008457672368542161, -0.0019663383590300012, -9.894575841609361e-05, 0.011297113801278139], [-0.022978986652652036, 0.08243075943859308, 0.007714195027079163, 0.0002078062249270319, -0.008675651254690782, -0.0014087195186958962, -0.023315921809285975, 0.027015433872363163, 0.0013820928116702374, -0.008987823525740162, 0.04102003646657593, -5.557729602354868e-07, -0.0056764645416438175, -0.07097129388582869, -0.005994849914942302, -0.006657340198538352, 0.000257713203645322, -3.212597910100764e-05, -0.0050290923210250076, -0.03682732836983635, -0.024999972778972437, 0.015330884385683353, 0.05728914561067716, 0.048901338673551176, -0.017794983350977515, -0.012535976990625631, 0.01138515614582121, -0.0015835063476687045, -0.0015981058595606037, 0.07143759985207775, 0.025820881743368256, -0.0003229871414410927, 3.8133919923867526e-05, -0.0059634996325951635, -0.005359733081137097, 0.004480213848834843, -0.009468558595166404, -0.010779314123351409, -0.008728417155569343, -0.003072092507865168], [-0.04819906009490237, 0.19138350902162932, -1.2919423112602056e-05, -0.0021631282272996833, -0.005799049965929948, 0.0038867131484359996, -0.10574663167599814, 0.0007504813933267977, 0.002127692898439576, -0.011346391299011998, 0.03377551165703231, -0.0012848403846422165, 0.0015955071469848994, -0.10302519712382532, 0.013556654100047244, -0.006511391841254538, 0.003125663235454346, -7.856174689686034e-05, -0.008031637633368878, -0.0740991382206605, 0.0407893500711108, 0.05144249345086497, 0.11230270101689756, 0.11580916566415862, -0.026280997105577377, -0.024539990140247464, 0.06668475274852939, 0.005082363432303776, -0.0016391144712490896, 0.09614513470278908, -0.0054150343879915625, 0.00029806831673622847, -0.002657230853176457, -0.003098525213744078, -0.014415913876484247, 0.012098483674216483, -0.005867583495789301, -0.006236858798494375, -0.09351796874633889, 0.036459092403272754], [-0.0024503160498442434, 0.0646481388043887, 0.014752102420929362, -0.004790151439077676, -0.008739370107464527, 0.010676146369664649, -0.0462260041726289, -0.009010768767292199, -0.0016829747906847473, -0.003570389046278284, 0.02595130792772859, -0.00042668339498946526, -0.029105787489019576, -0.09989598836992696, 0.05379372415333183, -0.002306693069263369, 0.004423227674446466, 0.0002744258108534314, -0.007344407609609138, 0.020115084220529277, 0.0006274676906323947, 0.04509288109812276, 0.03336966443463987, 0.038466208132774175, -0.03709919229483718, -0.04774765231629764, 0.0924929439366773, 0.008913009256231001, -0.0016900796717444569, 0.09560239518294322, 0.034317384634292736, 0.003117002307322202, -0.02596321791797029, 0.0022529347607107794, 0.004252855187972406, 0.0419131459955293, -0.014014481247218293, 0.00024210115273094588, -0.038573379857288106, 0.05537418784393899], [0.08361408427574162, 0.025424241246733273, 0.017689912699834276, -0.007106249651500217, -0.019917610377214984, 0.0011631144432616986, -0.024853930616394758, 0.06059436616792858, -0.04446930284703782, 0.00398801893821679, 0.08763640070207249, 0.0002137483516677738, -0.032340646425441155, -0.05062129571073657, 0.04451701192264619, -0.0068509966162216464, 0.0013884853747417884, 0.000517325053437283, -0.006888922480755728, 0.027464426842972744, -0.010347875647335, 0.04758851755425374, -0.015944575636498398, 0.02018660006298823, -0.028731727151953265, -0.060092297267317324, -0.017785016961991015, 0.009036770256252486, 0.002586620493337338, 0.019737966243111058, 0.11537965794967524, 0.011747865108469984, -0.026903015922306425, 0.007604323129343535, -0.029223459897681273, 0.054197133772188134, -0.05048586061354169, -0.007890875733354757, -0.026179022203125867, 0.048912719328025864], [0.11048998877229463, 0.04978786649470685, -0.061861575847362904, -0.022789622409196193, -0.02815771823040465, -0.022414571678523926, -0.02014758443444469, 0.04532097185187668, -0.1627219824218469, 0.013554396414558596, 0.10646126366378082, 0.0006230363405342505, 0.0017563813392835832, -0.06031145279019921, 0.09908073102906749, -0.01414868299690204, -0.014136376003698601, -0.0013310086951769805, -0.010963549424454716, 0.04376546628114614, 0.015349969323025613, 0.1126285946012358, 0.03278997915428905, -0.0017948392247754351, -0.01578619885162086, -0.011989937660972293, -0.2875293254624964, 0.0343713797362063, -0.024860706265177755, -0.04814650990371898, 0.2593177918306563, 0.03298757186064311, 0.009468465008887582, 0.06438145867939622, -0.0704727770639693, 0.07015220108644962, -0.04322659130261891, -0.030166308998805055, 0.004463535748752434, 0.046503520503910135], [0.05970606254229079, 0.06582209505120293, -0.05299104026673826, -0.02218237253613843, -0.12054779213047001, -0.02301831995044721, -0.027063068307871155, -0.020304727442341287, -0.17884098537850424, -0.02826121628158353, 0.07566069088643612, 0.004480118938530458, -0.03731314654277379, 0.06774512290994521, 0.19062156167397626, -0.0190284324878691, -0.001423891697315632, -0.006625228194135004, -0.010757574402666486, 0.015213056090818414, 0.09886683756023093, 0.17799195478802946, 0.047468025145140716, -0.056723349439777686, 0.021275583895477835, -0.0822202635445696, -0.18952502352418468, 0.012371393095710781, -0.03125037915635631, -0.01245779752868347, 0.30771670015376823, 0.06105627472273875, 0.009209532799387191, 0.09609572060162952, -0.08356493086603692, -0.01451283169312277, -0.003139056794339685, -0.034894805545890854, -0.028529422650123315, -0.022870693945945826], [0.0017384083659239778, 0.03888043127286908, -0.021694608815842654, -0.007259217481934288, -0.1375472382933157, 0.0056463267355789685, -0.04900971911436635, 0.17464552882312118, -0.11803431224681911, -0.036165054650039434, 0.08646570207788305, 0.016164394028334955, -0.07165646097079653, -0.026965683751212322, 0.20894254019656022, -0.0248871968871785, 0.04609429435932715, 0.03392942529734808, -0.030409061594550396, -0.01836335183097198, 0.008438493501947801, 0.20279447401982373, -0.06832403780607428, -0.041315968194556504, 0.05254885365680157, -0.09147144839681684, -0.05996849440725018, -0.05079798030346919, -0.051856240966886305, -0.021455182726135683, 0.3585225285515307, 0.04157182815454984, 0.022350339379996344, 0.010702371895968905, -0.0582613841513434, -0.10046069974584892, -0.0004424813336894383, -0.047056716228091475, -0.00885525974768296, 0.014300450966365277], [-0.04141227026267582, -0.019153636923404993, -0.012621684759678838, 0.006198985066656913, -0.04650729932462283, 0.005515977920273542, -0.07881939074340336, 0.10441382922468806, 0.009948845282502977, 0.0003420510430855067, 0.16793162560453878, 0.02702887821746368, -0.08640402282209637, 0.022598058876041913, 0.1471269268858004, -0.0019632909734787415, 0.10751479805904036, 0.07928844874662533, -0.038263601794540684, 0.012159528475776067, -0.0666387502212308, 0.21375870412546494, -0.24126492847399691, -0.016254803401989516, 0.0802247379412984, 0.021435527592985133, -0.0031733684006088995, -0.1288165763513024, 0.04902324529755217, -0.024110211755923275, 0.24179028341728145, 0.08309888367890389, 0.003882370967684703, 0.09689518260942627, 0.026164621153937053, -0.10137326956134228, -0.0038671040824853815, -0.026030898306701182, 0.04301801135614882, -0.01803999545567497], [-0.0346077020677154, -0.0017662959921174149, -0.0611069803526943, 0.015398314107698152, -0.0612239810462677, -0.016396055832188818, -0.07402752591812103, 0.10063797014131022, 0.19576224899919842, 0.011211309905408001, 0.08103118899039341, 0.0016978678464100038, -0.10539720087203538, 0.05176852882441034, 0.020975369420781695, -0.011568517160575381, 0.1827769629839951, 0.007851041108231404, -0.057439877722355634, -0.018064312618734996, -0.16749452997027336, 0.1597818001478885, -0.1296381867515908, -0.047246712955214674, 0.026905662337928366, 0.1794661185258334, 0.11487647063907053, -0.020217212298345465, 0.025604144669091257, -0.01706215038074958, 0.2047145102247396, 0.0651889062733568, 0.005116349737016195, -0.031118307500627773, -0.07952686182081194, -0.12216280807755421, -0.009272929678186556, -0.0005137479939101504, 0.011899242614666286, 0.056206107620542775], [-0.03226036442154776, -0.04870037147983233, -0.030927050164823614, 0.007699135218015033, -0.03695825230164813, -0.04446091521910527, -0.007017672610454864, 0.2331629863906354, 0.3217035852911393, -0.010728423543687238, 0.09590506135229272, -0.04563762321635888, -0.10632823230258519, 0.04381153585430816, -0.047132928397263636, -0.01597835387702839, 0.07770371998458785, -0.027280448152438744, -0.06094372199436694, -4.3069065234716125e-05, -0.22906106446402075, 0.167875210267181, -0.014876601485869905, -0.03680769258691278, 0.024519328053474142, 0.18071467470892008, 0.07809255792473983, -0.040012892200458894, 0.018443693306043212, 0.06431763637305993, 0.20086544954470176, 0.04568980219928113, 0.05175201316364067, -0.16877005361159697, -0.20263109001552224, -0.03212808987757131, 0.00150505052343112, -0.015299610986542455, 0.004749621902622469, 0.05788384057274135], [-0.0013319490636163923, -0.09415948333879189, 0.04922324696990464, -0.0027360196250026643, -0.02822586370572951, -0.051653764570054723, 0.08515570029144062, 0.26176355545616653, 0.2412331623853939, -0.03940525596234189, 0.05539807021592001, -0.02740131432675019, -0.09340692258229885, -0.004145484183549694, -0.09822165263209788, 0.008538177979729111, 0.020295989750837174, -0.030201542444085697, -0.01756720766861319, -0.0018174737106998878, -0.21983941951771943, 0.10946859109152525, -0.017839491786109992, -0.028370225727876112, 0.044505052533374674, 0.15185628902755874, -0.0014430546978430497, 0.033458964442560385, 0.03210336368575751, -0.060010325808937656, 0.1803931599672921, 0.012058505430736444, 0.02820145223235865, -0.2163416554501466, -0.1690202261359854, -0.011149573576063403, -0.0009901495487507745, -0.04576858506899455, 0.03780099851701439, -0.05155747404638722], [0.0008450450058406543, -0.15360057277744013, -0.023118624319640756, -0.0017551833967962421, -0.012481541349528611, -0.06432624688964363, -0.007135421649543581, 0.23757349658165888, 0.16448885768859658, -0.007100717841316017, 0.03234522054002336, -0.00032090962076849577, -0.03567718768255457, -0.03206469439860132, -0.07693304943669053, 0.002084262446267442, -0.052315452581140884, -0.009570696768351091, -0.0016794330137343632, 0.0011432235315451222, -0.08204755682457893, 0.0933563196048752, 0.014093505504946216, -0.02874615234883911, 0.04241809758448859, 0.07306886315576235, -0.04636390054537847, -0.008183375607815846, 0.028639134072311268, -0.006909463282126425, 0.08624400307412365, 0.01824841656668231, 0.01004229906546837, -0.08162173498968034, -0.08725920062528368, 0.019269460750369703, -0.0005620296866932056, -0.0046557060803949744, -0.0054482975653506625, -0.19189679278744395], [-0.004600830785367019, -0.013837462810935652, -0.012420268262950297, -0.0025306867842318625, -0.007053625794620117, -0.009734030047419975, -0.00440626736009507, 0.14745499830496586, 0.07338758063598583, -0.002826083014478771, 0.011382506964929474, -0.0006974122278405761, -0.010869559874898502, -0.042519972062052276, -0.06742982212950815, 0.0009557387486049528, -0.046258475581520714, -0.0005118072432833852, 0.0013354882846508117, 0.003186759160563595, -0.037322694678495985, 0.07568082642948885, 0.008106505251168251, 0.0015627543927889617, 0.021156171508896246, 0.017163040886457065, -0.048160328096170685, -0.03812185326627282, 0.012544420112730532, -0.006902682147491368, 0.007794655144958535, 0.012303117472986722, -0.000640471899763705, -0.05695982608136438, -0.02000522254023121, 0.045571094577439845, 3.3262495272573246e-05, 0.0004305723520102193, -0.0017875502528039208, -0.06989774691804682], [-0.0014356345790570279, 0.010472558370042129, -0.0274141183931085, -0.0038548751411389935, -0.02061157484928097, -0.001522281658810637, -0.003810296253855287, 0.13150194382856387, 0.06482609082280173, -0.00240094290446634, 0.007870447988426576, -0.0005713558500909601, -0.01776277691970502, -0.014568629561650264, -0.06488090491907472, -4.1946851530134033e-07, -0.05522338136162102, -0.00021101030777157607, -0.00021192729042966593, 0.0030148340081587975, -0.02888785036365822, 0.11387805020161003, 0.004141485157480351, 0.0034388960527845062, 0.010848355363130759, 0.019580337851898583, -0.07343649703664965, -0.03738785873973474, 0.0022562315666929495, -0.011723059975003529, 0.0007639564803687163, -0.005951940336929747, 0.006569908240487361, -0.07398745026654024, -0.0230694165696514, 0.05704057946060835, 0.00012699809683302285, 0.00038155351789078817, 0.0008392738880320318, -0.028150939213696418], [-0.00037582258658806414, 0.00362343299434396, -0.022574463499296375, -0.0025585412237754263, -0.011589390985809214, -0.0018839992896623127, -0.0014791092520736353, 0.05133921671483766, 0.033786664926490136, -0.0010711129708745619, 0.0019387403579909015, -3.626975308928768e-05, -0.00930695891777321, -0.004864222673240022, -0.03707104858455694, -4.954557749805923e-06, -0.034006836596450304, -9.708309245364857e-05, 5.9407243776435035e-05, 0.0013699970835365542, -0.013524252330353327, 0.06685664018169964, 0.0023781843960814187, 0.00011731235589289197, 0.0030901482872405773, 0.01075677967896298, -0.02266673702737929, -0.012595864502336978, 0.0007910434168911084, -0.008560367309443817, 0.0019189138438213938, -0.0047082130093558236, 0.0044989273327299, -0.020376531354895394, -0.016349328785422477, 0.02523044390324151, 3.9607161426763824e-05, -1.5724347714374015e-05, 0.002000567022551897, -0.01097809792112731], [-0.0008626133092981272, 0.00297510673178999, -0.0027095289441454768, -0.00010874286132307601, -8.93721786103752e-06, -0.00034193202944428076, -0.0005058419266429351, 0.004565966025526423, 0.00760146385774745, -0.00023900395004731382, 0.0030741049822561586, 2.1930071555615952e-07, 0.0006640572562295231, -0.0014892679439472002, -0.00777319434270185, -5.246285047009234e-06, -0.005614386379508205, -2.221895484772477e-06, 0.00018735874829380321, -0.0004582091194374009, -0.00556962125174196, 0.02977733620322481, 0.0010421662712519055, -0.0009553804833977896, -9.448402634984026e-05, 0.0005528361405549635, -0.0012838636505025293, 0.0008735976488552432, 4.57696338984882e-05, -0.0035727179295135976, 0.0012715951022292276, 0.0014347612738445361, -0.0013119374578481888, -0.006970638136075526, -0.006032408946784083, 0.003917694410954132, 3.199547663809915e-05, -0.0006969321752395198, 0.0016891639203028075, -0.0013771061123828757], [-1.6054032139791505e-05, 0.004139125117558109, -1.6423242984105118e-07, 6.998503244312622e-08, -5.09272251909697e-11, 3.27507123165132e-05, -0.00044634463162898864, -0.0009055464413731858, 0.002697381185418215, -5.439805099779777e-05, 0.0030371041445302134, -1.5750399800646332e-13, 0.0053564317919278705, -4.983758847545724e-05, 0.0026404237008623922, -7.2666149808900975e-09, -0.00037635267858729827, 3.582599944232187e-09, -4.6823344896561576e-05, -0.008250995752671186, -0.0015634488754344377, 0.015600003984690637, -3.292102658615829e-05, -0.0002805148565639046, -0.011693502578441099, -0.005082543760866249, 0.02106657200637476, 1.9959025761194142e-05, -0.0007009577667798798, 3.850917336410962e-06, -0.001671856394584446, 0.004339604958966029, -0.0033738848598836614, -0.0013518556064570045, 0.012525136912431876, 0.0018158265834938648, -5.263454862832824e-06, -0.0006607128649084648, 0.0004948468980294687, -0.00021091610021902222], [3.985681143711693e-09, 0.0017499615118350955, 1.6533565483885112e-07, -3.2721139958859066e-09, 7.659012302618088e-13, 8.762179366343398e-06, -0.00024341007977137584, -0.0024249413541815343, 0.0004016204078695158, 2.0216019960348774e-05, 0.0004602884457324982, -9.445858397127744e-18, 0.003465389573223016, 1.5984269359905013e-10, 0.0022852998172084283, -1.1245722108707686e-14, 1.8436439994920214e-06, 4.079136784660559e-12, -2.352379639652812e-13, -0.005575489725419526, 0.0006013129884293896, 0.0005570731482693151, -2.1347995145665962e-08, 0.00024790180940026195, -0.007806130151881953, -0.0034111271280583637, 0.01480320521726847, 0.0001252276284201789, -0.00045354005170658774, -1.723428137418707e-06, -0.001336488151437997, 0.0024124507139695345, -0.002201505061902016, -2.7437648248317186e-05, 0.00872146726317899, 7.548971998043608e-06, -1.7868990538211874e-07, 4.99447759377816e-06, 0.0003011259102802622, -5.763442582718929e-05], [8.070063555275159e-18, -1.7553708143998818e-18, -4.8904112555840005e-18, -1.6862750239192269e-18, -4.265796667026172e-19, 4.3231355047602565e-18, -1.205402995107014e-17, -1.4287188538667218e-17, 2.324296027881422e-17, 3.4366586285150112e-18, 8.116302648978537e-18, -1.6133668899000088e-18, -7.972624337678356e-18, 2.5156630385250843e-17, -1.3073857334763936e-18, -5.70471474907718e-18, 2.8517610632138413e-18, -7.815231074728962e-18, 1.9268772918942264e-18, -6.551761834082382e-18, 3.2326346914244986e-18, -2.2114235927632282e-18, -1.6708711859247769e-18, -1.176571961289625e-17, -1.311295894714046e-17, -1.256692895791711e-17, -3.046803947019961e-18, -1.7349301046588336e-17, -1.1031694808233775e-17, -4.2023329195611876e-19, 5.412421761755994e-18, 9.376703034677982e-18, 1.7059985986487514e-18, -1.1040822162810174e-17, -6.525955138593944e-19, 6.900698920914885e-18, 3.766213206238746e-18, -5.630696349025989e-18, -5.5772738258440415e-18, -9.526767803686167e-18], [7.906159561353106e-18, 6.116640588843751e-18, 2.7520613346340595e-18, 6.235089298989715e-18, -3.3480116210690415e-18, 9.22829701276093e-18, -3.118919540512829e-18, -9.161261673744985e-18, 2.0792730919934484e-18, -1.975261291163852e-17, 6.649494160206321e-18, 1.8289075449767614e-18, 1.22353570763498e-17, -1.0716088012622926e-17, 4.924273488973573e-18, -2.6459959007078374e-18, -1.4810378026088537e-17, -2.9954913380131723e-18, 7.921635015156945e-18, 3.3391504970369917e-18, 4.495483647279979e-18, 3.575326481119086e-18, -8.835869047599524e-18, 3.496558976033518e-18, 1.558969563386488e-17, 4.6593659736161045e-18, -7.28240577132552e-18, -1.1851662704018517e-17, -6.802540495798545e-19, 7.133643655551471e-19, -1.3134771542967842e-17, -5.086109825997631e-18, 1.926832812471057e-17, 5.8094392081641075e-18, -9.948137183917109e-18, -2.7813370843895147e-18, 3.2014498031731675e-18, -5.201676629083326e-18, -1.4142938702088856e-18, -6.9018141701125275e-19], [-8.017132324302478e-18, 5.446804726301566e-18, 5.820001193471e-18, 2.4252098322295263e-18, 1.2190133726126533e-18, 6.372957883684815e-18, 1.3564578651023947e-17, -4.790911280296419e-19, 7.351826740492403e-18, -1.4146738398028105e-18, 3.069140660828704e-18, -1.0991709758221996e-17, 5.168846429356275e-18, -1.6185456335575255e-18, -1.1195468658329153e-17, -1.269828978944438e-17, -4.972239878646786e-18, 3.686595435506389e-18, 2.6518711546697248e-18, 9.426676651932317e-18, 6.451455369197806e-18, 3.0840625144508154e-18, 1.0618706811591793e-17, -7.279632511834103e-18, 3.4434725119032695e-18, -5.6476576234526344e-18, 2.8761645269694084e-19, -5.776472167907871e-18, 1.8956392386270866e-17, 3.3733899807807603e-18, 5.456589178489467e-18, -1.933218410709348e-18, 1.5734979284465973e-17, -7.7310310190823215e-19, 4.9219121530499076e-20, 2.5767431436965873e-18, 1.2863931084239632e-17, 6.740918133684434e-18, -7.58961174334341e-18, 1.3284522822748068e-17], [4.7307174321830344e-18, -4.451260831277558e-18, 2.1812173185270368e-20, -1.0568944512780064e-19, 7.915491565587331e-18, 1.423722488332036e-17, 3.813166020955272e-18, 8.367805991321872e-18, -1.1911112660328225e-17, -4.3152534178484914e-18, 2.2002840017007597e-18, -1.5518005111201252e-18, -1.1200711888453756e-17, -5.740306188501654e-19, -7.179527979211185e-18, 5.055455761657284e-18, 1.2062569882931405e-18, -3.5101722823088885e-18, -9.377228124707609e-19, -4.5313430837812e-18, -5.419197607658603e-18, -8.233161206779337e-18, -8.023544941274646e-18, -4.841483190868769e-19, 9.846178906501884e-18, -9.845578499370532e-18, -1.4694210810400455e-17, 3.48636396297434e-18, -8.846510302827027e-18, -2.2053480908322636e-18, 1.535212667557959e-18, 2.705765991324442e-18, 1.1823733652649473e-17, -6.975445776127198e-19, 5.913867814053807e-18, 7.649999851462445e-18, -1.429978886753943e-17, 8.495132761950883e-18, 5.258201467909228e-18, 3.598900262736771e-18], [-4.055345264066845e-05, 2.2434649311298795e-05, -1.1689315398888262e-08, 2.1610614865554897e-18, -4.462342332536188e-09, 8.557217568307618e-06, -4.789947147622088e-10, 5.005500544715269e-05, 7.527901385837062e-05, 7.6983763361934e-08, 5.9363481912111446e-08, -2.8436945057371012e-18, 3.940155543983519e-07, 1.0261392860370004e-17, -7.040801021553381e-07, -7.864910236244533e-13, 1.1725640281032044e-06, -1.0484620132545792e-10, -9.456921041909079e-19, 1.1597290192514428e-09, 5.102173498652003e-06, 4.0089479617189e-05, 1.4523508524879207e-05, 3.3600480583817477e-06, 3.018613962087859e-05, -1.0136283282445455e-09, -9.87393292091468e-08, 2.0200434928357065e-05, -1.284958513947014e-07, -2.053951212785402e-05, 1.8751552466730374e-05, -9.47931247214777e-08, 2.7489714431148895e-05, -7.121164966257464e-05, 8.791741340197002e-06, 1.0798807784766338e-18, -1.6148139804230537e-11, 2.3841010837875606e-17, -3.152473240697938e-07, 3.8830084398219634e-05], [-0.000959360942462572, -0.00010079866933135723, -5.598286725069009e-10, 6.195124668740696e-07, -2.872084198508803e-07, -0.0008512411873913306, -0.003129372285454781, 3.329488186111754e-05, 7.76961086162833e-06, -1.5654202192682774e-09, 3.856303033229589e-05, -2.4911019975129415e-18, -9.830303162891801e-10, -1.0204695153534142e-12, -5.782104279640891e-06, -2.7120434902926127e-08, -2.0279176781421926e-12, -2.3115439021632616e-08, -0.004418262083278443, -0.00020265768340040795, -0.0025246437906387797, 0.006966949016327781, 1.8172273021527082e-11, -0.0015450950342829166, 2.1029220864077812e-06, 0.0034689889423481514, -2.1698634391785226e-13, 0.02210734817608036, -0.01986742991344501, -1.4266028595918507e-05, 0.00023193869432228546, -0.0034831807969048036, -4.3074766665088336e-05, -5.4545972846438404e-05, -1.0500100669353748e-07, 5.630453171507432e-11, -0.018834656337150205, -1.054226345796902e-09, 7.976532420869587e-06, 0.028536693889738538], [0.00011206502641051697, 0.00021339351038421854, -2.6085153952436088e-05, 0.0009631877776611643, -3.6304329416586616e-05, -0.000683436418373152, -0.0010427921850848733, 0.0003803357835665819, 0.0001975637674229458, 2.7270381579499207e-05, 0.0004574785240827389, 1.6176812282882657e-06, -2.6246800068098543e-05, -0.001845830281724862, -2.174702903217663e-05, 5.341751849379043e-08, 7.1698748509533345e-06, -8.39006959640022e-09, -0.0015455329854348143, -7.419152831117769e-05, -0.001148945965853294, 0.004378591278372092, 3.324075944864423e-06, -0.0009036620767973367, 8.425575162976488e-05, 0.0011759712242587056, -0.00012805141298011482, 0.0072686207452887786, -0.006634102007629624, -0.00027001074378704655, 0.0006473080372391941, -0.0014416547942904554, 0.0004083114144705269, -0.0030554385756320344, -0.0005229705235024405, 0.0010184943892270024, -0.006050832616589803, 0.0001623216243297579, -1.0504278658684592e-05, 0.009633268763885986], [0.03227321197082277, -0.016975774290942772, 0.003315979183651597, -0.006877074090742814, 0.0005502376439345615, -0.0019254935088460863, -0.00601205435323587, 0.0016712591497805305, -0.000699949591621245, -0.004102293147637659, 0.002494911694471248, 5.461422136631226e-05, -0.0012296337214742013, -0.00014275550471737634, -0.002690704196808451, 0.0007750813737916821, 0.00029441491959251645, -6.124125437482687e-08, 0.007982143931269906, -2.781031145338974e-05, -0.014383072259689144, 0.008749994868619234, -0.0030921297634035868, 0.0003656606518760066, 0.009896150653225156, 0.00012378986019137138, -0.0001152473145709566, -0.005065238004519434, -0.00023659852549646286, 0.005773606665372078, 0.003204644757478401, -0.0034420005717831215, 0.00701379019669532, 0.012443744608368421, -0.0012526117750172683, 0.00010023845700750238, -0.008228063562311417, -1.2182510950667689e-05, -0.0009119874713531316, -0.0031204301182434775], [0.026655440704941802, -0.00915090323369705, 0.0024507578536655133, -0.005242861316997268, -0.20686413442869644, -0.0028683592319475376, -0.00834960176832789, 0.006919854357511382, 0.0018698367923171112, -0.008292982464184272, 0.007057224146243779, -0.0002170840197653543, -0.00576079824586789, 0.008601469464327681, -0.005920579135852043, -0.0016206333328305427, 0.0001874763200240782, -1.6735221576371066e-05, -0.01571504123305784, 0.0002388390876231504, -0.028075940462647848, 0.18520372140010471, 0.0013957032340320594, 0.004594479175665368, 0.02111785245447248, -0.0023066259277180062, 0.006729134943863641, -0.009358830218183402, 0.007529199155484165, 0.02806215376553377, 0.06884089240010137, -0.003287968879748114, 0.03530415088966613, 0.0029648332687770423, -0.004588962603791711, 0.009747780701681023, -0.035513127744705185, -0.00268643863135915, 0.0003299666359958152, 0.015108581560524354], [0.011016821309837577, 0.02120568104917591, 0.00894466132583009, -0.011555272782682912, -0.1549906736455569, 0.030775243282327964, 0.008732651759516574, 0.002797884298772038, -0.004850519276535319, -0.018274792905312764, 0.022645759990142074, -0.02139430968366165, -0.02253552269798015, 0.11871815880706706, -0.007175368499638917, -0.012569899254769748, -0.0008428596377997743, -0.0006388959740773618, -0.014790212259414333, 0.0239158032325636, -0.03417183855180724, 0.2575245255918787, -0.002458269262240518, 0.03244014380588783, 0.0582910777254979, -0.028017453884047614, 0.01928468591349147, -0.014336294062299481, 0.0020440265998696405, 0.021580406181081157, 0.07439262462108641, 0.0018167740325818443, 0.03729084489580153, -0.012910589593422277, 0.01205917410487702, 0.034505261110895837, -0.03496560506360876, -0.007617295531508993, 0.047479036597213184, -0.010597151831730142], [-0.07706985518550896, 0.16654702425654375, 0.015615028695845258, -0.02544760090552032, -0.07012666518007678, 0.06172398692815217, -0.04643411353631382, -0.035341754710837635, -0.07094265858770114, -0.006708521685573141, 0.0708667561656166, -0.04924131023534207, -0.02182299786756574, 0.0940518474113123, 0.04006966177982849, -0.040858648760925154, 0.01566832972983176, -0.007522396897130679, -0.02032748178803195, 0.011017280672623387, -0.09669723287130141, 0.37547022425333476, 0.07129785946142428, 0.10968854521929458, 0.04748137235803257, -0.08555017629695728, 0.1465687898540385, 0.024745562066078825, -0.016288513810293916, 0.04966302766361624, 0.0005373302569363222, 0.007666350609263748, 0.013696265513252544, -0.0024836402957565955, 0.03053635367095933, 0.1023929631025015, -0.010868376920552794, -0.017231283600372082, 0.019558220165717972, -0.026857566370760463], [-0.054673165703338064, 0.3039766874700519, 0.021601435002560072, -0.044548715270016095, -0.12754462675766656, 0.07958564064050541, -0.14409371320378161, -0.11295151525407436, -0.07305944305166745, -0.0035168298191792587, 0.10470467692443014, -0.12933173111973184, 0.01795152992487363, 0.04111714056699112, 0.16658394393308237, -0.08853666950964627, -0.0073080923073817385, -0.01193751355742468, -0.045867470018357996, -0.04855858370277121, -0.09270097156350124, 0.35924204128933196, 0.3308037073285533, 0.05189007182793953, -0.1199401454377103, -0.12188097346421473, 0.2629018420729557, 0.06938654376849161, 0.002116804982685478, 0.07496955830602442, 0.10060163688528632, -0.011913250984226647, -0.0680897564367266, 0.03250387922564277, -0.016093017483092102, 0.171233977258288, -0.010619000750388638, -0.01589518409398287, -0.126845206814195, 0.14350466916862814], [0.034535722552328334, 0.40218871781150417, -0.010538420352864317, -0.047016265852515136, -0.060524997631973304, 0.04051971836832082, -0.053415537954394486, -0.15179687296346028, -0.26583768459439444, 0.013614368595944178, 0.08477909332592902, -0.13171197621200514, -0.055070857890990775, 0.09142672248257887, 0.35093950638959265, -0.1129721998689591, -0.015232342858620499, -0.007575402295639338, -0.0699886014286289, -0.046031704132482525, -0.09456986014385002, 0.007392502199082099, 0.28538232116335416, -0.043726799977556685, -0.1352296123792848, -0.17191751171674752, 0.22062318887351298, 0.20968007258389118, 0.006497030701006692, 0.08625290228826991, 0.3547527245850427, -0.1025324612544039, -0.14415343154922056, 0.05106450300540176, 0.010630283997756437, 0.11955175994730197, -0.034783727863377335, -0.0069668336707204, -0.10154501382280806, 0.2887793808746628], [0.2173312164037388, 0.9167338528068403, -0.05174443739705888, -0.09057572870394472, -0.056722788465851104, 0.08285386270999413, -0.08134462438972702, -0.06288068357305977, -0.2997569530729602, 0.12380978906007185, 0.19877620546318664, -0.20267161297127437, -0.18479625501966482, 0.061912404041671656, 0.4117353668687203, -0.10614226735388992, 0.08891188931613735, -0.016956560839764698, 0.02739655198958429, 0.027076482112267226, 0.02996657421846772, -0.044299269942219034, 0.3808918150829537, 0.04097865408280621, -0.10861074238564623, -0.35107061876623585, 0.04103916363018607, 0.2842061696810399, -0.03838504589073192, 0.21925858454134092, 0.22189559103470943, -0.08316282439211009, -0.049606359831287826, 0.24615060334411076, 0.19309218700821953, 0.04911711086888239, -0.09974016492668014, -0.009691321918213818, 0.027323696571886536, 0.315996378478043], [0.2771372069669958, 0.5713425456129565, -0.04168520028502814, -0.10175007946245908, -0.11468928846191073, -0.06449027193395032, -0.19047992951219214, -0.2017933526584658, -0.5808552470531146, 0.08037645512112428, 0.2808130947413236, -0.0028384185840604945, -0.2576738789087729, 0.2634904266799399, 1.072810041060951, -0.09308637739290833, 0.1486381300252239, -0.015624319527328949, 0.048390732692745596, 0.1292378687337349, 0.11061579169302126, 0.35042415656120096, 0.20076886500309432, -0.07731479024387386, -0.04905085001185782, -0.1763473419701889, -0.08297430751790953, 0.08410397786239329, -0.07172318744472543, 0.18689817696064048, 0.19938614668209714, 0.08510007013013737, -0.09200616354478676, 0.8086558113710048, 0.20828648393094001, -0.02403197906195709, -0.03064386219702783, -0.04562316081578327, 0.16974875753415658, 0.18079227456657906], [0.20393981049876816, 0.32687391801166144, 0.02249255727986046, -0.09509772187147286, -0.20557545631780588, -0.06266298427931082, -0.19888942537563042, 0.07903172023883634, -0.758562802132788, 0.06116062601641745, 0.2565644358895402, 0.34778604454637124, -0.42067444314509805, 0.29498306847655875, 0.4178790678917897, -0.07018781991025759, 0.16550540098537425, -0.04007046585680701, -0.11219042598195061, 0.03745182518218285, 0.18116626213944184, 0.47067979917228225, -0.18823761986790977, -0.16592620123465687, 0.029023435619361677, -0.1419936633263266, -0.16545311584872235, -0.03705545847080322, -0.04493986668443611, -0.07250503621823275, 0.3388189800639222, 0.11372567396009749, -0.09927458924064653, 1.1847133623568327, -0.16017561865483915, -0.1845120700849033, -0.006764244015662438, -0.12606078103099375, 0.10729591814583679, 0.16956593471040615], [0.09352093116054508, 0.4951392988562786, -0.04048681341945929, -0.009151209189296447, -0.14950322926187185, -0.03790322401942379, -0.1316967902368622, 0.4347545788274383, -0.27150132476241323, 0.16675581081669227, 0.32854317929315907, 0.5675388275658577, -0.2864004811988739, 0.38056594045492936, 0.18275118429707435, -0.054520705992991206, 0.23898971941519062, -0.12757238700749227, -0.14940098041893904, -0.07839002803247626, 0.44972437591362313, 0.23395327371180813, -0.1925674671840205, -0.1874741684996143, -0.005034645514561642, -0.20167716589679865, -0.18661183697132677, -0.027763765924511453, 0.01658098391050661, -0.23277504908147933, 0.413784693389633, 0.057353750335767895, 0.05168553804458753, 0.9744220673850715, -0.3814584656832349, -5.428901372159806, -0.022881391980139974, -0.12181980108452808, -0.028118347930774015, 0.14034288933421185], [-0.050210401348583525, 0.2973674759932527, 0.09568391994249256, 0.06737632723726077, 0.08186878171403861, 0.029721217989400764, -0.06954241507083626, 0.16297245287389509, -0.215695834537207, 0.2044514406365559, 0.38494303064734947, 0.5562732022208424, -0.20061897349398264, 0.5679776687883221, 0.09652168696051468, -0.16073551109074236, 0.4197617104965607, -0.02145432200206624, -0.15544258965617444, -0.15202986257438397, 0.2793800659049655, 0.0614637925867902, -0.2636662020700669, -0.009393737508188761, -0.02808871186600701, -0.21134212760665375, 0.037671884402133086, -0.08039883282492309, 0.17956109180977092, -0.20678851772547013, 0.12192100148065238, 0.06680854272453583, 0.018644379324414772, 0.3642108700998363, -0.223963637180612, -0.32599289584218427, -0.03376848707640445, -0.00810470818767061, 0.0757448961039675, 0.2020618094292986], [0.04311655529851577, 0.09266638374088843, 0.3075938777186434, 0.08200770936514284, 0.14761809413217053, 0.3548444334879824, -0.1195031683191782, -0.0917834712574682, -0.3811192151451995, 0.07256838923030542, 0.4784639802791012, 0.39171641679689645, -0.1520458912591911, 0.17551270691048462, 0.18264786949884726, -0.14789491229423007, 0.4152532522727941, -0.006915995178324737, -0.07341937141645104, -0.22769782693680865, 0.09068360551775184, 0.3642256248883268, -0.1929731268478303, 0.10151957479324199, -0.017883766312169015, -0.1270552159988089, 0.19789409983826375, -0.055861989208751794, 0.12218328333630764, -0.21140705710525742, 0.19820848155182821, -0.02322104132717138, 0.04363762177203801, 0.5053005274958147, -0.06717278842674836, -0.25902868208532387, -0.028181052136660997, -0.00653659071503429, 0.13377746090909523, 0.0834878546649934], [0.04970069368914058, -0.1384991270604362, 0.1766448153292062, 0.06575193442600598, 0.24846539927942235, 0.408806390776549, -0.13320990429822202, 0.14081157057772115, -0.2346131035758268, 0.021305508195028515, 0.47228529554237236, 0.05791185964398183, -0.36325433710643606, 0.15157171657195484, 0.17240163960395422, -0.05982578986948545, 0.2838905270597202, -0.06302075064748996, -0.0020634702298392015, -0.22795550978474652, 0.09693116366830505, 0.07678756914687333, -0.16152082538857218, 0.06195418493624999, -0.029056318411267094, 0.10669586511388286, 0.12467050241726373, 0.11792728210587493, 0.002152002715169168, -0.3139834545874174, 0.3479763799521796, -0.04197609712514367, -0.19741988829981316, 0.5500188436518703, -0.12804694069332076, -0.09890411731248464, -0.026597231548665144, 0.02995846483561486, 0.09904229060422244, -0.04811894733002705], [-0.010713790588357808, -0.11404067496644396, 0.3127454179376173, 0.04593549944560724, 0.44790329654959365, 0.3143803010712764, 0.051304785288724154, 0.5147662258066417, 0.2910021643229929, -0.023216518614492653, 0.1335668095104465, 0.04185323627225876, -0.3706333452470886, 0.05856441026708986, -0.08647484329354213, -0.012029785628762807, 0.04617659034373935, -0.1956410252153244, 0.05879903062740835, -0.1365587179965473, -0.045787160842692916, 0.18373732137264615, -0.20088446727232356, 0.16552039283566156, -0.04158403099799194, 0.31975312385073706, 0.017857572198203445, 0.1400105622488947, -0.04757562165192997, -0.22981900786542594, 0.4592460888571514, 0.05129437372189868, -0.08437328032008926, 0.3905089077622183, -0.3583783568447605, 0.016570626058594787, -0.006718832937990745, 0.007875705582297653, 0.16450045098818986, -0.2136676111319264], [-0.04432666975221337, -0.21283864760540364, 0.16492088965622295, 0.07480435118421169, 0.11039370502986541, 0.08558211816405217, 0.01653522932386109, 0.8053983546721248, 0.5080173782149937, 0.017346313732718773, 0.10248981094584786, 0.0024413647283346666, -0.13635990115685329, 0.033786767540997686, -0.0799937964427788, 0.026937812335697052, -0.14232113577653574, -0.04738116552427114, 0.031529882837945694, -0.029653482915686098, -0.09591982994291846, 0.3798104317796226, -0.23463127574484008, 0.0790301418959323, -0.012953018571981242, 0.07424264372432775, -0.00976378765941945, 0.09023451683342698, -0.002305568311492068, -0.17857992018152644, 0.4557728777580272, 0.06990633338418736, 0.024577427368787614, 0.23327779557209058, -0.20600423323116443, 0.10898868720226583, -0.001154150990004886, -0.01192717803197539, 0.1253443551739411, -0.31168819432793793], [-0.03009804450416842, -0.2309151707542577, -0.06665160741854609, 0.019538852317006375, -0.014589583309245115, 0.09616506459091402, -0.023512978266690368, 0.452492385198427, 0.19367798538208642, -0.051617521390476845, 0.06197418476632757, -0.03035529759381652, -0.15401791981290378, 0.1635408167401594, -0.0560451987656675, -0.0024768687208335926, -0.08540381897676923, -0.01951330214521753, 0.03163375145642639, 0.007124838990995663, -0.05100916704812467, 0.17377691193876418, -0.11453476490479005, 0.03200656201608388, 0.010700379421880925, -0.013402502184575818, -0.08031004074083155, -0.017567280192607775, -0.03759075766520768, -0.18542538907788256, 0.002353903587912884, 0.09073472647101519, 0.12430488838787279, 0.07437120925532023, -0.047899741232442096, 0.07131955384137205, 0.008221479783914961, 0.018127336692507014, 0.018274505820814007, -0.062309089923151206], [-0.007777501378606245, 0.057261687704547856, -0.10546079339259927, -0.037805938727237115, -0.022424795070312874, 0.028998077217085156, -0.031320909389884015, 0.29064465069897766, 0.2680253742014408, -0.16738041000311288, -0.05068801540096394, -0.1080109470529313, -0.101055656370954, 0.07861133112528566, -0.08812120939252928, -0.06885458987784042, -0.1627181416218655, -0.022838131156751987, 0.006808849758035628, 0.0707773765931558, -0.04851769233641461, 0.14100787054048486, 0.09533360598700441, -0.02975207519247057, -0.11518848290596657, -0.043489330600098665, -0.08746964980139509, -0.051519050505068865, -0.019817662775293586, -0.12916114395464431, -0.10553946425542508, 0.0927443589459454, 0.24534774457849365, -0.31159030232406015, -0.019058976431103856, 0.02963015724897163, 0.0030692603955139062, -0.03132981565440424, 0.027522822998572775, 0.014359800749939674], [-0.0011502289354755261, 0.1365441238970449, -0.04635056858637576, -0.03890214518381627, -0.006575264505954338, 